{"learner":{"attributes":{},"feature_names":[],"feature_types":[],"gradient_booster":{"model":{"gbtree_model_param":{"num_parallel_tree":"1","num_trees":"20"},"iteration_indptr":[0,1,2,3,4,5,6,7,8,9,10,11,12,13,14,15,16,17,18,19,20],"tree_info":[0,0,0,0,0,0,0,0,0,0,0,0,0,0,0,0,0,0,0,0],"trees":[{"base_weights":[-3.787423E-6,-6.063954E-1,6.968938E-1,8.851895E-1,-8.856566E-1,1.3021574E0,1.1741072E-1,2.2555113E-1,-9.462356E-2,-2.4842167E-1,-7.39875E-3,2.858266E-1,-3.0481428E-2,1.9461583E-1,-1.2045934E-1],"categories":[],"categories_nodes":[],"categories_segments":[],"categories_sizes":[],"default_left":[0,0,0,0,0,0,0,0,0,0,0,0,0,0,0],"id":0,"left_children":[1,3,5,7,9,11,13,-1,-1,-1,-1,-1,-1,-1,-1],"loss_changes":[1.0645918E2,5.689492E1,4.095818E1,7.697521E0,3.442881E1,1.07881775E1,3.81398E1,0E0,0E0,0E0,0E0,0E0,0E0,0E0,0E0],"parents":[2147483647,0,0,1,1,2,2,3,3,4,4,5,5,6,6],"right_children":[2,4,6,8,10,12,14,-1,-1,-1,-1,-1,-1,-1,-1],"split_conditions":[8.431955E-2,-9.653994E-1,-1.15076736E-1,1.1121477E0,3.4618893E-1,1.3703418E0,-2.4552819E-1,2.2555113E-1,-9.462356E-2,-2.4842167E-1,-7.39875E-3,2.858266E-1,-3.0481428E-2,1.9461583E-1,-1.2045934E-1],"split_indices":[6,0,5,5,8,0,10,0,0,0,0,0,0,0,0],"split_type":[0,0,0,0,0,0,0,0,0,0,0,0,0,0,0],"sum_hessian":[2.49919E2,1.3370667E2,1.1621234E2,2.0743279E1,1.12963394E2,5.6231777E1,5.9980564E1,1.774425E1,2.9990282E0,7.922433E1,3.3739067E1,5.1733234E1,4.4985423E0,2.7241173E1,3.273939E1],"tree_param":{"num_deleted":"0","num_feature":"12","num_nodes":"15","size_leaf_vector":"1"}},{"base_weights":[5.190211E-4,-4.5085368E-1,6.434883E-1,1.3343479E-1,-1.015321E0,1.0305187E0,-4.5635086E-3,-1.2286996E-1,1.3198467E-1,-2.2757795E-1,2.5729188E-1,-3.4694843E-2,2.5854906E-1,-8.326571E-2,2.2185318E-1],"categories":[],"categories_nodes":[],"categories_segments":[],"categories_sizes":[],"default_left":[0,0,0,0,0,0,0,0,0,0,0,0,0,0,0],"id":1,"left_children":[1,3,5,7,9,11,13,-1,-1,-1,-1,-1,-1,-1,-1],"loss_changes":[7.228094E1,4.8397293E1,2.5769932E1,2.9061703E1,2.2494728E1,2.0531189E1,1.8534845E1,0E0,0E0,0E0,0E0,0E0,0E0,0E0,0E0],"parents":[2147483647,0,0,1,1,2,2,3,3,4,4,5,5,6,6],"right_children":[2,4,6,8,10,12,14,-1,-1,-1,-1,-1,-1,-1,-1],"split_conditions":[2.3666084E-1,-8.826368E-2,3.039438E-1,-2.1063888E-1,1.6543659E0,-8.9592E-1,4.623376E-1,-1.2286996E-1,1.3198467E-1,-2.2757795E-1,2.5729188E-1,-3.4694843E-2,2.5854906E-1,-8.326571E-2,2.2185318E-1],"split_indices":[6,5,0,4,8,4,8,0,0,0,0,0,0,0,0],"split_type":[0,0,0,0,0,0,0,0,0,0,0,0,0,0,0],"sum_hessian":[2.4705708E2,1.4533138E2,1.017257E2,7.17871E1,7.354427E1,6.3319664E1,3.8406033E1,2.9591164E1,4.219594E1,7.030615E1,3.2381206E0,1.138496E1,5.1934704E1,2.8497267E1,9.908768E0],"tree_param":{"num_deleted":"0","num_feature":"12","num_nodes":"15","size_leaf_vector":"1"}},{"base_weights":[1.8985013E-3,-5.866741E-1,3.8597676E-1,1.209226E-1,-1.0720294E0,5.9277985E-2,1.2353576E0,2.1437483E-1,-4.5343082E-2,-3.7354548E-2,-2.577509E-1,1.3407373E-1,-9.545436E-2,2.7390587E-1,-3.466257E-2],"categories":[],"categories_nodes":[],"categories_segments":[],"categories_sizes":[],"default_left":[0,0,0,0,0,0,0,0,0,0,0,0,0,0,0],"id":2,"left_children":[1,3,5,7,9,11,13,-1,-1,-1,-1,-1,-1,-1,-1],"loss_changes":[5.5324425E1,3.3319935E1,4.1021057E1,1.3538434E1,1.0776573E1,3.573251E1,8.003048E0,0E0,0E0,0E0,0E0,0E0,0E0,0E0,0E0],"parents":[2147483647,0,0,1,1,2,2,3,3,4,4,5,5,6,6],"right_children":[2,4,6,8,10,12,14,-1,-1,-1,-1,-1,-1,-1,-1],"split_conditions":[-2.7190366E-1,-2.2367316E-1,6.93036E-1,-6.7015094E-1,-7.901186E-1,-1.5577972E-1,1.4432049E0,2.1437483E-1,-4.5343082E-2,-3.7354548E-2,-2.577509E-1,1.3407373E-1,-9.545436E-2,2.7390587E-1,-3.466257E-2],"split_indices":[2,10,6,0,0,5,0,0,0,0,0,0,0,0,0],"split_type":[0,0,0,0,0,0,0,0,0,0,0,0,0,0,0],"sum_hessian":[2.4273392E2,9.564195E1,1.4709196E2,3.9217636E1,5.6424313E1,1.07004456E2,4.008751E1,9.94102E0,2.9276617E1,1.1463046E1,4.496127E1,4.9910572E1,5.709388E1,3.662671E1,3.4607978E0],"tree_param":{"num_deleted":"0","num_feature":"12","num_nodes":"15","size_leaf_vector":"1"}},{"base_weights":[2.3970343E-3,-4.088571E-1,4.92897E-1,-7.855793E-1,2.0153873E-1,-2.6052263E-1,8.169341E-1,1.7108863E-2,-2.3278609E-1,-1.389709E-1,1.1773026E-1,9.31251E-2,-1.5074137E-1,2.1385531E-1,-9.423103E-3],"categories":[],"categories_nodes":[],"categories_segments":[],"categories_sizes":[],"default_left":[0,0,0,0,0,0,0,0,0,0,0,0,0,0,0],"id":3,"left_children":[1,3,5,7,9,11,13,-1,-1,-1,-1,-1,-1,-1,-1],"loss_changes":[4.838616E1,3.0161428E1,2.6919327E1,2.6758846E1,1.7964294E1,1.2404356E1,1.678138E1,0E0,0E0,0E0,0E0,0E0,0E0,0E0,0E0],"parents":[2147483647,0,0,1,1,2,2,3,3,4,4,5,5,6,6],"right_children":[2,4,6,8,10,12,14,-1,-1,-1,-1,-1,-1,-1,-1],"split_conditions":[3.636941E-2,3.5108745E-1,-4.8137888E-1,-6.424469E-1,-6.867341E-1,-2.7333963E-1,8.5096383E-1,1.7108863E-2,-2.3278609E-1,-1.389709E-1,1.1773026E-1,9.31251E-2,-1.5074137E-1,2.1385531E-1,-9.423103E-3],"split_indices":[8,4,2,10,6,10,0,0,0,0,0,0,0,0,0],"split_type":[0,0,0,0,0,0,0,0,0,0,0,0,0,0,0],"sum_hessian":[2.3786877E2,1.2947684E2,1.0839194E2,7.9886024E1,4.9590813E1,3.2657017E1,7.573492E1,2.4424482E1,5.546154E1,1.47171E1,3.487371E1,1.3231407E1,1.942561E1,5.843243E1,1.7302488E1],"tree_param":{"num_deleted":"0","num_feature":"12","num_nodes":"15","size_leaf_vector":"1"}},{"base_weights":[1.1528616E-3,-5.406527E-1,3.3320117E-1,-9.1761345E-1,6.892877E-2,8.2458353E-1,-1.668376E-1,3.2290787E-2,-2.2331642E-1,8.788221E-2,-1.6675793E-1,2.377057E-1,8.349674E-2,-1.2775119E-1,7.16876E-2],"categories":[],"categories_nodes":[],"categories_segments":[],"categories_sizes":[],"default_left":[0,0,0,0,0,0,0,0,0,0,0,0,0,0,0],"id":4,"left_children":[1,3,5,7,9,11,13,-1,-1,-1,-1,-1,-1,-1,-1],"loss_changes":[4.2290977E1,2.0588917E1,3.594924E1,1.2045284E1,1.2092281E1,1.0420132E1,1.8341877E1,0E0,0E0,0E0,0E0,0E0,0E0,0E0,0E0],"parents":[2147483647,0,0,1,1,2,2,3,3,4,4,5,5,6,6],"right_children":[2,4,6,8,10,12,14,-1,-1,-1,-1,-1,-1,-1,-1],"split_conditions":[-3.1134006E-1,4.157778E-1,-8.3289385E-2,-9.7120595E-1,5.530722E-1,2.8422242E-2,1.927161E-2,3.2290787E-2,-2.2331642E-1,8.788221E-2,-1.6675793E-1,2.377057E-1,8.349674E-2,-1.2775119E-1,7.16876E-2],"split_indices":[6,4,5,0,10,10,2,0,0,0,0,0,0,0,0],"split_type":[0,0,0,0,0,0,0,0,0,0,0,0,0,0,0],"sum_hessian":[2.3307181E2,8.832426E1,1.4474756E2,5.426306E1,3.4061195E1,7.267834E1,7.2069214E1,8.477194E0,4.5785866E1,2.451379E1,9.547405E0,3.7359585E1,3.5318752E1,3.7848927E1,3.4220287E1],"tree_param":{"num_deleted":"0","num_feature":"12","num_nodes":"15","size_leaf_vector":"1"}},{"base_weights":[5.741407E-4,6.855787E-1,-2.4077258E-1,-7.041616E-2,9.766196E-1,4.418859E-2,-8.7944716E-1,1.7997873E-1,-8.362455E-2,2.3921072E-1,-2.8400961E-2,-4.3067083E-2,1.773637E-1,-2.0114842E-1,1.7833273E-1],"categories":[],"categories_nodes":[],"categories_segments":[],"categories_sizes":[],"default_left":[0,0,0,0,0,0,0,0,0,0,0,0,0,0,0],"id":5,"left_children":[1,3,5,7,9,11,13,-1,-1,-1,-1,-1,-1,-1,-1],"loss_changes":[3.7864223E1,1.3197758E1,3.0862354E1,6.2869124E0,1.0761929E1,2.6009195E1,1.2595291E1,0E0,0E0,0E0,0E0,0E0,0E0,0E0,0E0],"parents":[2147483647,0,0,1,1,2,2,3,3,4,4,5,5,6,6],"right_children":[2,4,6,8,10,12,14,-1,-1,-1,-1,-1,-1,-1,-1],"split_conditions":[-6.614577E-1,-5.2540964E-1,4.6818337E-1,-5.323714E-1,9.297923E-1,7.991068E-1,1.5374923E0,1.7997873E-1,-8.362455E-2,2.3921072E-1,-2.8400961E-2,-4.3067083E-2,1.773637E-1,-2.0114842E-1,1.7833273E-1],"split_indices":[0,4,5,5,10,6,8,0,0,0,0,0,0,0,0],"split_type":[0,0,0,0,0,0,0,0,0,0,0,0,0,0,0],"sum_hessian":[2.2703252E2,5.867031E1,1.683622E2,1.6519094E1,4.2151215E1,1.1706254E2,5.1299664E1,3.9389577E0,1.2580137E1,3.5180786E1,6.9704285E0,9.006699E1,2.6995544E1,4.8288437E1,3.0112274E0],"tree_param":{"num_deleted":"0","num_feature":"12","num_nodes":"15","size_leaf_vector":"1"}},{"base_weights":[2.7771406E-3,-2.6965603E-1,5.2401847E-1,1.1634837E0,-3.9100194E-1,1.1923491E0,2.8282365E-1,2.6828408E-1,-5.118165E-2,-1.798869E-1,-7.7082464E-3,2.7574012E-1,-1.4798917E-1,-1.3347403E-3,1.8410717E-1],"categories":[],"categories_nodes":[],"categories_segments":[],"categories_sizes":[],"default_left":[0,0,0,0,0,0,0,0,0,0,0,0,0,0,0],"id":6,"left_children":[1,3,5,7,9,11,13,-1,-1,-1,-1,-1,-1,-1,-1],"loss_changes":[3.1653345E1,2.5914478E1,1.1996305E1,3.2931223E0,2.4286516E1,8.214321E0,1.0627607E1,0E0,0E0,0E0,0E0,0E0,0E0,0E0,0E0],"parents":[2147483647,0,0,1,1,2,2,3,3,4,4,5,5,6,6],"right_children":[2,4,6,8,10,12,14,-1,-1,-1,-1,-1,-1,-1,-1],"split_conditions":[3.4618893E-1,-1.5053362E0,-7.236156E-1,8.988299E-1,-2.1063888E-1,1.1740643E0,6.195522E-1,2.6828408E-1,-5.118165E-2,-1.798869E-1,-7.7082464E-3,2.7574012E-1,-1.4798917E-1,-1.3347403E-3,1.8410717E-1],"split_indices":[8,5,9,10,4,0,6,0,0,0,0,0,0,0,0],"split_type":[0,0,0,0,0,0,0,0,0,0,0,0,0,0,0],"sum_hessian":[2.2091042E2,1.4539868E2,7.551174E1,1.067967E1,1.3471901E2,1.8979E1,5.653274E1,9.538807E0,1.1408631E0,5.4520325E1,8.0198685E1,1.7570946E1,1.4080547E0,3.9562424E1,1.6970318E1],"tree_param":{"num_deleted":"0","num_feature":"12","num_nodes":"15","size_leaf_vector":"1"}},{"base_weights":[4.340907E-3,3.110285E-1,-4.6330363E-1,-7.926446E-1,4.758883E-1,-5.925357E-1,9.5760256E-1,-1.8830381E-1,7.74269E-2,-2.5928278E-2,1.6138637E-1,2.2011156E-1,-1.3956551E-1,2.6762506E-1,-2.7956668E-2],"categories":[],"categories_nodes":[],"categories_segments":[],"categories_sizes":[],"default_left":[0,0,0,0,0,0,0,0,0,0,0,0,0,0,0],"id":7,"left_children":[1,3,5,7,9,11,13,-1,-1,-1,-1,-1,-1,-1,-1],"loss_changes":[3.1283567E1,2.4344563E1,1.643196E1,3.4371452E0,2.3203209E1,1.4995771E1,3.3543458E0,0E0,0E0,0E0,0E0,0E0,0E0,0E0,0E0],"parents":[2147483647,0,0,1,1,2,2,3,3,4,4,5,5,6,6],"right_children":[2,4,6,8,10,12,14,-1,-1,-1,-1,-1,-1,-1,-1],"split_conditions":[2.9296088E-1,-1.1618602E0,1.4199716E0,1.264667E0,-3.5729262E-1,-1.6008434E0,4.4637457E-1,-1.8830381E-1,7.74269E-2,-2.5928278E-2,1.6138637E-1,2.2011156E-1,-1.3956551E-1,2.6762506E-1,-2.7956668E-2],"split_indices":[0,6,6,8,4,5,5,0,0,0,0,0,0,0,0],"split_type":[0,0,0,0,0,0,0,0,0,0,0,0,0,0,0],"sum_hessian":[2.1611963E2,1.3072398E2,8.539565E1,1.6494127E1,1.1422985E2,7.881076E1,6.5848885E0,1.4825299E1,1.6688275E0,4.0591015E1,7.363884E1,4.0607877E0,7.474998E1,4.7265606E0,1.8583277E0],"tree_param":{"num_deleted":"0","num_feature":"12","num_nodes":"15","size_leaf_vector":"1"}},{"base_weights":[5.406945E-3,-4.2024395E-1,3.0346993E-1,7.65235E-2,-7.566322E-1,-3.5947114E-1,5.036728E-1,1.721986E-1,-4.619317E-2,-1.7633748E-1,4.7339983E-2,-1.1427011E-1,1.4780505E-1,1.346187E-1,-5.537791E-2],"categories":[],"categories_nodes":[],"categories_segments":[],"categories_sizes":[],"default_left":[0,0,0,0,0,0,0,0,0,0,0,0,0,0,0],"id":8,"left_children":[1,3,5,7,9,11,13,-1,-1,-1,-1,-1,-1,-1,-1],"loss_changes":[2.6946953E1,1.4676625E1,1.675948E1,8.937858E0,6.6995697E0,7.301358E0,1.2928589E1,0E0,0E0,0E0,0E0,0E0,0E0,0E0,0E0],"parents":[2147483647,0,0,1,1,2,2,3,3,4,4,5,5,6,6],"right_children":[2,4,6,8,10,12,14,-1,-1,-1,-1,-1,-1,-1,-1],"split_conditions":[-2.3239186E-1,-2.5855342E-1,-7.8836167E-1,-7.629473E-1,1.365057E0,1.0054505E0,9.7040254E-1,1.721986E-1,-4.619317E-2,-1.7633748E-1,4.7339983E-2,-1.1427011E-1,1.4780505E-1,1.346187E-1,-5.537791E-2],"split_indices":[2,10,8,9,4,4,10,0,0,0,0,0,0,0,0],"split_type":[0,0,0,0,0,0,0,0,0,0,0,0,0,0,0],"sum_hessian":[2.1039162E2,8.648138E1,1.2391024E2,3.5228928E1,5.125245E1,2.8555971E1,9.535427E1,9.413374E0,2.5815554E1,4.5621357E1,5.6310925E0,2.4340939E1,4.2150326E0,7.8461845E1,1.689243E1],"tree_param":{"num_deleted":"0","num_feature":"12","num_nodes":"15","size_leaf_vector":"1"}},{"base_weights":[4.435805E-3,3.7250915E-1,-3.0065942E-1,-3.0728284E-1,6.07819E-1,5.2665514E-1,-4.9899757E-1,1.67627E-1,-1.129718E-1,1.6641752E-1,-2.3934474E-2,-2.1133048E-2,2.061495E-1,9.197853E-2,-1.3111669E-1],"categories":[],"categories_nodes":[],"categories_segments":[],"categories_sizes":[],"default_left":[0,0,0,0,0,0,0,0,0,0,0,0,0,0,0],"id":9,"left_children":[1,3,5,7,9,11,13,-1,-1,-1,-1,-1,-1,-1,-1],"loss_changes":[2.3361546E1,1.5267932E1,1.8928743E1,7.8219066E0,1.15810795E1,7.275737E0,1.415592E1,0E0,0E0,0E0,0E0,0E0,0E0,0E0,0E0],"parents":[2147483647,0,0,1,1,2,2,3,3,4,4,5,5,6,6],"right_children":[2,4,6,8,10,12,14,-1,-1,-1,-1,-1,-1,-1,-1],"split_conditions":[-1.6426854E-1,-7.6324916E-1,-9.216828E-1,-8.501029E-1,7.1633404E-1,-3.8785156E-2,-1.1069827E0,1.67627E-1,-1.129718E-1,1.6641752E-1,-2.3934474E-2,-2.1133048E-2,2.061495E-1,9.197853E-2,-1.3111669E-1],"split_indices":[5,8,10,0,0,2,0,0,0,0,0,0,0,0,0],"split_type":[0,0,0,0,0,0,0,0,0,0,0,0,0,0,0],"sum_hessian":[2.0603546E2,9.3279785E1,1.1275567E2,2.3907373E1,6.937241E1,2.1484304E1,9.127136E1,3.9753628E0,1.993201E1,5.2915905E1,1.645651E1,9.880653E0,1.160365E1,1.2540384E1,7.873098E1],"tree_param":{"num_deleted":"0","num_feature":"12","num_nodes":"15","size_leaf_vector":"1"}},{"base_weights":[5.6446576E-3,-1.7642511E-1,5.8351326E-1,-4.603577E-1,2.7315342E-1,8.7516975E-1,-1.664058E-1,2.8008673E-2,-1.5135445E-1,1.0687679E-1,-8.584704E-2,-1.2163695E-1,1.9163787E-1,-1.3027295E-1,1.3096315E-1],"categories":[],"categories_nodes":[],"categories_segments":[],"categories_sizes":[],"default_left":[0,0,0,0,0,0,0,0,0,0,0,0,0,0,0],"id":10,"left_children":[1,3,5,7,9,11,13,-1,-1,-1,-1,-1,-1,-1,-1],"loss_changes":[2.1306353E1,1.978563E1,1.0756908E1,1.697189E1,1.1283342E1,4.9040318E0,6.171533E0,0E0,0E0,0E0,0E0,0E0,0E0,0E0,0E0],"parents":[2147483647,0,0,1,1,2,2,3,3,4,4,5,5,6,6],"right_children":[2,4,6,8,10,12,14,-1,-1,-1,-1,-1,-1,-1,-1],"split_conditions":[7.580844E-1,3.5108745E-1,5.398448E-1,-4.1724196E-1,5.64611E-1,-1.50231E0,1.0951882E-2,2.8008673E-2,-1.5135445E-1,1.0687679E-1,-8.584704E-2,-1.2163695E-1,1.9163787E-1,-1.3027295E-1,1.3096315E-1],"split_indices":[6,4,5,9,10,8,2,0,0,0,0,0,0,0,0],"split_type":[0,0,0,0,0,0,0,0,0,0,0,0,0,0,0],"sum_hessian":[2.0052956E2,1.5301396E2,4.75156E1,9.3769554E1,5.9244404E1,3.409028E1,1.3425319E1,3.1166977E1,6.260258E1,4.3358E1,1.5886402E1,1.4715488E0,3.2618732E1,8.570805E0,4.854514E0],"tree_param":{"num_deleted":"0","num_feature":"12","num_nodes":"15","size_leaf_vector":"1"}},{"base_weights":[4.7371876E-3,-7.995502E-1,1.2829237E-1,1.2322482E-1,-9.178768E-1,-7.4436195E-2,6.6365856E-1,-2.0041345E-1,6.0454387E-2,5.619672E-2,-9.7576916E-2,2.0255716E-1,2.561315E-2],"categories":[],"categories_nodes":[],"categories_segments":[],"categories_sizes":[],"default_left":[0,0,0,0,0,0,0,0,0,0,0,0,0],"id":11,"left_children":[1,3,5,-1,7,9,11,-1,-1,-1,-1,-1,-1],"loss_changes":[1.961362E1,4.9683514E0,1.861481E1,0E0,2.8358765E0,1.850147E1,8.674522E0,0E0,0E0,0E0,0E0,0E0,0E0],"parents":[2147483647,0,0,1,1,2,2,4,4,5,5,6,6],"right_children":[2,4,6,-1,8,10,12,-1,-1,-1,-1,-1,-1],"split_conditions":[-1.1618602E0,-1.6786215E0,5.688153E-1,1.2322482E-1,1.3638567E0,3.5586238E-2,2.3561488E-1,-2.0041345E-1,6.0454387E-2,5.619672E-2,-9.7576916E-2,2.0255716E-1,2.561315E-2],"split_indices":[6,5,2,0,8,10,5,0,0,0,0,0,0],"split_type":[0,0,0,0,0,0,0,0,0,0,0,0,0],"sum_hessian":[1.953398E2,2.5283653E1,1.7005615E2,1.625769E0,2.3657885E1,1.2397221E2,4.608393E1,2.2298048E1,1.3598353E0,6.6836655E1,5.713556E1,2.735897E1,1.8724962E1],"tree_param":{"num_deleted":"0","num_feature":"12","num_nodes":"13","size_leaf_vector":"1"}},{"base_weights":[4.422087E-3,-2.4813698E-1,3.84933E-1,5.4250234E-1,-4.1426587E-1,-8.856181E-2,6.377221E-1,-6.791493E-2,1.8058243E-1,-1.0568515E-1,1.6696429E-1,1.5239905E-1,-7.828652E-2,1.77079E-1,1.1436331E-2],"categories":[],"categories_nodes":[],"categories_segments":[],"categories_sizes":[],"default_left":[0,0,0,0,0,0,0,0,0,0,0,0,0,0,0],"id":12,"left_children":[1,3,5,7,9,11,13,-1,-1,-1,-1,-1,-1,-1,-1],"loss_changes":[1.8544674E1,1.5460633E1,9.270476E0,6.847291E0,1.419054E1,7.426664E0,7.182867E0,0E0,0E0,0E0,0E0,0E0,0E0,0E0,0E0],"parents":[2147483647,0,0,1,1,2,2,3,3,4,4,5,5,6,6],"right_children":[2,4,6,8,10,12,14,-1,-1,-1,-1,-1,-1,-1,-1],"split_conditions":[1.6395484E-1,-9.9276215E-1,-3.556218E-1,-8.7253153E-1,1.4199716E0,-8.923572E-1,5.954136E-1,-6.791493E-2,1.8058243E-1,-1.0568515E-1,1.6696429E-1,1.5239905E-1,-7.828652E-2,1.77079E-1,1.1436331E-2],"split_indices":[8,5,6,6,6,10,10,0,0,0,0,0,0,0,0],"split_type":[0,0,0,0,0,0,0,0,0,0,0,0,0,0,0],"sum_hessian":[1.9097578E2,1.1499636E2,7.597942E1,1.9574066E1,9.5422295E1,2.6671385E1,4.930804E1,5.6946435E0,1.3879422E1,8.796016E1,7.4621353E0,6.605406E0,2.0065979E1,3.419464E1,1.51134E1],"tree_param":{"num_deleted":"0","num_feature":"12","num_nodes":"15","size_leaf_vector":"1"}},{"base_weights":[6.7006717E-3,2.624852E-1,-3.827496E-1,-1.481764E-1,5.383599E-1,-4.8426235E-1,9.38234E-1,-1.6952983E-1,3.3780556E-2,1.3411528E-1,-6.685229E-2,-1.372125E-1,3.6515146E-2,2.498684E-1,1.2846586E-2],"categories":[],"categories_nodes":[],"categories_segments":[],"categories_sizes":[],"default_left":[0,0,0,0,0,0,0,0,0,0,0,0,0,0,0],"id":13,"left_children":[1,3,5,7,9,11,13,-1,-1,-1,-1,-1,-1,-1,-1],"loss_changes":[1.8718887E1,1.2927446E1,1.0444434E1,1.0423929E1,8.07542E0,9.52379E0,1.457902E0,0E0,0E0,0E0,0E0,0E0,0E0,0E0,0E0],"parents":[2147483647,0,0,1,1,2,2,3,3,4,4,5,5,6,6],"right_children":[2,4,6,8,10,12,14,-1,-1,-1,-1,-1,-1,-1,-1],"split_conditions":[2.9296088E-1,-2.5739464E-1,1.5971869E0,-4.9690357E-1,1.1102191E0,7.991068E-1,5.7363592E-2,-1.6952983E-1,3.3780556E-2,1.3411528E-1,-6.685229E-2,-1.372125E-1,3.6515146E-2,2.498684E-1,1.2846586E-2],"split_indices":[0,2,8,4,9,6,10,0,0,0,0,0,0,0,0],"split_type":[0,0,0,0,0,0,0,0,0,0,0,0,0,0,0],"sum_hessian":[1.8590315E2,1.1240404E2,7.3499115E1,4.5353943E1,6.7050095E1,6.884225E1,4.6568666E0,1.3624707E1,3.1729235E1,5.8428722E1,8.621375E0,5.2826836E1,1.6015411E1,3.1176586E0,1.539208E0],"tree_param":{"num_deleted":"0","num_feature":"12","num_nodes":"15","size_leaf_vector":"1"}},{"base_weights":[5.573305E-3,2.012002E-1,-4.298449E-1,3.7942964E-1,-3.844446E-1,2.6165614E-1,-6.906809E-1,-1.4703542E-2,1.3609764E-1,-1.15611255E-1,1.4286494E-1,1.3570331E-1,-1.1478827E-1,1.7023462E-1,-1.6209273E-1],"categories":[],"categories_nodes":[],"categories_segments":[],"categories_sizes":[],"default_left":[0,0,0,0,0,0,0,0,0,0,0,0,0,0,0],"id":14,"left_children":[1,3,5,7,9,11,13,-1,-1,-1,-1,-1,-1,-1,-1],"loss_changes":[1.5626694E1,1.3356554E1,1.0439406E1,1.3350572E1,6.800723E0,6.068255E0,8.367891E0,0E0,0E0,0E0,0E0,0E0,0E0,0E0,0E0],"parents":[2147483647,0,0,1,1,2,2,3,3,4,4,5,5,6,6],"right_children":[2,4,6,8,10,12,14,-1,-1,-1,-1,-1,-1,-1,-1],"split_conditions":[4.6818337E-1,7.269937E-1,-7.311652E-1,-2.4364932E-1,9.931254E-1,1.3149603E-1,-1.6110446E0,-1.4703542E-2,1.3609764E-1,-1.15611255E-1,1.4286494E-1,1.3570331E-1,-1.1478827E-1,1.7023462E-1,-1.6209273E-1],"split_indices":[5,11,9,4,4,10,10,0,0,0,0,0,0,0,0],"split_type":[0,0,0,0,0,0,0,0,0,0,0,0,0,0,0],"sum_hessian":[1.814407E2,1.2556441E2,5.58763E1,9.65373E1,2.9027107E1,1.5303124E1,4.0573177E1,3.8847065E1,5.769023E1,2.5081465E1,3.9456425E0,1.0335145E1,4.96798E0,2.484644E0,3.808853E1],"tree_param":{"num_deleted":"0","num_feature":"12","num_nodes":"15","size_leaf_vector":"1"}},{"base_weights":[5.2934955E-3,5.9654194E-1,-1.2664558E-1,7.2062534E-1,-4.212554E-1,-3.590276E-1,2.6051274E-1,1.8165903E-1,6.0792365E-3,7.113553E-2,-1.5729012E-1,2.4965044E-2,-1.2044751E-1,-1.2109023E-1,8.460404E-2],"categories":[],"categories_nodes":[],"categories_segments":[],"categories_sizes":[],"default_left":[0,0,0,0,0,0,0,0,0,0,0,0,0,0,0],"id":15,"left_children":[1,3,5,7,9,11,13,-1,-1,-1,-1,-1,-1,-1,-1],"loss_changes":[1.3972215E1,4.4302244E0,1.3270943E1,3.7928715E0,1.4662359E0,1.0895574E1,8.068833E0,0E0,0E0,0E0,0E0,0E0,0E0,0E0,0E0],"parents":[2147483647,0,0,1,1,2,2,3,3,4,4,5,5,6,6],"right_children":[2,4,6,8,10,12,14,-1,-1,-1,-1,-1,-1,-1,-1],"split_conditions":[-8.6932683E-1,1.3536758E0,2.1930529E-1,7.77494E-1,-6.627991E-1,-4.9699023E-1,-1.0089929E0,1.8165903E-1,6.0792365E-3,7.113553E-2,-1.5729012E-1,2.4965044E-2,-1.2044751E-1,-1.2109023E-1,8.460404E-2],"split_indices":[0,5,8,11,11,5,2,0,0,0,0,0,0,0,0],"split_type":[0,0,0,0,0,0,0,0,0,0,0,0,0,0,0],"sum_hessian":[1.7714233E2,3.1675592E1,1.4546674E2,2.8493788E1,3.1818058E0,9.094935E1,5.4517387E1,2.2154232E1,6.339555E0,1.0257145E0,2.1560912E0,3.0586315E1,6.0363033E1,8.18354E0,4.6333847E1],"tree_param":{"num_deleted":"0","num_feature":"12","num_nodes":"15","size_leaf_vector":"1"}},{"base_weights":[4.148989E-3,-1.5537517E-1,4.59224E-1,-4.3166515E-1,2.1821073E-1,9.373483E-1,1.10437684E-1,-1.1711277E-1,6.3067906E-2,1.5122525E-1,-6.3384785E-3,2.2145484E-1,-1.3599846E-2,1.2837413E-1,-6.965361E-2],"categories":[],"categories_nodes":[],"categories_segments":[],"categories_sizes":[],"default_left":[0,0,0,0,0,0,0,0,0,0,0,0,0,0,0],"id":16,"left_children":[1,3,5,7,9,11,13,-1,-1,-1,-1,-1,-1,-1,-1],"loss_changes":[1.2692211E1,1.3458294E1,7.4637737E0,8.779874E0,7.5127897E0,3.3222446E0,6.8958235E0,0E0,0E0,0E0,0E0,0E0,0E0,0E0,0E0],"parents":[2147483647,0,0,1,1,2,2,3,3,4,4,5,5,6,6],"right_children":[2,4,6,8,10,12,14,-1,-1,-1,-1,-1,-1,-1,-1],"split_conditions":[6.084699E-1,2.0737341E-1,-1.616846E-1,1.0248631E0,-5.553254E-1,8.3322406E-1,-1.3918714E-1,-1.1711277E-1,6.3067906E-2,1.5122525E-1,-6.3384785E-3,2.2145484E-1,-1.3599846E-2,1.2837413E-1,-6.965361E-2],"split_indices":[2,6,9,4,10,0,3,0,0,0,0,0,0,0,0],"split_type":[0,0,0,0,0,0,0,0,0,0,0,0,0,0,0],"sum_hessian":[1.7285193E2,1.2847444E2,4.4377476E1,7.376511E1,5.4709343E1,1.8006413E1,2.6371063E1,6.1343227E1,1.2421878E1,1.671173E1,3.7997612E1,1.5316245E1,2.6901665E0,1.2032044E1,1.4339019E1],"tree_param":{"num_deleted":"0","num_feature":"12","num_nodes":"15","size_leaf_vector":"1"}},{"base_weights":[5.8388915E-3,1.0484046E0,-6.4627275E-2,2.467983E-2,2.3035248E-1,-1.4598334E-1,8.970416E-1,-9.508618E-2,2.1027496E-2,-5.253747E-2,2.1671315E-1],"categories":[],"categories_nodes":[],"categories_segments":[],"categories_sizes":[],"default_left":[0,0,0,0,0,0,0,0,0,0,0],"id":17,"left_children":[1,3,5,-1,-1,7,9,-1,-1,-1,-1],"loss_changes":[1.2561389E1,8.927803E-1,1.2667458E1,0E0,0E0,1.2343662E1,3.018547E0,0E0,0E0,0E0,0E0],"parents":[2147483647,0,0,1,1,2,2,5,5,6,6],"right_children":[2,4,6,-1,-1,8,10,-1,-1,-1,-1],"split_conditions":[-1.6008434E0,-1.4318151E0,1.4199716E0,2.467983E-2,2.3035248E-1,-2.5447807E-1,-1.2969441E0,-9.508618E-2,2.1027496E-2,-5.253747E-2,2.1671315E-1],"split_indices":[5,8,6,0,0,8,2,0,0,0,0],"split_type":[0,0,0,0,0,0,0,0,0,0,0],"sum_hessian":[1.6906099E2,9.824644E0,1.5923634E2,1.2079496E0,8.616694E0,1.4759793E2,1.1638413E1,6.3456097E1,8.414184E1,1.5559338E0,1.00824795E1],"tree_param":{"num_deleted":"0","num_feature":"12","num_nodes":"11","size_leaf_vector":"1"}},{"base_weights":[7.7064536E-3,1.5914121E-1,-4.752795E-1,3.4968027E-1,-2.568483E-1,-6.154341E-1,7.2546434E-1,-9.615681E-2,9.4452515E-2,6.0359478E-2,-1.0556813E-1,-1.4911671E-1,1.2517726E-1,-9.634028E-3,2.2935353E-1],"categories":[],"categories_nodes":[],"categories_segments":[],"categories_sizes":[],"default_left":[0,0,0,0,0,0,0,0,0,0,0,0,0,0,0],"id":18,"left_children":[1,3,5,7,9,11,13,-1,-1,-1,-1,-1,-1,-1,-1],"loss_changes":[1.2281976E1,1.0219645E1,7.192648E0,9.193264E0,6.324599E0,6.3534203E0,1.5704925E0,0E0,0E0,0E0,0E0,0E0,0E0,0E0,0E0],"parents":[2147483647,0,0,1,1,2,2,3,3,4,4,5,5,6,6],"right_children":[2,4,6,8,10,12,14,-1,-1,-1,-1,-1,-1,-1,-1],"split_conditions":[7.1633404E-1,4.6818337E-1,1.3786231E0,-1.3040824E0,-5.8144766E-1,1.5971869E0,-1.7946722E-1,-9.615681E-2,9.4452515E-2,6.0359478E-2,-1.0556813E-1,-1.4911671E-1,1.2517726E-1,-9.634028E-3,2.2935353E-1],"split_indices":[0,5,4,8,9,8,2,0,0,0,0,0,0,0,0],"split_type":[0,0,0,0,0,0,0,0,0,0,0,0,0,0,0],"sum_hessian":[1.6588809E2,1.26801445E2,3.9086647E1,8.707649E1,3.9724953E1,3.5437702E1,3.648944E0,1.082406E1,7.625243E1,1.2938599E1,2.6786354E1,3.2436207E1,3.001495E0,1.5987822E0,2.0501618E0],"tree_param":{"num_deleted":"0","num_feature":"12","num_nodes":"15","size_leaf_vector":"1"}},{"base_weights":[6.7458544E-3,5.484697E-1,-1.2838261E-1,1.4385958E-1,9.1164553E-1,5.785778E-1,-2.3635884E-1,-7.164E-2,1.1691626E-1,2.1067694E-1,-9.078517E-2,-1.7226766E-1,1.4895721E-1,9.511807E-2,-6.850917E-2],"categories":[],"categories_nodes":[],"categories_segments":[],"categories_sizes":[],"default_left":[0,0,0,0,0,0,0,0,0,0,0,0,0,0,0],"id":19,"left_children":[1,3,5,7,9,11,13,-1,-1,-1,-1,-1,-1,-1,-1],"loss_changes":[1.2016747E1,4.684307E0,1.0169111E1,3.9020143E0,3.7844906E0,4.8784065E0,8.835875E0,0E0,0E0,0E0,0E0,0E0,0E0,0E0,0E0],"parents":[2147483647,0,0,1,1,2,2,3,3,4,4,5,5,6,6],"right_children":[2,4,6,8,10,12,14,-1,-1,-1,-1,-1,-1,-1,-1],"split_conditions":[-8.950311E-1,-3.8785156E-2,-1.1069827E0,-2.9982336E-2,1.403961E0,-1.5978988E0,-1.1457472E0,-7.164E-2,1.1691626E-1,2.1067694E-1,-9.078517E-2,-1.7226766E-1,1.4895721E-1,9.511807E-2,-6.850917E-2],"split_indices":[10,2,0,6,5,4,5,0,0,0,0,0,0,0,0],"split_type":[0,0,0,0,0,0,0,0,0,0,0,0,0,0,0],"sum_hessian":[1.621961E2,3.1770548E1,1.3042555E2,1.5688396E1,1.6082151E1,1.6703455E1,1.137221E2,7.4213805E0,8.267015E0,1.4776991E1,1.305161E0,1.295741E0,1.5407715E1,1.4308628E1,9.9413475E1],"tree_param":{"num_deleted":"0","num_feature":"12","num_nodes":"15","size_leaf_vector":"1"}}]},"name":"gbtree"},"learner_model_param":{"base_score":"4.9100095E-1","boost_from_average":"1","num_class":"0","num_feature":"12","num_target":"1"},"objective":{"name":"binary:logistic","reg_loss_param":{"scale_pos_weight":"1"}}},"version":[2,1,4]}