{"learner":{"attributes":{},"feature_names":[],"feature_types":[],"gradient_booster":{"model":{"gbtree_model_param":{"num_parallel_tree":"1","num_trees":"20"},"iteration_indptr":[0,1,2,3,4,5,6,7,8,9,10,11,12,13,14,15,16,17,18,19,20],"tree_info":[0,0,0,0,0,0,0,0,0,0,0,0,0,0,0,0,0,0,0,0],"trees":[{"base_weights":[-5.264403E-6,7.927109E-1,-9.829726E-1,1.4010217E0,-1.3934563E-1,4.8522997E-1,-1.402611E0,5.201865E-2,3.3690205E-1,-1.3419525E-1,1.9941685E-1,-2.94089E-1,1.6155526E-1,-3.0017868E-1,2.06061E-1],"categories":[],"categories_nodes":[],"categories_segments":[],"categories_sizes":[],"default_left":[0,0,0,0,0,0,0,0,0,0,0,0,0,0,0],"id":0,"left_children":[1,3,5,7,9,11,13,-1,-1,-1,-1,-1,-1,-1,-1],"loss_changes":[1.9628406E2,7.925754E1,6.996596E1,2.6881775E1,3.448874E1,1.7424538E1,2.2520233E1,0E0,0E0,0E0,0E0,0E0,0E0,0E0,0E0],"parents":[2147483647,0,0,1,1,2,2,3,3,4,4,5,5,6,6],"right_children":[2,4,6,8,10,12,14,-1,-1,-1,-1,-1,-1,-1,-1],"split_conditions":[8.26175E-2,2.6335612E-1,-7.628656E-1,-8.7253153E-1,5.005756E-1,-1.0165261E0,1.9608436E0,5.201865E-2,3.3690205E-1,-1.3419525E-1,1.9941685E-1,-2.94089E-1,1.6155526E-1,-3.0017868E-1,2.06061E-1],"split_indices":[10,0,0,6,6,8,6,0,0,0,0,0,0,0,0],"split_type":[0,0,0,0,0,0,0,0,0,0,0,0,0,0,0],"sum_hessian":[2.4990002E2,1.3844461E2,1.11455414E2,8.3466606E1,5.4978004E1,2.4740103E1,8.671531E1,1.6993202E1,6.6473404E1,3.7734905E1,1.7243101E1,2.9988003E0,2.1741302E1,8.371651E1,2.9988003E0],"tree_param":{"num_deleted":"0","num_feature":"12","num_nodes":"15","size_leaf_vector":"1"}},{"base_weights":[3.4238747E-4,8.8682634E-1,-6.0182023E-1,1.0819732E0,-1.0471014E0,8.871499E-1,-9.426206E-1,1.0592846E-1,2.925534E-1,-2.859665E-1,8.92035E-2,-1.5656127E-1,2.1975815E-1,-2.5534084E-1,2.955629E-2],"categories":[],"categories_nodes":[],"categories_segments":[],"categories_sizes":[],"default_left":[0,0,0,0,0,0,0,0,0,0,0,0,0,0,0],"id":1,"left_children":[1,3,5,7,9,11,13,-1,-1,-1,-1,-1,-1,-1,-1],"loss_changes":[1.321713E2,3.8931534E1,7.5656425E1,1.8462997E1,6.1741943E0,1.0748226E1,4.40736E1,0E0,0E0,0E0,0E0,0E0,0E0,0E0,0E0],"parents":[2147483647,0,0,1,1,2,2,3,3,4,4,5,5,6,6],"right_children":[2,4,6,8,10,12,14,-1,-1,-1,-1,-1,-1,-1,-1],"split_conditions":[-2.7864724E-1,1.3422904E0,-8.6932683E-1,-1.9572274E-1,9.890482E-1,-1.3787594E0,7.353561E-1,1.0592846E-1,2.925534E-1,-2.859665E-1,8.92035E-2,-1.5656127E-1,2.1975815E-1,-2.5534084E-1,2.955629E-2],"split_indices":[10,0,0,6,6,2,6,0,0,0,0,0,0,0,0],"split_type":[0,0,0,0,0,0,0,0,0,0,0,0,0,0,0],"sum_hessian":[2.4560123E2,9.915531E1,1.464459E2,9.046708E1,8.6882305E0,2.6977413E1,1.194685E2,3.78939E1,5.2573177E1,6.949302E0,1.7389284E0,2.7308502E0,2.4246563E1,9.1318855E1,2.8149647E1],"tree_param":{"num_deleted":"0","num_feature":"12","num_nodes":"15","size_leaf_vector":"1"}},{"base_weights":[4.813583E-5,5.3883404E-1,-7.7096486E-1,1.028041E0,-1.634086E-1,2.4915117E-1,-1.0965861E0,4.8993055E-2,2.5979635E-1,1.3454577E-1,-1.3075556E-1,1.2549405E-1,-2.2812624E-1,-2.3579498E-1,1.5917689E-1],"categories":[],"categories_nodes":[],"categories_segments":[],"categories_sizes":[],"default_left":[0,0,0,0,0,0,0,0,0,0,0,0,0,0,0],"id":2,"left_children":[1,3,5,7,9,11,13,-1,-1,-1,-1,-1,-1,-1,-1],"loss_changes":[9.960483E1,4.8656544E1,3.3035675E1,1.7361069E1,2.455528E1,1.3692067E1,1.2624565E1,0E0,0E0,0E0,0E0,0E0,0E0,0E0,0E0],"parents":[2147483647,0,0,1,1,2,2,3,3,4,4,5,5,6,6],"right_children":[2,4,6,8,10,12,14,-1,-1,-1,-1,-1,-1,-1,-1],"split_conditions":[1.5715827E-1,2.543075E-1,-7.488274E-1,-6.293549E-1,-8.426811E-1,1.4612597E0,1.9608436E0,4.8993055E-2,2.5979635E-1,1.3454577E-1,-1.3075556E-1,1.2549405E-1,-2.2812624E-1,-2.3579498E-1,1.5917689E-1],"split_indices":[10,0,0,6,10,10,6,0,0,0,0,0,0,0,0],"split_type":[0,0,0,0,0,0,0,0,0,0,0,0,0,0,0],"sum_hessian":[2.3777419E2,1.4014302E2,9.763117E1,8.232711E1,5.7815907E1,2.3680143E1,7.395103E1,2.1652107E1,6.0675007E1,2.123531E1,3.6580597E1,1.9044472E1,4.6356716E0,7.1227165E1,2.7238588E0],"tree_param":{"num_deleted":"0","num_feature":"12","num_nodes":"15","size_leaf_vector":"1"}},{"base_weights":[3.4000765E-4,4.5263648E-1,-6.610692E-1,6.869662E-1,-6.586989E-1,-5.1135257E-2,-1.1353844E0,2.9986003E-2,2.4842845E-1,-1.857023E-1,1.7357321E-1,-1.24758564E-1,1.9415097E-1,-2.4212582E-1,1.3987377E-1],"categories":[],"categories_nodes":[],"categories_segments":[],"categories_sizes":[],"default_left":[0,0,0,0,0,0,0,0,0,0,0,0,0,0,0],"id":3,"left_children":[1,3,5,7,9,11,13,-1,-1,-1,-1,-1,-1,-1,-1],"loss_changes":[6.860734E1,3.5921425E1,2.6887093E1,3.3496212E1,1.0784938E1,2.5061731E1,8.073486E0,0E0,0E0,0E0,0E0,0E0,0E0,0E0,0E0],"parents":[2147483647,0,0,1,1,2,2,3,3,4,4,5,5,6,6],"right_children":[2,4,6,8,10,12,14,-1,-1,-1,-1,-1,-1,-1,-1],"split_conditions":[1.5715827E-1,9.887245E-1,-1.8245885E-1,-2.7569516E-2,1.2402717E0,2.9797354E-1,2.1305578E0,2.9986003E-2,2.4842845E-1,-1.857023E-1,1.7357321E-1,-1.24758564E-1,1.9415097E-1,-2.4212582E-1,1.3987377E-1],"split_indices":[10,0,0,6,6,6,6,0,0,0,0,0,0,0,0],"split_type":[0,0,0,0,0,0,0,0,0,0,0,0,0,0,0],"sum_hessian":[2.2733832E2,1.3519948E2,9.213884E1,1.1197165E2,2.3227835E1,4.079164E1,5.13472E1,5.756123E1,5.441042E1,2.007198E1,3.1558552E0,2.6391605E1,1.4400037E1,4.9651134E1,1.696063E0],"tree_param":{"num_deleted":"0","num_feature":"12","num_nodes":"15","size_leaf_vector":"1"}},{"base_weights":[8.5712486E-4,6.7143506E-1,-3.4705025E-1,8.4488183E-1,-8.830059E-1,6.941131E-1,-6.042002E-1,-1.10790454E-1,1.9547176E-1,-2.4314618E-1,1.0783564E-1,-2.192862E-1,1.7306189E-1,-2.06793E-1,6.20234E-3],"categories":[],"categories_nodes":[],"categories_segments":[],"categories_sizes":[],"default_left":[0,0,0,0,0,0,0,0,0,0,0,0,0,0,0],"id":4,"left_children":[1,3,5,7,9,11,13,-1,-1,-1,-1,-1,-1,-1,-1],"loss_changes":[5.102617E1,2.088916E1,3.897474E1,1.3091347E1,4.435648E0,9.8345175E0,3.1703968E1,0E0,0E0,0E0,0E0,0E0,0E0,0E0,0E0],"parents":[2147483647,0,0,1,1,2,2,3,3,4,4,5,5,6,6],"right_children":[2,4,6,8,10,12,14,-1,-1,-1,-1,-1,-1,-1,-1],"split_conditions":[-4.5528063E-1,1.3422904E0,-8.6932683E-1,-1.5413057E0,9.890482E-1,-1.2488811E0,2.2036664E-1,-1.10790454E-1,1.9547176E-1,-2.4314618E-1,1.0783564E-1,-2.192862E-1,1.7306189E-1,-2.06793E-1,6.20234E-3],"split_indices":[10,0,0,8,6,6,6,0,0,0,0,0,0,0,0],"split_type":[0,0,0,0,0,0,0,0,0,0,0,0,0,0,0],"sum_hessian":[2.1671693E2,7.371132E1,1.4300562E2,6.672277E1,6.988551E0,2.7987793E1,1.1501783E2,5.4970913E0,6.1225677E1,5.781188E0,1.2073631E0,1.9707876E0,2.6017004E1,6.822867E1,4.6789165E1],"tree_param":{"num_deleted":"0","num_feature":"12","num_nodes":"15","size_leaf_vector":"1"}},{"base_weights":[-1.0995538E-3,2.3495077E-1,-8.300975E-1,6.373512E-1,-3.2029632E-1,-1.1461303E0,-2.8969333E-1,7.374763E-3,1.904462E-1,-1.5327401E-1,5.654582E-2,-2.817846E-1,-1.21648505E-1,4.851186E-2,-1.8940426E-1],"categories":[],"categories_nodes":[],"categories_segments":[],"categories_sizes":[],"default_left":[0,0,0,0,0,0,0,0,0,0,0,0,0,0,0],"id":5,"left_children":[1,3,5,7,9,11,13,-1,-1,-1,-1,-1,-1,-1,-1],"loss_changes":[4.0824432E1,3.6486946E1,7.564678E0,1.7830505E1,1.8750563E1,3.2192612E0,6.667326E0,0E0,0E0,0E0,0E0,0E0,0E0,0E0,0E0],"parents":[2147483647,0,0,1,1,2,2,3,3,4,4,5,5,6,6],"right_children":[2,4,6,8,10,12,14,-1,-1,-1,-1,-1,-1,-1,-1],"split_conditions":[7.2381026E-1,2.6335612E-1,2.529335E-1,-4.3674454E-1,1.3010968E-1,3.6138722E-1,-9.995698E-2,7.374763E-3,1.904462E-1,-1.5327401E-1,5.654582E-2,-2.817846E-1,-1.21648505E-1,4.851186E-2,-1.8940426E-1],"split_indices":[10,0,2,6,6,9,0,0,0,0,0,0,0,0,0],"split_type":[0,0,0,0,0,0,0,0,0,0,0,0,0,0,0],"sum_hessian":[2.0662633E2,1.6138878E2,4.5237537E1,9.348799E1,6.790079E1,2.7837223E1,1.7400314E1,3.254383E1,6.094416E1,3.8873882E1,2.9026909E1,1.7612854E1,1.0224369E1,9.963581E0,7.4367332E0],"tree_param":{"num_deleted":"0","num_feature":"12","num_nodes":"15","size_leaf_vector":"1"}},{"base_weights":[-3.6996694E-3,6.9550985E-1,-2.4587737E-1,-9.3786836E-2,1.1036272E0,2.4633908E-1,-6.4086163E-1,1.7361896E-1,-7.6572426E-2,5.7360358E-3,2.4923413E-1,-1.1737589E-1,1.0468804E-1,-1.6515215E-1,5.690982E-2],"categories":[],"categories_nodes":[],"categories_segments":[],"categories_sizes":[],"default_left":[0,0,0,0,0,0,0,0,0,0,0,0,0,0,0],"id":6,"left_children":[1,3,5,7,9,11,13,-1,-1,-1,-1,-1,-1,-1,-1],"loss_changes":[3.3896275E1,1.6692242E1,2.9061506E1,5.469104E0,5.177643E0,1.5755674E1,1.4395512E1,0E0,0E0,0E0,0E0,0E0,0E0,0E0,0E0],"parents":[2147483647,0,0,1,1,2,2,3,3,4,4,5,5,6,6],"right_children":[2,4,6,8,10,12,14,-1,-1,-1,-1,-1,-1,-1,-1],"split_conditions":[-6.919349E-1,-3.6010003E-1,-1.8245885E-1,-6.7015094E-1,-1.5194354E0,-6.390596E-1,1.0866084E0,1.7361896E-1,-7.6572426E-2,5.7360358E-3,2.4923413E-1,-1.1737589E-1,1.0468804E-1,-1.6515215E-1,5.690982E-2],"split_indices":[10,2,0,0,6,6,6,0,0,0,0,0,0,0,0],"split_type":[0,0,0,0,0,0,0,0,0,0,0,0,0,0,0],"sum_hessian":[1.981654E2,5.049772E1,1.4766768E2,1.7473759E1,3.302396E1,6.5909615E1,8.175807E1,3.575033E0,1.3898726E1,4.007073E0,2.9016888E1,1.6169981E1,4.973963E1,6.8232704E1,1.3525365E1],"tree_param":{"num_deleted":"0","num_feature":"12","num_nodes":"15","size_leaf_vector":"1"}},{"base_weights":[-1.5154262E-3,2.4216041E-1,-6.289528E-1,-9.971336E-2,8.051003E-1,-2.3153277E-1,-1.0698053E0,-5.9556466E-2,1.9781974E-1,2.076545E-1,-4.826724E-2,-1.0991236E-1,1.747474E-1,-2.2887754E-1,6.3280486E-2],"categories":[],"categories_nodes":[],"categories_segments":[],"categories_sizes":[],"default_left":[0,0,0,0,0,0,0,0,0,0,0,0,0,0,0],"id":7,"left_children":[1,3,5,7,9,11,13,-1,-1,-1,-1,-1,-1,-1,-1],"loss_changes":[2.938979E1,2.6727459E1,9.173132E0,1.9064291E1,1.3042431E1,1.0868831E1,2.9691124E0,0E0,0E0,0E0,0E0,0E0,0E0,0E0,0E0],"parents":[2147483647,0,0,1,1,2,2,3,3,4,4,5,5,6,6],"right_children":[2,4,6,8,10,12,14,-1,-1,-1,-1,-1,-1,-1,-1],"split_conditions":[5.070043E-1,2.335458E-1,-8.047328E-2,1.0039376E0,9.459011E-1,9.2739475E-1,1.5065539E0,-5.9556466E-2,1.9781974E-1,2.076545E-1,-4.826724E-2,-1.0991236E-1,1.747474E-1,-2.2887754E-1,6.3280486E-2],"split_indices":[10,2,0,6,0,6,2,0,0,0,0,0,0,0,0],"split_type":[0,0,0,0,0,0,0,0,0,0,0,0,0,0,0],"sum_hessian":[1.9023048E2,1.3745973E2,5.2770744E1,8.603406E1,5.1425674E1,2.8554552E1,2.4216192E1,7.3406906E1,1.2627155E1,4.206119E1,9.364481E0,2.2564615E1,5.989936E0,2.3145344E1,1.0708492E0],"tree_param":{"num_deleted":"0","num_feature":"12","num_nodes":"15","size_leaf_vector":"1"}},{"base_weights":[-5.078187E-4,3.2051018E-1,-3.8905826E-1,-2.1859492E-1,6.581029E-1,-7.179188E-1,1.0314726E-1,7.310704E-2,-1.6024671E-1,-6.577236E-2,1.6490328E-1,-1.9149116E-1,-2.7474402E-2,-3.1884756E-2,2.3646665E-1],"categories":[],"categories_nodes":[],"categories_segments":[],"categories_sizes":[],"default_left":[0,0,0,0,0,0,0,0,0,0,0,0,0,0,0],"id":8,"left_children":[1,3,5,7,9,11,13,-1,-1,-1,-1,-1,-1,-1,-1],"loss_changes":[2.314826E1,1.863931E1,1.366444E1,1.3866708E1,1.0575998E1,6.8851967E0,9.965325E0,0E0,0E0,0E0,0E0,0E0,0E0,0E0,0E0],"parents":[2147483647,0,0,1,1,2,2,3,3,4,4,5,5,6,6],"right_children":[2,4,6,8,10,12,14,-1,-1,-1,-1,-1,-1,-1,-1],"split_conditions":[2.8422242E-2,-2.9245675E-1,1.9619495E-1,1.5005487E-1,-1.0089929E0,5.372178E-1,9.6442586E-1,7.310704E-2,-1.6024671E-1,-6.577236E-2,1.6490328E-1,-1.9149116E-1,-2.7474402E-2,-3.1884756E-2,2.3646665E-1],"split_indices":[10,5,2,0,2,9,5,0,0,0,0,0,0,0,0],"split_type":[0,0,0,0,0,0,0,0,0,0,0,0,0,0,0],"sum_hessian":[1.8358473E2,1.006245E2,8.296023E1,3.8883522E1,6.1740974E1,4.945737E1,3.3502857E1,1.960298E1,1.9280542E1,8.767361E0,5.2973614E1,3.455185E1,1.4905521E1,2.763211E1,5.8707485E0],"tree_param":{"num_deleted":"0","num_feature":"12","num_nodes":"15","size_leaf_vector":"1"}},{"base_weights":[-6.2809285E-4,-2.9127705E-1,4.079725E-1,-4.8844615E-1,5.4029113E-1,5.9815866E-1,-7.8892595E-1,8.45674E-2,-1.4233778E-1,2.0524299E-1,-1.3728975E-2,2.03189E-1,2.8012669E-2,-1.9997753E-1,1.04446426E-1],"categories":[],"categories_nodes":[],"categories_segments":[],"categories_sizes":[],"default_left":[0,0,0,0,0,0,0,0,0,0,0,0,0,0,0],"id":9,"left_children":[1,3,5,7,9,11,13,-1,-1,-1,-1,-1,-1,-1,-1],"loss_changes":[2.141079E1,1.7536724E1,1.753042E1,1.773187E1,6.1854253E0,1.2342255E1,3.4835563E0,0E0,0E0,0E0,0E0,0E0,0E0,0E0,0E0],"parents":[2147483647,0,0,1,1,2,2,3,3,4,4,5,5,6,6],"right_children":[2,4,6,8,10,12,14,-1,-1,-1,-1,-1,-1,-1,-1],"split_conditions":[1.21645235E-1,9.100929E-1,1.0661932E0,-9.32819E-1,2.4695937E-1,7.481984E-2,1.6543659E0,8.45674E-2,-1.4233778E-1,2.0524299E-1,-1.3728975E-2,2.03189E-1,2.8012669E-2,-1.9997753E-1,1.04446426E-1],"split_indices":[8,6,10,10,0,0,8,0,0,0,0,0,0,0,0],"split_type":[0,0,0,0,0,0,0,0,0,0,0,0,0,0,0],"sum_hessian":[1.7828659E2,1.0434805E2,7.393853E1,8.4682106E1,1.9665945E1,6.4232315E1,9.706215E0,1.6487127E1,6.8194984E1,1.0556623E1,9.109323E0,3.295727E1,3.1275042E1,8.565458E0,1.1407573E0],"tree_param":{"num_deleted":"0","num_feature":"12","num_nodes":"15","size_leaf_vector":"1"}},{"base_weights":[1.5698776E-3,6.785509E-1,-1.5622921E-1,9.399174E-1,-8.560533E-2,5.797325E-1,-3.1985733E-1,-1.24329284E-1,2.1087085E-1,-2.0885675E-1,6.2057972E-2,-6.916166E-2,1.9652231E-1,-1.8579769E-1,-4.737125E-3],"categories":[],"categories_nodes":[],"categories_segments":[],"categories_sizes":[],"default_left":[0,0,0,0,0,0,0,0,0,0,0,0,0,0,0],"id":10,"left_children":[1,3,5,7,9,11,13,-1,-1,-1,-1,-1,-1,-1,-1],"loss_changes":[1.8607199E1,6.656412E0,1.719692E1,5.0545406E0,3.8567016E0,1.005342E1,2.0943691E1,0E0,0E0,0E0,0E0,0E0,0E0,0E0,0E0],"parents":[2147483647,0,0,1,1,2,2,3,3,4,4,5,5,6,6],"right_children":[2,4,6,8,10,12,14,-1,-1,-1,-1,-1,-1,-1,-1],"split_conditions":[-8.6932683E-1,7.428498E-1,-9.808802E-1,-2.1227942E0,-6.273713E-1,-6.298731E-1,-4.642569E-1,-1.24329284E-1,2.1087085E-1,-2.0885675E-1,6.2057972E-2,-6.916166E-2,1.9652231E-1,-1.8579769E-1,-4.737125E-3],"split_indices":[0,10,10,2,6,2,6,0,0,0,0,0,0,0,0],"split_type":[0,0,0,0,0,0,0,0,0,0,0,0,0,0,0],"sum_hessian":[1.7218832E2,3.1925066E1,1.4026326E2,2.3617203E1,8.307863E0,2.5050203E1,1.1521306E2,1.309945E0,2.2307257E1,1.9494361E0,6.3584275E0,7.640109E0,1.7410093E1,3.699318E1,7.821988E1],"tree_param":{"num_deleted":"0","num_feature":"12","num_nodes":"15","size_leaf_vector":"1"}},{"base_weights":[1.3001198E-3,1.7944697E-1,-5.699524E-1,-6.420676E-2,7.029609E-1,-9.747429E-2,-9.916719E-1,-7.868177E-2,9.002979E-2,1.7332785E-1,-9.397604E-2,-1.6913055E-1,8.2232915E-2,-2.1257363E-1,2.048003E-2],"categories":[],"categories_nodes":[],"categories_segments":[],"categories_sizes":[],"default_left":[0,0,0,0,0,0,0,0,0,0,0,0,0,0,0],"id":11,"left_children":[1,3,5,7,9,11,13,-1,-1,-1,-1,-1,-1,-1,-1],"loss_changes":[1.704939E1,1.6334337E1,7.838917E0,1.508804E1,8.209234E0,7.917633E0,1.7395172E0,0E0,0E0,0E0,0E0,0E0,0E0,0E0,0E0],"parents":[2147483647,0,0,1,1,2,2,3,3,4,4,5,5,6,6],"right_children":[2,4,6,8,10,12,14,-1,-1,-1,-1,-1,-1,-1,-1],"split_conditions":[7.090594E-1,4.3580508E-1,-2.7864724E-1,2.3666084E-1,1.4612597E0,-3.516913E-1,1.6394168E0,-7.868177E-2,9.002979E-2,1.7332785E-1,-9.397604E-2,-1.6913055E-1,8.2232915E-2,-2.1257363E-1,2.048003E-2],"split_indices":[0,2,10,6,10,8,3,0,0,0,0,0,0,0,0],"split_type":[0,0,0,0,0,0,0,0,0,0,0,0,0,0,0],"sum_hessian":[1.6552884E2,1.2670224E2,3.8826607E1,8.7060104E1,3.9642136E1,1.8891943E1,1.9934666E1,5.3227898E1,3.3832207E1,3.5016422E1,4.625715E0,7.3774943E0,1.1514447E1,1.8743465E1,1.1912004E0],"tree_param":{"num_deleted":"0","num_feature":"12","num_nodes":"15","size_leaf_vector":"1"}},{"base_weights":[-8.961838E-4,-2.4313334E-1,4.160309E-1,-5.4936934E-1,2.9111257E-1,5.5575514E-1,-4.731953E-1,-1.4896338E-1,4.821555E-2,8.930864E-2,-2.1104991E-1,-1.3489959E-2,1.6440211E-1,1.4080916E-1,-1.5900703E-1],"categories":[],"categories_nodes":[],"categories_segments":[],"categories_sizes":[],"default_left":[0,0,0,0,0,0,0,0,0,0,0,0,0,0,0],"id":12,"left_children":[1,3,5,7,9,11,13,-1,-1,-1,-1,-1,-1,-1,-1],"loss_changes":[1.6438377E1,1.7002644E1,7.6947937E0,1.034259E1,8.457481E0,8.709202E0,3.8418493E0,0E0,0E0,0E0,0E0,0E0,0E0,0E0,0E0],"parents":[2147483647,0,0,1,1,2,2,3,3,4,4,5,5,6,6],"right_children":[2,4,6,8,10,12,14,-1,-1,-1,-1,-1,-1,-1,-1],"split_conditions":[3.051549E-1,4.2237964E-1,1.0798377E0,9.100929E-1,1.4612597E0,-6.368597E-1,4.2542708E-1,-1.4896338E-1,4.821555E-2,8.930864E-2,-2.1104991E-1,-1.3489959E-2,1.6440211E-1,1.4080916E-1,-1.5900703E-1],"split_indices":[5,4,0,6,10,2,5,0,0,0,0,0,0,0,0],"split_type":[0,0,0,0,0,0,0,0,0,0,0,0,0,0,0],"sum_hessian":[1.6076234E2,1.01947235E2,5.8815113E1,6.478399E1,3.716325E1,5.1152523E1,7.6625886E0,5.1987244E1,1.2796744E1,3.3916138E1,3.247111E0,1.5535763E1,3.5616764E1,1.390132E0,6.2724566E0],"tree_param":{"num_deleted":"0","num_feature":"12","num_nodes":"15","size_leaf_vector":"1"}},{"base_weights":[-1.749818E-3,-1.9744062E-1,4.5687142E-1,-3.4256414E-1,5.568868E-1,5.9279704E-1,-7.030077E-1,3.932882E-2,-1.10327005E-1,1.9015926E-1,-9.584901E-2,-5.3069413E-2,1.5584007E-1,-1.9852595E-1,9.522806E-3],"categories":[],"categories_nodes":[],"categories_segments":[],"categories_sizes":[],"default_left":[0,0,0,0,0,0,0,0,0,0,0,0,0,0,0],"id":13,"left_children":[1,3,5,7,9,11,13,-1,-1,-1,-1,-1,-1,-1,-1],"loss_changes":[1.43313265E1,1.2442699E1,7.9463396E0,1.075958E1,7.981298E0,7.1317883E0,1.2358279E0,0E0,0E0,0E0,0E0,0E0,0E0,0E0,0E0],"parents":[2147483647,0,0,1,1,2,2,3,3,4,4,5,5,6,6],"right_children":[2,4,6,8,10,12,14,-1,-1,-1,-1,-1,-1,-1,-1],"split_conditions":[4.5111918E-1,1.0039376E0,1.2606269E0,-6.919349E-1,8.846756E-1,-9.449921E-1,2.349055E-1,3.932882E-2,-1.10327005E-1,1.9015926E-1,-9.584901E-2,-5.3069413E-2,1.5584007E-1,-1.9852595E-1,9.522806E-3],"split_indices":[8,6,10,10,10,6,7,0,0,0,0,0,0,0,0],"split_type":[0,0,0,0,0,0,0,0,0,0,0,0,0,0,0],"sum_hessian":[1.5767905E2,1.1091977E2,4.675928E1,9.348102E1,1.7438753E1,4.2292015E1,4.467264E0,2.6135418E1,6.7345604E1,1.2694865E1,4.7438874E0,7.4715867E0,3.482043E1,2.990854E0,1.47641E0],"tree_param":{"num_deleted":"0","num_feature":"12","num_nodes":"15","size_leaf_vector":"1"}},{"base_weights":[-1.5923313E-3,-3.6973396E-1,2.2923048E-1,-6.6588855E-1,1.2632824E-1,3.992821E-1,-4.656836E-1,9.5925316E-2,-1.5738204E-1,1.10712945E-1,-6.298584E-2,7.0846938E-3,1.7596835E-1,-1.22657E-1,1.3986073E-1],"categories":[],"categories_nodes":[],"categories_segments":[],"categories_sizes":[],"default_left":[0,0,0,0,0,0,0,0,0,0,0,0,0,0,0],"id":14,"left_children":[1,3,5,7,9,11,13,-1,-1,-1,-1,-1,-1,-1,-1],"loss_changes":[1.3170533E1,8.858774E0,1.1443773E1,5.58432E0,4.5420957E0,1.3446026E1,3.728847E0,0E0,0E0,0E0,0E0,0E0,0E0,0E0,0E0],"parents":[2147483647,0,0,1,1,2,2,3,3,4,4,5,5,6,6],"right_children":[2,4,6,8,10,12,14,-1,-1,-1,-1,-1,-1,-1,-1],"split_conditions":[-2.80562E-1,3.051549E-1,7.0332724E-1,-1.5228223E0,-2.2632455E-2,9.905219E-2,1.3638567E0,9.5925316E-2,-1.5738204E-1,1.10712945E-1,-6.298584E-2,7.0846938E-3,1.7596835E-1,-1.22657E-1,1.3986073E-1],"split_indices":[4,5,10,10,0,6,8,0,0,0,0,0,0,0,0],"split_type":[0,0,0,0,0,0,0,0,0,0,0,0,0,0,0],"sum_hessian":[1.5299475E2,5.8727642E1,9.426711E1,3.6559105E1,2.2168537E1,7.607606E1,1.819106E1,3.2102003E0,3.3348904E1,1.1133901E1,1.1034637E1,4.3906044E1,3.217001E1,1.656578E1,1.6252797E0],"tree_param":{"num_deleted":"0","num_feature":"12","num_nodes":"15","size_leaf_vector":"1"}},{"base_weights":[4.3840715E-4,6.338418E-1,-1.3641502E-1,8.8452893E-1,-2.0375868E-2,-6.070477E-1,7.3605575E-2,-6.5736525E-2,2.017072E-1,-1.3523397E-1,9.143127E-2,-1.8408453E-1,6.9681457E-3,5.5584695E-2,-1.0518004E-1],"categories":[],"categories_nodes":[],"categories_segments":[],"categories_sizes":[],"default_left":[0,0,0,0,0,0,0,0,0,0,0,0,0,0,0],"id":15,"left_children":[1,3,5,7,9,11,13,-1,-1,-1,-1,-1,-1,-1,-1],"loss_changes":[1.3082439E1,4.415719E0,1.2312031E1,3.2514467E0,2.9415493E0,7.756937E0,1.0766856E1,0E0,0E0,0E0,0E0,0E0,0E0,0E0,0E0],"parents":[2147483647,0,0,1,1,2,2,3,3,4,4,5,5,6,6],"right_children":[2,4,6,8,10,12,14,-1,-1,-1,-1,-1,-1,-1,-1],"split_conditions":[-9.1802883E-1,7.428498E-1,-4.8137888E-1,-1.6190073E0,1.13464445E-1,4.9643356E-1,4.840958E-1,-6.5736525E-2,2.017072E-1,-1.3523397E-1,9.143127E-2,-1.8408453E-1,6.9681457E-3,5.5584695E-2,-1.0518004E-1],"split_indices":[0,10,2,4,9,9,10,0,0,0,0,0,0,0,0],"split_type":[0,0,0,0,0,0,0,0,0,0,0,0,0,0,0],"sum_hessian":[1.4892456E2,2.5814566E1,1.2310999E2,1.8408604E1,7.405962E0,3.740319E1,8.5706795E1,1.5540613E0,1.6854544E1,2.9452667E0,4.4606953E0,2.4841465E1,1.2561728E1,6.432169E1,2.1385101E1],"tree_param":{"num_deleted":"0","num_feature":"12","num_nodes":"15","size_leaf_vector":"1"}},{"base_weights":[-2.8366613E-4,1.580023E-1,-5.2677625E-1,-5.1200056E-1,2.8675556E-1,-6.9571006E-1,4.8446286E-1,-1.8473701E-1,3.3072103E-2,9.924122E-3,1.4056914E-1,6.502851E-2,-1.8043162E-1,-9.500627E-2,1.722455E-1],"categories":[],"categories_nodes":[],"categories_segments":[],"categories_sizes":[],"default_left":[0,0,0,0,0,0,0,0,0,0,0,0,0,0,0],"id":16,"left_children":[1,3,5,7,9,11,13,-1,-1,-1,-1,-1,-1,-1,-1],"loss_changes":[1.2234648E1,9.884132E0,6.13424E0,5.3266487E0,9.370583E0,6.5079956E0,2.3782415E0,0E0,0E0,0E0,0E0,0E0,0E0,0E0,0E0],"parents":[2147483647,0,0,1,1,2,2,3,3,4,4,5,5,6,6],"right_children":[2,4,6,8,10,12,14,-1,-1,-1,-1,-1,-1,-1,-1],"split_conditions":[7.090594E-1,-1.0696672E0,1.2240694E0,3.829296E-1,3.134553E-1,-1.3763787E0,-5.524288E-1,-1.8473701E-1,3.3072103E-2,9.924122E-3,1.4056914E-1,6.502851E-2,-1.8043162E-1,-9.500627E-2,1.722455E-1],"split_indices":[0,2,8,9,5,10,7,0,0,0,0,0,0,0,0],"split_type":[0,0,0,0,0,0,0,0,0,0,0,0,0,0,0],"sum_hessian":[1.4481165E2,1.1187668E2,3.293497E1,1.7553843E1,9.432283E1,2.8487911E1,4.4470615E0,1.0691899E1,6.8619437E0,6.079453E1,3.3528305E1,4.6953278E0,2.3792583E1,1.1803317E0,3.2667296E0],"tree_param":{"num_deleted":"0","num_feature":"12","num_nodes":"15","size_leaf_vector":"1"}},{"base_weights":[-1.1862057E-3,-4.9729922E-1,1.6023247E-1,-7.293495E-1,9.41367E-2,2.6613322E-1,-5.906535E-1,-1.9552448E-1,-3.2588106E-2,1.3975178E-1,-9.153282E-2,1.0413247E-3,1.2128575E-1,1.6652788E-1,-1.5823609E-1],"categories":[],"categories_nodes":[],"categories_segments":[],"categories_sizes":[],"default_left":[0,0,0,0,0,0,0,0,0,0,0,0,0,0,0],"id":17,"left_children":[1,3,5,7,9,11,13,-1,-1,-1,-1,-1,-1,-1,-1],"loss_changes":[1.1535613E1,4.921835E0,8.80021E0,3.4282532E0,3.9398043E0,8.516064E0,4.5817175E0,0E0,0E0,0E0,0E0,0E0,0E0,0E0,0E0],"parents":[2147483647,0,0,1,1,2,2,3,3,4,4,5,5,6,6],"right_children":[2,4,6,8,10,12,14,-1,-1,-1,-1,-1,-1,-1,-1],"split_conditions":[-7.6324916E-1,4.2322686E-1,1.0496342E0,3.5108745E-1,-2.1107921E-1,9.905219E-2,-1.4781492E0,-1.9552448E-1,-3.2588106E-2,1.3975178E-1,-9.153282E-2,1.0413247E-3,1.2128575E-1,1.6652788E-1,-1.5823609E-1],"split_indices":[8,2,10,4,10,6,0,0,0,0,0,0,0,0,0],"split_type":[0,0,0,0,0,0,0,0,0,0,0,0,0,0,0],"sum_hessian":[1.4205266E2,3.4361954E1,1.07690704E2,2.4511618E1,9.850334E0,9.494568E1,1.2745029E1,1.6536991E1,7.974627E0,4.5731225E0,5.277211E0,5.431452E1,4.0631157E1,1.18462E0,1.156041E1],"tree_param":{"num_deleted":"0","num_feature":"12","num_nodes":"15","size_leaf_vector":"1"}},{"base_weights":[-1.6643086E-3,2.8024504E-1,-2.624691E-1,-2.9816622E-2,6.323626E-1,-3.946919E-1,4.9881333E-1,-6.7870446E-2,9.885464E-2,1.5512584E-1,-9.213447E-2,4.7445153E-3,-1.456412E-1,-6.1928805E-2,1.7035234E-1],"categories":[],"categories_nodes":[],"categories_segments":[],"categories_sizes":[],"default_left":[0,0,0,0,0,0,0,0,0,0,0,0,0,0,0],"id":18,"left_children":[1,3,5,7,9,11,13,-1,-1,-1,-1,-1,-1,-1,-1],"loss_changes":[1.0320397E1,7.3838077E0,7.535967E0,6.141844E0,5.3107233E0,8.76399E0,3.4684901E0,0E0,0E0,0E0,0E0,0E0,0E0,0E0,0E0],"parents":[2147483647,0,0,1,1,2,2,3,3,4,4,5,5,6,6],"right_children":[2,4,6,8,10,12,14,-1,-1,-1,-1,-1,-1,-1,-1],"split_conditions":[-5.6329723E-2,9.554425E-2,1.123629E0,2.3782289E-1,1.4612597E0,-3.7501803E-1,-5.95538E-1,-6.7870446E-2,9.885464E-2,1.5512584E-1,-9.213447E-2,4.7445153E-3,-1.456412E-1,-6.1928805E-2,1.7035234E-1],"split_indices":[0,4,2,2,10,10,6,0,0,0,0,0,0,0,0],"split_type":[0,0,0,0,0,0,0,0,0,0,0,0,0,0,0],"sum_hessian":[1.383686E2,6.6458115E1,7.19105E1,3.5826206E1,3.0631908E1,6.1679317E1,1.0231183E1,2.2745092E1,1.3081114E1,2.733892E1,3.2929869E0,2.7769539E1,3.390978E1,3.1465175E0,7.084666E0],"tree_param":{"num_deleted":"0","num_feature":"12","num_nodes":"15","size_leaf_vector":"1"}},{"base_weights":[-1.1757525E-3,-1.0632658E-1,5.938093E-1,-3.4749268E-3,-8.5593206E-1,-1.8827379E-1,8.7175995E-1,-1.2482019E-1,2.488505E-2,-2.0399642E-1,3.986909E-2,1.0944263E-1,-1.8594614E-1,1.9611184E-1,-2.6901161E-2],"categories":[],"categories_nodes":[],"categories_segments":[],"categories_sizes":[],"default_left":[0,0,0,0,0,0,0,0,0,0,0,0,0,0,0],"id":19,"left_children":[1,3,5,7,9,11,13,-1,-1,-1,-1,-1,-1,-1,-1],"loss_changes":[8.536156E0,8.935754E0,4.618649E0,8.250048E0,2.6242857E0,3.8873806E0,1.8065414E0,0E0,0E0,0E0,0E0,0E0,0E0,0E0,0E0],"parents":[2147483647,0,0,1,1,2,2,3,3,4,4,5,5,6,6],"right_children":[2,4,6,8,10,12,14,-1,-1,-1,-1,-1,-1,-1,-1],"split_conditions":[9.596118E-1,1.1280698E0,-6.390596E-1,-1.0113838E0,1.1875461E0,-4.427336E-1,1.2328314E0,-1.2482019E-1,2.488505E-2,-2.0399642E-1,3.986909E-2,1.0944263E-1,-1.8594614E-1,1.9611184E-1,-2.6901161E-2],"split_indices":[8,0,6,5,7,10,10,0,0,0,0,0,0,0,0],"split_type":[0,0,0,0,0,0,0,0,0,0,0,0,0,0,0],"sum_hessian":[1.3443138E2,1.14939575E2,1.9491806E1,1.0195518E2,1.2984402E1,5.1955304E0,1.4296276E1,1.6758108E1,8.519707E1,1.1266408E1,1.7179934E0,2.7397828E0,2.4557474E0,1.2924413E1,1.3718636E0],"tree_param":{"num_deleted":"0","num_feature":"12","num_nodes":"15","size_leaf_vector":"1"}}]},"name":"gbtree"},"learner_model_param":{"base_score":"4.9000132E-1","boost_from_average":"1","num_class":"0","num_feature":"12","num_target":"1"},"objective":{"name":"binary:logistic","reg_loss_param":{"scale_pos_weight":"1"}}},"version":[2,1,4]}