{"learner":{"attributes":{},"feature_names":[],"feature_types":[],"gradient_booster":{"model":{"gbtree_model_param":{"num_parallel_tree":"1","num_trees":"20"},"iteration_indptr":[0,1,2,3,4,5,6,7,8,9,10,11,12,13,14,15,16,17,18,19,20],"tree_info":[0,0,0,0,0,0,0,0,0,0,0,0,0,0,0,0,0,0,0,0],"trees":[{"base_weights":[-1.1774856E-5,6.331646E-1,-5.4876494E-1,8.95652E-2,1.2935663E0,-9.121347E-1,2.9189178E-1,-1.2332463E-1,1.640313E-1,-7.2701112E-3,2.8826416E-1,-2.9822347E-1,-7.227128E-2,-1.5501846E-1,1.9835396E-1],"categories":[],"categories_nodes":[],"categories_segments":[],"categories_sizes":[],"default_left":[0,0,0,0,0,0,0,0,0,0,0,0,0,0,0],"id":0,"left_children":[1,3,5,7,9,11,13,-1,-1,-1,-1,-1,-1,-1,-1],"loss_changes":[8.750061E1,4.1858295E1,4.147693E1,3.414809E1,1.0410957E1,2.957624E1,3.173876E1,0E0,0E0,0E0,0E0,0E0,0E0,0E0,0E0],"parents":[2147483647,0,0,1,1,2,2,3,3,4,4,5,5,6,6],"right_children":[2,4,6,8,10,12,14,-1,-1,-1,-1,-1,-1,-1,-1],"split_conditions":[-7.5905606E-2,1.1484979E-1,4.2322686E-1,-1.6117329E-3,-1.2499876E0,-5.0127966E-4,-3.3960843E-1,-1.2332463E-1,1.640313E-1,-7.2701112E-3,2.8826416E-1,-2.9822347E-1,-7.227128E-2,-1.5501846E-1,1.9835396E-1],"split_indices":[0,5,2,2,11,11,10,0,0,0,0,0,0,0,0],"split_type":[0,0,0,0,0,0,0,0,0,0,0,0,0,0,0],"sum_hessian":[2.4983107E2,1.15921616E2,1.3390945E2,6.420658E1,5.171503E1,9.343682E1,4.0472633E1,3.272787E1,3.1478714E1,5.2464523E0,4.646858E1,4.471976E1,4.8717056E1,1.5989188E1,2.4483444E1],"tree_param":{"num_deleted":"0","num_feature":"12","num_nodes":"15","size_leaf_vector":"1"}},{"base_weights":[-5.5024866E-4,5.1358414E-1,-4.4841608E-1,-2.4909403E-2,9.8249006E-1,-1.1498804E0,-7.290415E-2,1.6075025E-1,-9.047001E-2,2.5544676E-1,3.0354692E-2,-2.7978987E-1,2.695314E-2,-1.2732978E-1,9.6556954E-2],"categories":[],"categories_nodes":[],"categories_segments":[],"categories_sizes":[],"default_left":[0,0,0,0,0,0,0,0,0,0,0,0,0,0,0],"id":1,"left_children":[1,3,5,7,9,11,13,-1,-1,-1,-1,-1,-1,-1,-1],"loss_changes":[5.737475E1,2.931567E1,3.4993374E1,1.9834286E1,1.4994831E1,1.5023354E1,2.7813068E1,0E0,0E0,0E0,0E0,0E0,0E0,0E0,0E0],"parents":[2147483647,0,0,1,1,2,2,3,3,4,4,5,5,6,6],"right_children":[2,4,6,8,10,12,14,-1,-1,-1,-1,-1,-1,-1,-1],"split_conditions":[-7.5905606E-2,-7.6849006E-2,-4.4994628E-1,-1.0807652E0,5.7673264E-1,9.0927327E-1,-5.0127966E-4,1.6075025E-1,-9.047001E-2,2.5544676E-1,3.0354692E-2,-2.7978987E-1,2.695314E-2,-1.2732978E-1,9.6556954E-2],"split_indices":[0,2,5,0,9,2,11,0,0,0,0,0,0,0,0],"split_type":[0,0,0,0,0,0,0,0,0,0,0,0,0,0,0],"sum_hessian":[2.4717012E2,1.1500344E2,1.3216669E2,5.397044E1,6.1033E1,4.5363857E1,8.6802826E1,1.80661E1,3.5904343E1,4.4652496E1,1.6380505E1,3.7922432E1,7.4414234E0,4.3016758E1,4.3786068E1],"tree_param":{"num_deleted":"0","num_feature":"12","num_nodes":"15","size_leaf_vector":"1"}},{"base_weights":[-5.130293E-4,-1.6250779E-1,1.204498E0,-4.2494014E-1,6.418583E-1,-1.6115583E-1,1.3616934E0,-1.649792E-1,2.493457E-2,2.2632936E-3,2.2729538E-1,-1.6167133E-1,1.4027406E-1,2.9167265E-1,-3.3228628E-3],"categories":[],"categories_nodes":[],"categories_segments":[],"categories_sizes":[],"default_left":[0,0,0,0,0,0,0,0,0,0,0,0,0,0,0],"id":2,"left_children":[1,3,5,7,9,11,13,-1,-1,-1,-1,-1,-1,-1,-1],"loss_changes":[4.7817425E1,4.5853386E1,6.4511414E0,3.602411E1,1.6677788E1,2.738817E0,3.5068626E0,0E0,0E0,0E0,0E0,0E0,0E0,0E0,0E0],"parents":[2147483647,0,0,1,1,2,2,3,3,4,4,5,5,6,6],"right_children":[2,4,6,8,10,12,14,-1,-1,-1,-1,-1,-1,-1,-1],"split_conditions":[1.1658552E0,7.580844E-1,-1.2879205E0,1.372245E-1,-1.4161193E-1,3.772245E-1,1.2199159E0,-1.649792E-1,2.493457E-2,2.2632936E-3,2.2729538E-1,-1.6167133E-1,1.4027406E-1,2.9167265E-1,-3.3228628E-3],"split_indices":[5,6,6,10,11,10,4,0,0,0,0,0,0,0,0],"split_type":[0,0,0,0,0,0,0,0,0,0,0,0,0,0,0],"sum_hessian":[2.4295671E2,2.1492815E2,2.8028563E1,1.624115E2,5.2516647E1,2.8906345E0,2.5137928E1,9.371432E1,6.869719E1,2.3535883E1,2.8980764E1,1.6873364E0,1.2032981E0,2.3436117E1,1.7018111E0],"tree_param":{"num_deleted":"0","num_feature":"12","num_nodes":"15","size_leaf_vector":"1"}},{"base_weights":[1.25152E-3,2.7870226E-1,-6.8500614E-1,-1.3477899E-1,7.7168095E-1,-1.2512382E0,-2.2398207E-1,1.3085559E-1,-1.0273688E-1,2.8598115E-1,7.513901E-2,-3.0660114E-1,-8.7340824E-2,2.3833392E-2,-2.1000777E-1],"categories":[],"categories_nodes":[],"categories_segments":[],"categories_sizes":[],"default_left":[0,0,0,0,0,0,0,0,0,0,0,0,0,0,0],"id":3,"left_children":[1,3,5,7,9,11,13,-1,-1,-1,-1,-1,-1,-1,-1],"loss_changes":[4.6128735E1,3.526944E1,1.7927654E1,2.8641762E1,2.0012844E1,6.4648285E0,1.13684845E1,0E0,0E0,0E0,0E0,0E0,0E0,0E0,0E0],"parents":[2147483647,0,0,1,1,2,2,3,3,4,4,5,5,6,6],"right_children":[2,4,6,8,10,12,14,-1,-1,-1,-1,-1,-1,-1,-1],"split_conditions":[6.269274E-1,7.544329E-2,-1.2888262E-1,-4.9237642E-1,-3.1275147E-1,7.428498E-1,5.319389E-1,1.3085559E-1,-1.0273688E-1,2.8598115E-1,7.513901E-2,-3.0660114E-1,-8.7340824E-2,2.3833392E-2,-2.1000777E-1],"split_indices":[3,2,11,0,9,10,9,0,0,0,0,0,0,0,0],"split_type":[0,0,0,0,0,0,0,0,0,0,0,0,0,0,0],"sum_hessian":[2.4026666E2,1.7151701E2,6.874964E1,9.367478E1,7.784224E1,3.0085024E1,3.866462E1,3.0153805E1,6.3520977E1,2.8258595E1,4.9583645E1,2.169732E1,8.387704E0,2.7921568E1,1.0743051E1],"tree_param":{"num_deleted":"0","num_feature":"12","num_nodes":"15","size_leaf_vector":"1"}},{"base_weights":[-6.788859E-5,-9.11472E-1,1.7432038E-1,-1.0949625E0,3.1072083E-1,7.8270066E-1,-1.08865224E-1,-4.6192646E-2,-2.5575837E-1,2.1780205E-1,-8.620333E-2,2.0991468E-1,-5.370753E-2,-1.1502957E-1,8.1136376E-2],"categories":[],"categories_nodes":[],"categories_segments":[],"categories_sizes":[],"default_left":[0,0,0,0,0,0,0,0,0,0,0,0,0,0,0],"id":4,"left_children":[1,3,5,7,9,11,13,-1,-1,-1,-1,-1,-1,-1,-1],"loss_changes":[3.78088E1,8.908403E0,3.4486584E1,5.015888E0,3.7981315E0,1.8109253E1,3.313476E1,0E0,0E0,0E0,0E0,0E0,0E0,0E0,0E0],"parents":[2147483647,0,0,1,1,2,2,3,3,4,4,5,5,6,6],"right_children":[2,4,6,8,10,12,14,-1,-1,-1,-1,-1,-1,-1,-1],"split_conditions":[-1.0272021E0,1.1413373E0,-5.3575194E-1,-8.63739E-1,-3.3350927E-1,8.5096383E-1,5.3337228E-2,-4.6192646E-2,-2.5575837E-1,2.1780205E-1,-8.620333E-2,2.0991468E-1,-5.370753E-2,-1.1502957E-1,8.1136376E-2],"split_indices":[5,2,3,0,0,0,6,0,0,0,0,0,0,0,0],"split_type":[0,0,0,0,0,0,0,0,0,0,0,0,0,0,0],"sum_hessian":[2.35884E2,3.7206303E1,1.9867769E2,3.2440098E1,4.766202E0,6.254518E1,1.361325E2,6.087101E0,2.6352999E1,2.09733E0,2.668872E0,4.9883167E1,1.2662012E1,7.135387E1,6.477865E1],"tree_param":{"num_deleted":"0","num_feature":"12","num_nodes":"15","size_leaf_vector":"1"}},{"base_weights":[-7.3471345E-4,-3.08485E-1,4.5443627E-1,2.2061531E-1,-6.759413E-1,-3.210275E-1,7.2484916E-1,-8.252066E-2,1.537264E-1,2.6689095E-2,-1.9013673E-1,-1.4551191E-1,1.551895E-1,1.800205E-1,-1.4710926E-1],"categories":[],"categories_nodes":[],"categories_segments":[],"categories_sizes":[],"default_left":[0,0,0,0,0,0,0,0,0,0,0,0,0,0,0],"id":5,"left_children":[1,3,5,7,9,11,13,-1,-1,-1,-1,-1,-1,-1,-1],"loss_changes":[3.2757893E1,2.7274578E1,2.0013939E1,2.0421831E1,1.849104E1,1.1750468E1,1.8641846E1,0E0,0E0,0E0,0E0,0E0,0E0,0E0,0E0],"parents":[2147483647,0,0,1,1,2,2,3,3,4,4,5,5,6,6],"right_children":[2,4,6,8,10,12,14,-1,-1,-1,-1,-1,-1,-1,-1],"split_conditions":[1.8821858E-1,-2.6063555E-1,-7.312932E-1,-1.2683204E-1,-7.145384E-1,7.4204415E-1,1.2776899E0,-8.252066E-2,1.537264E-1,2.6689095E-2,-1.9013673E-1,-1.4551191E-1,1.551895E-1,1.800205E-1,-1.4710926E-1],"split_indices":[10,9,5,2,3,2,0,0,0,0,0,0,0,0,0],"split_type":[0,0,0,0,0,0,0,0,0,0,0,0,0,0,0],"sum_hessian":[2.3185222E2,1.38519E2,9.333323E1,5.6936188E1,8.158281E1,2.4083044E1,6.925018E1,2.652934E1,3.0406847E1,2.0805225E1,6.0777584E1,1.7816952E1,6.266092E0,6.2172848E1,7.077335E0],"tree_param":{"num_deleted":"0","num_feature":"12","num_nodes":"15","size_leaf_vector":"1"}},{"base_weights":[-1.0021447E-3,-3.2617885E-1,3.910739E-1,-4.898523E-1,8.605923E-1,-4.495752E-1,6.345091E-1,-1.6619805E-1,2.3387318E-2,2.3525739E-1,-6.7310646E-2,-1.9424379E-1,1.2021353E-1,-7.180267E-2,1.7277312E-1],"categories":[],"categories_nodes":[],"categories_segments":[],"categories_sizes":[],"default_left":[0,0,0,0,0,0,0,0,0,0,0,0,0,0,0],"id":6,"left_children":[1,3,5,7,9,11,13,-1,-1,-1,-1,-1,-1,-1,-1],"loss_changes":[2.9135025E1,2.4685604E1,2.148721E1,2.2952614E1,6.2547855E0,1.3655044E1,1.8711681E1,0E0,0E0,0E0,0E0,0E0,0E0,0E0,0E0],"parents":[2147483647,0,0,1,1,2,2,3,3,4,4,5,5,6,6],"right_children":[2,4,6,8,10,12,14,-1,-1,-1,-1,-1,-1,-1,-1],"split_conditions":[1.0675203E-1,1.1604348E0,-7.551898E-1,3.8575083E-1,8.911892E-1,2.795441E-1,-9.449921E-1,-1.6619805E-1,2.3387318E-2,2.3525739E-1,-6.7310646E-2,-1.9424379E-1,1.2021353E-1,-7.180267E-2,1.7277312E-1],"split_indices":[11,5,2,2,0,5,6,0,0,0,0,0,0,0,0],"split_type":[0,0,0,0,0,0,0,0,0,0,0,0,0,0,0],"sum_hessian":[2.2652023E2,1.2391595E2,1.0260428E2,1.09413445E2,1.4502509E1,2.2850023E1,7.975426E1,6.9801445E1,3.9611996E1,1.148996E1,3.0125494E0,1.5319496E1,7.5305276E0,1.485225E1,6.490201E1],"tree_param":{"num_deleted":"0","num_feature":"12","num_nodes":"15","size_leaf_vector":"1"}},{"base_weights":[-9.083224E-4,3.7314728E-1,-3.3027208E-1,1.9511802E-2,8.249259E-1,2.5024876E-1,-5.844408E-1,-3.8024824E-2,2.1023865E-1,-9.9764496E-2,1.9023754E-1,-2.758861E-2,2.251751E-1,9.794304E-3,-1.6885956E-1],"categories":[],"categories_nodes":[],"categories_segments":[],"categories_sizes":[],"default_left":[0,0,0,0,0,0,0,0,0,0,0,0,0,0,0],"id":7,"left_children":[1,3,5,7,9,11,13,-1,-1,-1,-1,-1,-1,-1,-1],"loss_changes":[2.7475834E1,1.6667385E1,1.7644535E1,1.30898075E1,8.133778E0,1.2668208E1,1.3666609E1,0E0,0E0,0E0,0E0,0E0,0E0,0E0,0E0],"parents":[2147483647,0,0,1,1,2,2,3,3,4,4,5,5,6,6],"right_children":[2,4,6,8,10,12,14,-1,-1,-1,-1,-1,-1,-1,-1],"split_conditions":[-7.5905606E-2,1.1484979E-1,-5.0176406E-1,9.297923E-1,-1.4701467E0,4.7704422E-1,-6.327013E-1,-3.8024824E-2,2.1023865E-1,-9.9764496E-2,1.9023754E-1,-2.758861E-2,2.251751E-1,9.794304E-3,-1.6885956E-1],"split_indices":[0,5,9,10,10,2,3,0,0,0,0,0,0,0,0],"split_type":[0,0,0,0,0,0,0,0,0,0,0,0,0,0,0],"sum_hessian":[2.2101715E2,1.03425156E2,1.17592E2,5.859913E1,4.4826027E1,3.581227E1,8.177973E1,4.9380756E1,9.218372E0,3.6463563E0,4.1179672E1,2.5395945E1,1.04163265E1,2.4026257E1,5.775347E1],"tree_param":{"num_deleted":"0","num_feature":"12","num_nodes":"15","size_leaf_vector":"1"}},{"base_weights":[1.1609697E-3,1.4511828E-1,-8.3862513E-1,3.675934E-1,-4.1175568E-1,-1.1024382E0,-7.274887E-2,-1.1939498E-1,1.0663571E-1,-1.9920588E-1,-8.014766E-3,-2.400831E-1,5.4875262E-2,1.4818688E-1,-1.4967422E-1],"categories":[],"categories_nodes":[],"categories_segments":[],"categories_sizes":[],"default_left":[0,0,0,0,0,0,0,0,0,0,0,0,0,0,0],"id":8,"left_children":[1,3,5,7,9,11,13,-1,-1,-1,-1,-1,-1,-1,-1],"loss_changes":[2.6293123E1,2.3152473E1,6.3503704E0,2.1590672E1,1.1571781E1,3.5131912E0,5.62582E0,0E0,0E0,0E0,0E0,0E0,0E0,0E0,0E0],"parents":[2147483647,0,0,1,1,2,2,3,3,4,4,5,5,6,6],"right_children":[2,4,6,8,10,12,14,-1,-1,-1,-1,-1,-1,-1,-1],"split_conditions":[1.1215314E0,6.3358307E-1,6.9370943E-1,-1.1187749E0,-3.7501803E-1,1.0262647E0,-2.0478922E-1,-1.1939498E-1,1.0663571E-1,-1.9920588E-1,-8.014766E-3,-2.400831E-1,5.4875262E-2,1.4818688E-1,-1.4967422E-1],"split_indices":[3,9,11,6,10,5,0,0,0,0,0,0,0,0,0],"split_type":[0,0,0,0,0,0,0,0,0,0,0,0,0,0,0],"sum_hessian":[2.1548357E2,1.8465665E2,3.0826906E1,1.3218694E2,5.2469723E1,2.2601995E1,8.224912E0,1.8985746E1,1.1320119E2,1.9747461E1,3.272226E1,2.1220049E1,1.3819462E0,3.6873705E0,4.5375414E0],"tree_param":{"num_deleted":"0","num_feature":"12","num_nodes":"15","size_leaf_vector":"1"}},{"base_weights":[-1.9841695E-3,-5.602348E-1,2.0257822E-1,-6.8587154E-1,7.519289E-1,-1.0768235E-1,5.77084E-1,1.5292735E-1,-1.6211812E-1,-2.6762668E-2,2.2270279E-1,5.931073E-2,-1.0641376E-1,1.4607859E-1,-9.012105E-2],"categories":[],"categories_nodes":[],"categories_segments":[],"categories_sizes":[],"default_left":[0,0,0,0,0,0,0,0,0,0,0,0,0,0,0],"id":9,"left_children":[1,3,5,7,9,11,13,-1,-1,-1,-1,-1,-1,-1,-1],"loss_changes":[2.4385866E1,9.956085E0,1.8221447E1,1.016865E1,1.904361E0,1.4965492E1,1.1510382E1,0E0,0E0,0E0,0E0,0E0,0E0,0E0,0E0],"parents":[2147483647,0,0,1,1,2,2,3,3,4,4,5,5,6,6],"right_children":[2,4,6,8,10,12,14,-1,-1,-1,-1,-1,-1,-1,-1],"split_conditions":[-5.942775E-1,1.7029059E0,5.3337228E-2,-1.4781492E0,-1.7171293E-1,1.2979639E-1,1.110292E0,1.5292735E-1,-1.6211812E-1,-2.6762668E-2,2.2270279E-1,5.931073E-2,-1.0641376E-1,1.4607859E-1,-9.012105E-2],"split_indices":[11,6,6,0,7,3,0,0,0,0,0,0,0,0,0],"split_type":[0,0,0,0,0,0,0,0,0,0,0,0,0,0,0],"sum_hessian":[2.1154814E2,5.6264275E1,1.5528386E2,5.1783424E1,4.48085E0,8.5316E1,6.996786E1,3.6937304E0,4.8089695E1,1.4815518E0,2.9992983E0,4.384963E1,4.1466373E1,6.1136856E1,8.831004E0],"tree_param":{"num_deleted":"0","num_feature":"12","num_nodes":"15","size_leaf_vector":"1"}},{"base_weights":[-7.893666E-4,-5.546504E-1,1.680854E-1,1.7386768E-2,-8.410576E-1,-1.0150501E-1,6.3242185E-1,-1.0973479E-1,1.4279367E-1,6.6002674E-2,-2.0493925E-1,-1.7554235E-1,2.1085931E-2,-4.6495954E-3,1.6631916E-1],"categories":[],"categories_nodes":[],"categories_segments":[],"categories_sizes":[],"default_left":[0,0,0,0,0,0,0,0,0,0,0,0,0,0,0],"id":10,"left_children":[1,3,5,7,9,11,13,-1,-1,-1,-1,-1,-1,-1,-1],"loss_changes":[1.9575102E1,8.0264015E0,2.0141556E1,7.211262E0,7.350292E0,1.6529915E1,7.7311573E0,0E0,0E0,0E0,0E0,0E0,0E0,0E0,0E0],"parents":[2147483647,0,0,1,1,2,2,3,3,4,4,5,5,6,6],"right_children":[2,4,6,8,10,12,14,-1,-1,-1,-1,-1,-1,-1,-1],"split_conditions":[-7.8681004E-1,-5.0176406E-1,2.8944412E-1,2.889449E-1,-1.1069827E0,-7.9710513E-1,-6.193095E-1,-1.0973479E-1,1.4279367E-1,6.6002674E-2,-2.0493925E-1,-1.7554235E-1,2.1085931E-2,-4.6495954E-3,1.6631916E-1],"split_indices":[10,9,5,6,0,2,11,0,0,0,0,0,0,0,0],"split_type":[0,0,0,0,0,0,0,0,0,0,0,0,0,0,0],"sum_hessian":[2.0728842E2,4.7901333E1,1.5938708E2,1.6294947E1,3.1606386E1,1.0133444E2,5.805265E1,9.106829E0,7.188118E0,4.1763783E0,2.7430008E1,2.0646908E1,8.068753E1,1.373175E1,4.43209E1],"tree_param":{"num_deleted":"0","num_feature":"12","num_nodes":"15","size_leaf_vector":"1"}},{"base_weights":[-1.6555378E-3,4.6543628E-1,-2.073312E-1,7.990942E-1,1.1327306E-2,-3.7628844E-1,5.512471E-1,2.1949723E-1,-2.7676348E-2,-8.3278894E-2,1.1100236E-1,-1.4843908E-1,-8.878556E-3,1.6562921E-1,-1.16102315E-1],"categories":[],"categories_nodes":[],"categories_segments":[],"categories_sizes":[],"default_left":[0,0,0,0,0,0,0,0,0,0,0,0,0,0,0],"id":11,"left_children":[1,3,5,7,9,11,13,-1,-1,-1,-1,-1,-1,-1,-1],"loss_changes":[1.96574E1,9.469194E0,1.8414427E1,1.0235174E1,6.62838E0,1.4148453E1,8.717169E0,0E0,0E0,0E0,0E0,0E0,0E0,0E0,0E0],"parents":[2147483647,0,0,1,1,2,2,3,3,4,4,5,5,6,6],"right_children":[2,4,6,8,10,12,14,-1,-1,-1,-1,-1,-1,-1,-1],"split_conditions":[-5.309482E-1,3.1606752E-1,9.3235147E-1,8.882555E-1,1.0951882E-2,-5.0127966E-4,8.193305E-1,2.1949723E-1,-2.7676348E-2,-8.3278894E-2,1.1100236E-1,-1.4843908E-1,-8.878556E-3,1.6562921E-1,-1.16102315E-1],"split_indices":[0,4,2,3,2,11,3,0,0,0,0,0,0,0,0],"split_type":[0,0,0,0,0,0,0,0,0,0,0,0,0,0,0],"sum_hessian":[2.0261215E2,6.1555634E1,1.4105652E2,3.5045876E1,2.6509758E1,1.1577422E2,2.5282297E1,2.6454815E1,8.59106E0,1.4968232E1,1.1541526E1,5.4477676E1,6.1296547E1,2.0528105E1,4.7541924E0],"tree_param":{"num_deleted":"0","num_feature":"12","num_nodes":"15","size_leaf_vector":"1"}},{"base_weights":[-4.7186457E-4,-2.4484485E-1,3.5800228E-1,5.887219E-1,-3.9633572E-1,-2.5557372E-1,5.632006E-1,1.6366409E-1,-8.8360384E-2,-1.2691694E-1,1.8696805E-2,7.645573E-2,-1.4108118E-1,1.3910948E-1,-8.762713E-2],"categories":[],"categories_nodes":[],"categories_segments":[],"categories_sizes":[],"default_left":[0,0,0,0,0,0,0,0,0,0,0,0,0,0,0],"id":12,"left_children":[1,3,5,7,9,11,13,-1,-1,-1,-1,-1,-1,-1,-1],"loss_changes":[1.7450119E1,1.5190886E1,1.0310603E1,4.766818E0,1.1826217E1,6.2735543E0,8.365356E0,0E0,0E0,0E0,0E0,0E0,0E0,0E0,0E0],"parents":[2147483647,0,0,1,1,2,2,3,3,4,4,5,5,6,6],"right_children":[2,4,6,8,10,12,14,-1,-1,-1,-1,-1,-1,-1,-1],"split_conditions":[1.8821858E-1,-1.1069827E0,-7.487301E-1,8.5537785E-1,4.0714738E-1,-3.3350927E-1,1.1102191E0,1.6366409E-1,-8.8360384E-2,-1.2691694E-1,1.8696805E-2,7.645573E-2,-1.4108118E-1,1.3910948E-1,-8.762713E-2],"split_indices":[10,0,5,4,2,0,9,0,0,0,0,0,0,0,0],"split_type":[0,0,0,0,0,0,0,0,0,0,0,0,0,0,0],"sum_hessian":[1.9719847E2,1.17449646E2,7.9748825E1,1.7618582E1,9.983106E1,1.9924845E1,5.9823982E1,1.4576816E1,3.041767E0,6.696409E1,3.2866974E1,8.302398E0,1.1622447E1,5.310983E1,6.7141523E0],"tree_param":{"num_deleted":"0","num_feature":"12","num_nodes":"15","size_leaf_vector":"1"}},{"base_weights":[-7.455043E-4,1.7851141E-1,-4.5327392E-1,-3.2575896E-1,3.984807E-1,-8.7899816E-1,-1.478159E-1,-6.737256E-3,-2.0356993E-1,-6.67018E-2,1.21012844E-1,-2.2482E-1,-5.8233447E-2,-7.398982E-2,1.4191452E-1],"categories":[],"categories_nodes":[],"categories_segments":[],"categories_sizes":[],"default_left":[0,0,0,0,0,0,0,0,0,0,0,0,0,0,0],"id":13,"left_children":[1,3,5,7,9,11,13,-1,-1,-1,-1,-1,-1,-1,-1],"loss_changes":[1.578398E1,1.558968E1,7.0492926E0,8.633785E0,1.4944272E1,2.9665127E0,6.613434E0,0E0,0E0,0E0,0E0,0E0,0E0,0E0,0E0],"parents":[2147483647,0,0,1,1,2,2,3,3,4,4,5,5,6,6],"right_children":[2,4,6,8,10,12,14,-1,-1,-1,-1,-1,-1,-1,-1],"split_conditions":[6.269274E-1,-5.374186E-1,-1.2888262E-1,6.9473606E-1,-7.551898E-1,7.428498E-1,8.9256823E-1,-6.737256E-3,-2.0356993E-1,-6.67018E-2,1.21012844E-1,-2.2482E-1,-5.8233447E-2,-7.398982E-2,1.4191452E-1],"split_indices":[3,6,11,4,2,10,1,0,0,0,0,0,0,0,0],"split_type":[0,0,0,0,0,0,0,0,0,0,0,0,0,0,0],"sum_hessian":[1.9258096E2,1.3837355E2,5.4207424E1,4.1881363E1,9.649219E1,2.186124E1,3.234618E1,3.0189579E1,1.1691782E1,2.110306E1,7.538912E1,1.4784439E1,7.076802E0,2.614184E1,6.204342E0],"tree_param":{"num_deleted":"0","num_feature":"12","num_nodes":"15","size_leaf_vector":"1"}},{"base_weights":[-3.3036652E-3,-6.711825E-1,1.13966525E-1,-8.90675E-1,2.0508076E-1,-5.2674588E-2,6.9856215E-1,-2.0341757E-1,3.3803787E-2,1.6356729E-1,-9.460844E-2,8.191485E-2,-5.884717E-2,-1.4093542E-1,1.6015472E-1],"categories":[],"categories_nodes":[],"categories_segments":[],"categories_sizes":[],"default_left":[0,0,0,0,0,0,0,0,0,0,0,0,0,0,0],"id":14,"left_children":[1,3,5,7,9,11,13,-1,-1,-1,-1,-1,-1,-1,-1],"loss_changes":[1.4922553E1,5.6558027E0,1.5827652E1,3.2453976E0,3.093184E0,1.43091135E1,5.7314262E0,0E0,0E0,0E0,0E0,0E0,0E0,0E0,0E0],"parents":[2147483647,0,0,1,1,2,2,3,3,4,4,5,5,6,6],"right_children":[2,4,6,8,10,12,14,-1,-1,-1,-1,-1,-1,-1,-1],"split_conditions":[-1.0272021E0,9.2739475E-1,7.77494E-1,1.324545E0,-4.287292E-1,-4.8128176E-1,-1.498111E0,-2.0341757E-1,3.3803787E-2,1.6356729E-1,-9.460844E-2,8.191485E-2,-5.884717E-2,-1.4093542E-1,1.6015472E-1],"split_indices":[5,6,11,10,0,9,2,0,0,0,0,0,0,0,0],"split_type":[0,0,0,0,0,0,0,0,0,0,0,0,0,0,0],"sum_hessian":[1.8855092E2,2.745656E1,1.6109436E2,2.1943542E1,5.5130177E0,1.2606809E2,3.502627E1,1.9640764E1,2.3027775E0,2.787861E0,2.7251565E0,4.3030296E1,8.3037796E1,1.977892E0,3.304838E1],"tree_param":{"num_deleted":"0","num_feature":"12","num_nodes":"15","size_leaf_vector":"1"}},{"base_weights":[-3.3310126E-3,-9.8153286E-2,7.626861E-1,-7.156658E-1,3.537483E-2,9.6211845E-1,1.3691122E-2,8.1051E-2,-1.7656891E-1,-1.3171543E-1,3.655844E-2,2.1186554E-1,-1.954151E-2,-1.0007967E-1,1.5055119E-1],"categories":[],"categories_nodes":[],"categories_segments":[],"categories_sizes":[],"default_left":[0,0,0,0,0,0,0,0,0,0,0,0,0,0,0],"id":15,"left_children":[1,3,5,7,9,11,13,-1,-1,-1,-1,-1,-1,-1,-1],"loss_changes":[1.3582052E1,1.3742665E1,3.0635624E0,5.9092503E0,1.4210906E1,1.7778559E0,2.4077222E0,0E0,0E0,0E0,0E0,0E0,0E0,0E0,0E0],"parents":[2147483647,0,0,1,1,2,2,3,3,4,4,5,5,6,6],"right_children":[2,4,6,8,10,12,14,-1,-1,-1,-1,-1,-1,-1,-1],"split_conditions":[1.1658552E0,-8.552859E-1,6.494453E-1,-1.3204671E0,-8.8471264E-1,1.1102191E0,-3.3039243E-3,8.1051E-2,-1.7656891E-1,-1.3171543E-1,3.655844E-2,2.1186554E-1,-1.954151E-2,-1.0007967E-1,1.5055119E-1],"split_indices":[5,2,4,0,11,9,1,0,0,0,0,0,0,0,0],"split_type":[0,0,0,0,0,0,0,0,0,0,0,0,0,0,0],"sum_hessian":[1.849586E2,1.6536107E2,1.9597538E1,2.862457E1,1.367365E2,1.5251915E1,4.345622E0,3.5302737E0,2.5094296E1,2.3350239E1,1.1338626E2,1.3970943E1,1.2809715E0,2.7533424E0,1.5922797E0],"tree_param":{"num_deleted":"0","num_feature":"12","num_nodes":"15","size_leaf_vector":"1"}},{"base_weights":[-2.6285388E-3,2.4850646E-1,-2.8966802E-1,-1.2076756E0,3.228341E-1,-6.531146E-1,5.170833E-2,-7.3200576E-2,-2.695422E-1,3.1413868E-2,1.8858844E-1,3.0266915E-2,-1.5377413E-1,4.354648E-2,-1.7918386E-1],"categories":[],"categories_nodes":[],"categories_segments":[],"categories_sizes":[],"default_left":[0,0,0,0,0,0,0,0,0,0,0,0,0,0,0],"id":16,"left_children":[1,3,5,7,9,11,13,-1,-1,-1,-1,-1,-1,-1,-1],"loss_changes":[1.3236955E1,1.0990927E1,1.0664814E1,9.2227936E-2,9.512041E0,3.9877243E0,7.2922406E0,0E0,0E0,0E0,0E0,0E0,0E0,0E0,0E0],"parents":[2147483647,0,0,1,1,2,2,3,3,4,4,5,5,6,6],"right_children":[2,4,6,8,10,12,14,-1,-1,-1,-1,-1,-1,-1,-1],"split_conditions":[1.2874697E-1,-1.8025379E0,-5.0687683E-3,-8.17634E-1,8.809692E-1,-1.2490995E0,1.1314316E0,-7.3200576E-2,-2.695422E-1,3.1413868E-2,1.8858844E-1,3.0266915E-2,-1.5377413E-1,4.354648E-2,-1.7918386E-1],"split_indices":[0,6,6,1,11,9,3,0,0,0,0,0,0,0,0],"split_type":[0,0,0,0,0,0,0,0,0,0,0,0,0,0,0],"sum_hessian":[1.8162953E2,9.69451E1,8.4684425E1,3.967537E0,9.297756E1,4.0574055E1,4.4110374E1,1.0814148E0,2.8861222E0,7.435467E1,1.8622894E1,5.0652947E0,3.550876E1,3.8189774E1,5.920603E0],"tree_param":{"num_deleted":"0","num_feature":"12","num_nodes":"15","size_leaf_vector":"1"}},{"base_weights":[-4.7051646E-3,-2.3492312E-1,2.9067817E-1,4.575047E-1,-3.8134325E-1,4.272917E-1,-5.1487476E-1,1.8322359E-1,4.6366925E-4,-1.0563057E-1,7.28014E-2,1.1295346E-1,-9.405614E-2,-1.8938218E-1,1.9784104E-2],"categories":[],"categories_nodes":[],"categories_segments":[],"categories_sizes":[],"default_left":[0,0,0,0,0,0,0,0,0,0,0,0,0,0,0],"id":17,"left_children":[1,3,5,7,9,11,13,-1,-1,-1,-1,-1,-1,-1,-1],"loss_changes":[1.226401E1,1.0449039E1,8.913951E0,3.7854578E0,9.405583E0,8.6677475E0,3.2515929E0,0E0,0E0,0E0,0E0,0E0,0E0,0E0,0E0],"parents":[2147483647,0,0,1,1,2,2,3,3,4,4,5,5,6,6],"right_children":[2,4,6,8,10,12,14,-1,-1,-1,-1,-1,-1,-1,-1],"split_conditions":[1.1727265E-1,-1.0195456E0,1.1314316E0,1.8349788E-1,1.0837387E0,1.1102191E0,2.0262401E-1,1.8322359E-1,4.6366925E-4,-1.0563057E-1,7.28014E-2,1.1295346E-1,-9.405614E-2,-1.8938218E-1,1.9784104E-2],"split_indices":[10,0,3,3,11,9,2,0,0,0,0,0,0,0,0],"split_type":[0,0,0,0,0,0,0,0,0,0,0,0,0,0,0],"sum_hessian":[1.7834216E2,1.0034177E2,7.80004E1,1.7143711E1,8.319805E1,6.7091866E1,1.0908527E1,8.035297E0,9.108415E0,6.975083E1,1.3447224E1,5.8502228E1,8.589641E0,6.083664E0,4.8248634E0],"tree_param":{"num_deleted":"0","num_feature":"12","num_nodes":"15","size_leaf_vector":"1"}},{"base_weights":[-3.8094572E-3,-1.5083495E-1,4.3115887E-1,-4.016453E-1,1.7484827E-1,-8.3747584E-1,5.700994E-1,2.1266565E-2,-1.2557918E-1,-4.2625226E-2,1.1407383E-1,-3.0778293E-2,-2.0605023E-1,1.4323145E-1,-1.00075856E-1],"categories":[],"categories_nodes":[],"categories_segments":[],"categories_sizes":[],"default_left":[0,0,0,0,0,0,0,0,0,0,0,0,0,0,0],"id":18,"left_children":[1,3,5,7,9,11,13,-1,-1,-1,-1,-1,-1,-1,-1],"loss_changes":[1.1313537E1,1.0868772E1,8.355336E0,8.685037E0,9.054145E0,4.761865E-1,6.7495203E0,0E0,0E0,0E0,0E0,0E0,0E0,0E0,0E0],"parents":[2147483647,0,0,1,1,2,2,3,3,4,4,5,5,6,6],"right_children":[2,4,6,8,10,12,14,-1,-1,-1,-1,-1,-1,-1,-1],"split_conditions":[7.580844E-1,1.1484979E-1,-1.5897732E0,-5.199704E-1,-5.6429733E-2,-3.8369966E-1,1.1802213E0,2.1266565E-2,-1.2557918E-1,-4.2625226E-2,1.1407383E-1,-3.0778293E-2,-2.0605023E-1,1.4323145E-1,-1.00075856E-1],"split_indices":[6,5,11,9,2,9,3,0,0,0,0,0,0,0,0],"split_type":[0,0,0,0,0,0,0,0,0,0,0,0,0,0,0],"sum_hessian":[1.7489136E2,1.3119785E2,4.3693512E1,7.39869E1,5.721094E1,3.8166797E0,3.987683E1,2.2962187E1,5.1024715E1,2.911379E1,2.809715E1,1.2351419E0,2.581538E0,3.5380455E1,4.496375E0],"tree_param":{"num_deleted":"0","num_feature":"12","num_nodes":"15","size_leaf_vector":"1"}},{"base_weights":[-4.3143877E-3,1.17309116E-1,-5.4376036E-1,-3.85217E-1,2.6575643E-1,3.8511854E-1,-7.423332E-1,9.8569E-2,-1.1254773E-1,-5.684817E-2,8.694317E-2,1.4730543E-1,-1.12696506E-1,-1.8844888E-1,-1.5554155E-2],"categories":[],"categories_nodes":[],"categories_segments":[],"categories_sizes":[],"default_left":[0,0,0,0,0,0,0,0,0,0,0,0,0,0,0],"id":19,"left_children":[1,3,5,7,9,11,13,-1,-1,-1,-1,-1,-1,-1,-1],"loss_changes":[1.1367967E1,1.0652041E1,6.1654797E0,5.367799E0,1.0323416E1,2.5059857E0,3.461114E0,0E0,0E0,0E0,0E0,0E0,0E0,0E0,0E0],"parents":[2147483647,0,0,1,1,2,2,3,3,4,4,5,5,6,6],"right_children":[2,4,6,8,10,12,14,-1,-1,-1,-1,-1,-1,-1,-1],"split_conditions":[9.341254E-1,-7.8681004E-1,-1.0977582E0,-8.829831E-1,-7.1658504E-1,6.7455465E-1,9.100929E-1,9.8569E-2,-1.1254773E-1,-5.684817E-2,8.694317E-2,1.4730543E-1,-1.12696506E-1,-1.8844888E-1,-1.5554155E-2],"split_indices":[0,10,9,3,5,3,6,0,0,0,0,0,0,0,0],"split_type":[0,0,0,0,0,0,0,0,0,0,0,0,0,0,0],"sum_hessian":[1.7129535E2,1.4041902E2,3.0876339E1,3.1657293E1,1.0876173E2,5.2726474E0,2.5603691E1,5.025212E0,2.6632082E1,2.5399357E1,8.3362366E1,4.0105186E0,1.262129E0,1.9361572E1,6.242119E0],"tree_param":{"num_deleted":"0","num_feature":"12","num_nodes":"15","size_leaf_vector":"1"}}]},"name":"gbtree"},"learner_model_param":{"base_score":"4.8700294E-1","boost_from_average":"1","num_class":"0","num_feature":"12","num_target":"1"},"objective":{"name":"binary:logistic","reg_loss_param":{"scale_pos_weight":"1"}}},"version":[2,1,4]}