{"learner":{"attributes":{},"feature_names":[],"feature_types":[],"gradient_booster":{"model":{"gbtree_model_param":{"num_parallel_tree":"1","num_trees":"20"},"iteration_indptr":[0,1,2,3,4,5,6,7,8,9,10,11,12,13,14,15,16,17,18,19,20],"tree_info":[0,0,0,0,0,0,0,0,0,0,0,0,0,0,0,0,0,0,0,0],"trees":[{"base_weights":[1.7842132E-6,3.58814E-1,-1.2001604E0,-5.428975E-1,7.3096794E-1,1.25002E0,-1.429619E0,2.1937571E-1,-1.7635016E-1,1.9365458E-1,-1.7518829E-1,4.1338034E-2,3.016455E-1,-1.611836E-1,-3.7296793E-1],"categories":[],"categories_nodes":[],"categories_segments":[],"categories_sizes":[],"default_left":[0,0,0,0,0,0,0,0,0,0,0,0,0,0,0],"id":0,"left_children":[1,3,5,7,9,11,13,-1,-1,-1,-1,-1,-1,-1,-1],"loss_changes":[1.0849838E2,6.548579E1,3.4389244E1,3.2771633E1,5.336582E1,1.1697016E0,1.30167465E1,0E0,0E0,0E0,0E0,0E0,0E0,0E0,0E0],"parents":[2147483647,0,0,1,1,2,2,3,3,4,4,5,5,6,6],"right_children":[2,4,6,8,10,12,14,-1,-1,-1,-1,-1,-1,-1,-1],"split_conditions":[7.2381026E-1,-5.476874E-1,-1.287233E0,-1.0841947E0,1.110292E0,-1.9246563E0,1.3476775E-2,2.1937571E-1,-1.7635016E-1,1.9365458E-1,-1.7518829E-1,4.1338034E-2,3.016455E-1,-1.611836E-1,-3.7296793E-1],"split_indices":[10,5,0,1,0,0,3,0,0,0,0,0,0,0,0],"split_type":[0,0,0,0,0,0,0,0,0,0,0,0,0,0,0],"sum_hessian":[2.49951E2,1.9296217E2,5.698883E1,5.6238976E1,1.367232E2,4.499118E0,5.248971E1,9.248187E0,4.6990788E1,1.1947658E2,1.724662E1,1.249755E0,3.249363E0,2.274554E1,2.974417E1],"tree_param":{"num_deleted":"0","num_feature":"12","num_nodes":"15","size_leaf_vector":"1"}},{"base_weights":[-4.960739E-4,4.1069183E-1,-7.1932775E-1,7.983813E-1,-3.025762E-1,6.862435E-1,-9.187662E-1,2.2265564E-1,-5.6406416E-2,1.544144E-1,-1.4267997E-1,2.7596083E-1,-1.1256881E-1,-2.6705873E-1,-6.95458E-2],"categories":[],"categories_nodes":[],"categories_segments":[],"categories_sizes":[],"default_left":[0,0,0,0,0,0,0,0,0,0,0,0,0,0,0],"id":1,"left_children":[1,3,5,7,9,11,13,-1,-1,-1,-1,-1,-1,-1,-1],"loss_changes":[7.3597015E1,4.4041443E1,2.6028969E1,3.5319633E1,2.549567E1,1.102589E1,1.8509872E1,0E0,0E0,0E0,0E0,0E0,0E0,0E0,0E0],"parents":[2147483647,0,0,1,1,2,2,3,3,4,4,5,5,6,6],"right_children":[2,4,6,8,10,12,14,-1,-1,-1,-1,-1,-1,-1,-1],"split_conditions":[2.8867275E-1,4.2633814E-1,-1.0807652E0,7.162734E-1,-9.808802E-1,3.0881545E-1,4.59237E-2,2.2265564E-1,-5.6406416E-2,1.544144E-1,-1.4267997E-1,2.7596083E-1,-1.1256881E-1,-2.6705873E-1,-6.95458E-2],"split_indices":[10,0,0,1,10,3,5,0,0,0,0,0,0,0,0],"split_type":[0,0,0,0,0,0,0,0,0,0,0,0,0,0,0],"sum_hessian":[2.469967E2,1.5739302E2,8.960368E1,1.0189158E2,5.5501442E1,1.0830848E1,7.8772835E1,7.8872894E1,2.3018682E1,1.5106349E1,4.0395092E1,6.8967505E0,3.934097E0,4.4774754E1,3.3998085E1],"tree_param":{"num_deleted":"0","num_feature":"12","num_nodes":"15","size_leaf_vector":"1"}},{"base_weights":[-1.4335063E-4,-3.0976084E-1,7.944117E-1,2.0711857E-1,-7.641968E-1,9.6829635E-1,-6.698361E-1,1.549996E-1,-4.9626283E-2,1.2207972E-1,-1.9562149E-1,2.44904E-1,-2.0131962E-2,1.394095E-1,-2.063895E-1],"categories":[],"categories_nodes":[],"categories_segments":[],"categories_sizes":[],"default_left":[0,0,0,0,0,0,0,0,0,0,0,0,0,0,0],"id":2,"left_children":[1,3,5,7,9,11,13,-1,-1,-1,-1,-1,-1,-1,-1],"loss_changes":[6.0149426E1,4.148493E1,1.810468E1,2.167644E1,2.8189629E1,1.702002E1,4.613997E0,0E0,0E0,0E0,0E0,0E0,0E0,0E0,0E0],"parents":[2147483647,0,0,1,1,2,2,3,3,4,4,5,5,6,6],"right_children":[2,4,6,8,10,12,14,-1,-1,-1,-1,-1,-1,-1,-1],"split_conditions":[5.362252E-1,-3.361523E-2,1.2214704E0,-2.2367316E-1,-1.1621275E0,8.430724E-1,-8.7894124E-1,1.549996E-1,-4.9626283E-2,1.2207972E-1,-1.9562149E-1,2.44904E-1,-2.0131962E-2,1.394095E-1,-2.063895E-1],"split_indices":[5,3,0,10,1,10,10,0,0,0,0,0,0,0,0],"split_type":[0,0,0,0,0,0,0,0,0,0,0,0,0,0,0],"sum_hessian":[2.4250148E2,1.7494148E2,6.7560005E1,8.210208E1,9.283939E1,6.0691395E1,6.8686132E0,3.621949E1,4.588259E1,1.2252297E1,8.05871E1,4.883932E1,1.1852074E1,1.2448082E0,5.623805E0],"tree_param":{"num_deleted":"0","num_feature":"12","num_nodes":"15","size_leaf_vector":"1"}},{"base_weights":[1.4157603E-3,3.1002474E-1,-6.434342E-1,7.0730036E-1,-2.599033E-1,2.8986937E-1,-1.0581672E0,-2.4525294E-2,2.0288411E-1,5.801162E-2,-1.3731293E-1,1.2600808E-1,-2.1145959E-1,1.107312E-1,-2.3849514E-1],"categories":[],"categories_nodes":[],"categories_segments":[],"categories_sizes":[],"default_left":[0,0,0,0,0,0,0,0,0,0,0,0,0,0,0],"id":3,"left_children":[1,3,5,7,9,11,13,-1,-1,-1,-1,-1,-1,-1,-1],"loss_changes":[4.7631363E1,3.683485E1,3.0293365E1,2.4505089E1,1.5972141E1,1.1948367E1,1.2318008E1,0E0,0E0,0E0,0E0,0E0,0E0,0E0,0E0],"parents":[2147483647,0,0,1,1,2,2,3,3,4,4,5,5,6,6],"right_children":[2,4,6,8,10,12,14,-1,-1,-1,-1,-1,-1,-1,-1],"split_conditions":[5.229694E-1,1.9924124E-1,-5.033346E-1,-5.628646E-1,-1.3938883E-1,9.524941E-1,-1.287233E0,-2.4525294E-2,2.0288411E-1,5.801162E-2,-1.3731293E-1,1.2600808E-1,-2.1145959E-1,1.107312E-1,-2.3849514E-1],"split_indices":[3,1,10,5,0,0,0,0,0,0,0,0,0,0,0],"split_type":[0,0,0,0,0,0,0,0,0,0,0,0,0,0,0],"sum_hessian":[2.3734338E2,1.608729E2,7.647049E1,9.465287E1,6.622003E1,2.361931E1,5.2851177E1,2.5728304E1,6.892456E1,2.9069702E1,3.715033E1,1.928261E1,4.336699E0,3.825034E0,4.9026142E1],"tree_param":{"num_deleted":"0","num_feature":"12","num_nodes":"15","size_leaf_vector":"1"}},{"base_weights":[6.126775E-4,2.1654916E-1,-8.0767083E-1,6.160035E-1,-2.4881932E-1,8.693856E-1,-9.6093065E-1,1.7776443E-1,-5.4399844E-2,-1.8766086E-1,3.1964526E-2,2.2528604E-1,1.2004293E-2,-2.1549957E-1,6.0733538E-2],"categories":[],"categories_nodes":[],"categories_segments":[],"categories_sizes":[],"default_left":[0,0,0,0,0,0,0,0,0,0,0,0,0,0,0],"id":4,"left_children":[1,3,5,7,9,11,13,-1,-1,-1,-1,-1,-1,-1,-1],"loss_changes":[4.083134E1,3.447216E1,1.3512352E1,2.4378754E1,2.4376396E1,9.008112E-1,7.058975E0,0E0,0E0,0E0,0E0,0E0,0E0,0E0,0E0],"parents":[2147483647,0,0,1,1,2,2,3,3,4,4,5,5,6,6],"right_children":[2,4,6,8,10,12,14,-1,-1,-1,-1,-1,-1,-1,-1],"split_conditions":[7.6573807E-1,5.3337228E-2,-1.287233E0,7.504064E-1,-3.4045804E-1,3.3207133E-2,1.4420085E0,1.7776443E-1,-5.4399844E-2,-1.8766086E-1,3.1964526E-2,2.2528604E-1,1.2004293E-2,-2.1549957E-1,6.0733538E-2],"split_indices":[10,6,0,3,5,2,5,0,0,0,0,0,0,0,0],"split_type":[0,0,0,0,0,0,0,0,0,0,0,0,0,0,0],"sum_hessian":[2.3193762E2,1.836159E2,4.832171E1,9.8631096E1,8.498482E1,3.6549158E0,4.466679E1,7.5449905E1,2.3181192E1,3.1142757E1,5.3842056E1,2.4766223E0,1.1782935E0,4.1032482E1,3.63431E0],"tree_param":{"num_deleted":"0","num_feature":"12","num_nodes":"15","size_leaf_vector":"1"}},{"base_weights":[5.977596E-5,-2.3716314E-1,6.24734E-1,4.8072216E-1,-4.9628383E-1,7.8018767E-1,-5.4574883E-1,-1.4949629E-1,1.6703026E-1,6.41189E-2,-1.4656448E-1,1.8196869E-1,-1.5311044E-1,-2.2431913E-1,8.291054E-2],"categories":[],"categories_nodes":[],"categories_segments":[],"categories_sizes":[],"default_left":[0,0,0,0,0,0,0,0,0,0,0,0,0,0,0],"id":5,"left_children":[1,3,5,7,9,11,13,-1,-1,-1,-1,-1,-1,-1,-1],"loss_changes":[3.379269E1,3.0983133E1,1.184614E1,1.9927027E1,2.3795433E1,1.1883144E1,4.859515E0,0E0,0E0,0E0,0E0,0E0,0E0,0E0,0E0],"parents":[2147483647,0,0,1,1,2,2,3,3,4,4,5,5,6,6],"right_children":[2,4,6,8,10,12,14,-1,-1,-1,-1,-1,-1,-1,-1],"split_conditions":[5.362252E-1,-6.587457E-1,1.1860982E0,-8.375136E-1,-7.7543765E-1,1.3057303E0,1.7250168E-1,-1.4949629E-1,1.6703026E-1,6.41189E-2,-1.4656448E-1,1.8196869E-1,-1.5311044E-1,-2.2431913E-1,8.291054E-2],"split_indices":[5,1,1,9,2,3,9,0,0,0,0,0,0,0,0],"split_type":[0,0,0,0,0,0,0,0,0,0,0,0,0,0,0],"sum_hessian":[2.2604094E2,1.6427652E2,6.1764423E1,4.3342457E1,1.2093406E2,5.481748E1,6.9469466E0,9.458151E0,3.3884308E1,2.707524E1,9.385882E1,5.0954803E1,3.8626738E0,4.2377872E0,2.7091596E0],"tree_param":{"num_deleted":"0","num_feature":"12","num_nodes":"15","size_leaf_vector":"1"}},{"base_weights":[-1.7620827E-4,4.186556E-1,-3.2980144E-1,6.3927376E-1,-3.864483E-1,1.7207684E-1,-6.9489497E-1,1.533453E-1,-1.2264865E-1,1.00080155E-1,-1.7419705E-1,7.305115E-2,-1.8428089E-1,1.3233571E-2,-1.8894051E-1],"categories":[],"categories_nodes":[],"categories_segments":[],"categories_sizes":[],"default_left":[0,0,0,0,0,0,0,0,0,0,0,0,0,0,0],"id":6,"left_children":[1,3,5,7,9,11,13,-1,-1,-1,-1,-1,-1,-1,-1],"loss_changes":[3.0834581E1,1.771836E1,2.302046E1,1.2855349E1,9.794843E0,1.1623684E1,1.3855507E1,0E0,0E0,0E0,0E0,0E0,0E0,0E0,0E0],"parents":[2147483647,0,0,1,1,2,2,3,3,4,4,5,5,6,6],"right_children":[2,4,6,8,10,12,14,-1,-1,-1,-1,-1,-1,-1,-1],"split_conditions":[-1.4387155E-1,6.9580275E-1,-2.1612678E-1,1.345598E0,-1.6016273E-1,9.7317934E-1,-7.623082E-1,1.533453E-1,-1.2264865E-1,1.00080155E-1,-1.7419705E-1,7.305115E-2,-1.8428089E-1,1.3233571E-2,-1.8894051E-1],"split_indices":[0,10,6,1,2,1,10,0,0,0,0,0,0,0,0],"split_type":[0,0,0,0,0,0,0,0,0,0,0,0,0,0,0],"sum_hessian":[2.2134576E2,9.736313E1,1.2398263E2,7.658338E1,2.0779747E1,5.243339E1,7.154924E1,6.9862236E1,6.7211404E0,7.3303146E0,1.3449432E1,4.5127033E1,7.3063564E0,1.7862999E1,5.368624E1],"tree_param":{"num_deleted":"0","num_feature":"12","num_nodes":"15","size_leaf_vector":"1"}},{"base_weights":[-1.9791625E-3,7.497191E-1,-1.591855E-1,-2.3210163E-1,8.436092E-1,1.6946107E-1,-6.3931376E-1,-4.555856E-2,2.0297574E-1,8.114446E-2,-9.244656E-2,7.584429E-2,-1.6085579E-1],"categories":[],"categories_nodes":[],"categories_segments":[],"categories_sizes":[],"default_left":[0,0,0,0,0,0,0,0,0,0,0,0,0],"id":7,"left_children":[1,3,5,-1,7,9,11,-1,-1,-1,-1,-1,-1],"loss_changes":[2.579035E1,7.749281E0,2.8587706E1,0E0,6.9397316E0,1.6296402E1,1.2663124E1,0E0,0E0,0E0,0E0,0E0,0E0],"parents":[2147483647,0,0,1,1,2,2,4,4,5,5,6,6],"right_children":[2,4,6,-1,8,10,12,-1,-1,-1,-1,-1,-1],"split_conditions":[-9.808802E-1,-1.9188921E0,3.1445232E-1,-2.3210163E-1,-1.4777474E0,5.7140905E-1,-1.0841947E0,-4.555856E-2,2.0297574E-1,8.114446E-2,-9.244656E-2,7.584429E-2,-1.6085579E-1],"split_indices":[10,9,3,0,5,0,1,0,0,0,0,0,0],"split_type":[0,0,0,0,0,0,0,0,0,0,0,0,0],"sum_hessian":[2.1623476E2,3.674859E1,1.7948618E2,1.1894072E0,3.555918E1,1.0693588E2,7.2550285E1,4.8554077E0,3.0703773E1,7.8087814E1,2.8848074E1,9.931563E0,6.261872E1],"tree_param":{"num_deleted":"0","num_feature":"12","num_nodes":"13","size_leaf_vector":"1"}},{"base_weights":[-2.241276E-3,-6.834463E-1,1.672184E-1,-1.0026067E0,-4.7893445E-3,4.0718564E-1,-4.1189876E-1,1.8077831E-1,-2.296026E-1,1.8819964E-1,-1.2982042E-1,1.0797304E-1,-1.30566E-1,8.06522E-2,-1.3975564E-1],"categories":[],"categories_nodes":[],"categories_segments":[],"categories_sizes":[],"default_left":[0,0,0,0,0,0,0,0,0,0,0,0,0,0,0],"id":8,"left_children":[1,3,5,7,9,11,13,-1,-1,-1,-1,-1,-1,-1,-1],"loss_changes":[2.4571527E1,9.179552E0,2.3857052E1,9.031157E0,9.48801E0,1.7373896E1,1.2076889E1,0E0,0E0,0E0,0E0,0E0,0E0,0E0,0E0],"parents":[2147483647,0,0,1,1,2,2,3,3,4,4,5,5,6,6],"right_children":[2,4,6,8,10,12,14,-1,-1,-1,-1,-1,-1,-1,-1],"split_conditions":[-8.793261E-1,4.3838856E-1,6.644276E-1,-1.8888841E0,-1.4387155E-1,1.1860982E0,-6.286196E-1,1.8077831E-1,-2.296026E-1,1.8819964E-1,-1.2982042E-1,1.0797304E-1,-1.30566E-1,8.06522E-2,-1.3975564E-1],"split_indices":[5,9,6,6,0,1,10,0,0,0,0,0,0,0,0],"split_type":[0,0,0,0,0,0,0,0,0,0,0,0,0,0,0],"sum_hessian":[2.1086696E2,4.1402283E1,1.6946468E2,2.783475E1,1.35675335E1,1.200265E2,4.943818E1,1.6028328E0,2.6231916E1,5.3110166E0,8.256516E0,1.0711045E2,1.2916052E1,1.2763988E1,3.667419E1],"tree_param":{"num_deleted":"0","num_feature":"12","num_nodes":"15","size_leaf_vector":"1"}},{"base_weights":[-2.8930642E-3,-2.5706595E-1,3.9192343E-1,4.4481844E-2,-8.0163664E-1,-2.0760354E-1,7.2049296E-1,-6.546613E-2,1.1351836E-1,1.7584632E-1,-1.7561483E-1,7.7258006E-2,-1.3487445E-1,2.2452903E-1,3.907623E-2],"categories":[],"categories_nodes":[],"categories_segments":[],"categories_sizes":[],"default_left":[0,0,0,0,0,0,0,0,0,0,0,0,0,0,0],"id":9,"left_children":[1,3,5,7,9,11,13,-1,-1,-1,-1,-1,-1,-1,-1],"loss_changes":[2.0889038E1,2.0829678E1,1.6209259E1,1.6221478E1,6.5769863E0,8.476729E0,1.094928E1,0E0,0E0,0E0,0E0,0E0,0E0,0E0,0E0],"parents":[2147483647,0,0,1,1,2,2,3,3,4,4,5,5,6,6],"right_children":[2,4,6,8,10,12,14,-1,-1,-1,-1,-1,-1,-1,-1],"split_conditions":[2.926098E-1,2.642133E-1,-3.929513E-1,1.7661257E-1,-2.1213484E0,-2.2886747E-1,2.543075E-1,-6.546613E-2,1.1351836E-1,1.7584632E-1,-1.7561483E-1,7.7258006E-2,-1.3487445E-1,2.2452903E-1,3.907623E-2],"split_indices":[9,10,4,5,1,2,0,0,0,0,0,0,0,0,0],"split_type":[0,0,0,0,0,0,0,0,0,0,0,0,0,0,0],"sum_hessian":[2.0615442E2,1.25627495E2,8.052692E1,8.1446205E1,4.4181293E1,2.8638895E1,5.1888027E1,4.7826603E1,3.3619602E1,1.464922E0,4.271637E1,1.2679077E1,1.5959817E1,2.8739904E1,2.314812E1],"tree_param":{"num_deleted":"0","num_feature":"12","num_nodes":"15","size_leaf_vector":"1"}},{"base_weights":[-8.391344E-4,7.4996066E-1,-1.2973724E-1,9.2597806E-1,-3.274408E-1,4.477621E-1,-3.1521302E-1,-7.149141E-2,2.1628816E-1,-2.3225783E-1,1.3938259E-1,1.3814303E-1,-7.981851E-2,-1.134205E-1,4.0888842E-2],"categories":[],"categories_nodes":[],"categories_segments":[],"categories_sizes":[],"default_left":[0,0,0,0,0,0,0,0,0,0,0,0,0,0,0],"id":10,"left_children":[1,3,5,7,9,11,13,-1,-1,-1,-1,-1,-1,-1,-1],"loss_changes":[1.9687597E1,5.956093E0,1.8737911E1,5.5510235E0,5.01581E0,9.044399E0,1.739428E1,0E0,0E0,0E0,0E0,0E0,0E0,0E0,0E0],"parents":[2147483647,0,0,1,1,2,2,3,3,4,4,5,5,6,6],"right_children":[2,4,6,8,10,12,14,-1,-1,-1,-1,-1,-1,-1,-1],"split_conditions":[-1.047107E0,1.2625495E0,-7.3984104E-1,-1.6008434E0,2.1506101E-1,8.846756E-1,3.971644E-1,-7.149141E-2,2.1628816E-1,-2.3225783E-1,1.3938259E-1,1.3814303E-1,-7.981851E-2,-1.134205E-1,4.0888842E-2],"split_indices":[0,1,3,5,9,10,5,0,0,0,0,0,0,0,0],"split_type":[0,0,0,0,0,0,0,0,0,0,0,0,0,0,0],"sum_hessian":[2.0142792E2,2.8808315E1,1.726196E2,2.4883577E1,3.924738E0,4.1619274E1,1.3100034E2,2.5481124E0,2.2335464E1,2.0898612E0,1.8348768E0,3.248428E1,9.134996E0,8.8170715E1,4.2829613E1],"tree_param":{"num_deleted":"0","num_feature":"12","num_nodes":"15","size_leaf_vector":"1"}},{"base_weights":[1.3438151E-4,3.4862635E-1,-2.689298E-1,5.0750035E-1,-6.5070754E-1,3.383224E-1,-4.625496E-1,1.5439686E-1,-7.357807E-3,3.0256232E-2,-1.8868217E-1,-1.0178589E-1,1.144283E-1,-1.4955118E-1,9.98981E-3],"categories":[],"categories_nodes":[],"categories_segments":[],"categories_sizes":[],"default_left":[0,0,0,0,0,0,0,0,0,0,0,0,0,0,0],"id":11,"left_children":[1,3,5,7,9,11,13,-1,-1,-1,-1,-1,-1,-1,-1],"loss_changes":[1.8642452E1,1.4083203E1,1.3347882E1,1.0868631E1,3.0348797E0,5.7790174E0,1.2533634E1,0E0,0E0,0E0,0E0,0E0,0E0,0E0,0E0],"parents":[2147483647,0,0,1,1,2,2,3,3,4,4,5,5,6,6],"right_children":[2,4,6,8,10,12,14,-1,-1,-1,-1,-1,-1,-1,-1],"split_conditions":[-1.973688E-1,1.1490141E0,-7.623082E-1,4.448818E-1,-1.1011113E0,-7.621833E-1,3.2865217E-1,1.5439686E-1,-7.357807E-3,3.0256232E-2,-1.8868217E-1,-1.0178589E-1,1.144283E-1,-1.4955118E-1,9.98981E-3],"split_indices":[2,0,10,1,2,4,11,0,0,0,0,0,0,0,0],"split_type":[0,0,0,0,0,0,0,0,0,0,0,0,0,0,0],"sum_hessian":[1.968175E2,8.562295E1,1.1119455E2,7.4302505E1,1.1320444E1,2.6701847E1,8.449271E1,4.972267E1,2.4579834E1,3.1560962E0,8.164349E0,5.5207214E0,2.1181126E1,5.3988808E1,3.0503897E1],"tree_param":{"num_deleted":"0","num_feature":"12","num_nodes":"15","size_leaf_vector":"1"}},{"base_weights":[-5.0259416E-4,-1.1326719E-1,7.4086195E-1,9.194917E-2,-5.785344E-1,1.184125E0,-2.331317E-1,5.006042E-2,-1.4044277E-1,8.6595684E-2,-1.4841624E-1,2.6333064E-1,-7.83086E-2,8.4293745E-2,-1.6327535E-1],"categories":[],"categories_nodes":[],"categories_segments":[],"categories_sizes":[],"default_left":[0,0,0,0,0,0,0,0,0,0,0,0,0,0,0],"id":12,"left_children":[1,3,5,7,9,11,13,-1,-1,-1,-1,-1,-1,-1,-1],"loss_changes":[1.6306625E1,1.621807E1,1.1394085E1,1.5058613E1,8.916243E0,4.2455254E0,3.7381046E0,0E0,0E0,0E0,0E0,0E0,0E0,0E0,0E0],"parents":[2147483647,0,0,1,1,2,2,3,3,4,4,5,5,6,6],"right_children":[2,4,6,8,10,12,14,-1,-1,-1,-1,-1,-1,-1,-1],"split_conditions":[1.129106E0,4.601923E-1,4.877684E-1,1.0236903E0,-1.2879205E0,1.3343548E0,-6.887604E-3,5.006042E-2,-1.4044277E-1,8.6595684E-2,-1.4841624E-1,2.6333064E-1,-7.83086E-2,8.4293745E-2,-1.6327535E-1],"split_indices":[4,1,3,0,6,2,0,0,0,0,0,0,0,0,0],"split_type":[0,0,0,0,0,0,0,0,0,0,0,0,0,0,0],"sum_hessian":[1.930523E2,1.6830034E2,2.4751957E1,1.17345085E2,5.095526E1,1.6862238E1,7.8897195E0,9.840779E1,1.8937296E1,6.862746E0,4.4092518E1,1.5705634E1,1.156604E0,3.8481507E0,4.0415688E0],"tree_param":{"num_deleted":"0","num_feature":"12","num_nodes":"15","size_leaf_vector":"1"}},{"base_weights":[-6.402953E-4,1.419205E-1,-5.846364E-1,2.8470844E-1,-5.9685344E-1,-2.0959602E-1,-9.6752995E-1,1.3238545E-1,-7.866968E-3,1.02902524E-1,-1.6607909E-1,-2.0411937E-1,2.9459922E-2,2.5864456E-2,-2.0893775E-1],"categories":[],"categories_nodes":[],"categories_segments":[],"categories_sizes":[],"default_left":[0,0,0,0,0,0,0,0,0,0,0,0,0,0,0],"id":13,"left_children":[1,3,5,7,9,11,13,-1,-1,-1,-1,-1,-1,-1,-1],"loss_changes":[1.5925652E1,1.638955E1,5.18699E0,1.5859237E1,6.97503E0,6.007947E0,1.6834927E0,0E0,0E0,0E0,0E0,0E0,0E0,0E0,0E0],"parents":[2147483647,0,0,1,1,2,2,3,3,4,4,5,5,6,6],"right_children":[2,4,6,8,10,12,14,-1,-1,-1,-1,-1,-1,-1,-1],"split_conditions":[7.6573807E-1,1.026388E0,1.3476775E-2,-7.55228E-2,-9.653994E-1,-6.4846426E-1,-1.3630998E0,1.3238545E-1,-7.866968E-3,1.02902524E-1,-1.6607909E-1,-2.0411937E-1,2.9459922E-2,2.5864456E-2,-2.0893775E-1],"split_indices":[10,3,3,6,0,11,0,0,0,0,0,0,0,0,0],"split_type":[0,0,0,0,0,0,0,0,0,0,0,0,0,0,0],"sum_hessian":[1.8929112E2,1.5275797E2,3.6533157E1,1.285306E2,2.4227373E1,1.923756E1,1.7295599E1,5.8910347E1,6.962025E1,3.9981453E0,2.0229227E1,5.3104873E0,1.3927073E1,1.0922757E0,1.6203321E1],"tree_param":{"num_deleted":"0","num_feature":"12","num_nodes":"15","size_leaf_vector":"1"}},{"base_weights":[-3.048196E-3,-1.7835635E-1,4.4428316E-1,5.3426996E-2,-6.0795575E-1,6.1224836E-1,-3.537466E-1,3.684346E-2,-2.1257563E-1,1.9602744E-2,-1.6019017E-1,1.443436E-1,-1.3874E-1,1.2715167E-1,-1.4141761E-1],"categories":[],"categories_nodes":[],"categories_segments":[],"categories_sizes":[],"default_left":[0,0,0,0,0,0,0,0,0,0,0,0,0,0,0],"id":14,"left_children":[1,3,5,7,9,11,13,-1,-1,-1,-1,-1,-1,-1,-1],"loss_changes":[1.4612375E1,1.3361177E1,7.249074E0,1.3024377E1,6.481016E0,6.74934E0,3.8606746E0,0E0,0E0,0E0,0E0,0E0,0E0,0E0,0E0],"parents":[2147483647,0,0,1,1,2,2,3,3,4,4,5,5,6,6],"right_children":[2,4,6,8,10,12,14,-1,-1,-1,-1,-1,-1,-1,-1],"split_conditions":[6.2331414E-1,2.642133E-1,1.035866E0,1.3304806E0,-9.116198E-1,1.4612597E0,-7.038246E-1,3.684346E-2,-2.1257563E-1,1.9602744E-2,-1.6019017E-1,1.443436E-1,-1.3874E-1,1.2715167E-1,-1.4141761E-1],"split_indices":[9,10,0,1,3,10,3,0,0,0,0,0,0,0,0],"split_type":[0,0,0,0,0,0,0,0,0,0,0,0,0,0,0],"sum_hessian":[1.8432237E2,1.3285721E2,5.1465157E1,8.6865814E1,4.5991398E1,4.2708824E1,8.756335E0,7.850309E1,8.362727E0,9.9793625E0,3.6012035E1,3.981845E1,2.8903728E0,2.093731E0,6.6626043E0],"tree_param":{"num_deleted":"0","num_feature":"12","num_nodes":"15","size_leaf_vector":"1"}},{"base_weights":[-4.9670027E-3,-2.7979365E-1,2.9183313E-1,-5.7582575E-1,2.1006836E-1,4.369129E-1,-6.752972E-1,9.514982E-2,-1.4302623E-1,1.6840698E-1,-3.861972E-2,1.14845626E-1,-6.238387E-2,-1.8235454E-1,1.4901891E-1],"categories":[],"categories_nodes":[],"categories_segments":[],"categories_sizes":[],"default_left":[0,0,0,0,0,0,0,0,0,0,0,0,0,0,0],"id":15,"left_children":[1,3,5,7,9,11,13,-1,-1,-1,-1,-1,-1,-1,-1],"loss_changes":[1.4839946E1,1.3818138E1,1.2569101E1,9.003931E0,9.414372E0,8.063183E0,4.6440535E0,0E0,0E0,0E0,0E0,0E0,0E0,0E0,0E0],"parents":[2147483647,0,0,1,1,2,2,3,3,4,4,5,5,6,6],"right_children":[2,4,6,8,10,12,14,-1,-1,-1,-1,-1,-1,-1,-1],"split_conditions":[-3.910607E-2,3.6075774E-1,1.2214704E0,-1.1983274E0,-2.9676372E-1,1.0016143E0,1.1875461E0,9.514982E-2,-1.4302623E-1,1.6840698E-1,-3.861972E-2,1.14845626E-1,-6.238387E-2,-1.8235454E-1,1.4901891E-1],"split_indices":[5,4,0,3,1,1,7,0,0,0,0,0,0,0,0],"split_type":[0,0,0,0,0,0,0,0,0,0,0,0,0,0,0],"sum_hessian":[1.7993109E2,9.34536E1,8.647749E1,5.8141937E1,3.5311665E1,7.567386E1,1.08036375E1,6.518744E0,5.162319E1,1.3329323E1,2.1982342E1,6.414466E1,1.1529198E1,9.568671E0,1.2349666E0],"tree_param":{"num_deleted":"0","num_feature":"12","num_nodes":"15","size_leaf_vector":"1"}},{"base_weights":[-3.474753E-3,2.3476273E-1,-3.2161382E-1,-3.2280537E-1,4.390661E-1,2.1255776E-1,-5.56996E-1,1.5665017E-1,-9.9269286E-2,-8.466403E-2,1.1577039E-1,-1.8871725E-1,8.10107E-2,-1.6513053E-1,-1.6797958E-2],"categories":[],"categories_nodes":[],"categories_segments":[],"categories_sizes":[],"default_left":[0,0,0,0,0,0,0,0,0,0,0,0,0,0,0],"id":16,"left_children":[1,3,5,7,9,11,13,-1,-1,-1,-1,-1,-1,-1,-1],"loss_changes":[1.3450814E1,1.1702305E1,9.672516E0,5.723092E0,9.249496E0,5.715828E0,6.6683445E0,0E0,0E0,0E0,0E0,0E0,0E0,0E0,0E0],"parents":[2147483647,0,0,1,1,2,2,3,3,4,4,5,5,6,6],"right_children":[2,4,6,8,10,12,14,-1,-1,-1,-1,-1,-1,-1,-1],"split_conditions":[1.4452325E-1,-6.9779503E-1,-4.6391666E-1,-1.5194354E0,-1.1638823E0,-1.297116E0,2.9503292E-1,1.5665017E-1,-9.9269286E-2,-8.466403E-2,1.1577039E-1,-1.8871725E-1,8.10107E-2,-1.6513053E-1,-1.6797958E-2],"split_indices":[2,5,0,6,4,5,5,0,0,0,0,0,0,0,0],"split_type":[0,0,0,0,0,0,0,0,0,0,0,0,0,0,0],"sum_hessian":[1.7547241E2,1.00485916E2,7.49865E1,2.6790754E1,7.369516E1,2.296566E1,5.202084E1,3.1569195E0,2.3633835E1,9.996294E0,6.369887E1,2.721039E0,2.0244621E1,3.270156E1,1.9319279E1],"tree_param":{"num_deleted":"0","num_feature":"12","num_nodes":"15","size_leaf_vector":"1"}},{"base_weights":[-4.212443E-3,4.433622E-1,-1.6290691E-1,-3.7483838E-1,5.9289914E-1,2.1660628E-2,-7.104095E-1,1.2821995E-1,-1.595476E-1,1.43166E-1,-1.09178916E-1,1.091146E-1,-3.951677E-2,2.6514838E-2,-1.7936419E-1],"categories":[],"categories_nodes":[],"categories_segments":[],"categories_sizes":[],"default_left":[0,0,0,0,0,0,0,0,0,0,0,0,0,0,0],"id":17,"left_children":[1,3,5,7,9,11,13,-1,-1,-1,-1,-1,-1,-1,-1],"loss_changes":[1.2354192E1,5.7930193E0,1.2989062E1,3.797409E0,5.8340836E0,1.1248418E1,5.2100067E0,0E0,0E0,0E0,0E0,0E0,0E0,0E0,0E0],"parents":[2147483647,0,0,1,1,2,2,3,3,4,4,5,5,6,6],"right_children":[2,4,6,8,10,12,14,-1,-1,-1,-1,-1,-1,-1,-1],"split_conditions":[-6.713612E-1,-1.3995835E0,6.8475544E-1,-5.2350646E-1,1.3304806E0,-5.0321543E-1,-1.0294203E0,1.2821995E-1,-1.595476E-1,1.43166E-1,-1.09178916E-1,1.091146E-1,-3.951677E-2,2.6514838E-2,-1.7936419E-1],"split_indices":[10,5,3,3,1,1,0,0,0,0,0,0,0,0,0],"split_type":[0,0,0,0,0,0,0,0,0,0,0,0,0,0,0],"sum_hessian":[1.7191815E2,4.4531033E1,1.2738711E2,6.6482215E0,3.7882812E1,9.5988914E1,3.1398197E1,1.8023783E0,4.8458433E0,3.4527084E1,3.3557272E0,2.7879324E1,6.810959E1,5.7381463E0,2.5660051E1],"tree_param":{"num_deleted":"0","num_feature":"12","num_nodes":"15","size_leaf_vector":"1"}},{"base_weights":[-4.0081074E-3,-2.591669E-1,2.8650677E-1,4.531925E-1,-4.094779E-1,4.403853E-1,-4.076989E-1,1.4264391E-1,-1.5779053E-1,7.191621E-4,-1.4597367E-1,-6.3908726E-2,1.1697201E-1,2.9845357E-2,-1.9421203E-1],"categories":[],"categories_nodes":[],"categories_segments":[],"categories_sizes":[],"default_left":[0,0,0,0,0,0,0,0,0,0,0,0,0,0,0],"id":18,"left_children":[1,3,5,7,9,11,13,-1,-1,-1,-1,-1,-1,-1,-1],"loss_changes":[1.2566418E1,9.84871E0,8.648156E0,5.7948546E0,9.934709E0,7.364258E0,4.8208714E0,0E0,0E0,0E0,0E0,0E0,0E0,0E0,0E0],"parents":[2147483647,0,0,1,1,2,2,3,3,4,4,5,5,6,6],"right_children":[2,4,6,8,10,12,14,-1,-1,-1,-1,-1,-1,-1,-1],"split_conditions":[1.20230004E-1,-1.0188987E0,9.716049E-1,8.160107E-1,-1.5817599E-1,-1.0933331E0,5.209052E-2,1.4264391E-1,-1.5779053E-1,7.191621E-4,-1.4597367E-1,-6.3908726E-2,1.1697201E-1,2.9845357E-2,-1.9421203E-1],"split_indices":[9,6,6,10,0,5,2,0,0,0,0,0,0,0,0],"split_type":[0,0,0,0,0,0,0,0,0,0,0,0,0,0,0],"sum_hessian":[1.6752284E2,8.924606E1,7.827678E1,1.5199063E1,7.4047E1,6.437333E1,1.3903451E1,1.2920202E1,2.2788613E0,3.2776985E1,4.127001E1,1.0089795E1,5.4283535E1,7.361328E0,6.5421224E0],"tree_param":{"num_deleted":"0","num_feature":"12","num_nodes":"15","size_leaf_vector":"1"}},{"base_weights":[-5.0980467E-3,6.604506E-1,-1.0043228E-1,2.4241947E-1,1.668727E-1,6.008754E-1,-2.1761054E-1,9.362357E-2,-1.1938798E-1,-1.0590561E-1,2.0142296E-1,2.865078E-2,-9.2388965E-2],"categories":[],"categories_nodes":[],"categories_segments":[],"categories_sizes":[],"default_left":[0,0,0,0,0,0,0,0,0,0,0,0,0],"id":19,"left_children":[1,3,5,-1,7,9,11,-1,-1,-1,-1,-1,-1],"loss_changes":[1.0552755E1,5.4719534E0,1.20820875E1,0E0,3.0770092E0,1.0216578E1,1.1118091E1,0E0,0E0,0E0,0E0,0E0,0E0],"parents":[2147483647,0,0,1,1,2,2,4,4,5,5,6,6],"right_children":[2,4,6,-1,8,10,12,-1,-1,-1,-1,-1,-1],"split_conditions":[-1.1983274E0,-5.690994E-2,-1.0841947E0,2.4241947E-1,6.742075E-1,-8.375136E-1,-2.1612678E-1,9.362357E-2,-1.1938798E-1,-1.0590561E-1,2.0142296E-1,2.865078E-2,-9.2388965E-2],"split_indices":[3,10,1,0,6,9,6,0,0,0,0,0,0],"split_type":[0,0,0,0,0,0,0,0,0,0,0,0,0],"sum_hessian":[1.6427182E2,1.98396E1,1.4443222E2,8.681262E0,1.1158338E1,2.0086624E1,1.243456E2,8.2799015E0,2.8784359E0,5.2300315E0,1.4856593E1,5.0368538E1,7.397706E1],"tree_param":{"num_deleted":"0","num_feature":"12","num_nodes":"13","size_leaf_vector":"1"}}]},"name":"gbtree"},"learner_model_param":{"base_score":"5.0699955E-1","boost_from_average":"1","num_class":"0","num_feature":"12","num_target":"1"},"objective":{"name":"binary:logistic","reg_loss_param":{"scale_pos_weight":"1"}}},"version":[2,1,4]}