{"learner":{"attributes":{},"feature_names":[],"feature_types":[],"gradient_booster":{"model":{"gbtree_model_param":{"num_parallel_tree":"1","num_trees":"20"},"iteration_indptr":[0,1,2,3,4,5,6,7,8,9,10,11,12,13,14,15,16,17,18,19,20],"tree_info":[0,0,0,0,0,0,0,0,0,0,0,0,0,0,0,0,0,0,0,0],"trees":[{"base_weights":[-0E0,-6.3300973E-1,6.612576E-1,-9.714286E-1,8.2828283E-1,1.1683168E0,-1.4432989E-1,-1.8300654E-2,-2.907749E-1,2.8363636E-1,1.6666668E-2,3.902439E-2,3.0044445E-1,-2.2089553E-1,7.022901E-2],"categories":[],"categories_nodes":[],"categories_segments":[],"categories_sizes":[],"default_left":[0,0,0,0,0,0,0,0,0,0,0,0,0,0,0],"id":0,"left_children":[1,3,5,7,9,11,13,-1,-1,-1,-1,-1,-1,-1,-1],"loss_changes":[1.0548279E2,6.447522E1,5.0513855E1,4.4441185E1,1.0758081E1,2.432222E1,2.3460695E1,0E0,0E0,0E0,0E0,0E0,0E0,0E0,0E0],"parents":[2147483647,0,0,1,1,2,2,3,3,4,4,5,5,6,6],"right_children":[2,4,6,8,10,12,14,-1,-1,-1,-1,-1,-1,-1,-1],"split_conditions":[-3.910607E-2,9.2881453E-1,2.889449E-1,-3.0325755E-1,1.5598142E-1,-6.094109E-1,-4.9997118E-1,-1.8300654E-2,-2.907749E-1,2.8363636E-1,1.6666668E-2,3.902439E-2,3.0044445E-1,-2.2089553E-1,7.022901E-2],"split_indices":[5,11,6,6,9,10,11,0,0,0,0,0,0,0,0],"split_type":[0,0,0,0,0,0,0,0,0,0,0,0,0,0,0],"sum_hessian":[2.5E2,1.2775E2,1.2225E2,1.04E2,2.375E1,7.475E1,4.75E1,3.725E1,6.675E1,1.275E1,1.1E1,1.95E1,5.525E1,1.575E1,3.175E1],"tree_param":{"num_deleted":"0","num_feature":"12","num_nodes":"15","size_leaf_vector":"1"}},{"base_weights":[7.226699E-4,4.9955E-1,-5.987879E-1,-2.2660896E-1,9.5043695E-1,-9.6949804E-1,3.683388E-1,-1.6073328E-1,1.3298552E-1,-2.5860903E-1,2.1866874E-1,-2.3647533E-1,7.643112E-2,-1.3928297E-1,1.3508713E-1],"categories":[],"categories_nodes":[],"categories_segments":[],"categories_sizes":[],"default_left":[0,0,0,0,0,0,0,0,0,0,0,0,0,0,0],"id":1,"left_children":[1,3,5,7,9,11,13,-1,-1,-1,-1,-1,-1,-1,-1],"loss_changes":[7.443011E1,4.469482E1,4.08833E1,2.7722515E1,2.8345833E1,2.4043388E1,1.09490795E1,0E0,0E0,0E0,0E0,0E0,0E0,0E0,0E0],"parents":[2147483647,0,0,1,1,2,2,3,3,4,4,5,5,6,6],"right_children":[2,4,6,8,10,12,14,-1,-1,-1,-1,-1,-1,-1,-1],"split_conditions":[1.21905655E-1,-3.5705486E-1,5.18149E-1,3.2865217E-1,-1.7224133E0,9.9952275E-1,-9.120976E-1,-1.6073328E-1,1.3298552E-1,-2.5860903E-1,2.1866874E-1,-2.3647533E-1,7.643112E-2,-1.3928297E-1,1.3508713E-1],"split_indices":[6,5,5,11,10,11,11,0,0,0,0,0,0,0,0],"split_type":[0,0,0,0,0,0,0,0,0,0,0,0,0,0,0],"sum_hessian":[2.468864E2,1.348501E2,1.120363E2,5.1847107E1,8.300298E1,8.098965E1,3.1046658E1,3.1534557E1,2.031255E1,4.488602E0,7.851438E1,7.0077965E1,1.0911684E1,6.6661882E0,2.4380468E1],"tree_param":{"num_deleted":"0","num_feature":"12","num_nodes":"15","size_leaf_vector":"1"}},{"base_weights":[-5.9639016E-4,-7.542728E-1,3.2977065E-1,2.3476686E-2,-1.229455E0,7.1633196E-1,-3.4589735E-1,-2.0835634E-1,1.1959632E-1,-2.7951118E-1,1.1698645E-1,2.2302781E-1,2.4498805E-2,-1.8190019E-1,5.768357E-2],"categories":[],"categories_nodes":[],"categories_segments":[],"categories_sizes":[],"default_left":[0,0,0,0,0,0,0,0,0,0,0,0,0,0,0],"id":2,"left_children":[1,3,5,7,9,11,13,-1,-1,-1,-1,-1,-1,-1,-1],"loss_changes":[6.0459377E1,2.737717E1,4.434133E1,1.83991E1,1.48333435E1,2.5371872E1,2.2466948E1,0E0,0E0,0E0,0E0,0E0,0E0,0E0,0E0],"parents":[2147483647,0,0,1,1,2,2,3,3,4,4,5,5,6,6],"right_children":[2,4,6,8,10,12,14,-1,-1,-1,-1,-1,-1,-1,-1],"split_conditions":[-4.9997118E-1,-4.2204624E-1,4.4164556E-1,-5.628646E-1,1.385816E0,1.21645235E-1,1.4222219E-2,-2.0835634E-1,1.1959632E-1,-2.7951118E-1,1.1698645E-1,2.2302781E-1,2.4498805E-2,-1.8190019E-1,5.768357E-2],"split_indices":[11,8,3,5,5,8,5,0,0,0,0,0,0,0,0],"split_type":[0,0,0,0,0,0,0,0,0,0,0,0,0,0,0],"sum_hessian":[2.4081964E2,7.299981E1,1.6781984E2,2.8046154E1,4.495366E1,1.0670938E2,6.1110455E1,9.541242E0,1.8504913E1,4.1352165E1,3.6014931E0,6.331244E1,4.339694E1,3.2129143E1,2.8981312E1],"tree_param":{"num_deleted":"0","num_feature":"12","num_nodes":"15","size_leaf_vector":"1"}},{"base_weights":[-1.8137762E-3,5.761065E-1,-3.7115297E-1,-3.7208188E-1,8.326245E-1,-9.144232E-1,7.8078456E-2,-1.5393083E-1,2.299707E-1,2.552101E-1,6.6008545E-2,-2.1330285E-1,1.7198996E-1,-1.3797453E-1,7.9884805E-2],"categories":[],"categories_nodes":[],"categories_segments":[],"categories_sizes":[],"default_left":[0,0,0,0,0,0,0,0,0,0,0,0,0,0,0],"id":3,"left_children":[1,3,5,7,9,11,13,-1,-1,-1,-1,-1,-1,-1,-1],"loss_changes":[5.074794E1,2.2857372E1,3.547123E1,1.3246815E1,1.5907978E1,1.8655872E1,2.0096127E1,0E0,0E0,0E0,0E0,0E0,0E0,0E0,0E0],"parents":[2147483647,0,0,1,1,2,2,3,3,4,4,5,5,6,6],"right_children":[2,4,6,8,10,12,14,-1,-1,-1,-1,-1,-1,-1,-1],"split_conditions":[-2.9955834E-1,-8.7894124E-1,-1.8180911E-1,6.854568E-1,3.0861657E-2,1.4721769E0,-4.9997118E-1,-1.5393083E-1,2.299707E-1,2.552101E-1,6.6008545E-2,-2.1330285E-1,1.7198996E-1,-1.3797453E-1,7.9884805E-2],"split_indices":[6,10,5,11,9,11,11,0,0,0,0,0,0,0,0],"split_type":[0,0,0,0,0,0,0,0,0,0,0,0,0,0,0],"sum_hessian":[2.3575073E2,9.170161E1,1.4404912E2,1.943009E1,7.227152E1,6.4731575E1,7.931754E1,1.5797605E1,3.6324852E0,3.7577793E1,3.469373E1,5.998857E1,4.7430058E0,2.306058E1,5.625696E1],"tree_param":{"num_deleted":"0","num_feature":"12","num_nodes":"15","size_leaf_vector":"1"}},{"base_weights":[-6.682713E-4,3.262094E-1,-5.1584375E-1,7.044647E-1,-2.7547553E-1,-7.020538E-1,5.85893E-1,-4.2761844E-2,2.0034535E-1,2.7371584E-2,-1.8793057E-1,-1.7386113E-1,7.972326E-2,1.7800489E-1,-1.5914218E-1],"categories":[],"categories_nodes":[],"categories_segments":[],"categories_sizes":[],"default_left":[0,0,0,0,0,0,0,0,0,0,0,0,0,0,0],"id":4,"left_children":[1,3,5,7,9,11,13,-1,-1,-1,-1,-1,-1,-1,-1],"loss_changes":[3.8788074E1,3.2266464E1,1.875482E1,2.390976E1,1.5222359E1,1.4510468E1,6.3691373E0,0E0,0E0,0E0,0E0,0E0,0E0,0E0,0E0],"parents":[2147483647,0,0,1,1,2,2,3,3,4,4,5,5,6,6],"right_children":[2,4,6,8,10,12,14,-1,-1,-1,-1,-1,-1,-1,-1],"split_conditions":[2.889449E-1,1.5449603E-1,9.9952275E-1,-8.1874216E-1,3.728443E-1,1.1658552E0,9.596118E-1,-4.2761844E-2,2.0034535E-1,2.7371584E-2,-1.8793057E-1,-1.7386113E-1,7.972326E-2,1.7800489E-1,-1.5914218E-1],"split_indices":[6,8,11,5,9,5,8,0,0,0,0,0,0,0,0],"split_type":[0,0,0,0,0,0,0,0,0,0,0,0,0,0,0],"sum_hessian":[2.2833463E2,1.3992154E2,8.841309E1,8.5807175E1,5.411436E1,7.594074E1,1.2472349E1,2.1052994E1,6.475418E1,3.3876904E1,2.0237457E1,6.610586E1,9.834883E0,1.0513765E1,1.958584E0],"tree_param":{"num_deleted":"0","num_feature":"12","num_nodes":"15","size_leaf_vector":"1"}},{"base_weights":[-6.059183E-4,3.0072075E-1,-5.322341E-1,-5.627468E-1,5.6184673E-1,3.2455266E-2,-1.0514961E0,-1.630947E-1,9.5750146E-2,3.1683676E-2,2.0769472E-1,-1.432646E-1,9.838854E-2,-2.3929136E-1,1.7522073E-1],"categories":[],"categories_nodes":[],"categories_segments":[],"categories_sizes":[],"default_left":[0,0,0,0,0,0,0,0,0,0,0,0,0,0,0],"id":5,"left_children":[1,3,5,7,9,11,13,-1,-1,-1,-1,-1,-1,-1,-1],"loss_changes":[3.5809982E1,3.2485733E1,2.3746159E1,9.241838E0,2.099588E1,1.4014485E1,1.2828281E1,0E0,0E0,0E0,0E0,0E0,0E0,0E0,0E0],"parents":[2147483647,0,0,1,1,2,2,3,3,4,4,5,5,6,6],"right_children":[2,4,6,8,10,12,14,-1,-1,-1,-1,-1,-1,-1,-1],"split_conditions":[4.4164556E-1,-7.089748E-1,-9.718389E-2,9.759905E-1,4.0007066E-2,-3.4045804E-1,1.40117E0,-1.630947E-1,9.5750146E-2,3.1683676E-2,2.0769472E-1,-1.432646E-1,9.838854E-2,-2.3929136E-1,1.7522073E-1],"split_indices":[3,11,9,5,10,5,11,0,0,0,0,0,0,0,0],"split_type":[0,0,0,0,0,0,0,0,0,0,0,0,0,0,0],"sum_hessian":[2.2154257E2,1.4167537E2,7.986722E1,3.262823E1,1.09047134E2,3.8709137E1,4.1158077E1,2.6431467E1,6.196764E0,5.978016E1,4.9266975E1,1.4508005E1,2.4201132E1,3.863214E1,2.5259373E0],"tree_param":{"num_deleted":"0","num_feature":"12","num_nodes":"15","size_leaf_vector":"1"}},{"base_weights":[-6.076512E-4,-2.0913747E-1,6.5897906E-1,3.1507367E-1,-6.085983E-1,1.1443046E0,2.6189712E-1,1.9579498E-1,-9.697196E-3,4.8530414E-3,-1.7822717E-1,2.5492272E-1,-5.3275526E-2,-2.2331713E-1,1.02038614E-1],"categories":[],"categories_nodes":[],"categories_segments":[],"categories_sizes":[],"default_left":[0,0,0,0,0,0,0,0,0,0,0,0,0,0,0],"id":6,"left_children":[1,3,5,7,9,11,13,-1,-1,-1,-1,-1,-1,-1,-1],"loss_changes":[2.9980951E1,3.4871338E1,9.790762E0,1.7493876E1,1.688876E1,4.6161976E0,1.0870249E1,0E0,0E0,0E0,0E0,0E0,0E0,0E0,0E0],"parents":[2147483647,0,0,1,1,2,2,3,3,4,4,5,5,6,6],"right_children":[2,4,6,8,10,12,14,-1,-1,-1,-1,-1,-1,-1,-1],"split_conditions":[7.269937E-1,-2.3080713E-1,-1.6262156E-1,-4.6639764E-1,-5.4824036E-1,1.6543659E0,-1.2286178E0,1.9579498E-1,-9.697196E-3,4.8530414E-3,-1.7822717E-1,2.5492272E-1,-5.3275526E-2,-2.2331713E-1,1.02038614E-1],"split_indices":[11,9,6,8,3,8,5,0,0,0,0,0,0,0,0],"split_type":[0,0,0,0,0,0,0,0,0,0,0,0,0,0,0],"sum_hessian":[2.1597235E2,1.6461263E2,5.1359726E1,7.1281456E1,9.333117E1,2.2264992E1,2.9094734E1,2.4623465E1,4.6657993E1,2.9088705E1,6.424247E1,2.0470526E1,1.7944664E0,3.906994E0,2.518774E1],"tree_param":{"num_deleted":"0","num_feature":"12","num_nodes":"15","size_leaf_vector":"1"}},{"base_weights":[5.940784E-4,-2.948467E-1,4.2704546E-1,6.2253356E-1,-4.8526707E-1,6.70993E-1,-6.194121E-1,-4.3900475E-2,2.1248095E-1,-1.5995368E-1,1.712904E-2,-2.2526944E-1,1.5536693E-1,-1.9605556E-1,1.2512778E-1],"categories":[],"categories_nodes":[],"categories_segments":[],"categories_sizes":[],"default_left":[0,0,0,0,0,0,0,0,0,0,0,0,0,0,0],"id":7,"left_children":[1,3,5,7,9,11,13,-1,-1,-1,-1,-1,-1,-1,-1],"loss_changes":[2.6814447E1,2.2265163E1,2.2650883E1,8.400019E0,1.8863722E1,1.4403431E1,8.245146E0,0E0,0E0,0E0,0E0,0E0,0E0,0E0,0E0],"parents":[2147483647,0,0,1,1,2,2,3,3,4,4,5,5,6,6],"right_children":[2,4,6,8,10,12,14,-1,-1,-1,-1,-1,-1,-1,-1],"split_conditions":[2.0831819E-1,-1.035339E0,1.0241134E0,-1.0371374E-1,4.0403345E-1,-1.7224133E0,7.269937E-1,-4.3900475E-2,2.1248095E-1,-1.5995368E-1,1.712904E-2,-2.2526944E-1,1.5536693E-1,-1.9605556E-1,1.2512778E-1],"split_indices":[5,6,6,11,10,10,11,0,0,0,0,0,0,0,0],"split_type":[0,0,0,0,0,0,0,0,0,0,0,0,0,0,0],"sum_hessian":[2.1082867E2,1.2472747E2,8.6101204E1,2.1049398E1,1.0367807E2,7.0114975E1,1.5986228E1,7.3947573E0,1.3654641E1,6.6592865E1,3.7085205E1,3.3630939E0,6.6751884E1,1.2558835E1,3.427393E0],"tree_param":{"num_deleted":"0","num_feature":"12","num_nodes":"15","size_leaf_vector":"1"}},{"base_weights":[3.7501127E-4,2.167827E-1,-5.5092484E-1,3.5029823E-1,-8.6718786E-1,5.751317E-1,-7.233325E-1,-1.8547295E-1,9.2257045E-2,-2.2496937E-1,1.0011166E-1,-4.8705768E-2,1.7586994E-1,-1.7141098E-1,1.5801753E-1],"categories":[],"categories_nodes":[],"categories_segments":[],"categories_sizes":[],"default_left":[0,0,0,0,0,0,0,0,0,0,0,0,0,0,0],"id":8,"left_children":[1,3,5,7,9,11,13,-1,-1,-1,-1,-1,-1,-1,-1],"loss_changes":[2.4646843E1,2.1774086E1,1.172167E1,1.9258492E1,6.39779E0,2.2786107E0,1.0987307E1,0E0,0E0,0E0,0E0,0E0,0E0,0E0,0E0],"parents":[2147483647,0,0,1,1,2,2,3,3,4,4,5,5,6,6],"right_children":[2,4,6,8,10,12,14,-1,-1,-1,-1,-1,-1,-1,-1],"split_conditions":[5.341984E-1,1.2182214E0,-1.0635502E0,-1.4777474E0,1.1319475E0,-6.094109E-1,1.4721769E0,-1.8547295E-1,9.2257045E-2,-2.2496937E-1,1.0011166E-1,-4.8705768E-2,1.7586994E-1,-1.7141098E-1,1.5801753E-1],"split_indices":[8,9,6,5,11,10,11,0,0,0,0,0,0,0,0],"split_type":[0,0,0,0,0,0,0,0,0,0,0,0,0,0,0],"sum_hessian":[2.0458487E2,1.4735056E2,5.723432E1,1.3179398E2,1.5556575E1,7.2893133E0,4.9945007E1,9.945658E0,1.2184831E2,1.3239988E1,2.3165867E0,2.028919E0,5.2603946E0,4.628874E1,3.6562712E0],"tree_param":{"num_deleted":"0","num_feature":"12","num_nodes":"15","size_leaf_vector":"1"}},{"base_weights":[-9.7225E-4,2.4647422E-1,-4.4598675E-1,-6.294502E-1,4.2278337E-1,-4.6076898E-2,-8.2473326E-1,-1.3065048E-2,-2.1701291E-1,-9.3730316E-2,1.1807803E-1,-7.73853E-2,1.2581381E-1,1.6058534E-1,-1.851435E-1],"categories":[],"categories_nodes":[],"categories_segments":[],"categories_sizes":[],"default_left":[0,0,0,0,0,0,0,0,0,0,0,0,0,0,0],"id":9,"left_children":[1,3,5,7,9,11,13,-1,-1,-1,-1,-1,-1,-1,-1],"loss_changes":[2.224813E1,2.0318548E1,1.0897288E1,5.6243076E0,1.6515644E1,8.568473E0,6.828264E0,0E0,0E0,0E0,0E0,0E0,0E0,0E0,0E0],"parents":[2147483647,0,0,1,1,2,2,3,3,4,4,5,5,6,6],"right_children":[2,4,6,8,10,12,14,-1,-1,-1,-1,-1,-1,-1,-1],"split_conditions":[4.4164556E-1,-8.9512324E-1,-9.718389E-2,-8.189212E-4,-1.036795E0,4.355302E-1,-1.5731249E0,-1.3065048E-2,-2.1701291E-1,-9.3730316E-2,1.1807803E-1,-7.73853E-2,1.2581381E-1,1.6058534E-1,-1.851435E-1],"split_indices":[3,11,9,9,10,11,8,0,0,0,0,0,0,0,0],"split_type":[0,0,0,0,0,0,0,0,0,0,0,0,0,0,0],"sum_hessian":[2.0004213E2,1.2884508E2,7.119705E1,2.1158253E1,1.0768682E2,3.5176567E1,3.602048E1,9.964255E0,1.1193997E1,1.6758541E1,9.092828E1,2.3659096E1,1.1517471E1,1.6981841E0,3.4322296E1],"tree_param":{"num_deleted":"0","num_feature":"12","num_nodes":"15","size_leaf_vector":"1"}},{"base_weights":[-2.3139173E-3,2.1629867E-1,-5.193987E-1,-4.6460363E-1,3.9304912E-1,3.924629E-1,-6.801164E-1,7.706702E-2,-1.5846467E-1,-7.668645E-2,1.137219E-1,-1.0159832E-2,2.4423866E-1,-1.4924943E-1,1.7855744E-1],"categories":[],"categories_nodes":[],"categories_segments":[],"categories_sizes":[],"default_left":[0,0,0,0,0,0,0,0,0,0,0,0,0,0,0],"id":10,"left_children":[1,3,5,7,9,11,13,-1,-1,-1,-1,-1,-1,-1,-1],"loss_changes":[2.2303236E1,1.687284E1,8.858832E0,8.39375E0,1.5300732E1,3.5220141E0,5.888748E0,0E0,0E0,0E0,0E0,0E0,0E0,0E0,0E0],"parents":[2147483647,0,0,1,1,2,2,3,3,4,4,5,5,6,6],"right_children":[2,4,6,8,10,12,14,-1,-1,-1,-1,-1,-1,-1,-1],"split_conditions":[6.3347024E-1,-8.9015806E-1,-9.5485264E-1,-7.8454167E-1,-9.533417E-1,5.1529956E-1,1.967088E0,7.706702E-2,-1.5846467E-1,-7.668645E-2,1.137219E-1,-1.0159832E-2,2.4423866E-1,-1.4924943E-1,1.7855744E-1],"split_indices":[6,5,8,8,10,11,5,0,0,0,0,0,0,0,0],"split_type":[0,0,0,0,0,0,0,0,0,0,0,0,0,0,0],"sum_hessian":[1.9530792E2,1.3768098E2,5.7626934E1,2.803853E1,1.09642456E2,8.418886E0,4.9208046E1,7.75366E0,2.028487E1,2.0000172E1,8.964228E1,6.09667E0,2.322216E0,4.7726986E1,1.4810618E0],"tree_param":{"num_deleted":"0","num_feature":"12","num_nodes":"15","size_leaf_vector":"1"}},{"base_weights":[-9.778416E-4,7.105834E-1,-1.2516226E-1,8.822413E-1,-1.7838943E-1,1.3171184E-1,-5.1100177E-1,-6.2030997E-2,1.9323102E-1,-1.5702918E-1,1.6249263E-1,-1.2629741E-1,6.3775316E-2,-1.3029687E-1,1.621826E-1],"categories":[],"categories_nodes":[],"categories_segments":[],"categories_sizes":[],"default_left":[0,0,0,0,0,0,0,0,0,0,0,0,0,0,0],"id":11,"left_children":[1,3,5,7,9,11,13,-1,-1,-1,-1,-1,-1,-1,-1],"loss_changes":[1.6995415E1,4.518532E0,1.6296606E1,2.713255E0,3.9188018E0,1.4356766E1,1.271986E1,0E0,0E0,0E0,0E0,0E0,0E0,0E0,0E0],"parents":[2147483647,0,0,1,1,2,2,3,3,4,4,5,5,6,6],"right_children":[2,4,6,8,10,12,14,-1,-1,-1,-1,-1,-1,-1,-1],"split_conditions":[-1.0753046E0,9.492037E-1,2.5480574E-1,-1.8021185E0,3.2865217E-1,-8.923572E-1,1.4502804E0,-6.2030997E-2,1.9323102E-1,-1.5702918E-1,1.6249263E-1,-1.2629741E-1,6.3775316E-2,-1.3029687E-1,1.621826E-1],"split_indices":[6,2,9,5,11,10,11,0,0,0,0,0,0,0,0],"split_type":[0,0,0,0,0,0,0,0,0,0,0,0,0,0,0],"sum_hessian":[1.9032587E2,2.7579094E1,1.6274678E2,2.3121899E1,4.4571953E0,9.809698E1,6.4649796E1,1.3429362E0,2.1778963E1,2.8931546E0,1.5640404E0,1.88517E1,7.924528E1,5.8897774E1,5.7520227E0],"tree_param":{"num_deleted":"0","num_feature":"12","num_nodes":"15","size_leaf_vector":"1"}},{"base_weights":[1.8435274E-4,-2.4964152E-1,3.6214304E-1,-5.285383E-1,2.461765E-1,5.333613E-1,-6.392114E-1,-1.858241E-2,-1.732137E-1,1.0513159E-1,-8.238721E-2,-1.2907264E-2,1.5956692E-1,1.4589845E-1,-1.705208E-1],"categories":[],"categories_nodes":[],"categories_segments":[],"categories_sizes":[],"default_left":[0,0,0,0,0,0,0,0,0,0,0,0,0,0,0],"id":12,"left_children":[1,3,5,7,9,11,13,-1,-1,-1,-1,-1,-1,-1,-1],"loss_changes":[1.7008772E1,1.5518905E1,1.3509916E1,1.0438648E1,7.710767E0,1.05098915E1,4.0305886E0,0E0,0E0,0E0,0E0,0E0,0E0,0E0,0E0],"parents":[2147483647,0,0,1,1,2,2,3,3,4,4,5,5,6,6],"right_children":[2,4,6,8,10,12,14,-1,-1,-1,-1,-1,-1,-1,-1],"split_conditions":[2.0831819E-1,4.4595724E-1,1.2165095E0,-2.0267114E-1,5.0792944E-1,-5.062917E-1,-1.4686964E0,-1.858241E-2,-1.732137E-1,1.0513159E-1,-8.238721E-2,-1.2907264E-2,1.5956692E-1,1.4589845E-1,-1.705208E-1],"split_indices":[5,11,6,8,9,11,3,0,0,0,0,0,0,0,0],"split_type":[0,0,0,0,0,0,0,0,0,0,0,0,0,0,0],"sum_hessian":[1.8609492E2,1.10285545E2,7.580939E1,7.0540596E1,3.974495E1,6.513886E1,1.0670518E1,3.135203E1,3.9188564E1,2.80389E1,1.170605E1,2.0208735E1,4.493013E1,1.1130227E0,9.557496E0],"tree_param":{"num_deleted":"0","num_feature":"12","num_nodes":"15","size_leaf_vector":"1"}},{"base_weights":[5.1233837E-5,2.2092566E-1,-4.0028062E-1,-2.0739738E-2,7.311301E-1,-5.926342E-1,2.1817644E-1,2.5047256E-2,-1.9031115E-1,-1.5933591E-1,1.7506392E-1,-1.4043199E-1,1.39526E-1,1.5615605E-1,-4.227367E-2],"categories":[],"categories_nodes":[],"categories_segments":[],"categories_sizes":[],"default_left":[0,0,0,0,0,0,0,0,0,0,0,0,0,0,0],"id":13,"left_children":[1,3,5,7,9,11,13,-1,-1,-1,-1,-1,-1,-1,-1],"loss_changes":[1.6110218E1,1.4492154E1,7.8357716E0,1.1077262E1,9.017126E0,7.510689E0,4.0556316E0,0E0,0E0,0E0,0E0,0E0,0E0,0E0,0E0],"parents":[2147483647,0,0,1,1,2,2,3,3,4,4,5,5,6,6],"right_children":[2,4,6,8,10,12,14,-1,-1,-1,-1,-1,-1,-1,-1],"split_conditions":[4.4164556E-1,4.0403345E-1,6.7884797E-1,1.1602018E0,-1.5175533E0,1.4721769E0,-2.1612678E-1,2.5047256E-2,-1.9031115E-1,-1.5933591E-1,1.7506392E-1,-1.4043199E-1,1.39526E-1,1.5615605E-1,-4.227367E-2],"split_indices":[3,10,5,9,11,11,6,0,0,0,0,0,0,0,0],"split_type":[0,0,0,0,0,0,0,0,0,0,0,0,0,0,0],"sum_hessian":[1.8019464E2,1.16413925E2,6.3780716E1,7.9647255E1,3.6766674E1,4.8681473E1,1.5099241E1,6.959795E1,1.0049302E1,2.78043E0,3.398624E1,4.5292557E1,3.3889155E0,6.1831117E0,8.91613E0],"tree_param":{"num_deleted":"0","num_feature":"12","num_nodes":"15","size_leaf_vector":"1"}},{"base_weights":[-1.2405157E-4,3.2491586E-1,-2.5469092E-1,5.0222903E-1,-4.686363E-1,-8.1160414E-1,-4.631853E-2,1.2778282E-1,-1.2691799E-1,7.411094E-2,-1.742234E-1,2.1396605E-2,-1.9650926E-1,-1.0794306E-1,6.529056E-2],"categories":[],"categories_nodes":[],"categories_segments":[],"categories_sizes":[],"default_left":[0,0,0,0,0,0,0,0,0,0,0,0,0,0,0],"id":14,"left_children":[1,3,5,7,9,11,13,-1,-1,-1,-1,-1,-1,-1,-1],"loss_changes":[1.4752235E1,1.1253422E1,1.1564839E1,1.0425743E1,5.3278446E0,4.370329E0,1.37533455E1,0E0,0E0,0E0,0E0,0E0,0E0,0E0,0E0],"parents":[2147483647,0,0,1,1,2,2,3,3,4,4,5,5,6,6],"right_children":[2,4,6,8,10,12,14,-1,-1,-1,-1,-1,-1,-1,-1],"split_conditions":[-2.5447807E-1,1.0241134E0,-4.9997118E-1,1.2182214E0,-9.5485264E-1,-1.0310119E0,-2.5855342E-1,1.2778282E-1,-1.2691799E-1,7.411094E-2,-1.742234E-1,2.1396605E-2,-1.9650926E-1,-1.0794306E-1,6.529056E-2],"split_indices":[8,6,11,9,8,9,10,0,0,0,0,0,0,0,0],"split_type":[0,0,0,0,0,0,0,0,0,0,0,0,0,0,0],"sum_hessian":[1.7628674E2,7.730485E1,9.898189E1,6.3486404E1,1.381844E1,2.6162598E1,7.281929E1,5.706339E1,6.4230165E0,4.504879E0,9.313561E0,4.1634946E0,2.1999104E1,3.114638E1,4.1672913E1],"tree_param":{"num_deleted":"0","num_feature":"12","num_nodes":"15","size_leaf_vector":"1"}},{"base_weights":[-2.6513755E-3,6.56699E-1,-1.1380132E-1,8.0763084E-1,-1.14039525E-1,5.018166E-1,-2.4975564E-1,6.4008996E-2,2.098567E-1,-1.2872274E-1,1.5063177E-1,-1.0097187E-1,1.4124532E-1,-8.9143656E-2,4.988473E-2],"categories":[],"categories_nodes":[],"categories_segments":[],"categories_sizes":[],"default_left":[0,0,0,0,0,0,0,0,0,0,0,0,0,0,0],"id":15,"left_children":[1,3,5,7,9,11,13,-1,-1,-1,-1,-1,-1,-1,-1],"loss_changes":[1.2750945E1,3.0118914E0,1.2584962E1,2.1518383E0,2.7747836E0,5.9662685E0,1.2104589E1,0E0,0E0,0E0,0E0,0E0,0E0,0E0,0E0],"parents":[2147483647,0,0,1,1,2,2,3,3,4,4,5,5,6,6],"right_children":[2,4,6,8,10,12,14,-1,-1,-1,-1,-1,-1,-1,-1],"split_conditions":[-1.0753046E0,9.492037E-1,-8.591442E-1,-4.719152E-1,3.2865217E-1,-1.036795E0,5.956263E-1,6.4008996E-2,2.098567E-1,-1.2872274E-1,1.5063177E-1,-1.0097187E-1,1.4124532E-1,-8.9143656E-2,4.988473E-2],"split_indices":[6,2,3,5,11,10,5,0,0,0,0,0,0,0,0],"split_type":[0,0,0,0,0,0,0,0,0,0,0,0,0,0,0],"sum_hessian":[1.7196729E2,2.4099413E1,1.4786787E2,2.0112888E1,3.9865243E0,2.6261497E1,1.2160637E2,7.435195E0,1.2677694E1,2.6351407E0,1.3513838E0,4.1843963E0,2.20771E1,8.740207E1,3.4204304E1],"tree_param":{"num_deleted":"0","num_feature":"12","num_nodes":"15","size_leaf_vector":"1"}},{"base_weights":[2.6737264E-4,2.7969825E-1,-2.521462E-1,5.3582686E-1,-1.832106E-1,-5.840241E-1,1.2816916E-1,-1.4610161E-1,1.2609145E-1,-8.711261E-2,1.537659E-1,-1.6216429E-1,-4.734821E-3,6.808473E-2,-1.639993E-1],"categories":[],"categories_nodes":[],"categories_segments":[],"categories_sizes":[],"default_left":[0,0,0,0,0,0,0,0,0,0,0,0,0,0,0],"id":16,"left_children":[1,3,5,7,9,11,13,-1,-1,-1,-1,-1,-1,-1,-1],"loss_changes":[1.200356E1,9.674567E0,1.1360788E1,6.7222853E0,7.426135E0,6.071863E0,8.829834E0,0E0,0E0,0E0,0E0,0E0,0E0,0E0,0E0],"parents":[2147483647,0,0,1,1,2,2,3,3,4,4,5,5,6,6],"right_children":[2,4,6,8,10,12,14,-1,-1,-1,-1,-1,-1,-1,-1],"split_conditions":[-8.2702346E-2,2.529335E-1,1.1537754E-1,-1.6440516E0,8.846756E-1,5.398448E-1,1.0702384E0,-1.4610161E-1,1.2609145E-1,-8.711261E-2,1.537659E-1,-1.6216429E-1,-4.734821E-3,6.808473E-2,-1.639993E-1],"split_indices":[9,2,11,5,10,5,6,0,0,0,0,0,0,0,0],"split_type":[0,0,0,0,0,0,0,0,0,0,0,0,0,0,0],"sum_hessian":[1.6818576E2,7.976972E1,8.841604E1,5.125351E1,2.8516216E1,4.6928658E1,4.148738E1,3.096522E0,4.8156986E1,2.2970133E1,5.546082E0,3.30891E1,1.3839554E1,3.4422577E1,7.0648036E0],"tree_param":{"num_deleted":"0","num_feature":"12","num_nodes":"15","size_leaf_vector":"1"}},{"base_weights":[-1.7108442E-3,8.815097E-2,-7.766259E-1,-8.6854696E-1,1.7264946E-1,4.489168E-1,-1.0072763E0,2.0329896E-2,-1.9390872E-1,6.1161924E-2,-1.0304753E-1,1.6872527E-1,-3.8961533E-2,-2.278792E-1,3.1249622E-2],"categories":[],"categories_nodes":[],"categories_segments":[],"categories_sizes":[],"default_left":[0,0,0,0,0,0,0,0,0,0,0,0,0,0,0],"id":17,"left_children":[1,3,5,7,9,11,13,-1,-1,-1,-1,-1,-1,-1,-1],"loss_changes":[1.156675E1,1.2183835E1,5.331176E0,1.2985659E0,1.2762951E1,1.0347407E0,2.458475E0,0E0,0E0,0E0,0E0,0E0,0E0,0E0,0E0],"parents":[2147483647,0,0,1,1,2,2,3,3,4,4,5,5,6,6],"right_children":[2,4,6,8,10,12,14,-1,-1,-1,-1,-1,-1,-1,-1],"split_conditions":[1.3057303E0,-1.3770725E0,-9.952307E-1,-1.5934509E0,9.596118E-1,1.8412775E0,1.3740362E0,2.0329896E-2,-1.9390872E-1,6.1161924E-2,-1.0304753E-1,1.6872527E-1,-3.8961533E-2,-2.278792E-1,3.1249622E-2],"split_indices":[3,11,8,9,8,3,11,0,0,0,0,0,0,0,0],"split_type":[0,0,0,0,0,0,0,0,0,0,0,0,0,0,0],"sum_hessian":[1.6412163E2,1.4786136E2,1.6260267E1,1.1246689E1,1.3661467E2,2.42562E0,1.3834648E1,1.0597762E0,1.0186913E1,1.149234E2,2.1691267E1,1.311137E0,1.1144832E0,1.2442521E1,1.3921269E0],"tree_param":{"num_deleted":"0","num_feature":"12","num_nodes":"15","size_leaf_vector":"1"}},{"base_weights":[-4.126038E-3,-1.2361528E-1,5.176222E-1,-2.1068917E-1,8.3170694E-1,-6.951151E-1,6.593884E-1,-6.255308E-2,1.2375938E-1,-2.0570457E-2,1.9518605E-1,-4.08899E-2,-1.616667E-1,1.577991E-1,-1.06155016E-1],"categories":[],"categories_nodes":[],"categories_segments":[],"categories_sizes":[],"default_left":[0,0,0,0,0,0,0,0,0,0,0,0,0,0,0],"id":18,"left_children":[1,3,5,7,9,11,13,-1,-1,-1,-1,-1,-1,-1,-1],"loss_changes":[1.0188215E1,1.1233757E1,5.694111E0,1.0577066E1,1.6243968E0,3.8846493E-2,4.703868E0,0E0,0E0,0E0,0E0,0E0,0E0,0E0,0E0],"parents":[2147483647,0,0,1,1,2,2,3,3,4,4,5,5,6,6],"right_children":[2,4,6,8,10,12,14,-1,-1,-1,-1,-1,-1,-1,-1],"split_conditions":[8.988299E-1,1.4502804E0,-1.504468E0,1.248372E0,-1.3763787E0,-2.116025E0,1.4642385E0,-6.255308E-2,1.2375938E-1,-2.0570457E-2,1.9518605E-1,-4.08899E-2,-1.616667E-1,1.577991E-1,-1.06155016E-1],"split_indices":[10,11,11,5,10,11,6,0,0,0,0,0,0,0,0],"split_type":[0,0,0,0,0,0,0,0,0,0,0,0,0,0,0],"sum_hessian":[1.6139484E2,1.3194115E2,2.94537E1,1.21634125E2,1.0307019E1,2.6741848E0,2.6779514E1,1.0886071E2,1.2773414E1,1.4163035E0,8.890716E0,1.0274075E0,1.6467772E0,2.445362E1,2.3258932E0],"tree_param":{"num_deleted":"0","num_feature":"12","num_nodes":"15","size_leaf_vector":"1"}},{"base_weights":[-1.927671E-3,2.690031E-1,-2.4018933E-1,-3.063081E-1,4.716323E-1,7.2639234E-2,-6.225697E-1,4.232154E-2,-1.8224324E-1,1.2291081E-1,-1.2305202E-1,7.546723E-2,-7.210417E-2,-1.4234754E-1,9.511643E-2],"categories":[],"categories_nodes":[],"categories_segments":[],"categories_sizes":[],"default_left":[0,0,0,0,0,0,0,0,0,0,0,0,0,0,0],"id":19,"left_children":[1,3,5,7,9,11,13,-1,-1,-1,-1,-1,-1,-1,-1],"loss_changes":[1.0357104E1,8.896769E0,1.0256558E1,6.509388E0,9.064273E0,6.451169E0,4.1100645E0,0E0,0E0,0E0,0E0,0E0,0E0,0E0,0E0],"parents":[2147483647,0,0,1,1,2,2,3,3,4,4,5,5,6,6],"right_children":[2,4,6,8,10,12,14,-1,-1,-1,-1,-1,-1,-1,-1],"split_conditions":[-5.122948E-2,-6.338131E-1,3.0861657E-2,-3.636234E-2,1.4199716E0,1.2035462E-1,1.5672879E0,4.232154E-2,-1.8224324E-1,1.2291081E-1,-1.2305202E-1,7.546723E-2,-7.210417E-2,-1.4234754E-1,9.511643E-2],"split_indices":[3,5,9,6,6,2,11,0,0,0,0,0,0,0,0],"split_type":[0,0,0,0,0,0,0,0,0,0,0,0,0,0,0],"sum_hessian":[1.5844397E2,7.4078835E1,8.4365135E1,1.9161955E1,5.4916885E1,4.6848236E1,3.75169E1,1.0673554E1,8.4884E0,4.891884E1,5.9980435E0,2.7577986E1,1.9270252E1,3.5024822E1,2.4920766E0],"tree_param":{"num_deleted":"0","num_feature":"12","num_nodes":"15","size_leaf_vector":"1"}}]},"name":"gbtree"},"learner_model_param":{"base_score":"5E-1","boost_from_average":"1","num_class":"0","num_feature":"12","num_target":"1"},"objective":{"name":"binary:logistic","reg_loss_param":{"scale_pos_weight":"1"}}},"version":[2,1,4]}