{"learner":{"attributes":{},"feature_names":[],"feature_types":[],"gradient_booster":{"model":{"gbtree_model_param":{"num_parallel_tree":"1","num_trees":"20"},"iteration_indptr":[0,1,2,3,4,5,6,7,8,9,10,11,12,13,14,15,16,17,18,19,20],"tree_info":[0,0,0,0,0,0,0,0,0,0,0,0,0,0,0,0,0,0,0,0],"trees":[{"base_weights":[-1.9615184E-6,5.5008876E-1,-8.396135E-1,-2.1306562E-1,1.1287585E0,-1.194844E0,7.921308E-2,1.5858258E-1,-1.4910167E-1,-8.002814E-2,2.8695714E-1,-2.682206E-1,9.7061925E-2,-1.0584219E-1,2.0090376E-1],"categories":[],"categories_nodes":[],"categories_segments":[],"categories_sizes":[],"default_left":[0,0,0,0,0,0,0,0,0,0,0,0,0,0,0],"id":0,"left_children":[1,3,5,7,9,11,13,-1,-1,-1,-1,-1,-1,-1,-1],"loss_changes":[1.16366714E2,6.7463196E1,3.2646255E1,3.6203373E1,4.1155243E1,1.834053E1,1.6714163E1,0E0,0E0,0E0,0E0,0E0,0E0,0E0,0E0],"parents":[2147483647,0,0,1,1,2,2,3,3,4,4,5,5,6,6],"right_children":[2,4,6,8,10,12,14,-1,-1,-1,-1,-1,-1,-1,-1],"split_conditions":[2.787548E-1,-1.660687E-1,6.083903E-1,-9.092644E-1,-8.9512324E-1,1.1996993E0,2.548741E-1,1.5858258E-1,-1.4910167E-1,-8.002814E-2,2.8695714E-1,-2.682206E-1,9.7061925E-2,-1.0584219E-1,2.0090376E-1],"split_indices":[6,1,0,6,11,11,8,0,0,0,0,0,0,0,0],"split_type":[0,0,0,0,0,0,0,0,0,0,0,0,0,0,0],"sum_hessian":[2.4995099E2,1.5122035E2,9.8730644E1,6.548716E1,8.573319E1,7.0986084E1,2.774456E1,2.2495588E1,4.299157E1,1.4247207E1,7.1485985E1,6.548716E1,5.498922E0,1.6996668E1,1.0747892E1],"tree_param":{"num_deleted":"0","num_feature":"12","num_nodes":"15","size_leaf_vector":"1"}},{"base_weights":[3.5019478E-4,4.4681528E-1,-6.84517E-1,1.0783457E-2,1.163879E0,-1.1657012E0,-1.56396E-1,-1.4869367E-1,9.302649E-2,7.053022E-2,3.0750078E-1,-1.2124531E-2,-2.6154244E-1,-1.6597258E-1,8.66288E-2],"categories":[],"categories_nodes":[],"categories_segments":[],"categories_sizes":[],"default_left":[0,0,0,0,0,0,0,0,0,0,0,0,0,0,0],"id":1,"left_children":[1,3,5,7,9,11,13,-1,-1,-1,-1,-1,-1,-1,-1],"loss_changes":[7.606434E1,4.7071953E1,2.4765366E1,3.2783978E1,1.6714684E1,7.9578247E0,1.940049E1,0E0,0E0,0E0,0E0,0E0,0E0,0E0,0E0],"parents":[2147483647,0,0,1,1,2,2,3,3,4,4,5,5,6,6],"right_children":[2,4,6,8,10,12,14,-1,-1,-1,-1,-1,-1,-1,-1],"split_conditions":[2.787548E-1,2.6775643E-1,1.2874697E-1,-2.7695522E-1,-4.0897453E-1,-1.195625E0,-8.929499E-2,-1.4869367E-1,9.302649E-2,7.053022E-2,3.0750078E-1,-1.2124531E-2,-2.6154244E-1,-1.6597258E-1,8.66288E-2],"split_indices":[6,1,0,11,0,5,1,0,0,0,0,0,0,0,0],"split_type":[0,0,0,0,0,0,0,0,0,0,0,0,0,0,0],"sum_hessian":[2.4676353E2,1.4959204E2,9.717149E1,9.365648E1,5.593556E1,5.0213486E1,4.695801E1,3.496904E1,5.8687443E1,1.8251371E1,3.7684185E1,5.8804955E0,4.433299E1,2.1728548E1,2.5229465E1],"tree_param":{"num_deleted":"0","num_feature":"12","num_nodes":"15","size_leaf_vector":"1"}},{"base_weights":[4.6191868E-5,7.0245796E-1,-3.2911408E-1,-2.0550156E-1,9.430974E-1,-9.2843616E-1,1.09810434E-1,1.3049458E-1,-2.3356612E-1,-1.0196064E-1,2.1830025E-1,-2.2858138E-1,4.3952495E-2,-1.2052124E-1,1.11257926E-1],"categories":[],"categories_nodes":[],"categories_segments":[],"categories_sizes":[],"default_left":[0,0,0,0,0,0,0,0,0,0,0,0,0,0,0],"id":2,"left_children":[1,3,5,7,9,11,13,-1,-1,-1,-1,-1,-1,-1,-1],"loss_changes":[5.6318214E1,1.7175877E1,4.373266E1,1.4884689E1,1.3842606E1,1.7544205E1,3.1073156E1,0E0,0E0,0E0,0E0,0E0,0E0,0E0,0E0],"parents":[2147483647,0,0,1,1,2,2,3,3,4,4,5,5,6,6],"right_children":[2,4,6,8,10,12,14,-1,-1,-1,-1,-1,-1,-1,-1],"split_conditions":[-4.942126E-1,-8.512733E-1,-1.660687E-1,-1.5577972E-1,-1.287233E0,9.90547E-1,-3.8475436E-1,1.3049458E-1,-2.3356612E-1,-1.0196064E-1,2.1830025E-1,-2.2858138E-1,4.3952495E-2,-1.2052124E-1,1.11257926E-1],"split_indices":[6,1,1,5,0,11,11,0,0,0,0,0,0,0,0],"split_type":[0,0,0,0,0,0,0,0,0,0,0,0,0,0,0],"sum_hessian":[2.4158458E2,7.6724396E1,1.6486018E2,1.6104885E1,6.0619514E1,6.9224075E1,9.56361E1,8.684296E0,7.4205885E0,5.3923345E0,5.522718E1,5.8332767E1,1.0891308E1,3.671029E1,5.892581E1],"tree_param":{"num_deleted":"0","num_feature":"12","num_nodes":"15","size_leaf_vector":"1"}},{"base_weights":[-1.1118401E-3,2.4839531E-1,-7.7433103E-1,-1.5861598E-1,7.782634E-1,-9.2248535E-1,5.5680597E-1,-1.0315819E-1,1.5306291E-1,3.5068084E-2,2.1298444E-1,-2.0587187E-1,1.5605722E-1,-1.8558002E-1,2.8616515E-1],"categories":[],"categories_nodes":[],"categories_segments":[],"categories_sizes":[],"default_left":[0,0,0,0,0,0,0,0,0,0,0,0,0,0,0],"id":3,"left_children":[1,3,5,7,9,11,13,-1,-1,-1,-1,-1,-1,-1,-1],"loss_changes":[4.5862278E1,3.88845E1,1.1951061E1,3.4213715E1,1.333749E1,1.0368736E1,9.674141E0,0E0,0E0,0E0,0E0,0E0,0E0,0E0,0E0],"parents":[2147483647,0,0,1,1,2,2,3,3,4,4,5,5,6,6],"right_children":[2,4,6,8,10,12,14,-1,-1,-1,-1,-1,-1,-1,-1],"split_conditions":[7.788418E-1,1.9830394E-1,1.1996993E0,6.434226E-1,-4.7639933E-1,1.6022176E0,-1.8785422E-1,-1.0315819E-1,1.5306291E-1,3.5068084E-2,2.1298444E-1,-2.0587187E-1,1.5605722E-1,-1.8558002E-1,2.8616515E-1],"split_indices":[6,0,11,11,1,0,1,0,0,0,0,0,0,0,0],"split_type":[0,0,0,0,0,0,0,0,0,0,0,0,0,0,0],"sum_hessian":[2.3572536E2,1.7873032E2,5.699505E1,1.0148024E2,7.725008E1,5.1563114E1,5.4319324E0,7.350591E1,2.7974323E1,2.541241E1,5.1837666E1,4.8890026E1,2.6730893E0,1.9899455E0,3.4419868E0],"tree_param":{"num_deleted":"0","num_feature":"12","num_nodes":"15","size_leaf_vector":"1"}},{"base_weights":[6.8307127E-4,8.93767E-1,-1.7125542E-1,2.338252E-1,1.1343621E0,-6.9742817E-1,1.5064612E-1,-1.4734614E-1,1.7193905E-1,-5.087133E-2,2.4398041E-1,-4.8245337E-2,-2.4230805E-1,-7.350644E-2,1.0415085E-1],"categories":[],"categories_nodes":[],"categories_segments":[],"categories_sizes":[],"default_left":[0,0,0,0,0,0,0,0,0,0,0,0,0,0,0],"id":4,"left_children":[1,3,5,7,9,11,13,-1,-1,-1,-1,-1,-1,-1,-1],"loss_changes":[3.561657E1,5.6803055E0,3.3049267E1,7.475532E0,3.539219E0,1.706475E1,2.3492655E1,0E0,0E0,0E0,0E0,0E0,0E0,0E0,0E0],"parents":[2147483647,0,0,1,1,2,2,3,3,4,4,5,5,6,6],"right_children":[2,4,6,8,10,12,14,-1,-1,-1,-1,-1,-1,-1,-1],"split_conditions":[-1.0188987E0,-5.6201434E-1,-3.4826872E-1,-2.7695522E-1,-1.7768718E0,4.0847138E-2,-1.660687E-1,-1.4734614E-1,1.7193905E-1,-5.087133E-2,2.4398041E-1,-4.8245337E-2,-2.4230805E-1,-7.350644E-2,1.0415085E-1],"split_indices":[6,1,9,11,10,5,1,0,0,0,0,0,0,0,0],"split_type":[0,0,0,0,0,0,0,0,0,0,0,0,0,0,0],"sum_hessian":[2.2994908E2,3.6445496E1,1.9350359E2,1.02639065E1,2.618159E1,7.30049E1,1.2049869E2,3.954465E0,6.309441E0,1.4046091E0,2.4776981E1,3.945945E1,3.3545452E1,5.0209164E1,7.028952E1],"tree_param":{"num_deleted":"0","num_feature":"12","num_nodes":"15","size_leaf_vector":"1"}},{"base_weights":[8.6113415E-4,-4.3201578E-1,3.1315836E-1,6.5831494E-1,-6.2904644E-1,5.492554E-1,-3.757876E-1,2.0398875E-1,-7.034844E-2,-1.7501633E-1,3.0304572E-2,3.3100173E-2,2.0332919E-1,-1.5656815E-1,5.600326E-2],"categories":[],"categories_nodes":[],"categories_segments":[],"categories_sizes":[],"default_left":[0,0,0,0,0,0,0,0,0,0,0,0,0,0,0],"id":5,"left_children":[1,3,5,7,9,11,13,-1,-1,-1,-1,-1,-1,-1,-1],"loss_changes":[3.0680893E1,2.0847557E1,2.1650734E1,5.8545465E0,1.5701721E1,1.751599E1,9.360075E0,0E0,0E0,0E0,0E0,0E0,0E0,0E0,0E0],"parents":[2147483647,0,0,1,1,2,2,3,3,4,4,5,5,6,6],"right_children":[2,4,6,8,10,12,14,-1,-1,-1,-1,-1,-1,-1,-1],"split_conditions":[-2.0478922E-1,-1.0696672E0,7.17513E-1,6.1363643E-1,7.3273057E-1,9.276257E-2,3.6050162E-1,2.0398875E-1,-7.034844E-2,-1.7501633E-1,3.0304572E-2,3.3100173E-2,2.0332919E-1,-1.5656815E-1,5.600326E-2],"split_indices":[0,2,6,5,11,10,1,0,0,0,0,0,0,0,0],"split_type":[0,0,0,0,0,0,0,0,0,0,0,0,0,0,0],"sum_hessian":[2.2495198E2,9.4115135E1,1.3083685E2,1.4046003E1,8.006913E1,9.759461E1,3.324224E1,1.0335732E1,3.7102704E0,6.0787766E1,1.9281366E1,5.433585E1,4.3258762E1,2.0391596E1,1.2850643E1],"tree_param":{"num_deleted":"0","num_feature":"12","num_nodes":"15","size_leaf_vector":"1"}},{"base_weights":[7.916468E-4,-5.746763E-1,2.2376792E-1,-9.5495485E-2,-9.366236E-1,-3.5479274E-1,5.153548E-1,8.852153E-2,-1.4857006E-1,-2.3335111E-1,-2.9980449E-2,-1.2232228E-1,1.1662691E-1,1.8747994E-1,3.0186448E-2],"categories":[],"categories_nodes":[],"categories_segments":[],"categories_sizes":[],"default_left":[0,0,0,0,0,0,0,0,0,0,0,0,0,0,0],"id":6,"left_children":[1,3,5,7,9,11,13,-1,-1,-1,-1,-1,-1,-1,-1],"loss_changes":[2.8524971E1,1.0677856E1,2.7211967E1,1.0022473E1,6.207754E0,1.3431919E1,1.630579E1,0E0,0E0,0E0,0E0,0E0,0E0,0E0,0E0],"parents":[2147483647,0,0,1,1,2,2,3,3,4,4,5,5,6,6],"right_children":[2,4,6,8,10,12,14,-1,-1,-1,-1,-1,-1,-1,-1],"split_conditions":[-5.823673E-1,-3.303917E-1,-4.4133905E-1,2.2451791E-1,9.459011E-1,8.943254E-1,-9.806293E-2,8.852153E-2,-1.4857006E-1,-2.3335111E-1,-2.9980449E-2,-1.2232228E-1,1.1662691E-1,1.8747994E-1,3.0186448E-2],"split_indices":[11,5,1,3,0,9,5,0,0,0,0,0,0,0,0],"split_type":[0,0,0,0,0,0,0,0,0,0,0,0,0,0,0],"sum_hessian":[2.2030089E2,6.10815E1,1.5921938E2,2.682793E1,3.425357E1,5.328186E1,1.0593752E2,1.482291E1,1.2005019E1,2.6127644E1,8.125926E0,4.2101692E1,1.1180169E1,4.8359344E1,5.757818E1],"tree_param":{"num_deleted":"0","num_feature":"12","num_nodes":"15","size_leaf_vector":"1"}},{"base_weights":[-4.6534912E-4,2.4664457E-1,-4.6611285E-1,7.1795833E-1,-8.927053E-2,-8.7791044E-1,-7.005338E-2,1.6956909E-1,-1.17007636E-1,1.1675415E-1,-9.6505485E-2,-2.0509441E-1,6.6574395E-2,-9.310169E-2,1.5607838E-1],"categories":[],"categories_nodes":[],"categories_segments":[],"categories_sizes":[],"default_left":[0,0,0,0,0,0,0,0,0,0,0,0,0,0,0],"id":7,"left_children":[1,3,5,7,9,11,13,-1,-1,-1,-1,-1,-1,-1,-1],"loss_changes":[2.505069E1,2.258216E1,1.2248636E1,1.0531647E1,2.2496859E1,6.9371147E0,1.36680765E1,0E0,0E0,0E0,0E0,0E0,0E0,0E0,0E0],"parents":[2147483647,0,0,1,1,2,2,3,3,4,4,5,5,6,6],"right_children":[2,4,6,8,10,12,14,-1,-1,-1,-1,-1,-1,-1,-1],"split_conditions":[4.3285164E-1,-1.5366179E-1,-2.6536854E-2,1.4067541E0,-3.5503513E-1,1.1319475E0,4.157778E-1,1.6956909E-1,-1.17007636E-1,1.1675415E-1,-9.6505485E-2,-2.0509441E-1,6.6574395E-2,-9.310169E-2,1.5607838E-1],"split_indices":[6,3,8,2,2,11,4,0,0,0,0,0,0,0,0],"split_type":[0,0,0,0,0,0,0,0,0,0,0,0,0,0,0],"sum_hessian":[2.1570781E2,1.412301E2,7.447771E1,5.8297325E1,8.293278E1,3.5916935E1,3.856077E1,5.3330475E1,4.966851E0,3.0407415E1,5.252536E1,3.2151577E1,3.7653553E0,2.663035E1,1.193042E1],"tree_param":{"num_deleted":"0","num_feature":"12","num_nodes":"15","size_leaf_vector":"1"}},{"base_weights":[-8.117784E-4,2.417541E-1,-4.4882512E-1,4.372642E-1,-3.9252573E-1,-6.943909E-1,3.2878095E-1,-9.225235E-3,1.520869E-1,-1.3034405E-1,6.668547E-2,-2.1990748E-1,-4.9859375E-2,-1.7729828E-1,1.3691981E-1],"categories":[],"categories_nodes":[],"categories_segments":[],"categories_sizes":[],"default_left":[0,0,0,0,0,0,0,0,0,0,0,0,0,0,0],"id":8,"left_children":[1,3,5,7,9,11,13,-1,-1,-1,-1,-1,-1,-1,-1],"loss_changes":[2.3153429E1,1.7312357E1,1.4518384E1,1.6614193E1,6.444393E0,1.003993E1,8.666906E0,0E0,0E0,0E0,0E0,0E0,0E0,0E0,0E0],"parents":[2147483647,0,0,1,1,2,2,3,3,4,4,5,5,6,6],"right_children":[2,4,6,8,10,12,14,-1,-1,-1,-1,-1,-1,-1,-1],"split_conditions":[3.3085307E-1,7.788418E-1,6.949356E-1,-3.6864144E-1,8.049273E-1,6.3470766E-2,-5.2242106E-1,-9.225235E-3,1.520869E-1,-1.3034405E-1,6.668547E-2,-2.1990748E-1,-4.9859375E-2,-1.7729828E-1,1.3691981E-1],"split_indices":[5,6,9,8,1,1,11,0,0,0,0,0,0,0,0],"split_type":[0,0,0,0,0,0,0,0,0,0,0,0,0,0,0],"sum_hessian":[2.1105798E2,1.3722256E2,7.383542E1,1.0512844E2,3.2094128E1,5.6195923E1,1.7639498E1,4.2466034E1,6.2662403E1,2.3725443E1,8.368684E0,2.8648394E1,2.7547527E1,3.6571918E0,1.3982306E1],"tree_param":{"num_deleted":"0","num_feature":"12","num_nodes":"15","size_leaf_vector":"1"}},{"base_weights":[-2.4145397E-3,-4.2054802E-1,2.4670503E-1,2.2869727E-1,-6.905681E-1,4.2789745E-1,-3.5860112E-1,-5.9419435E-2,1.5836328E-1,-1.9025876E-1,-2.0435078E-2,1.5974699E-1,8.07371E-3,-2.1722396E-1,-1.3264521E-3],"categories":[],"categories_nodes":[],"categories_segments":[],"categories_sizes":[],"default_left":[0,0,0,0,0,0,0,0,0,0,0,0,0,0,0],"id":9,"left_children":[1,3,5,7,9,11,13,-1,-1,-1,-1,-1,-1,-1,-1],"loss_changes":[2.1739853E1,1.3817722E1,1.4498217E1,7.234252E0,8.383219E0,1.4499113E1,7.8476973E0,0E0,0E0,0E0,0E0,0E0,0E0,0E0,0E0],"parents":[2147483647,0,0,1,1,2,2,3,3,4,4,5,5,6,6],"right_children":[2,4,6,8,10,12,14,-1,-1,-1,-1,-1,-1,-1,-1],"split_conditions":[-3.4826872E-1,-6.293549E-1,7.991068E-1,-3.7427333E-3,4.2973572E-1,7.3794894E-2,-1.8785422E-1,-5.9419435E-2,1.5836328E-1,-1.9025876E-1,-2.0435078E-2,1.5974699E-1,8.07371E-3,-2.1722396E-1,-1.3264521E-3],"split_indices":[9,6,6,10,1,3,1,0,0,0,0,0,0,0,0],"split_type":[0,0,0,0,0,0,0,0,0,0,0,0,0,0,0],"sum_hessian":[2.0670946E2,7.691826E1,1.297912E2,2.2638508E1,5.4279747E1,1.00115654E2,2.9675543E1,1.1951545E1,1.0686964E1,3.7185516E1,1.7094229E1,5.061736E1,4.9498295E1,8.995672E0,2.067987E1],"tree_param":{"num_deleted":"0","num_feature":"12","num_nodes":"15","size_leaf_vector":"1"}},{"base_weights":[-3.4395368E-3,-1.2353802E-1,8.930743E-1,-4.301712E-1,2.5089675E-1,2.9777735E-2,1.0987114E0,-1.5462433E-1,2.3796357E-2,-6.855633E-2,1.0860874E-1,-9.518196E-2,1.4221027E-1,7.335431E-2,2.5482425E-1],"categories":[],"categories_nodes":[],"categories_segments":[],"categories_sizes":[],"default_left":[0,0,0,0,0,0,0,0,0,0,0,0,0,0,0],"id":10,"left_children":[1,3,5,7,9,11,13,-1,-1,-1,-1,-1,-1,-1,-1],"loss_changes":[2.1916065E1,2.0714424E1,4.2362213E0,1.8744514E1,1.4310598E1,2.2862291E0,2.022543E0,0E0,0E0,0E0,0E0,0E0,0E0,0E0,0E0],"parents":[2147483647,0,0,1,1,2,2,3,3,4,4,5,5,6,6],"right_children":[2,4,6,8,10,12,14,-1,-1,-1,-1,-1,-1,-1,-1],"split_conditions":[1.1996993E0,9.276257E-2,-7.628656E-1,2.6775643E-1,-4.9129194E-1,-9.718389E-2,-7.976603E-1,-1.5462433E-1,2.3796357E-2,-6.855633E-2,1.0860874E-1,-9.518196E-2,1.4221027E-1,7.335431E-2,2.5482425E-1],"split_indices":[11,10,0,1,8,9,1,0,0,0,0,0,0,0,0],"split_type":[0,0,0,0,0,0,0,0,0,0,0,0,0,0,0],"sum_hessian":[2.015239E2,1.7847702E2,2.3046875E1,9.8040535E1,8.0436485E1,4.6538973E0,1.8392979E1,6.009985E1,3.794068E1,2.6470947E1,5.3965538E1,2.8441887E0,1.8097088E0,4.1532946E0,1.4239683E1],"tree_param":{"num_deleted":"0","num_feature":"12","num_nodes":"15","size_leaf_vector":"1"}},{"base_weights":[-1.0497174E-3,-3.2938027E-1,3.312822E-1,-5.3979677E-1,2.2838281E-1,-8.911587E-1,4.2438447E-1,-2.1180299E-3,-1.5683645E-1,-1.0044352E-1,1.1455496E-1,2.9580409E-2,-2.373673E-1,1.2585121E-1,-2.4478447E-2],"categories":[],"categories_nodes":[],"categories_segments":[],"categories_sizes":[],"default_left":[0,0,0,0,0,0,0,0,0,0,0,0,0,0,0],"id":11,"left_children":[1,3,5,7,9,11,13,-1,-1,-1,-1,-1,-1,-1,-1],"loss_changes":[2.1762684E1,1.1897828E1,1.1659408E1,9.451258E0,7.3790245E0,2.42982E0,1.0470583E1,0E0,0E0,0E0,0E0,0E0,0E0,0E0,0E0],"parents":[2147483647,0,0,1,1,2,2,3,3,4,4,5,5,6,6],"right_children":[2,4,6,8,10,12,14,-1,-1,-1,-1,-1,-1,-1,-1],"split_conditions":[4.0825393E-2,6.32769E-1,-1.6237241E0,-5.628379E-1,-4.6603423E-1,-7.312932E-1,5.362252E-1,-2.1180299E-3,-1.5683645E-1,-1.0044352E-1,1.1455496E-1,2.9580409E-2,-2.373673E-1,1.2585121E-1,-2.4478447E-2],"split_indices":[0,11,10,6,1,5,5,0,0,0,0,0,0,0,0],"split_type":[0,0,0,0,0,0,0,0,0,0,0,0,0,0,0],"sum_hessian":[1.9744771E2,9.932625E1,9.812146E1,7.214261E1,2.7183641E1,6.337515E0,9.178394E1,2.312017E1,4.902244E1,8.561923E0,1.8621717E1,1.5146322E0,4.8228827E0,6.6657295E1,2.5126652E1],"tree_param":{"num_deleted":"0","num_feature":"12","num_nodes":"15","size_leaf_vector":"1"}},{"base_weights":[-2.7386697E-3,-5.9850854E-1,1.4967428E-1,-2.228303E-1,-1.0827844E0,-8.765579E-2,6.355163E-1,-1.0590402E-1,1.2156295E-1,-2.3632422E-1,-2.9576E-3,-5.1374234E-2,1.4913398E-1,-7.4775934E-2,1.6433358E-1],"categories":[],"categories_nodes":[],"categories_segments":[],"categories_sizes":[],"default_left":[0,0,0,0,0,0,0,0,0,0,0,0,0,0,0],"id":12,"left_children":[1,3,5,7,9,11,13,-1,-1,-1,-1,-1,-1,-1,-1],"loss_changes":[1.7710627E1,6.987192E0,1.7965569E1,6.3425455E0,1.7873459E0,1.5030196E1,9.90818E0,0E0,0E0,0E0,0E0,0E0,0E0,0E0,0E0],"parents":[2147483647,0,0,1,1,2,2,3,3,4,4,5,5,6,6],"right_children":[2,4,6,8,10,12,14,-1,-1,-1,-1,-1,-1,-1,-1],"split_conditions":[-8.22618E-1,2.2451791E-1,4.0403345E-1,9.341254E-1,1.0850972E0,8.7073356E-1,-1.007978E0,-1.0590402E-1,1.2156295E-1,-2.3632422E-1,-2.9576E-3,-5.1374234E-2,1.4913398E-1,-7.4775934E-2,1.6433358E-1],"split_indices":[11,3,10,0,1,8,0,0,0,0,0,0,0,0,0],"split_type":[0,0,0,0,0,0,0,0,0,0,0,0,0,0,0],"sum_hessian":[1.9305783E2,3.8731735E1,1.543261E2,2.2633707E1,1.6098028E1,1.0423009E2,5.0096012E1,1.6795143E1,5.8385644E0,1.4637065E1,1.4609629E0,8.721245E1,1.7017637E1,7.64313E0,4.2452885E1],"tree_param":{"num_deleted":"0","num_feature":"12","num_nodes":"15","size_leaf_vector":"1"}},{"base_weights":[-2.6555394E-3,2.2761172E-1,-3.8555455E-1,4.6557283E-1,-3.1224892E-1,6.053133E-1,-5.411256E-1,1.3499878E-1,-1.47059485E-2,-1.6491602E-1,3.333861E-2,-4.6941426E-2,1.6144465E-1,-1.4769003E-1,6.8015486E-2],"categories":[],"categories_nodes":[],"categories_segments":[],"categories_sizes":[],"default_left":[0,0,0,0,0,0,0,0,0,0,0,0,0,0,0],"id":13,"left_children":[1,3,5,7,9,11,13,-1,-1,-1,-1,-1,-1,-1,-1],"loss_changes":[1.6908594E1,1.5530851E1,1.1428855E1,9.479576E0,9.274805E0,1.9270217E0,1.1166029E1,0E0,0E0,0E0,0E0,0E0,0E0,0E0,0E0],"parents":[2147483647,0,0,1,1,2,2,3,3,4,4,5,5,6,6],"right_children":[2,4,6,8,10,12,14,-1,-1,-1,-1,-1,-1,-1,-1],"split_conditions":[2.726923E-1,4.768803E-1,-1.0040753E0,6.80456E-1,-6.4909264E-2,-6.7573106E-1,8.165648E-1,1.3499878E-1,-1.47059485E-2,-1.6491602E-1,3.333861E-2,-4.6941426E-2,1.6144465E-1,-1.4769003E-1,6.8015486E-2],"split_indices":[2,5,6,3,9,4,1,0,0,0,0,0,0,0,0],"split_type":[0,0,0,0,0,0,0,0,0,0,0,0,0,0,0],"sum_hessian":[1.8977925E2,1.1876318E2,7.1016075E1,8.252515E1,3.6238033E1,9.244542E0,6.177153E1,5.925481E1,2.3270336E1,1.716003E1,1.9078003E1,1.7599711E0,7.4845715E0,5.0602337E1,1.1169195E1],"tree_param":{"num_deleted":"0","num_feature":"12","num_nodes":"15","size_leaf_vector":"1"}},{"base_weights":[-2.2706077E-3,-5.651865E-1,1.414524E-1,1.9678418E-1,-6.677465E-1,-4.8084432E-1,2.9443258E-1,-1.7040496E-1,2.1531874E-2,2.032802E-1,-1.1506488E-1,-8.046832E-2,9.133846E-2],"categories":[],"categories_nodes":[],"categories_segments":[],"categories_sizes":[],"default_left":[0,0,0,0,0,0,0,0,0,0,0,0,0],"id":14,"left_children":[1,3,5,-1,7,9,11,-1,-1,-1,-1,-1,-1],"loss_changes":[1.520633E1,6.730438E0,1.4396666E1,0E0,5.299988E0,4.818219E0,1.3842656E1,0E0,0E0,0E0,0E0,0E0,0E0],"parents":[2147483647,0,0,1,1,2,2,4,4,5,5,6,6],"right_children":[2,4,6,-1,8,10,12,-1,-1,-1,-1,-1,-1],"split_conditions":[-8.512733E-1,-1.8025379E0,-8.22618E-1,1.9678418E-1,9.621547E-1,-2.0798054E0,-8.6932683E-1,-1.7040496E-1,2.1531874E-2,2.032802E-1,-1.1506488E-1,-8.046832E-2,9.133846E-2],"split_indices":[1,6,11,0,0,5,0,0,0,0,0,0,0],"split_type":[0,0,0,0,0,0,0,0,0,0,0,0,0],"sum_hessian":[1.8596716E2,3.7227356E1,1.487398E2,1.7780079E0,3.544935E1,2.892693E1,1.1981288E2,2.8562538E1,6.8868093E0,1.1378206E0,2.7789108E1,2.2351532E1,9.746135E1],"tree_param":{"num_deleted":"0","num_feature":"12","num_nodes":"13","size_leaf_vector":"1"}},{"base_weights":[-1.5716888E-3,-2.16907E-1,3.4120208E-1,2.4301183E-1,-4.5901775E-1,1.18123144E-1,9.6461153E-1,1.180373E-1,-6.394856E-2,7.243638E-2,-1.1425576E-1,5.5927914E-2,-1.3589902E-1,2.3375049E-1,1.954453E-4],"categories":[],"categories_nodes":[],"categories_segments":[],"categories_sizes":[],"default_left":[0,0,0,0,0,0,0,0,0,0,0,0,0,0,0],"id":15,"left_children":[1,3,5,7,9,11,13,-1,-1,-1,-1,-1,-1,-1,-1],"loss_changes":[1.3583858E1,1.2696942E1,9.7611065E0,7.9319324E0,7.0649605E0,7.073896E0,3.652586E0,0E0,0E0,0E0,0E0,0E0,0E0,0E0,0E0],"parents":[2147483647,0,0,1,1,2,2,3,3,4,4,5,5,6,6],"right_children":[2,4,6,8,10,12,14,-1,-1,-1,-1,-1,-1,-1,-1],"split_conditions":[2.85856E-1,-4.942126E-1,5.698114E-1,2.8296977E-1,-1.0547137E0,9.6126825E-1,8.333426E-1,1.180373E-1,-6.394856E-2,7.243638E-2,-1.1425576E-1,5.5927914E-2,-1.3589902E-1,2.3375049E-1,1.954453E-4],"split_indices":[9,6,1,7,2,2,6,0,0,0,0,0,0,0,0],"split_type":[0,0,0,0,0,0,0,0,0,0,0,0,0,0,0],"sum_hessian":[1.8203226E2,1.1202425E2,7.0008E1,3.863281E1,7.339144E1,5.2434486E1,1.7573519E1,2.386269E1,1.4770119E1,8.558562E0,6.483288E1,4.414467E1,8.28982E0,1.4325812E1,3.2477067E0],"tree_param":{"num_deleted":"0","num_feature":"12","num_nodes":"15","size_leaf_vector":"1"}},{"base_weights":[3.3071477E-4,3.8726896E-1,-1.8769212E-1,1.0274086E0,1.9279468E-1,-4.2178407E-1,2.3610005E-1,6.077521E-2,2.4627744E-1,-6.440165E-4,2.149478E-1,-1.2625697E-1,8.88582E-3,1.239581E-1,-3.972218E-2],"categories":[],"categories_nodes":[],"categories_segments":[],"categories_sizes":[],"default_left":[0,0,0,0,0,0,0,0,0,0,0,0,0,0,0],"id":16,"left_children":[1,3,5,7,9,11,13,-1,-1,-1,-1,-1,-1,-1,-1],"loss_changes":[1.30906515E1,7.127063E0,1.2112705E1,1.6151953E0,8.018128E0,7.681962E0,7.416825E0,0E0,0E0,0E0,0E0,0E0,0E0,0E0,0E0],"parents":[2147483647,0,0,1,1,2,2,3,3,4,4,5,5,6,6],"right_children":[2,4,6,8,10,12,14,-1,-1,-1,-1,-1,-1,-1,-1],"split_conditions":[-4.9699023E-1,-7.84665E-1,2.7146286E-1,-1.036329E0,9.7602385E-1,4.0403345E-1,4.6653714E-2,6.077521E-2,2.4627744E-1,-6.440165E-4,2.149478E-1,-1.2625697E-1,8.88582E-3,1.239581E-1,-3.972218E-2],"split_indices":[5,6,8,8,11,10,2,0,0,0,0,0,0,0,0],"split_type":[0,0,0,0,0,0,0,0,0,0,0,0,0,0,0],"sum_hessian":[1.7793315E2,5.7840874E1,1.20092285E2,1.2479575E1,4.5361298E1,7.736344E1,4.2728844E1,3.2920566E0,9.187518E0,3.792803E1,7.4332695E0,5.313311E1,2.4230331E1,2.247017E1,2.0258675E1],"tree_param":{"num_deleted":"0","num_feature":"12","num_nodes":"15","size_leaf_vector":"1"}},{"base_weights":[3.7959598E-3,-2.584656E-1,2.6450235E-1,-4.6010143E-1,2.3294804E-1,-6.5544003E-1,3.5887113E-1,-1.24459304E-1,5.7662915E-2,1.3669734E-1,-8.409449E-2,-2.059168E-1,2.2558862E-2,9.7294234E-2,-9.7254835E-2],"categories":[],"categories_nodes":[],"categories_segments":[],"categories_sizes":[],"default_left":[0,0,0,0,0,0,0,0,0,0,0,0,0,0,0],"id":17,"left_children":[1,3,5,7,9,11,13,-1,-1,-1,-1,-1,-1,-1,-1],"loss_changes":[1.21063175E1,8.854061E0,7.9431725E0,7.818266E0,8.043609E0,2.5921493E0,8.990279E0,0E0,0E0,0E0,0E0,0E0,0E0,0E0,0E0],"parents":[2147483647,0,0,1,1,2,2,3,3,4,4,5,5,6,6],"right_children":[2,4,6,8,10,12,14,-1,-1,-1,-1,-1,-1,-1,-1],"split_conditions":[4.0825393E-2,5.698114E-1,-1.4136584E0,9.7602385E-1,2.6133636E-1,8.980604E-2,1.2521574E0,-1.24459304E-1,5.7662915E-2,1.3669734E-1,-8.409449E-2,-2.059168E-1,2.2558862E-2,9.7294234E-2,-9.7254835E-2],"split_indices":[0,1,10,11,6,11,3,0,0,0,0,0,0,0,0],"split_type":[0,0,0,0,0,0,0,0,0,0,0,0,0,0,0],"sum_hessian":[1.7506227E2,8.727513E1,8.778715E1,6.1928482E1,2.5346651E1,7.6143255E0,8.017282E1,5.103648E1,1.0892E1,1.4975151E1,1.03715E1,4.8917565E0,2.7225692E0,7.0024864E1,1.0147958E1],"tree_param":{"num_deleted":"0","num_feature":"12","num_nodes":"15","size_leaf_vector":"1"}},{"base_weights":[1.6348917E-3,6.008358E-1,-1.0176613E-1,8.07656E-1,6.451942E-3,-4.476089E-1,9.438755E-2,-4.0320326E-2,1.7901242E-1,-7.267498E-2,1.5974386E-1,1.01336375E-1,-1.12088345E-1,-1.1196169E-2,1.7824571E-1],"categories":[],"categories_nodes":[],"categories_segments":[],"categories_sizes":[],"default_left":[0,0,0,0,0,0,0,0,0,0,0,0,0,0,0],"id":18,"left_children":[1,3,5,7,9,11,13,-1,-1,-1,-1,-1,-1,-1,-1],"loss_changes":[1.0719587E1,3.1248255E0,1.0052818E1,1.8460503E0,2.5113873E0,6.0531406E0,1.1431055E1,0E0,0E0,0E0,0E0,0E0,0E0,0E0,0E0],"parents":[2147483647,0,0,1,1,2,2,3,3,4,4,5,5,6,6],"right_children":[2,4,6,8,10,12,14,-1,-1,-1,-1,-1,-1,-1,-1],"split_conditions":[-1.035339E0,6.434323E-1,-3.9917517E-1,-1.495646E0,7.77494E-1,-1.3237723E0,1.1265157E0,-4.0320326E-2,1.7901242E-1,-7.267498E-2,1.5974386E-1,1.01336375E-1,-1.12088345E-1,-1.1196169E-2,1.7824571E-1],"split_indices":[6,7,8,1,11,5,10,0,0,0,0,0,0,0,0],"split_type":[0,0,0,0,0,0,0,0,0,0,0,0,0,0,0],"sum_hessian":[1.7102692E2,2.446182E1,1.465651E2,1.7881138E1,6.5806828E0,5.2579365E1,9.398573E1,1.3210297E0,1.6560108E1,4.8555036E0,1.7251792E0,5.1904287E0,4.7388935E1,7.9847755E1,1.4137976E1],"tree_param":{"num_deleted":"0","num_feature":"12","num_nodes":"15","size_leaf_vector":"1"}},{"base_weights":[4.3222406E-3,-2.2417809E-1,2.675299E-1,3.7040094E-1,-3.963251E-1,-8.1698334E-1,3.5560006E-1,-5.7946797E-2,1.548578E-1,5.9826404E-2,-1.2107269E-1,-1.9577974E-1,-6.1320397E-3,-5.7714857E-2,1.0552043E-1],"categories":[],"categories_nodes":[],"categories_segments":[],"categories_sizes":[],"default_left":[0,0,0,0,0,0,0,0,0,0,0,0,0,0,0],"id":19,"left_children":[1,3,5,7,9,11,13,-1,-1,-1,-1,-1,-1,-1,-1],"loss_changes":[1.0227842E1,9.465343E0,7.8379765E0,5.8120995E0,1.0515028E1,7.642307E-1,8.327216E0,0E0,0E0,0E0,0E0,0E0,0E0,0E0,0E0],"parents":[2147483647,0,0,1,1,2,2,3,3,4,4,5,5,6,6],"right_children":[2,4,6,8,10,12,14,-1,-1,-1,-1,-1,-1,-1,-1],"split_conditions":[7.255864E-2,-7.695897E-1,-1.4677558E0,-2.4552819E-1,-8.4175426E-1,8.1092525E-1,-9.0592027E-1,-5.7946797E-2,1.548578E-1,5.9826404E-2,-1.2107269E-1,-1.9577974E-1,-6.1320397E-3,-5.7714857E-2,1.0552043E-1],"split_indices":[11,3,9,10,6,8,1,0,0,0,0,0,0,0,0],"split_type":[0,0,0,0,0,0,0,0,0,0,0,0,0,0,0],"sum_hessian":[1.6806142E2,9.004141E1,7.8020004E1,1.9957726E1,7.008369E1,5.23828E0,7.278172E1,7.6829557E0,1.2274769E1,1.6097462E1,5.3986225E1,4.1407356E0,1.0975441E0,1.5195288E1,5.7586433E1],"tree_param":{"num_deleted":"0","num_feature":"12","num_nodes":"15","size_leaf_vector":"1"}}]},"name":"gbtree"},"learner_model_param":{"base_score":"4.9300048E-1","boost_from_average":"1","num_class":"0","num_feature":"12","num_target":"1"},"objective":{"name":"binary:logistic","reg_loss_param":{"scale_pos_weight":"1"}}},"version":[2,1,4]}