{"learner":{"attributes":{},"feature_names":[],"feature_types":[],"gradient_booster":{"model":{"gbtree_model_param":{"num_parallel_tree":"1","num_trees":"20"},"iteration_indptr":[0,1,2,3,4,5,6,7,8,9,10,11,12,13,14,15,16,17,18,19,20],"tree_info":[0,0,0,0,0,0,0,0,0,0,0,0,0,0,0,0,0,0,0,0],"trees":[{"base_weights":[1.5388524E-7,5.7008606E-1,-5.350036E-1,8.953212E-1,-5.1594824E-1,-8.875774E-1,3.259856E-1,-7.7625796E-2,2.3353653E-1,1.9794899E-1,-1.9131206E-1,-2.5043365E-1,-9.214084E-3,2.2805622E-1,-5.447141E-2],"categories":[],"categories_nodes":[],"categories_segments":[],"categories_sizes":[],"default_left":[0,0,0,0,0,0,0,0,0,0,0,0,0,0,0],"id":0,"left_children":[1,3,5,7,9,11,13,-1,-1,-1,-1,-1,-1,-1,-1],"loss_changes":[7.685677E1,4.3552814E1,3.975102E1,3.3398293E1,2.0019604E1,2.8320831E1,1.9068174E1,0E0,0E0,0E0,0E0,0E0,0E0,0E0,0E0],"parents":[2147483647,0,0,1,1,2,2,3,3,4,4,5,5,6,6],"right_children":[2,4,6,8,10,12,14,-1,-1,-1,-1,-1,-1,-1,-1],"split_conditions":[-9.806293E-2,6.1253595E-1,6.083903E-1,-8.895664E-1,-7.009686E-1,4.7583097E-1,-1.60508E-1,-7.7625796E-2,2.3353653E-1,1.9794899E-1,-1.9131206E-1,-2.5043365E-1,-9.214084E-3,2.2805622E-1,-5.447141E-2],"split_indices":[5,7,0,9,6,9,7,0,0,0,0,0,0,0,0],"split_type":[0,0,0,0,0,0,0,0,0,0,0,0,0,0,0],"sum_hessian":[2.49991E2,1.2099564E2,1.2899536E2,9.324664E1,2.7749E1,9.1496704E1,3.749865E1,1.6249414E1,7.699723E1,5.999784E0,2.1749216E1,6.3497715E1,2.7998993E1,1.5499442E1,2.1999208E1],"tree_param":{"num_deleted":"0","num_feature":"12","num_nodes":"15","size_leaf_vector":"1"}},{"base_weights":[4.4673323E-4,3.7028798E-1,-5.9910476E-1,6.6698754E-1,-5.3372145E-1,-1.2761813E0,-1.3619559E-1,2.329664E-2,2.1910547E-1,1.6747507E-1,-1.542701E-1,-4.198592E-2,-3.2244617E-1,-1.6905192E-1,8.937512E-2],"categories":[],"categories_nodes":[],"categories_segments":[],"categories_sizes":[],"default_left":[0,0,0,0,0,0,0,0,0,0,0,0,0,0,0],"id":1,"left_children":[1,3,5,7,9,11,13,-1,-1,-1,-1,-1,-1,-1,-1],"loss_changes":[5.5317043E1,4.17399E1,2.9657166E1,2.7382187E1,1.3248806E1,1.3466942E1,2.4211662E1,0E0,0E0,0E0,0E0,0E0,0E0,0E0,0E0],"parents":[2147483647,0,0,1,1,2,2,3,3,4,4,5,5,6,6],"right_children":[2,4,6,8,10,12,14,-1,-1,-1,-1,-1,-1,-1,-1],"split_conditions":[2.6939166E-1,6.240489E-1,-3.0240893E-1,-1.0381443E-1,-1.1618602E0,-6.867341E-1,-1.9602749E-1,2.329664E-2,2.1910547E-1,1.6747507E-1,-1.542701E-1,-4.198592E-2,-3.2244617E-1,-1.6905192E-1,8.937512E-2],"split_indices":[5,7,9,3,6,6,3,0,0,0,0,0,0,0,0],"split_type":[0,0,0,0,0,0,0,0,0,0,0,0,0,0,0],"sum_hessian":[2.4746883E2,1.532914E2,9.417743E1,1.1560994E2,3.768146E1,3.7528828E1,5.66486E1,5.1160595E1,6.444935E1,5.193216E0,3.2488243E1,9.382809E0,2.8146017E1,2.535956E1,3.128904E1],"tree_param":{"num_deleted":"0","num_feature":"12","num_nodes":"15","size_leaf_vector":"1"}},{"base_weights":[-7.6784287E-4,-5.058735E-1,3.7668872E-1,1.9757062E-1,-8.8824505E-1,-2.3741446E-1,7.486416E-1,1.2861863E-1,-1.3013583E-1,-3.1364208E-1,-8.003386E-2,3.3546574E-2,-2.0903182E-1,1.9300365E-1,-1.5964463E-2],"categories":[],"categories_nodes":[],"categories_segments":[],"categories_sizes":[],"default_left":[0,0,0,0,0,0,0,0,0,0,0,0,0,0,0],"id":2,"left_children":[1,3,5,7,9,11,13,-1,-1,-1,-1,-1,-1,-1,-1],"loss_changes":[4.674935E1,2.838272E1,3.2232773E1,1.4683828E1,2.1980045E1,1.774746E1,1.5787365E1,0E0,0E0,0E0,0E0,0E0,0E0,0E0,0E0],"parents":[2147483647,0,0,1,1,2,2,3,3,4,4,5,5,6,6],"right_children":[2,4,6,8,10,12,14,-1,-1,-1,-1,-1,-1,-1,-1],"split_conditions":[-1.9155054E-1,-4.766411E-1,-2.839896E-1,3.6092344E-1,-2.7864724E-1,4.7381696E-1,8.928335E-1,1.2861863E-1,-1.3013583E-1,-3.1364208E-1,-8.003386E-2,3.3546574E-2,-2.0903182E-1,1.9300365E-1,-1.5964463E-2],"split_indices":[9,6,0,7,10,6,6,0,0,0,0,0,0,0,0],"split_type":[0,0,0,0,0,0,0,0,0,0,0,0,0,0,0],"sum_hessian":[2.4320387E2,1.0386857E2,1.393353E2,3.6747658E1,6.712091E1,5.2695488E1,8.663981E1,2.4251835E1,1.2495825E1,2.7122295E1,3.9998615E1,3.562107E1,1.7074417E1,6.8566826E1,1.8072983E1],"tree_param":{"num_deleted":"0","num_feature":"12","num_nodes":"15","size_leaf_vector":"1"}},{"base_weights":[-2.6771093E-3,-3.7959278E-1,4.9478748E-1,-6.9737315E-1,1.978772E-1,1.0583247E0,1.3266462E-1,-2.1001677E-1,-2.9583856E-2,1.7822854E-1,-7.177924E-2,3.8227286E-2,2.5914738E-1,-3.477182E-2,2.70095E-1],"categories":[],"categories_nodes":[],"categories_segments":[],"categories_sizes":[],"default_left":[0,0,0,0,0,0,0,0,0,0,0,0,0,0,0],"id":3,"left_children":[1,3,5,7,9,11,13,-1,-1,-1,-1,-1,-1,-1,-1],"loss_changes":[4.530147E1,2.536186E1,2.1113474E1,1.7070145E1,1.945334E1,8.111259E0,2.4330273E1,0E0,0E0,0E0,0E0,0E0,0E0,0E0,0E0],"parents":[2147483647,0,0,1,1,2,2,3,3,4,4,5,5,6,6],"right_children":[2,4,6,8,10,12,14,-1,-1,-1,-1,-1,-1,-1,-1],"split_conditions":[8.019343E-2,3.7070352E-1,-3.8580042E-1,2.4695937E-1,-6.5492034E-2,-6.327013E-1,8.988299E-1,-2.1001677E-1,-2.9583856E-2,1.7822854E-1,-7.177924E-2,3.8227286E-2,2.5914738E-1,-3.477182E-2,2.70095E-1],"split_indices":[8,9,7,0,6,3,10,0,0,0,0,0,0,0,0],"split_type":[0,0,0,0,0,0,0,0,0,0,0,0,0,0,0],"sum_hessian":[2.3960333E2,1.3645328E2,1.0315006E2,8.788353E1,4.856974E1,3.9600708E1,6.354935E1,5.2969624E1,3.491391E1,2.1365711E1,2.720403E1,8.899365E0,3.0701344E1,5.145526E1,1.20940895E1],"tree_param":{"num_deleted":"0","num_feature":"12","num_nodes":"15","size_leaf_vector":"1"}},{"base_weights":[6.634478E-5,6.01325E-1,-2.7450073E-1,-2.3753212E-1,8.6043984E-1,-6.1908394E-1,3.5774767E-1,9.934685E-2,-2.0026384E-1,1.9513732E-2,2.2676538E-1,-1.621617E-1,8.7143384E-2,-1.428778E-1,1.21708356E-1],"categories":[],"categories_nodes":[],"categories_segments":[],"categories_sizes":[],"default_left":[0,0,0,0,0,0,0,0,0,0,0,0,0,0,0],"id":4,"left_children":[1,3,5,7,9,11,13,-1,-1,-1,-1,-1,-1,-1,-1],"loss_changes":[3.924604E1,1.6403704E1,3.57774E1,1.0800671E1,1.1809734E1,2.1789566E1,1.6085188E1,0E0,0E0,0E0,0E0,0E0,0E0,0E0,0E0],"parents":[2147483647,0,0,1,1,2,2,3,3,4,4,5,5,6,6],"right_children":[2,4,6,8,10,12,14,-1,-1,-1,-1,-1,-1,-1,-1],"split_conditions":[-5.141878E-1,-7.167733E-1,4.264374E-1,-6.784895E-2,-6.286196E-1,1.0231091E0,-8.6932683E-1,9.934685E-2,-2.0026384E-1,1.9513732E-2,2.2676538E-1,-1.621617E-1,8.7143384E-2,-1.428778E-1,1.21708356E-1],"split_indices":[5,0,3,7,10,9,0,0,0,0,0,0,0,0,0],"split_type":[0,0,0,0,0,0,0,0,0,0,0,0,0,0,0],"sum_hessian":[2.3573126E2,7.3527504E1,1.6220375E2,1.737171E1,5.6155796E1,1.0499888E2,5.7204872E1,9.035286E0,8.336424E0,1.5173074E1,4.0982723E1,8.904504E1,1.5953839E1,1.04941635E1,4.671071E1],"tree_param":{"num_deleted":"0","num_feature":"12","num_nodes":"15","size_leaf_vector":"1"}},{"base_weights":[4.956097E-4,-4.2152438E-1,3.271216E-1,-1.2763468E0,-2.0950887E-1,-1.9843863E-1,6.989099E-1,-2.7772412E-2,-2.764162E-1,6.707652E-2,-1.2115031E-1,1.0142974E-1,-1.0993147E-1,1.8964635E-1,-1.0713052E-1],"categories":[],"categories_nodes":[],"categories_segments":[],"categories_sizes":[],"default_left":[0,0,0,0,0,0,0,0,0,0,0,0,0,0,0],"id":5,"left_children":[1,3,5,7,9,11,13,-1,-1,-1,-1,-1,-1,-1,-1],"loss_changes":[3.210117E1,1.814697E1,2.5789963E1,2.2129936E0,1.8039173E1,1.3950649E1,2.4242031E1,0E0,0E0,0E0,0E0,0E0,0E0,0E0,0E0],"parents":[2147483647,0,0,1,1,2,2,3,3,4,4,5,5,6,6],"right_children":[2,4,6,8,10,12,14,-1,-1,-1,-1,-1,-1,-1,-1],"split_conditions":[-2.3853453E-1,-8.531496E-1,-2.4552819E-1,-1.504468E0,-2.380692E-1,-4.766411E-1,9.759905E-1,-2.7772412E-2,-2.764162E-1,6.707652E-2,-1.2115031E-1,1.0142974E-1,-1.0993147E-1,1.8964635E-1,-1.0713052E-1],"split_indices":[8,9,10,11,6,6,5,0,0,0,0,0,0,0,0],"split_type":[0,0,0,0,0,0,0,0,0,0,0,0,0,0,0],"sum_hessian":[2.3088228E2,1.0060463E2,1.3027765E2,1.8995775E1,8.160886E1,5.4169647E1,7.6108E1,1.8123112E0,1.7183464E1,3.4424183E1,4.7184677E1,1.785518E1,3.6314465E1,6.3513317E1,1.2594685E1],"tree_param":{"num_deleted":"0","num_feature":"12","num_nodes":"15","size_leaf_vector":"1"}},{"base_weights":[-1.0925309E-3,4.4060212E-1,-2.9929748E-1,-2.9867744E-1,7.250799E-1,6.8194705E-1,-4.8865938E-1,-1.3770086E-1,1.6668932E-1,2.0023258E-1,-1.9152915E-2,-8.6423114E-2,1.9872133E-1,-1.4854585E-1,4.886824E-3],"categories":[],"categories_nodes":[],"categories_segments":[],"categories_sizes":[],"default_left":[0,0,0,0,0,0,0,0,0,0,0,0,0,0,0],"id":6,"left_children":[1,3,5,7,9,11,13,-1,-1,-1,-1,-1,-1,-1,-1],"loss_changes":[3.0067116E1,1.9565567E1,2.5653435E1,1.21692505E1,1.521814E1,8.22795E0,1.498472E1,0E0,0E0,0E0,0E0,0E0,0E0,0E0,0E0],"parents":[2147483647,0,0,1,1,2,2,3,3,4,4,5,5,6,6],"right_children":[2,4,6,8,10,12,14,-1,-1,-1,-1,-1,-1,-1,-1],"split_conditions":[-2.799066E-1,-6.109016E-1,-1.0395685E0,5.095383E-1,7.353561E-1,-6.0633165E-1,4.5609716E-1,-1.3770086E-1,1.6668932E-1,2.0023258E-1,-1.9152915E-2,-8.6423114E-2,1.9872133E-1,-1.4854585E-1,4.886824E-3],"split_indices":[7,3,5,0,6,0,0,0,0,0,0,0,0,0,0],"split_type":[0,0,0,0,0,0,0,0,0,0,0,0,0,0,0],"sum_hessian":[2.2627196E2,9.1002914E1,1.3526904E2,2.527367E1,6.572924E1,2.1460857E1,1.1380818E2,1.9091648E1,6.182023E0,4.9021626E1,1.6707619E1,4.606807E0,1.685405E1,7.581776E1,3.7990425E1],"tree_param":{"num_deleted":"0","num_feature":"12","num_nodes":"15","size_leaf_vector":"1"}},{"base_weights":[6.6420075E-4,2.8967133E-1,-3.9019597E-1,-4.5577738E-1,5.1620454E-1,4.2736384E-1,-5.94132E-1,-1.8160549E-1,1.5891835E-2,2.503728E-2,2.0815785E-1,-5.598702E-2,2.3187415E-1,-2.3256712E-2,-1.8048668E-1],"categories":[],"categories_nodes":[],"categories_segments":[],"categories_sizes":[],"default_left":[0,0,0,0,0,0,0,0,0,0,0,0,0,0,0],"id":7,"left_children":[1,3,5,7,9,11,13,-1,-1,-1,-1,-1,-1,-1,-1],"loss_changes":[2.5184519E1,2.1879696E1,1.6055649E1,7.4316397E0,2.0129513E1,1.0422095E1,1.1131506E1,0E0,0E0,0E0,0E0,0E0,0E0,0E0,0E0],"parents":[2147483647,0,0,1,1,2,2,3,3,4,4,5,5,6,6],"right_children":[2,4,6,8,10,12,14,-1,-1,-1,-1,-1,-1,-1,-1],"split_conditions":[1.4881346E-1,-8.035588E-1,-9.3044424E-1,1.302887E-1,1.884293E-1,2.4297896E-1,-2.7124748E-1,-1.8160549E-1,1.5891835E-2,2.503728E-2,2.0815785E-1,-5.598702E-2,2.3187415E-1,-2.3256712E-2,-1.8048668E-1],"split_indices":[5,10,6,2,9,3,4,0,0,0,0,0,0,0,0],"split_type":[0,0,0,0,0,0,0,0,0,0,0,0,0,0,0],"sum_hessian":[2.2094745E2,1.27172966E2,9.3774475E1,2.940348E1,9.7769485E1,1.8502834E1,7.5271645E1,1.5559732E1,1.3843749E1,5.672563E1,4.1043854E1,9.724322E0,8.778512E0,3.0059076E1,4.5212566E1],"tree_param":{"num_deleted":"0","num_feature":"12","num_nodes":"15","size_leaf_vector":"1"}},{"base_weights":[1.099799E-3,1.8246658E-1,-5.8383846E-1,-5.514779E-1,3.516842E-1,5.0858647E-1,-7.801484E-1,-1.7645091E-1,5.0013453E-2,1.3000007E-1,-1.956754E-2,-7.774508E-2,2.7297828E-1,-1.7972481E-1,1.1690519E-1],"categories":[],"categories_nodes":[],"categories_segments":[],"categories_sizes":[],"default_left":[0,0,0,0,0,0,0,0,0,0,0,0,0,0,0],"id":8,"left_children":[1,3,5,7,9,11,13,-1,-1,-1,-1,-1,-1,-1,-1],"loss_changes":[2.3134293E1,2.0866472E1,1.1465101E1,8.592378E0,1.8284332E1,7.0365705E0,7.6625767E0,0E0,0E0,0E0,0E0,0E0,0E0,0E0,0E0],"parents":[2147483647,0,0,1,1,2,2,3,3,4,4,5,5,6,6],"right_children":[2,4,6,8,10,12,14,-1,-1,-1,-1,-1,-1,-1,-1],"split_conditions":[6.691532E-1,-8.531496E-1,-1.1618602E0,4.9346384E-1,2.9872438E-1,2.4297896E-1,1.571741E0,-1.7645091E-1,5.0013453E-2,1.3000007E-1,-1.956754E-2,-7.774508E-2,2.7297828E-1,-1.7972481E-1,1.1690519E-1],"split_indices":[7,9,6,8,11,3,0,0,0,0,0,0,0,0,0],"split_type":[0,0,0,0,0,0,0,0,0,0,0,0,0,0,0],"sum_hessian":[2.1606207E2,1.6545035E2,5.0611713E1,3.0575747E1,1.348746E2,7.46725E0,4.3144466E1,2.1572605E1,9.00314E0,8.080441E1,5.4070194E1,3.912954E0,3.554296E0,4.0012268E1,3.132199E0],"tree_param":{"num_deleted":"0","num_feature":"12","num_nodes":"15","size_leaf_vector":"1"}},{"base_weights":[9.063455E-4,-2.5577238E-1,3.899849E-1,-4.2408195E-1,4.0996552E-1,6.188694E-1,-3.16424E-1,-1.21472195E-1,7.534505E-2,-1.3598529E-2,2.363383E-1,1.5004434E-1,-1.6070679E-1,-1.8128495E-1,2.6034713E-2],"categories":[],"categories_nodes":[],"categories_segments":[],"categories_sizes":[],"default_left":[0,0,0,0,0,0,0,0,0,0,0,0,0,0,0],"id":9,"left_children":[1,3,5,7,9,11,13,-1,-1,-1,-1,-1,-1,-1,-1],"loss_changes":[2.130849E1,1.4578844E1,1.3908243E1,1.5361956E1,9.837009E0,1.2633715E1,5.760976E0,0E0,0E0,0E0,0E0,0E0,0E0,0E0,0E0],"parents":[2147483647,0,0,1,1,2,2,3,3,4,4,5,5,6,6],"right_children":[2,4,6,8,10,12,14,-1,-1,-1,-1,-1,-1,-1,-1],"split_conditions":[3.3835092E-1,7.6573807E-1,7.353561E-1,9.716074E-1,2.799107E-1,1.341895E0,-3.7100814E-2,-1.21472195E-1,7.534505E-2,-1.3598529E-2,2.363383E-1,1.5004434E-1,-1.6070679E-1,-1.8128495E-1,2.6034713E-2],"split_indices":[3,10,6,9,1,4,8,0,0,0,0,0,0,0,0],"split_type":[0,0,0,0,0,0,0,0,0,0,0,0,0,0,0],"sum_hessian":[2.1136737E2,1.2755848E2,8.380889E1,1.021071E2,2.5451378E1,6.3392815E1,2.0416075E1,8.328696E1,1.8820143E1,1.6280293E1,9.171086E0,5.8466297E1,4.9265184E0,8.352263E0,1.206381E1],"tree_param":{"num_deleted":"0","num_feature":"12","num_nodes":"15","size_leaf_vector":"1"}},{"base_weights":[1.032725E-3,-3.84419E-1,2.4770385E-1,-1.6047934E-1,-9.563251E-1,-5.386694E-2,6.332464E-1,-7.008024E-2,1.409721E-1,5.2819546E-2,-2.2134335E-1,-5.61265E-2,1.295971E-1,3.2137282E-2,1.8802872E-1],"categories":[],"categories_nodes":[],"categories_segments":[],"categories_sizes":[],"default_left":[0,0,0,0,0,0,0,0,0,0,0,0,0,0,0],"id":10,"left_children":[1,3,5,7,9,11,13,-1,-1,-1,-1,-1,-1,-1,-1],"loss_changes":[1.9890114E1,1.0301606E1,1.4865113E1,1.0085624E1,4.4713364E0,1.1719887E1,7.979616E0,0E0,0E0,0E0,0E0,0E0,0E0,0E0,0E0],"parents":[2147483647,0,0,1,1,2,2,3,3,4,4,5,5,6,6],"right_children":[2,4,6,8,10,12,14,-1,-1,-1,-1,-1,-1,-1,-1],"split_conditions":[-2.839896E-1,5.292099E-1,1.2035462E-1,9.178139E-1,-1.2981958E0,6.8475544E-1,-3.2779062E-1,-7.008024E-2,1.409721E-1,5.2819546E-2,-2.2134335E-1,-5.61265E-2,1.295971E-1,3.2137282E-2,1.8802872E-1],"split_indices":[0,5,2,10,4,3,8,0,0,0,0,0,0,0,0],"split_type":[0,0,0,0,0,0,0,0,0,0,0,0,0,0,0],"sum_hessian":[2.0719238E2,8.063406E1,1.2655833E2,5.8865047E1,2.1769012E1,7.149519E1,5.5063137E1,4.8758717E1,1.010633E1,2.3053236E0,1.946369E1,5.448989E1,1.70053E1,2.2279997E1,3.2783142E1],"tree_param":{"num_deleted":"0","num_feature":"12","num_nodes":"15","size_leaf_vector":"1"}},{"base_weights":[1.5880285E-3,1.7513429E-1,-5.0509363E-1,-6.563673E-1,3.0363718E-1,1.23157375E-1,-7.559348E-1,-2.0135401E-1,8.691107E-2,1.544794E-1,1.0559162E-2,1.1777319E-1,-1.1347114E-1,-1.883167E-1,8.335718E-2],"categories":[],"categories_nodes":[],"categories_segments":[],"categories_sizes":[],"default_left":[0,0,0,0,0,0,0,0,0,0,0,0,0,0,0],"id":11,"left_children":[1,3,5,7,9,11,13,-1,-1,-1,-1,-1,-1,-1,-1],"loss_changes":[1.8067856E1,1.6552155E1,8.354537E0,8.38943E0,1.5626416E1,5.420945E0,8.579536E0,0E0,0E0,0E0,0E0,0E0,0E0,0E0,0E0],"parents":[2147483647,0,0,1,1,2,2,3,3,4,4,5,5,6,6],"right_children":[2,4,6,8,10,12,14,-1,-1,-1,-1,-1,-1,-1,-1],"split_conditions":[7.353561E-1,-1.0872084E0,-5.323714E-1,5.077934E-1,-4.2098486E-1,2.0537904E-1,1.2832884E0,-2.0135401E-1,8.691107E-2,1.544794E-1,1.0559162E-2,1.1777319E-1,-1.1347114E-1,-1.883167E-1,8.335718E-2],"split_indices":[6,3,5,8,7,7,10,0,0,0,0,0,0,0,0],"split_type":[0,0,0,0,0,0,0,0,0,0,0,0,0,0,0],"sum_hessian":[2.034677E2,1.5204448E2,5.142322E1,1.9802292E1,1.3224219E2,1.4818405E1,3.6604816E1,1.5046514E1,4.7557793E0,4.5372707E1,8.686948E1,8.93769E0,5.880716E0,3.1772182E1,4.832633E0],"tree_param":{"num_deleted":"0","num_feature":"12","num_nodes":"15","size_leaf_vector":"1"}},{"base_weights":[7.4135565E-4,-2.5345525E-1,3.404877E-1,-5.75623E-1,7.1700476E-2,-5.6999177E-2,6.296852E-1,5.9169855E-2,-1.5263031E-1,1.176327E-1,-4.6323936E-2,1.5420817E-1,-6.1414998E-2,1.6746543E-1,6.017234E-4],"categories":[],"categories_nodes":[],"categories_segments":[],"categories_sizes":[],"default_left":[0,0,0,0,0,0,0,0,0,0,0,0,0,0,0],"id":12,"left_children":[1,3,5,7,9,11,13,-1,-1,-1,-1,-1,-1,-1,-1],"loss_changes":[1.7363976E1,1.2089258E1,9.927397E0,9.685183E0,9.242429E0,7.930868E0,6.489687E0,0E0,0E0,0E0,0E0,0E0,0E0,0E0,0E0],"parents":[2147483647,0,0,1,1,2,2,3,3,4,4,5,5,6,6],"right_children":[2,4,6,8,10,12,14,-1,-1,-1,-1,-1,-1,-1,-1],"split_conditions":[8.019343E-2,-7.013358E-2,-1.616846E-1,-1.1168153E0,-3.740406E-1,-8.211991E-1,8.734155E-1,5.9169855E-2,-1.5263031E-1,1.176327E-1,-4.6323936E-2,1.5420817E-1,-6.1414998E-2,1.6746543E-1,6.017234E-4],"split_indices":[8,2,9,7,6,6,6,0,0,0,0,0,0,0,0],"split_type":[0,0,0,0,0,0,0,0,0,0,0,0,0,0,0],"sum_hessian":[1.9906026E2,1.1401143E2,8.504883E1,5.6881924E1,5.712951E1,3.6156506E1,4.889232E1,9.970403E0,4.6911522E1,2.0790482E1,3.6339027E1,7.903513E0,2.8252993E1,3.6471706E1,1.2420612E1],"tree_param":{"num_deleted":"0","num_feature":"12","num_nodes":"15","size_leaf_vector":"1"}},{"base_weights":[2.2122532E-3,-3.35408E-1,2.2754394E-1,-5.9460455E-1,3.297302E-1,-4.718456E-1,3.935174E-1,4.7241423E-2,-1.5736613E-1,-1.02060474E-1,1.4571624E-1,1.09220855E-1,-1.5965499E-1,1.0823091E-1,-7.244185E-2],"categories":[],"categories_nodes":[],"categories_segments":[],"categories_sizes":[],"default_left":[0,0,0,0,0,0,0,0,0,0,0,0,0,0,0],"id":13,"left_children":[1,3,5,7,9,11,13,-1,-1,-1,-1,-1,-1,-1,-1],"loss_changes":[1.4995614E1,1.3798603E1,1.39073515E1,9.310095E0,8.000185E0,8.120693E0,1.0916189E1,0E0,0E0,0E0,0E0,0E0,0E0,0E0,0E0],"parents":[2147483647,0,0,1,1,2,2,3,3,4,4,5,5,6,6],"right_children":[2,4,6,8,10,12,14,-1,-1,-1,-1,-1,-1,-1,-1],"split_conditions":[-2.7864724E-1,6.430253E-1,-8.63739E-1,-8.513828E-1,-5.2480173E-1,-6.992515E-1,9.759905E-1,4.7241423E-2,-1.5736613E-1,-1.02060474E-1,1.4571624E-1,1.09220855E-1,-1.5965499E-1,1.0823091E-1,-7.244185E-2],"split_indices":[10,9,0,11,3,4,5,0,0,0,0,0,0,0,0],"split_type":[0,0,0,0,0,0,0,0,0,0,0,0,0,0,0],"sum_hessian":[1.95109E2,7.790037E1,1.1720863E2,5.613231E1,2.1768057E1,2.2126728E1,9.50819E1,1.050412E1,4.562819E1,6.9181314E0,1.4849925E1,5.209199E0,1.6917528E1,7.978015E1,1.5301753E1],"tree_param":{"num_deleted":"0","num_feature":"12","num_nodes":"15","size_leaf_vector":"1"}},{"base_weights":[1.12217E-3,3.9461395E-1,-1.7894529E-1,7.627818E-1,-1.5310427E-2,6.188111E-2,-5.3829193E-1,9.862528E-3,1.8830948E-1,-5.5235356E-2,1.4794463E-1,-3.425842E-2,1.388639E-1,-1.6406335E-1,5.94349E-4],"categories":[],"categories_nodes":[],"categories_segments":[],"categories_sizes":[],"default_left":[0,0,0,0,0,0,0,0,0,0,0,0,0,0,0],"id":14,"left_children":[1,3,5,7,9,11,13,-1,-1,-1,-1,-1,-1,-1,-1],"loss_changes":[1.3667588E1,9.151153E0,1.148607E1,4.0252285E0,6.041169E0,1.1936132E1,8.124356E0,0E0,0E0,0E0,0E0,0E0,0E0,0E0,0E0],"parents":[2147483647,0,0,1,1,2,2,3,3,4,4,5,5,6,6],"right_children":[2,4,6,8,10,12,14,-1,-1,-1,-1,-1,-1,-1,-1],"split_conditions":[-4.9699023E-1,2.1282682E-1,2.7113962E-1,-9.971756E-1,6.5978354E-1,5.077934E-1,4.2226848E-1,9.862528E-3,1.8830948E-1,-5.5235356E-2,1.4794463E-1,-3.425842E-2,1.388639E-1,-1.6406335E-1,5.94349E-4],"split_indices":[5,4,6,10,10,8,3,0,0,0,0,0,0,0,0],"split_type":[0,0,0,0,0,0,0,0,0,0,0,0,0,0,0],"sum_hessian":[1.908984E2,5.955801E1,1.313404E2,3.0923613E1,2.8634396E1,7.913417E1,5.2206226E1,6.451392E0,2.447222E1,2.1752918E1,6.881479E0,5.8350227E1,2.0783945E1,3.398357E1,1.8222656E1],"tree_param":{"num_deleted":"0","num_feature":"12","num_nodes":"15","size_leaf_vector":"1"}},{"base_weights":[2.4386991E-3,-5.574341E-1,1.2862025E-1,-8.2300997E-1,8.987138E-2,3.0767006E-1,-3.5097057E-1,-1.8585901E-1,2.1599019E-2,1.813609E-1,-9.083089E-2,-6.6488385E-3,1.2400831E-1,-9.2364274E-2,1.6532557E-1],"categories":[],"categories_nodes":[],"categories_segments":[],"categories_sizes":[],"default_left":[0,0,0,0,0,0,0,0,0,0,0,0,0,0,0],"id":15,"left_children":[1,3,5,7,9,11,13,-1,-1,-1,-1,-1,-1,-1,-1],"loss_changes":[1.3341098E1,6.0450296E0,1.3340352E1,2.5471992E0,5.3034163E0,1.2026365E1,5.911056E0,0E0,0E0,0E0,0E0,0E0,0E0,0E0,0E0],"parents":[2147483647,0,0,1,1,2,2,3,3,4,4,5,5,6,6],"right_children":[2,4,6,8,10,12,14,-1,-1,-1,-1,-1,-1,-1,-1],"split_conditions":[-8.531496E-1,5.077934E-1,5.78054E-1,1.2606269E0,-2.6880613E-1,-6.887604E-3,1.571741E0,-1.8585901E-1,2.1599019E-2,1.813609E-1,-9.083089E-2,-6.6488385E-3,1.2400831E-1,-9.2364274E-2,1.6532557E-1],"split_indices":[9,8,7,10,6,0,0,0,0,0,0,0,0,0,0],"split_type":[0,0,0,0,0,0,0,0,0,0,0,0,0,0,0],"sum_hessian":[1.8683044E2,3.373392E1,1.5309653E2,2.3727562E1,1.0006361E1,1.1173864E2,4.1357883E1,2.1297985E1,2.4295769E0,3.733353E0,6.2730074E0,5.38556E1,5.7883045E1,3.835522E1,3.0026622E0],"tree_param":{"num_deleted":"0","num_feature":"12","num_nodes":"15","size_leaf_vector":"1"}},{"base_weights":[2.4640416E-3,1.9291973E-1,-3.4228602E-1,3.0349252E-1,-6.5613145E-1,7.333438E-2,-6.487048E-1,7.750924E-2,-1.3954626E-1,-2.775823E-1,-4.550658E-2,-6.252063E-2,1.8015145E-1,-3.3372357E-2,-1.9510473E-1],"categories":[],"categories_nodes":[],"categories_segments":[],"categories_sizes":[],"default_left":[0,0,0,0,0,0,0,0,0,0,0,0,0,0,0],"id":16,"left_children":[1,3,5,7,9,11,13,-1,-1,-1,-1,-1,-1,-1,-1],"loss_changes":[1.2110108E1,1.1351963E1,8.406534E0,9.173473E0,4.076598E0,9.463342E0,5.802829E0,0E0,0E0,0E0,0E0,0E0,0E0,0E0,0E0],"parents":[2147483647,0,0,1,1,2,2,3,3,4,4,5,5,6,6],"right_children":[2,4,6,8,10,12,14,-1,-1,-1,-1,-1,-1,-1,-1],"split_conditions":[3.051549E-1,1.2780578E0,-2.1924672E-1,1.4827318E0,-8.17634E-1,6.1773765E-1,-2.770014E-1,7.750924E-2,-1.3954626E-1,-2.775823E-1,-4.550658E-2,-6.252063E-2,1.8015145E-1,-3.3372357E-2,-1.9510473E-1],"split_indices":[5,4,4,7,1,10,6,0,0,0,0,0,0,0,0],"split_type":[0,0,0,0,0,0,0,0,0,0,0,0,0,0,0],"sum_hessian":[1.8243202E2,1.1779634E2,6.463568E1,1.04791756E2,1.3004582E1,2.775289E1,3.688279E1,9.7241196E1,7.550563E0,3.9766612E0,9.027922E0,1.934973E1,8.40316E0,1.5516585E1,2.1366205E1],"tree_param":{"num_deleted":"0","num_feature":"12","num_nodes":"15","size_leaf_vector":"1"}},{"base_weights":[-1.5808329E-3,-2.9266348E-1,2.1564606E-1,-6.3008183E-1,2.8378379E-2,-1.6046174E-1,4.4645408E-1,1.3247125E-1,-1.4627591E-1,-9.2347026E-2,7.208664E-2,1.3988818E-1,-7.830181E-2,1.19587325E-1,-7.318363E-2],"categories":[],"categories_nodes":[],"categories_segments":[],"categories_sizes":[],"default_left":[0,0,0,0,0,0,0,0,0,0,0,0,0,0,0],"id":17,"left_children":[1,3,5,7,9,11,13,-1,-1,-1,-1,-1,-1,-1,-1],"loss_changes":[1.1434749E1,8.389306E0,9.061761E0,5.423066E0,6.767032E0,8.244818E0,8.149092E0,0E0,0E0,0E0,0E0,0E0,0E0,0E0,0E0],"parents":[2147483647,0,0,1,1,2,2,3,3,4,4,5,5,6,6],"right_children":[2,4,6,8,10,12,14,-1,-1,-1,-1,-1,-1,-1,-1],"split_conditions":[-2.7929497E-1,-5.6175437E-2,-3.338202E-1,-1.6786215E0,-3.1163466E-1,-9.235432E-1,1.0374047E0,1.3247125E-1,-1.4627591E-1,-9.2347026E-2,7.208664E-2,1.3988818E-1,-7.830181E-2,1.19587325E-1,-7.318363E-2],"split_indices":[8,3,9,5,0,7,11,0,0,0,0,0,0,0,0],"split_type":[0,0,0,0,0,0,0,0,0,0,0,0,0,0,0],"sum_hessian":[1.788428E2,7.628035E1,1.0256246E2,3.672226E1,3.955809E1,3.9120064E1,6.3442394E1,2.2664416E0,3.445582E1,1.5818871E1,2.3739222E1,7.8557143E0,3.1264349E1,5.3694057E1,9.748336E0],"tree_param":{"num_deleted":"0","num_feature":"12","num_nodes":"15","size_leaf_vector":"1"}},{"base_weights":[-8.523077E-4,-2.2514147E-1,2.9114327E-1,1.4113003E-1,-4.410717E-1,-3.2402027E-1,4.7162592E-1,-9.63568E-2,6.787947E-2,-1.07426405E-1,1.3417965E-1,-1.2836458E-1,1.0858401E-1,4.4824476E-3,1.415154E-1],"categories":[],"categories_nodes":[],"categories_segments":[],"categories_sizes":[],"default_left":[0,0,0,0,0,0,0,0,0,0,0,0,0,0,0],"id":18,"left_children":[1,3,5,7,9,11,13,-1,-1,-1,-1,-1,-1,-1,-1],"loss_changes":[1.1620102E1,7.9985757E0,8.710921E0,4.8535285E0,7.129512E0,5.3291855E0,6.3441067E0,0E0,0E0,0E0,0E0,0E0,0E0,0E0,0E0],"parents":[2147483647,0,0,1,1,2,2,3,3,4,4,5,5,6,6],"right_children":[2,4,6,8,10,12,14,-1,-1,-1,-1,-1,-1,-1,-1],"split_conditions":[1.2035462E-1,-3.8580042E-1,-8.09446E-1,-8.2453626E-1,1.5277117E0,6.766203E-1,-3.6920536E-1,-9.63568E-2,6.787947E-2,-1.07426405E-1,1.3417965E-1,-1.2836458E-1,1.0858401E-1,4.4824476E-3,1.415154E-1],"split_indices":[2,7,8,9,0,9,9,0,0,0,0,0,0,0,0],"split_type":[0,0,0,0,0,0,0,0,0,0,0,0,0,0,0],"sum_hessian":[1.7542844E2,9.9346695E1,7.608175E1,3.697473E1,6.237196E1,1.7077816E1,5.900393E1,8.581983E0,2.8392748E1,5.7888107E1,4.4838552E0,1.2686773E1,4.3910437E0,2.0696342E1,3.8307587E1],"tree_param":{"num_deleted":"0","num_feature":"12","num_nodes":"15","size_leaf_vector":"1"}},{"base_weights":[2.0034553E-4,3.3940133E-1,-1.8344739E-1,4.4138405E-1,-6.8243104E-1,-5.1770735E-1,4.596538E-2,1.2889361E-1,-1.9654026E-2,1.1578131E-1,-2.138563E-1,-1.2906782E-1,9.685828E-2,-6.379497E-2,6.468318E-2],"categories":[],"categories_nodes":[],"categories_segments":[],"categories_sizes":[],"default_left":[0,0,0,0,0,0,0,0,0,0,0,0,0,0,0],"id":19,"left_children":[1,3,5,7,9,11,13,-1,-1,-1,-1,-1,-1,-1,-1],"loss_changes":[1.0842393E1,6.6720533E0,8.682805E0,6.2219763E0,3.5177102E0,6.200327E0,6.9761744E0,0E0,0E0,0E0,0E0,0E0,0E0,0E0,0E0],"parents":[2147483647,0,0,1,1,2,2,3,3,4,4,5,5,6,6],"right_children":[2,4,6,8,10,12,14,-1,-1,-1,-1,-1,-1,-1,-1],"split_conditions":[-3.9414126E-1,1.365057E0,-2.7864724E-1,5.7969236E-1,-1.2217704E0,1.0850972E0,-1.7029169E-1,1.2889361E-1,-1.9654026E-2,1.1578131E-1,-2.138563E-1,-1.2906782E-1,9.685828E-2,-6.379497E-2,6.468318E-2],"split_indices":[6,4,10,5,11,1,3,0,0,0,0,0,0,0,0],"split_type":[0,0,0,0,0,0,0,0,0,0,0,0,0,0,0],"sum_hessian":[1.7205386E2,6.0135075E1,1.11918785E2,5.5194504E1,4.940572E0,4.5039085E1,6.68797E1,3.9961765E1,1.52327385E1,1.0430886E0,3.8974829E0,4.026606E1,4.773029E0,2.8820902E1,3.8058796E1],"tree_param":{"num_deleted":"0","num_feature":"12","num_nodes":"15","size_leaf_vector":"1"}}]},"name":"gbtree"},"learner_model_param":{"base_score":"5.0299996E-1","boost_from_average":"1","num_class":"0","num_feature":"12","num_target":"1"},"objective":{"name":"binary:logistic","reg_loss_param":{"scale_pos_weight":"1"}}},"version":[2,1,4]}