{"learner":{"attributes":{},"feature_names":[],"feature_types":[],"gradient_booster":{"model":{"gbtree_model_param":{"num_parallel_tree":"1","num_trees":"20"},"iteration_indptr":[0,1,2,3,4,5,6,7,8,9,10,11,12,13,14,15,16,17,18,19,20],"tree_info":[0,0,0,0,0,0,0,0,0,0,0,0,0,0,0,0,0,0,0,0],"trees":[{"base_weights":[-5.264403E-6,5.58951E-1,-9.3952584E-1,-4.4081867E-1,1.2006772E0,-1.2373356E0,3.011617E-1,1.9206993E-1,-1.5855823E-1,3.076471E-1,6.1788566E-2,-2.9832086E-1,-2.5321925E-2,-1.9320999E-1,1.9206993E-1],"categories":[],"categories_nodes":[],"categories_segments":[],"categories_sizes":[],"default_left":[0,0,0,0,0,0,0,0,0,0,0,0,0,0,0],"id":0,"left_children":[1,3,5,7,9,11,13,-1,-1,-1,-1,-1,-1,-1,-1],"loss_changes":[1.3228555E2,1.0185838E2,3.5090843E1,3.1572525E1,2.8560959E1,2.1266808E1,1.6793015E1,0E0,0E0,0E0,0E0,0E0,0E0,0E0,0E0],"parents":[2147483647,0,0,1,1,2,2,3,3,4,4,5,5,6,6],"right_children":[2,4,6,8,10,12,14,-1,-1,-1,-1,-1,-1,-1,-1],"split_conditions":[3.5122946E-1,-2.7864724E-1,8.441174E-1,-7.7045316E-1,4.5417297E-1,7.6573807E-1,-5.4673547E-1,1.9206993E-1,-1.5855823E-1,3.076471E-1,6.1788566E-2,-2.9832086E-1,-2.5321925E-2,-1.9320999E-1,1.9206993E-1],"split_indices":[11,10,5,7,7,10,10,0,0,0,0,0,0,0,0],"split_type":[0,0,0,0,0,0,0,0,0,0,0,0,0,0,0],"sum_hessian":[2.4990002E2,1.5693721E2,9.296281E1,6.1475407E1,9.546181E1,7.497001E1,1.7992802E1,1.1995201E1,4.9480206E1,6.872251E1,2.6739304E1,6.0725708E1,1.4244302E1,5.9976006E0,1.1995201E1],"tree_param":{"num_deleted":"0","num_feature":"12","num_nodes":"15","size_leaf_vector":"1"}},{"base_weights":[-1.5388455E-4,7.770758E-1,-4.7095302E-1,-7.934731E-1,1.0951948E0,4.8458356E-1,-9.3042046E-1,-2.829741E-1,2.3510818E-1,2.5301626E-1,-1.012144E-1,-2.2527154E-1,1.8659066E-1,-2.4343255E-1,2.1205196E-2],"categories":[],"categories_nodes":[],"categories_segments":[],"categories_sizes":[],"default_left":[0,0,0,0,0,0,0,0,0,0,0,0,0,0,0],"id":1,"left_children":[1,3,5,7,9,11,13,-1,-1,-1,-1,-1,-1,-1,-1],"loss_changes":[9.087804E1,4.7677696E1,6.835562E1,2.1680748E1,2.1948044E1,3.7801094E1,3.1271156E1,0E0,0E0,0E0,0E0,0E0,0E0,0E0,0E0],"parents":[2147483647,0,0,1,1,2,2,3,3,4,4,5,5,6,6],"right_children":[2,4,6,8,10,12,14,-1,-1,-1,-1,-1,-1,-1,-1],"split_conditions":[-3.289612E-1,-1.0289993E0,-5.650994E-1,5.956263E-1,1.2441115E0,-8.7894124E-1,7.428498E-1,-2.829741E-1,2.3510818E-1,2.5301626E-1,-1.012144E-1,-2.2527154E-1,1.8659066E-1,-2.4343255E-1,2.1205196E-2],"split_indices":[11,10,7,5,7,10,10,0,0,0,0,0,0,0,0],"split_type":[0,0,0,0,0,0,0,0,0,0,0,0,0,0,0],"sum_hessian":[2.4635544E2,9.2688286E1,1.5366716E2,1.5360323E1,7.732796E1,4.9879677E1,1.0378748E2,1.1889554E1,3.4707692E0,7.0100586E1,7.2273746E0,1.0530973E1,3.93487E1,8.115959E1,2.2627897E1],"tree_param":{"num_deleted":"0","num_feature":"12","num_nodes":"15","size_leaf_vector":"1"}},{"base_weights":[-1.4526547E-3,-6.562385E-1,4.381242E-1,3.6727035E-1,-9.3947035E-1,8.858944E-1,-3.9887962E-1,-2.0209245E-1,1.3996206E-1,-2.503738E-1,-4.320554E-2,2.5581276E-1,6.421735E-2,1.0962132E-1,-1.7310087E-1],"categories":[],"categories_nodes":[],"categories_segments":[],"categories_sizes":[],"default_left":[0,0,0,0,0,0,0,0,0,0,0,0,0,0,0],"id":2,"left_children":[1,3,5,7,9,11,13,-1,-1,-1,-1,-1,-1,-1,-1],"loss_changes":[6.965491E1,2.8523735E1,5.4621414E1,1.0689213E1,1.699997E1,2.0606255E1,2.3078907E1,0E0,0E0,0E0,0E0,0E0,0E0,0E0,0E0],"parents":[2147483647,0,0,1,1,2,2,3,3,4,4,5,5,6,6],"right_children":[2,4,6,8,10,12,14,-1,-1,-1,-1,-1,-1,-1,-1],"split_conditions":[-2.7864724E-1,-7.563984E-1,4.1403297E-1,-1.2475868E0,5.028915E-1,1.1475392E-1,-4.5323625E-1,-2.0209245E-1,1.3996206E-1,-2.503738E-1,-4.320554E-2,2.5581276E-1,6.421735E-2,1.0962132E-1,-1.7310087E-1],"split_indices":[10,11,11,5,5,8,7,0,0,0,0,0,0,0,0],"split_type":[0,0,0,0,0,0,0,0,0,0,0,0,0,0,0],"sum_hessian":[2.4000235E2,9.620469E1,1.4379767E2,2.0787745E1,7.541695E1,9.3643166E1,5.01545E1,3.6455204E0,1.7142225E1,5.216186E1,2.3255085E1,5.4464893E1,3.9178272E1,1.6498068E1,3.3656433E1],"tree_param":{"num_deleted":"0","num_feature":"12","num_nodes":"15","size_leaf_vector":"1"}},{"base_weights":[-2.073914E-3,4.5140612E-1,-5.0199175E-1,-6.214387E-1,6.9253504E-1,4.3198487E-1,-8.0325663E-1,1.0260122E-1,-2.0727916E-1,2.014236E-1,-2.2664348E-2,-3.745017E-2,2.4951437E-1,-2.1024008E-1,1.4671286E-2],"categories":[],"categories_nodes":[],"categories_segments":[],"categories_sizes":[],"default_left":[0,0,0,0,0,0,0,0,0,0,0,0,0,0,0],"id":3,"left_children":[1,3,5,7,9,11,13,-1,-1,-1,-1,-1,-1,-1,-1],"loss_changes":[5.3097546E1,3.2201805E1,3.1692732E1,1.1389404E1,2.5655094E1,1.428401E1,1.8461056E1,0E0,0E0,0E0,0E0,0E0,0E0,0E0,0E0],"parents":[2147483647,0,0,1,1,2,2,3,3,4,4,5,5,6,6],"right_children":[2,4,6,8,10,12,14,-1,-1,-1,-1,-1,-1,-1,-1],"split_conditions":[2.7963137E-2,-9.533417E-1,-6.9034714E-1,-6.1275715E-1,5.626051E-1,4.0007066E-2,7.9752195E-1,1.0260122E-1,-2.0727916E-1,2.014236E-1,-2.2664348E-2,-3.745017E-2,2.4951437E-1,-2.1024008E-1,1.4671286E-2],"split_indices":[7,10,11,2,11,10,10,0,0,0,0,0,0,0,0],"split_type":[0,0,0,0,0,0,0,0,0,0,0,0,0,0,0],"sum_hessian":[2.3221704E2,1.2181478E2,1.1040225E2,2.2064943E1,9.974984E1,2.6820341E1,8.358191E1,5.846099E0,1.6218845E1,7.156371E1,2.8186129E1,1.5683231E1,1.113711E1,6.499841E1,1.85835E1],"tree_param":{"num_deleted":"0","num_feature":"12","num_nodes":"15","size_leaf_vector":"1"}},{"base_weights":[-1.3990598E-3,-4.2657116E-1,4.621858E-1,2.8288746E-1,-7.79155E-1,-1.4530542E-1,8.2339203E-1,-1.4458822E-1,1.3936655E-1,-1.7070515E-2,-2.1920624E-1,-1.4958589E-1,9.832499E-2,1.9679178E-1,-9.415708E-2],"categories":[],"categories_nodes":[],"categories_segments":[],"categories_sizes":[],"default_left":[0,0,0,0,0,0,0,0,0,0,0,0,0,0,0],"id":4,"left_children":[1,3,5,7,9,11,13,-1,-1,-1,-1,-1,-1,-1,-1],"loss_changes":[4.448824E1,2.9670095E1,2.3813408E1,1.7082632E1,1.7255276E1,1.6148075E1,1.4565899E1,0E0,0E0,0E0,0E0,0E0,0E0,0E0,0E0],"parents":[2147483647,0,0,1,1,2,2,3,3,4,4,5,5,6,6],"right_children":[2,4,6,8,10,12,14,-1,-1,-1,-1,-1,-1,-1,-1],"split_conditions":[1.4222219E-2,-4.2266974E-1,-2.725527E-1,-1.195625E0,-5.8937865E-1,-1.9380325E-1,1.359298E0,-1.4458822E-1,1.3936655E-1,-1.7070515E-2,-2.1920624E-1,-1.4958589E-1,9.832499E-2,1.9679178E-1,-9.415708E-2],"split_indices":[5,11,1,5,7,10,11,0,0,0,0,0,0,0,0],"split_type":[0,0,0,0,0,0,0,0,0,0,0,0,0,0,0],"sum_hessian":[2.2370995E2,1.1673107E2,1.0697887E2,3.881877E1,7.79123E1,4.0112976E1,6.686589E1,1.1100256E1,2.7718517E1,2.4825676E1,5.3086624E1,2.052203E1,1.9590946E1,5.969884E1,7.1670513E0],"tree_param":{"num_deleted":"0","num_feature":"12","num_nodes":"15","size_leaf_vector":"1"}},{"base_weights":[-2.942736E-3,-2.3935218E-1,6.8356556E-1,-4.6376985E-1,6.025061E-1,1.027257E0,-1.7370759E-2,-1.8883428E-3,-1.7752519E-1,1.948639E-1,-4.484697E-2,4.8851456E-2,2.537558E-1,1.5890573E-1,-1.1771112E-1],"categories":[],"categories_nodes":[],"categories_segments":[],"categories_sizes":[],"default_left":[0,0,0,0,0,0,0,0,0,0,0,0,0,0,0],"id":5,"left_children":[1,3,5,7,9,11,13,-1,-1,-1,-1,-1,-1,-1,-1],"loss_changes":[3.5563477E1,3.1072132E1,1.3540169E1,2.4880884E1,1.0896863E1,6.8158493E0,9.487921E0,0E0,0E0,0E0,0E0,0E0,0E0,0E0,0E0],"parents":[2147483647,0,0,1,1,2,2,3,3,4,4,5,5,6,6],"right_children":[2,4,6,8,10,12,14,-1,-1,-1,-1,-1,-1,-1,-1],"split_conditions":[6.4650434E-1,8.441174E-1,4.6251613E-1,-1.1774102E-1,3.3052552E-1,-7.07709E-1,-1.444315E-1,-1.8883428E-3,-1.7752519E-1,1.948639E-1,-4.484697E-2,4.8851456E-2,2.537558E-1,1.5890573E-1,-1.1771112E-1],"split_indices":[10,5,11,7,8,5,7,0,0,0,0,0,0,0,0],"split_type":[0,0,0,0,0,0,0,0,0,0,0,0,0,0,0],"sum_hessian":[2.1711774E2,1.6198657E2,5.513116E1,1.2824806E2,3.373851E1,3.668016E1,1.8451E1,6.23924E1,6.585567E1,2.314908E1,1.0589432E1,9.121179E0,2.755898E1,7.4583945E0,1.0992606E1],"tree_param":{"num_deleted":"0","num_feature":"12","num_nodes":"15","size_leaf_vector":"1"}},{"base_weights":[-4.2747016E-4,3.1899247E-1,-4.625925E-1,6.574346E-1,-2.16327E-1,-3.3855297E-2,-8.5639685E-1,1.6881832E-1,-8.261365E-2,-1.0114061E-1,1.8270443E-1,4.991543E-2,-2.0551085E-1,1.2415272E-1,-1.902852E-1],"categories":[],"categories_nodes":[],"categories_segments":[],"categories_sizes":[],"default_left":[0,0,0,0,0,0,0,0,0,0,0,0,0,0,0],"id":6,"left_children":[1,3,5,7,9,11,13,-1,-1,-1,-1,-1,-1,-1,-1],"loss_changes":[3.131178E1,2.286543E1,1.4606396E1,1.5752239E1,1.6591494E1,1.2238216E1,6.927185E0,0E0,0E0,0E0,0E0,0E0,0E0,0E0,0E0],"parents":[2147483647,0,0,1,1,2,2,3,3,4,4,5,5,6,6],"right_children":[2,4,6,8,10,12,14,-1,-1,-1,-1,-1,-1,-1,-1],"split_conditions":[1.7303576E-1,3.5122946E-1,-1.7537948E-2,1.2441115E0,7.6573807E-1,8.3804595E-1,-1.726319E0,1.6881832E-1,-8.261365E-2,-1.0114061E-1,1.8270443E-1,4.991543E-2,-2.0551085E-1,1.2415272E-1,-1.902852E-1],"split_indices":[2,11,8,7,10,11,11,0,0,0,0,0,0,0,0],"split_type":[0,0,0,0,0,0,0,0,0,0,0,0,0,0,0],"sum_hessian":[2.1010431E2,1.24421585E2,8.5682724E1,7.608847E1,4.8333115E1,4.154184E1,4.4140884E1,6.497132E1,1.1117149E1,3.8917908E1,9.415206E0,3.2905155E1,8.636685E0,2.3336487E0,4.180724E1],"tree_param":{"num_deleted":"0","num_feature":"12","num_nodes":"15","size_leaf_vector":"1"}},{"base_weights":[-6.1716704E-4,-4.41022E-1,2.9780048E-1,6.8030417E-1,-6.030556E-1,4.937657E-1,-5.1734066E-1,2.1279252E-1,-1.3937142E-1,-2.433656E-2,-1.9396411E-1,2.9765962E-2,2.116119E-1,9.69911E-2,-1.8316528E-1],"categories":[],"categories_nodes":[],"categories_segments":[],"categories_sizes":[],"default_left":[0,0,0,0,0,0,0,0,0,0,0,0,0,0,0],"id":7,"left_children":[1,3,5,7,9,11,13,-1,-1,-1,-1,-1,-1,-1,-1],"loss_changes":[2.713688E1,1.5563372E1,1.9916712E1,6.553244E0,1.2840815E1,1.9256433E1,1.0166935E1,0E0,0E0,0E0,0E0,0E0,0E0,0E0,0E0],"parents":[2147483647,0,0,1,1,2,2,3,3,4,4,5,5,6,6],"right_children":[2,4,6,8,10,12,14,-1,-1,-1,-1,-1,-1,-1,-1],"split_conditions":[-2.7864724E-1,-1.1786671E0,8.933461E-1,1.0767822E0,-3.1448555E-1,2.3561488E-1,-7.272411E-1,2.1279252E-1,-1.3937142E-1,-2.433656E-2,-1.9396411E-1,2.9765962E-2,2.116119E-1,9.69911E-2,-1.8316528E-1],"split_indices":[10,7,11,11,11,5,2,0,0,0,0,0,0,0,0],"split_type":[0,0,0,0,0,0,0,0,0,0,0,0,0,0,0],"sum_hessian":[2.044832E2,8.239976E1,1.2208345E2,9.999735E0,7.2400024E1,9.8739975E1,2.3343473E1,7.9988008E0,2.0009336E0,3.1884254E1,4.0515766E1,6.2065147E1,3.6674828E1,6.5788765E0,1.6764597E1],"tree_param":{"num_deleted":"0","num_feature":"12","num_nodes":"15","size_leaf_vector":"1"}},{"base_weights":[-1.0227312E-3,2.3550689E-1,-5.171414E-1,-7.3712283E-1,3.6868832E-1,5.266551E-1,-7.3617435E-1,5.776093E-2,-2.0862733E-1,1.8669859E-1,1.3191243E-2,1.765695E-1,-8.998004E-2,-1.8711889E-1,-8.049497E-3],"categories":[],"categories_nodes":[],"categories_segments":[],"categories_sizes":[],"default_left":[0,0,0,0,0,0,0,0,0,0,0,0,0,0,0],"id":8,"left_children":[1,3,5,7,9,11,13,-1,-1,-1,-1,-1,-1,-1,-1],"loss_changes":[2.4317099E1,1.7966125E1,1.4699402E1,5.570859E0,2.0595545E1,4.376665E0,7.200966E0,0E0,0E0,0E0,0E0,0E0,0E0,0E0,0E0],"parents":[2147483647,0,0,1,1,2,2,3,3,4,4,5,5,6,6],"right_children":[2,4,6,8,10,12,14,-1,-1,-1,-1,-1,-1,-1,-1],"split_conditions":[4.4679517E-1,-1.2666386E0,-9.736159E-1,-6.298731E-1,-3.2146242E-1,4.5853153E-1,7.9752195E-1,5.776093E-2,-2.0862733E-1,1.8669859E-1,1.3191243E-2,1.765695E-1,-8.998004E-2,-1.8711889E-1,-8.049497E-3],"split_indices":[7,5,11,2,11,2,10,0,0,0,0,0,0,0,0],"split_type":[0,0,0,0,0,0,0,0,0,0,0,0,0,0,0],"sum_hessian":[1.9719652E2,1.3559776E2,6.1598766E1,1.578494E1,1.1981282E2,1.0440472E1,5.1158295E1,3.639513E0,1.2145427E1,4.1082325E1,7.873049E1,7.720445E0,2.7200265E0,3.9496155E1,1.1662138E1],"tree_param":{"num_deleted":"0","num_feature":"12","num_nodes":"15","size_leaf_vector":"1"}},{"base_weights":[-1.1115128E-3,3.0184907E-1,-4.278917E-1,-2.8009233E-1,5.522925E-1,7.62322E-1,-5.841174E-1,-1.1114621E-1,1.3945857E-1,1.533894E-1,-5.497242E-2,-1.7584519E-1,2.157455E-1,-1.9798775E-1,-3.6663797E-2],"categories":[],"categories_nodes":[],"categories_segments":[],"categories_sizes":[],"default_left":[0,0,0,0,0,0,0,0,0,0,0,0,0,0,0],"id":9,"left_children":[1,3,5,7,9,11,13,-1,-1,-1,-1,-1,-1,-1,-1],"loss_changes":[2.4916615E1,1.6580685E1,1.5321341E1,9.7017975E0,1.4260757E1,5.9951763E0,1.14135685E1,0E0,0E0,0E0,0E0,0E0,0E0,0E0,0E0],"parents":[2147483647,0,0,1,1,2,2,3,3,4,4,5,5,6,6],"right_children":[2,4,6,8,10,12,14,-1,-1,-1,-1,-1,-1,-1,-1],"split_conditions":[1.3787289E-1,-6.0016006E-1,-1.284645E0,8.441174E-1,8.933461E-1,-1.2666386E0,-8.826368E-2,-1.1114621E-1,1.3945857E-1,1.533894E-1,-5.497242E-2,-1.7584519E-1,2.157455E-1,-1.9798775E-1,-3.6663797E-2],"split_indices":[8,10,11,5,11,5,5,0,0,0,0,0,0,0,0],"split_type":[0,0,0,0,0,0,0,0,0,0,0,0,0,0,0],"sum_hessian":[1.9070859E2,1.1170484E2,7.9003746E1,3.3573532E1,7.813131E1,8.716559E0,7.0287186E1,2.6524576E1,7.0489573E0,6.2090923E1,1.6040388E1,1.1211436E0,7.595416E0,3.4194366E1,3.609282E1],"tree_param":{"num_deleted":"0","num_feature":"12","num_nodes":"15","size_leaf_vector":"1"}},{"base_weights":[-8.6470274E-4,5.486596E-1,-2.2800978E-1,8.951248E-1,8.70329E-2,-4.3414125E-1,4.876027E-1,2.1896851E-1,-6.561114E-2,-9.6023105E-2,1.2142002E-1,2.9198501E-2,-1.3298443E-1,2.5387675E-1,2.6106859E-2],"categories":[],"categories_nodes":[],"categories_segments":[],"categories_sizes":[],"default_left":[0,0,0,0,0,0,0,0,0,0,0,0,0,0,0],"id":10,"left_children":[1,3,5,7,9,11,13,-1,-1,-1,-1,-1,-1,-1,-1],"loss_changes":[2.3322147E1,8.661854E0,1.9712038E1,7.958681E0,7.5286145E0,1.3908817E1,8.218378E0,0E0,0E0,0E0,0E0,0E0,0E0,0E0,0E0],"parents":[2147483647,0,0,1,1,2,2,3,3,4,4,5,5,6,6],"right_children":[2,4,6,8,10,12,14,-1,-1,-1,-1,-1,-1,-1,-1],"split_conditions":[-5.198713E-1,1.7342258E-2,8.160107E-1,1.359298E0,-1.3367199E-2,-5.9113777E-1,-5.044643E-1,2.1896851E-1,-6.561114E-2,-9.6023105E-2,1.2142002E-1,2.9198501E-2,-1.3298443E-1,2.5387675E-1,2.6106859E-2],"split_indices":[2,7,10,11,10,8,7,0,0,0,0,0,0,0,0],"split_type":[0,0,0,0,0,0,0,0,0,0,0,0,0,0,0],"sum_hessian":[1.848414E2,5.364483E1,1.3119656E2,3.0108444E1,2.3536385E1,1.0216218E2,2.9034386E1,2.5972622E1,4.1358213E0,1.1295325E1,1.224106E1,2.9179234E1,7.298295E1,8.302194E0,2.0732193E1],"tree_param":{"num_deleted":"0","num_feature":"12","num_nodes":"15","size_leaf_vector":"1"}},{"base_weights":[2.2330787E-3,-4.119936E-1,2.684955E-1,8.5293293E-1,-5.477549E-1,-4.889157E-2,7.3553884E-1,1.602483E-2,2.1299651E-1,3.451685E-2,-1.5853523E-1,1.0349252E-1,-6.564063E-2,1.7274083E-1,-4.8446614E-2],"categories":[],"categories_nodes":[],"categories_segments":[],"categories_sizes":[],"default_left":[0,0,0,0,0,0,0,0,0,0,0,0,0,0,0],"id":11,"left_children":[1,3,5,7,9,11,13,-1,-1,-1,-1,-1,-1,-1,-1],"loss_changes":[2.0075657E1,1.2698274E1,1.6459442E1,1.1100268E0,1.1592018E1,1.0753309E1,5.8347664E0,0E0,0E0,0E0,0E0,0E0,0E0,0E0,0E0],"parents":[2147483647,0,0,1,1,2,2,3,3,4,4,5,5,6,6],"right_children":[2,4,6,8,10,12,14,-1,-1,-1,-1,-1,-1,-1,-1],"split_conditions":[-2.725527E-1,-1.284645E0,2.622725E-1,-6.424469E-1,-5.4640794E-1,-5.39841E-1,1.359298E0,1.602483E-2,2.1299651E-1,3.451685E-2,-1.5853523E-1,1.0349252E-1,-6.564063E-2,1.7274083E-1,-4.8446614E-2],"split_indices":[1,11,5,10,2,7,11,0,0,0,0,0,0,0,0],"split_type":[0,0,0,0,0,0,0,0,0,0,0,0,0,0,0],"sum_hessian":[1.8001817E2,7.0223526E1,1.0979465E2,6.294381E0,6.3929142E1,6.5903885E1,4.3890762E1,1.6519072E0,4.642474E0,1.6296062E1,4.763308E1,2.1485518E1,4.441837E1,3.8907475E1,4.983289E0],"tree_param":{"num_deleted":"0","num_feature":"12","num_nodes":"15","size_leaf_vector":"1"}},{"base_weights":[3.828384E-3,2.0384744E-1,-4.7514817E-1,4.9983166E-2,9.067589E-1,-5.815252E-1,8.0647427E-1,6.7213975E-2,-8.055519E-2,2.321167E-1,-7.2906494E-2,-2.110633E-2,-1.7553233E-1,5.257701E-3,2.0980921E-1],"categories":[],"categories_nodes":[],"categories_segments":[],"categories_sizes":[],"default_left":[0,0,0,0,0,0,0,0,0,0,0,0,0,0,0],"id":12,"left_children":[1,3,5,7,9,11,13,-1,-1,-1,-1,-1,-1,-1,-1],"loss_changes":[1.6998373E1,1.3489761E1,7.5951214E0,1.35715065E1,7.6564827E0,6.792425E0,8.098407E-1,0E0,0E0,0E0,0E0,0E0,0E0,0E0,0E0],"parents":[2147483647,0,0,1,1,2,2,3,3,4,4,5,5,6,6],"right_children":[2,4,6,8,10,12,14,-1,-1,-1,-1,-1,-1,-1,-1],"split_conditions":[4.906088E-1,8.9256823E-1,1.385816E0,3.5122946E-1,1.0907056E0,-3.2146242E-1,-6.818954E-2,6.7213975E-2,-8.055519E-2,2.321167E-1,-7.2906494E-2,-2.110633E-2,-1.7553233E-1,5.257701E-3,2.0980921E-1],"split_indices":[2,1,5,11,7,11,1,0,0,0,0,0,0,0,0],"split_type":[0,0,0,0,0,0,0,0,0,0,0,0,0,0,0],"sum_hessian":[1.7541684E2,1.2414761E2,5.126923E1,1.0273129E2,2.1416325E1,4.784432E1,3.4249089E0,6.311089E1,3.9620403E1,1.7924603E1,3.491722E0,1.8870026E1,2.8974295E1,1.075178E0,2.349731E0],"tree_param":{"num_deleted":"0","num_feature":"12","num_nodes":"15","size_leaf_vector":"1"}},{"base_weights":[3.8900708E-3,-5.7304204E-1,1.6715147E-1,-7.491948E-1,1.1688267E-1,5.418489E-1,-1.598023E-1,-2.0903444E-1,-6.310063E-2,1.372633E-1,-1.3033782E-1,1.4431588E-1,-8.3919965E-2,-1.4058404E-1,2.3769831E-2],"categories":[],"categories_nodes":[],"categories_segments":[],"categories_sizes":[],"default_left":[0,0,0,0,0,0,0,0,0,0,0,0,0,0,0],"id":13,"left_children":[1,3,5,7,9,11,13,-1,-1,-1,-1,-1,-1,-1,-1],"loss_changes":[1.6342232E1,4.7386045E0,1.6651545E1,3.6008663E0,4.232435E0,1.12298355E1,1.112835E1,0E0,0E0,0E0,0E0,0E0,0E0,0E0,0E0],"parents":[2147483647,0,0,1,1,2,2,3,3,4,4,5,5,6,6],"right_children":[2,4,6,8,10,12,14,-1,-1,-1,-1,-1,-1,-1,-1],"split_conditions":[-8.035588E-1,8.441174E-1,-1.1774102E-1,9.548303E-2,-2.2505388E-2,9.824252E-1,-4.719152E-1,-2.0903444E-1,-6.310063E-2,1.372633E-1,-1.3033782E-1,1.4431588E-1,-8.3919965E-2,-1.4058404E-1,2.3769831E-2],"split_indices":[10,5,7,9,8,2,5,0,0,0,0,0,0,0,0],"split_type":[0,0,0,0,0,0,0,0,0,0,0,0,0,0,0],"sum_hessian":[1.7148453E2,3.727001E1,1.3421451E2,2.9621176E1,7.6488376E0,6.223469E1,7.197982E1,1.6767843E1,1.28533325E1,4.4550905E0,3.1937473E0,5.2643204E1,9.591486E0,2.3891148E1,4.8088673E1],"tree_param":{"num_deleted":"0","num_feature":"12","num_nodes":"15","size_leaf_vector":"1"}},{"base_weights":[9.218589E-4,2.2793444E-1,-4.2062104E-1,4.8588317E-2,8.263535E-1,7.5249046E-1,-5.488764E-1,-1.3357525E-1,4.28662E-2,-3.4232873E-2,1.937372E-1,-6.275009E-2,2.1114576E-1,-1.2702344E-1,2.048177E-1],"categories":[],"categories_nodes":[],"categories_segments":[],"categories_sizes":[],"default_left":[0,0,0,0,0,0,0,0,0,0,0,0,0,0,0],"id":14,"left_children":[1,3,5,7,9,11,13,-1,-1,-1,-1,-1,-1,-1,-1],"loss_changes":[1.613259E1,1.171949E1,9.291448E0,1.0280433E1,3.7442093E0,2.3479428E0,7.9447746E0,0E0,0E0,0E0,0E0,0E0,0E0,0E0,0E0],"parents":[2147483647,0,0,1,1,2,2,3,3,4,4,5,5,6,6],"right_children":[2,4,6,8,10,12,14,-1,-1,-1,-1,-1,-1,-1,-1],"split_conditions":[3.2178095E-1,6.650024E-1,-1.3552217E0,-9.2128104E-1,-1.0486394E0,-1.1457472E0,1.6744792E0,-1.3357525E-1,4.28662E-2,-3.4232873E-2,1.937372E-1,-6.275009E-2,2.1114576E-1,-1.2702344E-1,2.048177E-1],"split_indices":[8,10,11,5,1,5,1,0,0,0,0,0,0,0,0],"split_type":[0,0,0,0,0,0,0,0,0,0,0,0,0,0,0],"sum_hessian":[1.6658061E2,1.0857126E2,5.8009357E1,8.436752E1,2.420374E1,5.237399E0,5.2771957E1,1.5281179E1,6.908634E1,2.9970124E0,2.1206726E1,1.1520205E0,4.0853786E0,5.0594265E1,2.1776953E0],"tree_param":{"num_deleted":"0","num_feature":"12","num_nodes":"15","size_leaf_vector":"1"}},{"base_weights":[3.1065205E-3,1.8951185E-1,-4.0576676E-1,-3.2913482E-1,3.6366937E-1,4.1400248E-1,-5.780429E-1,6.902614E-2,-1.2036909E-1,1.1721461E-1,-3.6019567E-2,-1.3919672E-1,1.3052759E-1,-1.3033387E-1,2.2608565E-1],"categories":[],"categories_nodes":[],"categories_segments":[],"categories_sizes":[],"default_left":[0,0,0,0,0,0,0,0,0,0,0,0,0,0,0],"id":15,"left_children":[1,3,5,7,9,11,13,-1,-1,-1,-1,-1,-1,-1,-1],"loss_changes":[1.2576492E1,1.035619E1,7.5370417E0,5.5426793E0,1.0423149E1,2.9854994E0,6.160372E0,0E0,0E0,0E0,0E0,0E0,0E0,0E0,0E0],"parents":[2147483647,0,0,1,1,2,2,3,3,4,4,5,5,6,6],"right_children":[2,4,6,8,10,12,14,-1,-1,-1,-1,-1,-1,-1,-1],"split_conditions":[4.4679517E-1,-6.93733E-1,-9.736159E-1,-3.6541602E-1,6.9370943E-1,-1.195625E0,2.0183022E0,6.902614E-2,-1.2036909E-1,1.1721461E-1,-3.6019567E-2,-1.3919672E-1,1.3052759E-1,-1.3033387E-1,2.2608565E-1],"split_indices":[7,1,11,11,11,5,1,0,0,0,0,0,0,0,0],"split_type":[0,0,0,0,0,0,0,0,0,0,0,0,0,0,0],"sum_hessian":[1.6300192E2,1.12328064E2,5.0673866E1,2.8013395E1,8.431467E1,8.556234E0,4.211763E1,7.990835E0,2.002256E1,5.9784634E1,2.4530033E1,1.1748829E0,7.381351E0,4.0970573E1,1.1470577E0],"tree_param":{"num_deleted":"0","num_feature":"12","num_nodes":"15","size_leaf_vector":"1"}},{"base_weights":[3.1518054E-3,-1.3724844E-1,5.3508836E-1,3.7586117E-1,-3.371782E-1,8.1107414E-1,-1.0900712E-1,-5.2838743E-2,1.309583E-1,1.1581581E-2,-1.2493421E-1,-2.9036397E-2,1.85042E-1,-1.0556754E-1,1.4096823E-1],"categories":[],"categories_nodes":[],"categories_segments":[],"categories_sizes":[],"default_left":[0,0,0,0,0,0,0,0,0,0,0,0,0,0,0],"id":16,"left_children":[1,3,5,7,9,11,13,-1,-1,-1,-1,-1,-1,-1,-1],"loss_changes":[1.1991074E1,1.315996E1,6.0482273E0,6.617182E0,1.0480409E1,2.7088823E0,4.1005E0,0E0,0E0,0E0,0E0,0E0,0E0,0E0,0E0],"parents":[2147483647,0,0,1,1,2,2,3,3,4,4,5,5,6,6],"right_children":[2,4,6,8,10,12,14,-1,-1,-1,-1,-1,-1,-1,-1],"split_conditions":[8.160107E-1,-6.1275715E-1,6.190978E-1,-5.476874E-1,-2.015489E-1,-1.2475868E0,5.9028447E-1,-5.2838743E-2,1.309583E-1,1.1581581E-2,-1.2493421E-1,-2.9036397E-2,1.85042E-1,-1.0556754E-1,1.4096823E-1],"split_indices":[10,2,8,5,6,5,0,0,0,0,0,0,0,0,0],"split_type":[0,0,0,0,0,0,0,0,0,0,0,0,0,0,0],"sum_hessian":[1.5857408E2,1.26047005E2,3.2527077E1,3.5095695E1,9.09513E1,2.2588837E1,9.938241E0,1.0668279E1,2.4427418E1,3.8643784E1,5.2307518E1,2.3796418E0,2.0209196E1,6.793522E0,3.144719E0],"tree_param":{"num_deleted":"0","num_feature":"12","num_nodes":"15","size_leaf_vector":"1"}},{"base_weights":[4.0753963E-3,4.0730178E-1,-1.7201467E-1,-7.675752E-1,5.6190825E-1,7.530206E-1,-2.7253917E-1,2.404206E-2,-1.9586283E-1,1.5007725E-1,-2.8043723E-2,-6.00093E-2,1.8348709E-1,-7.999673E-2,1.05776004E-1],"categories":[],"categories_nodes":[],"categories_segments":[],"categories_sizes":[],"default_left":[0,0,0,0,0,0,0,0,0,0,0,0,0,0,0],"id":17,"left_children":[1,3,5,7,9,11,13,-1,-1,-1,-1,-1,-1,-1,-1],"loss_changes":[1.1180467E1,9.124672E0,1.0398272E1,1.2433891E0,5.778599E0,2.18158E0,1.0384918E1,0E0,0E0,0E0,0E0,0E0,0E0,0E0,0E0],"parents":[2147483647,0,0,1,1,2,2,3,3,4,4,5,5,6,6],"right_children":[2,4,6,8,10,12,14,-1,-1,-1,-1,-1,-1,-1,-1],"split_conditions":[-5.9113777E-1,-1.3237723E0,-1.284645E0,-5.2480173E-1,8.809692E-1,-1.2785943E0,1.1855731E0,2.404206E-2,-1.9586283E-1,1.5007725E-1,-2.8043723E-2,-6.00093E-2,1.8348709E-1,-7.999673E-2,1.05776004E-1],"split_indices":[8,5,11,3,11,10,10,0,0,0,0,0,0,0,0],"split_type":[0,0,0,0,0,0,0,0,0,0,0,0,0,0,0],"sum_hessian":[1.554754E2,4.685947E1,1.0861593E2,4.988259E0,4.187121E1,1.0010209E1,9.860572E1,1.0438489E0,3.9444103E0,3.2955853E1,8.915358E0,1.2404253E0,8.769783E0,8.550873E1,1.3096991E1],"tree_param":{"num_deleted":"0","num_feature":"12","num_nodes":"15","size_leaf_vector":"1"}},{"base_weights":[4.5945863E-3,-1.4665666E-1,4.8750088E-1,1.9294173E-2,-6.5884453E-1,5.9191805E-1,-1.5387698E-1,-2.4995008E-2,1.7363913E-1,-1.5022089E-1,1.478582E-1,1.472033E-1,-6.4636976E-2],"categories":[],"categories_nodes":[],"categories_segments":[],"categories_sizes":[],"default_left":[0,0,0,0,0,0,0,0,0,0,0,0,0],"id":18,"left_children":[1,3,5,7,9,11,-1,-1,-1,-1,-1,-1,-1],"loss_changes":[1.1256002E1,9.9893265E0,5.2789536E0,1.1084647E1,4.2640333E0,4.78714E0,0E0,0E0,0E0,0E0,0E0,0E0,0E0],"parents":[2147483647,0,0,1,1,2,2,3,3,4,4,5,5],"right_children":[2,4,6,8,10,12,-1,-1,-1,-1,-1,-1,-1],"split_conditions":[6.7884797E-1,6.787396E-1,1.6878102E0,9.7317934E-1,1.5604217E0,1.1989275E0,-1.5387698E-1,-2.4995008E-2,1.7363913E-1,-1.5022089E-1,1.478582E-1,1.472033E-1,-6.4636976E-2],"split_indices":[5,2,8,1,9,7,0,0,0,0,0,0,0],"split_type":[0,0,0,0,0,0,0,0,0,0,0,0,0],"sum_hessian":[1.5212814E2,1.16374695E2,3.5753456E1,8.862287E1,2.775182E1,3.3499504E1,2.253949E0,7.647831E1,1.2144565E1,2.6468035E1,1.2837857E0,2.9111164E1,4.3883424E0],"tree_param":{"num_deleted":"0","num_feature":"12","num_nodes":"13","size_leaf_vector":"1"}},{"base_weights":[4.323629E-3,-5.0119406E-1,1.4336008E-1,3.5040113E-1,-6.230918E-1,5.6415045E-1,-8.530126E-2,-8.1699565E-2,1.9128093E-1,1.21216085E-2,-1.652401E-1,-4.2708047E-2,1.4418659E-1,-8.3989345E-2,4.76654E-2],"categories":[],"categories_nodes":[],"categories_segments":[],"categories_sizes":[],"default_left":[0,0,0,0,0,0,0,0,0,0,0,0,0,0,0],"id":19,"left_children":[1,3,5,7,9,11,13,-1,-1,-1,-1,-1,-1,-1,-1],"loss_changes":[1.0660361E1,3.6148243E0,1.1491497E1,2.5692341E0,4.0746775E0,5.27555E0,8.539535E0,0E0,0E0,0E0,0E0,0E0,0E0,0E0,0E0],"parents":[2147483647,0,0,1,1,2,2,3,3,4,4,5,5,6,6],"right_children":[2,4,6,8,10,12,14,-1,-1,-1,-1,-1,-1,-1,-1],"split_conditions":[-8.035588E-1,-1.327528E0,-4.4968906E-1,5.437025E-2,-8.6038375E-1,-9.7120595E-1,-3.2001685E-2,-8.1699565E-2,1.9128093E-1,1.21216085E-2,-1.652401E-1,-4.2708047E-2,1.4418659E-1,-8.3989345E-2,4.76654E-2],"split_indices":[10,8,7,9,11,0,1,0,0,0,0,0,0,0,0],"split_type":[0,0,0,0,0,0,0,0,0,0,0,0,0,0,0],"sum_hessian":[1.4965024E2,3.1719109E1,1.1793114E2,3.737044E0,2.7982063E1,4.1005054E1,7.692609E1,1.8039147E0,1.9331294E0,6.569512E0,2.1412552E1,6.8189373E0,3.4186115E1,3.7672985E1,3.9253098E1],"tree_param":{"num_deleted":"0","num_feature":"12","num_nodes":"15","size_leaf_vector":"1"}}]},"name":"gbtree"},"learner_model_param":{"base_score":"4.9000132E-1","boost_from_average":"1","num_class":"0","num_feature":"12","num_target":"1"},"objective":{"name":"binary:logistic","reg_loss_param":{"scale_pos_weight":"1"}}},"version":[2,1,4]}