{"learner":{"attributes":{},"feature_names":[],"feature_types":[],"gradient_booster":{"model":{"gbtree_model_param":{"num_parallel_tree":"1","num_trees":"20"},"iteration_indptr":[0,1,2,3,4,5,6,7,8,9,10,11,12,13,14,15,16,17,18,19,20],"tree_info":[0,0,0,0,0,0,0,0,0,0,0,0,0,0,0,0,0,0,0,0],"trees":[{"base_weights":[2.7857432E-6,-4.4919354E-1,9.9741775E-1,5.177797E-1,-8.4407413E-1,1.3176681E0,-4.7061816E-1,2.2285889E-1,-1.0479373E-1,-3.6553185E-2,-2.8683344E-1,2.9378116E-1,-1.1435076E-1,9.105506E-2,-2.409951E-1],"categories":[],"categories_nodes":[],"categories_segments":[],"categories_sizes":[],"default_left":[0,0,0,0,0,0,0,0,0,0,0,0,0,0,0],"id":0,"left_children":[1,3,5,7,9,11,13,-1,-1,-1,-1,-1,-1,-1,-1],"loss_changes":[1.12876175E2,6.676468E1,3.7399208E1,3.2268234E1,4.8016983E1,1.9266205E1,1.057527E1,0E0,0E0,0E0,0E0,0E0,0E0,0E0,0E0],"parents":[2147483647,0,0,1,1,2,2,3,3,4,4,5,5,6,6],"right_children":[2,4,6,8,10,12,14,-1,-1,-1,-1,-1,-1,-1,-1],"split_conditions":[4.6070257E-1,-6.155713E-1,8.168147E-1,4.6251613E-1,-6.362944E-2,1.251418E0,1.4078486E-1,2.2285889E-1,-1.0479373E-1,-3.6553185E-2,-2.8683344E-1,2.9378116E-1,-1.1435076E-1,9.105506E-2,-2.409951E-1],"split_indices":[10,8,11,11,2,8,9,0,0,0,0,0,0,0,0],"split_type":[0,0,0,0,0,0,0,0,0,0,0,0,0,0,0],"sum_hessian":[2.4993602E2,1.7270578E2,7.723023E1,4.99872E1,1.2271858E2,6.348375E1,1.3746481E1,3.1741875E1,1.8245329E1,5.8485027E1,6.423356E1,5.8984898E1,4.4988484E0,6.2484E0,7.4980803E0],"tree_param":{"num_deleted":"0","num_feature":"12","num_nodes":"15","size_leaf_vector":"1"}},{"base_weights":[-2.3324502E-4,-6.114786E-1,5.3336245E-1,4.5544576E-2,-1.0922794E0,1.0610505E0,-1.17561445E-1,1.7792955E-1,-1.1843472E-1,2.0169146E-1,-2.360268E-1,2.607084E-1,-5.9170175E-2,8.195757E-2,-2.1536615E-1],"categories":[],"categories_nodes":[],"categories_segments":[],"categories_sizes":[],"default_left":[0,0,0,0,0,0,0,0,0,0,0,0,0,0,0],"id":1,"left_children":[1,3,5,7,9,11,13,-1,-1,-1,-1,-1,-1,-1,-1],"loss_changes":[8.114249E1,3.6679398E1,4.5749332E1,2.7419111E1,1.3554939E1,2.4556152E1,3.0980774E1,0E0,0E0,0E0,0E0,0E0,0E0,0E0,0E0],"parents":[2147483647,0,0,1,1,2,2,3,3,4,4,5,5,6,6],"right_children":[2,4,6,8,10,12,14,-1,-1,-1,-1,-1,-1,-1,-1],"split_conditions":[-1.3346076E-1,-1.5966786E-1,7.008412E-2,-9.670445E-2,-1.808999E0,9.862693E-1,3.3992243E-1,1.7792955E-1,-1.1843472E-1,2.0169146E-1,-2.360268E-1,2.607084E-1,-5.9170175E-2,8.195757E-2,-2.1536615E-1],"split_indices":[10,11,2,2,8,11,11,0,0,0,0,0,0,0,0],"split_type":[0,0,0,0,0,0,0,0,0,0,0,0,0,0,0],"sum_hessian":[2.4678287E2,1.1495429E2,1.3182858E2,4.8957813E1,6.599648E1,7.245832E1,5.9370255E1,2.0899523E1,2.8058292E1,2.2285962E0,6.3767883E1,6.1505943E1,1.0952379E1,3.867942E1,2.0690834E1],"tree_param":{"num_deleted":"0","num_feature":"12","num_nodes":"15","size_leaf_vector":"1"}},{"base_weights":[6.92556E-4,-1.2372226E0,2.0315364E-1,1.402446E-1,-1.3708696E0,5.1098347E-1,-6.689289E-1,2.0428656E-1,-1.5709351E-1,-1.5471366E-2,-2.9998216E-1,1.5991805E-1,-1.4655565E-1,-1.918696E-1,5.8140893E-2],"categories":[],"categories_nodes":[],"categories_segments":[],"categories_sizes":[],"default_left":[0,0,0,0,0,0,0,0,0,0,0,0,0,0,0],"id":2,"left_children":[1,3,5,7,9,11,13,-1,-1,-1,-1,-1,-1,-1,-1],"loss_changes":[6.106624E1,6.49712E0,5.6555984E1,4.0131474E0,5.110428E0,5.634519E1,1.5624992E1,0E0,0E0,0E0,0E0,0E0,0E0,0E0,0E0],"parents":[2147483647,0,0,1,1,2,2,3,3,4,4,5,5,6,6],"right_children":[2,4,6,8,10,12,14,-1,-1,-1,-1,-1,-1,-1,-1],"split_conditions":[-1.1292338E0,-1.4318151E0,5.6737995E-1,-7.7543765E-1,-1.4211468E0,8.933461E-1,6.486691E-1,2.0428656E-1,-1.5709351E-1,-1.5471366E-2,-2.9998216E-1,1.5991805E-1,-1.4655565E-1,-1.918696E-1,5.8140893E-2],"split_indices":[10,8,8,2,9,11,1,0,0,0,0,0,0,0,0],"split_type":[0,0,0,0,0,0,0,0,0,0,0,0,0,0,0],"sum_hessian":[2.416484E2,3.3248005E1,2.084004E2,2.936178E0,3.0311829E1,1.5433643E2,5.4063984E1,1.4512892E0,1.4848887E0,2.8947005E0,2.7417128E1,1.2555851E2,2.8777916E1,4.150377E1,1.2560217E1],"tree_param":{"num_deleted":"0","num_feature":"12","num_nodes":"15","size_leaf_vector":"1"}},{"base_weights":[-1.4745167E-3,-3.1343955E-1,7.118825E-1,9.9103644E-2,-8.8456434E-1,8.616646E-1,-8.177957E-1,1.1685901E-1,-1.1363216E-1,-3.1940307E-2,-2.4684258E-1,1.986552E-1,-1.6751243E-1,-2.93489E-1,6.257514E-2],"categories":[],"categories_nodes":[],"categories_segments":[],"categories_sizes":[],"default_left":[0,0,0,0,0,0,0,0,0,0,0,0,0,0,0],"id":3,"left_children":[1,3,5,7,9,11,13,-1,-1,-1,-1,-1,-1,-1,-1],"loss_changes":[5.3094593E1,3.9196594E1,1.7336761E1,3.1824146E1,1.747189E1,1.5727207E1,5.5914507E0,0E0,0E0,0E0,0E0,0E0,0E0,0E0,0E0],"parents":[2147483647,0,0,1,1,2,2,3,3,4,4,5,5,6,6],"right_children":[2,4,6,8,10,12,14,-1,-1,-1,-1,-1,-1,-1,-1],"split_conditions":[4.6070257E-1,2.1506101E-1,1.4067541E0,1.1475392E-1,-3.9032325E-1,1.3858813E0,1.2940638E0,1.1685901E-1,-1.1363216E-1,-3.1940307E-2,-2.4684258E-1,1.986552E-1,-1.6751243E-1,-2.93489E-1,6.257514E-2],"split_indices":[10,9,2,8,11,11,10,0,0,0,0,0,0,0,0],"split_type":[0,0,0,0,0,0,0,0,0,0,0,0,0,0,0],"sum_hessian":[2.3657922E2,1.6498755E2,7.159168E1,9.627283E1,6.8714714E1,6.560455E1,5.9871264E0,5.581333E1,4.045949E1,2.2833965E1,4.5880753E1,6.1274105E1,4.330452E0,3.613225E0,2.3739016E0],"tree_param":{"num_deleted":"0","num_feature":"12","num_nodes":"15","size_leaf_vector":"1"}},{"base_weights":[-3.1581658E-3,3.1605348E-1,-6.255151E-1,6.8229735E-1,-2.6175362E-1,-8.617605E-1,6.204281E-1,1.7878154E-1,-1.0984989E-1,-1.18484356E-1,1.340928E-1,4.9240764E-2,-2.1902111E-1,1.9291161E-1,-1.5818797E-1],"categories":[],"categories_nodes":[],"categories_segments":[],"categories_sizes":[],"default_left":[0,0,0,0,0,0,0,0,0,0,0,0,0,0,0],"id":4,"left_children":[1,3,5,7,9,11,13,-1,-1,-1,-1,-1,-1,-1,-1],"loss_changes":[4.615958E1,3.2680065E1,2.3720491E1,2.5060913E1,1.898682E1,1.7496914E1,7.143243E0,0E0,0E0,0E0,0E0,0E0,0E0,0E0,0E0],"parents":[2147483647,0,0,1,1,2,2,3,3,4,4,5,5,6,6],"right_children":[2,4,6,8,10,12,14,-1,-1,-1,-1,-1,-1,-1,-1],"split_conditions":[3.628306E-1,1.3787289E-1,1.0496342E0,1.1319475E0,5.737555E-1,-9.5069325E-1,9.109904E-1,1.7878154E-1,-1.0984989E-1,-1.18484356E-1,1.340928E-1,4.9240764E-2,-2.1902111E-1,1.9291161E-1,-1.5818797E-1],"split_indices":[2,8,10,11,10,9,8,0,0,0,0,0,0,0,0],"split_type":[0,0,0,0,0,0,0,0,0,0,0,0,0,0,0],"sum_hessian":[2.3035538E2,1.5258536E2,7.7770035E1,9.32793E1,5.9306057E1,6.56335E1,1.2136532E1,7.98357E1,1.3443595E1,4.4046696E1,1.525936E1,1.1408551E1,5.422495E1,1.00119295E1,2.1246023E0],"tree_param":{"num_deleted":"0","num_feature":"12","num_nodes":"15","size_leaf_vector":"1"}},{"base_weights":[-2.5977308E-3,2.9286692E-1,-5.7762325E-1,5.1402867E-1,-6.856529E-1,-7.353729E-1,8.733796E-1,-1.4337382E-1,1.3426994E-1,-1.9674385E-1,1.1256466E-1,5.0360944E-2,-1.8083063E-1,-9.864325E-3,2.7663073E-1],"categories":[],"categories_nodes":[],"categories_segments":[],"categories_sizes":[],"default_left":[0,0,0,0,0,0,0,0,0,0,0,0,0,0,0],"id":5,"left_children":[1,3,5,7,9,11,13,-1,-1,-1,-1,-1,-1,-1,-1],"loss_changes":[3.8250965E1,3.2538635E1,1.8133453E1,2.4082989E1,1.0916087E1,1.1801739E1,3.8077545E0,0E0,0E0,0E0,0E0,0E0,0E0,0E0,0E0],"parents":[2147483647,0,0,1,1,2,2,3,3,4,4,5,5,6,6],"right_children":[2,4,6,8,10,12,14,-1,-1,-1,-1,-1,-1,-1,-1],"split_conditions":[4.686321E-1,9.3235147E-1,1.345598E0,-1.1826029E0,1.003026E0,-1.0199054E0,2.2558343E-1,-1.4337382E-1,1.3426994E-1,-1.9674385E-1,1.1256466E-1,5.0360944E-2,-1.8083063E-1,-9.864325E-3,2.7663073E-1],"split_indices":[11,2,1,10,10,8,3,0,0,0,0,0,0,0,0],"split_type":[0,0,0,0,0,0,0,0,0,0,0,0,0,0,0],"sum_hessian":[2.231428E2,1.4772707E2,7.541573E1,1.20880714E2,2.684636E1,6.8465515E1,6.950214E0,1.3295835E1,1.0758488E2,2.1843433E1,5.0029263E0,9.924757E0,5.854076E1,2.7948065E0,4.1554074E0],"tree_param":{"num_deleted":"0","num_feature":"12","num_nodes":"15","size_leaf_vector":"1"}},{"base_weights":[-2.3770805E-3,3.4059435E-1,-4.7568008E-1,-8.63814E-1,5.294002E-1,-1.1229476E0,-1.09834865E-1,3.3602104E-2,-2.3105879E-1,1.3187785E-1,-1.3980411E-1,-2.4914435E-1,9.252615E-2,1.6295886E-1,-8.0084644E-2],"categories":[],"categories_nodes":[],"categories_segments":[],"categories_sizes":[],"default_left":[0,0,0,0,0,0,0,0,0,0,0,0,0,0,0],"id":6,"left_children":[1,3,5,7,9,11,13,-1,-1,-1,-1,-1,-1,-1,-1],"loss_changes":[3.553091E1,2.9318565E1,2.1653872E1,5.4813337E0,1.8079996E1,7.0200043E0,1.6410831E1,0E0,0E0,0E0,0E0,0E0,0E0,0E0,0E0],"parents":[2147483647,0,0,1,1,2,2,3,3,4,4,5,5,6,6],"right_children":[2,4,6,8,10,12,14,-1,-1,-1,-1,-1,-1,-1,-1],"split_conditions":[2.1506101E-1,-1.1377449E0,-3.8441256E-1,-7.194167E-1,1.2240694E0,1.2673587E0,-7.194167E-1,3.3602104E-2,-2.3105879E-1,1.3187785E-1,-1.3980411E-1,-2.4914435E-1,9.252615E-2,1.6295886E-1,-8.0084644E-2],"split_indices":[9,10,1,8,8,10,8,0,0,0,0,0,0,0,0],"split_type":[0,0,0,0,0,0,0,0,0,0,0,0,0,0,0],"sum_hessian":[2.1688348E2,1.2591882E2,9.096466E1,1.6579796E1,1.0933903E2,3.2100952E1,5.886371E1,3.7452807E0,1.2834515E1,9.9295044E1,1.0043982E1,2.9992893E1,2.10806E0,1.364439E1,4.521932E1],"tree_param":{"num_deleted":"0","num_feature":"12","num_nodes":"15","size_leaf_vector":"1"}},{"base_weights":[-4.0768175E-3,5.9776545E-1,-2.555771E-1,8.5626453E-1,-1.8369344E-1,-4.7678152E-1,5.3335327E-1,2.4271803E-1,5.828702E-2,8.7594144E-2,-1.7253889E-1,7.1972445E-2,-1.4653194E-1,1.513342E-1,-1.1955676E-1],"categories":[],"categories_nodes":[],"categories_segments":[],"categories_sizes":[],"default_left":[0,0,0,0,0,0,0,0,0,0,0,0,0,0,0],"id":7,"left_children":[1,3,5,7,9,11,13,-1,-1,-1,-1,-1,-1,-1,-1],"loss_changes":[3.2253784E1,1.2844137E1,2.6479473E1,9.206867E0,7.314972E0,2.550245E1,8.8841915E0,0E0,0E0,0E0,0E0,0E0,0E0,0E0,0E0],"parents":[2147483647,0,0,1,1,2,2,3,3,4,4,5,5,6,6],"right_children":[2,4,6,8,10,12,14,-1,-1,-1,-1,-1,-1,-1,-1],"split_conditions":[-5.0608855E-1,8.3804595E-1,7.6573807E-1,3.2178095E-1,2.926098E-1,-7.311652E-1,1.4067541E0,2.4271803E-1,5.828702E-2,8.7594144E-2,-1.7253889E-1,7.1972445E-2,-1.4653194E-1,1.513342E-1,-1.1955676E-1],"split_indices":[2,11,10,8,9,9,2,0,0,0,0,0,0,0,0],"split_type":[0,0,0,0,0,0,0,0,0,0,0,0,0,0,0],"sum_hessian":[2.1107895E2,6.1804195E1,1.4927475E2,4.636979E1,1.5434406E1,1.1689483E2,3.237992E1,2.7698444E1,1.8671345E1,8.242711E0,7.1916947E0,2.7282614E1,8.961221E1,2.7317705E1,5.062216E0],"tree_param":{"num_deleted":"0","num_feature":"12","num_nodes":"15","size_leaf_vector":"1"}},{"base_weights":[-1.511702E-3,-5.1370364E-1,2.6771742E-1,2.4884614E-1,-7.9457444E-1,9.039619E-1,4.105794E-3,1.6279085E-1,-7.303047E-2,-1.8437879E-1,1.186287E-1,2.1804535E-1,-2.6138346E-3,-1.1223048E-1,7.806307E-2],"categories":[],"categories_nodes":[],"categories_segments":[],"categories_sizes":[],"default_left":[0,0,0,0,0,0,0,0,0,0,0,0,0,0,0],"id":8,"left_children":[1,3,5,7,9,11,13,-1,-1,-1,-1,-1,-1,-1,-1],"loss_changes":[2.8462479E1,1.5428558E1,2.2687935E1,7.2033806E0,9.77129E0,6.7833977E0,2.132159E1,0E0,0E0,0E0,0E0,0E0,0E0,0E0,0E0],"parents":[2147483647,0,0,1,1,2,2,3,3,4,4,5,5,6,6],"right_children":[2,4,6,8,10,12,14,-1,-1,-1,-1,-1,-1,-1,-1],"split_conditions":[-3.8441256E-1,-7.09178E-1,-5.747846E-1,6.629994E-2,1.2673587E0,8.9526063E-1,-1.5366179E-1,1.6279085E-1,-7.303047E-2,-1.8437879E-1,1.186287E-1,2.1804535E-1,-2.6138346E-3,-1.1223048E-1,7.806307E-2],"split_indices":[1,9,11,8,10,2,3,0,0,0,0,0,0,0,0],"split_type":[0,0,0,0,0,0,0,0,0,0,0,0,0,0,0],"sum_hessian":[2.0440662E2,7.011295E1,1.3429366E2,1.890389E1,5.1209064E1,3.862953E1,9.566412E1,9.674277E0,9.229612E0,4.7213066E1,3.9959965E0,3.1950886E1,6.678644E0,3.8647087E1,5.701704E1],"tree_param":{"num_deleted":"0","num_feature":"12","num_nodes":"15","size_leaf_vector":"1"}},{"base_weights":[2.3722838E-4,-1.379969E-1,8.513993E-1,4.3991572E-1,-3.8383427E-1,-4.9966604E-1,1.0325389E0,1.1546802E-2,1.8195137E-1,-4.6489243E-3,-1.7385945E-1,7.043465E-2,-1.8102251E-1,2.2902237E-1,-3.546766E-2],"categories":[],"categories_nodes":[],"categories_segments":[],"categories_sizes":[],"default_left":[0,0,0,0,0,0,0,0,0,0,0,0,0,0,0],"id":9,"left_children":[1,3,5,7,9,11,13,-1,-1,-1,-1,-1,-1,-1,-1],"loss_changes":[2.3726784E1,2.4816025E1,7.4111004E0,9.327881E0,2.1378849E1,1.7018871E0,3.631178E0,0E0,0E0,0E0,0E0,0E0,0E0,0E0,0E0],"parents":[2147483647,0,0,1,1,2,2,3,3,4,4,5,5,6,6],"right_children":[2,4,6,8,10,12,14,-1,-1,-1,-1,-1,-1,-1,-1],"split_conditions":[1.0016143E0,-5.2242106E-1,-1.1632357E0,2.8422242E-2,1.5513656E-1,-1.2547327E0,1.2599665E0,1.1546802E-2,1.8195137E-1,-4.6489243E-3,-1.7385945E-1,7.043465E-2,-1.8102251E-1,2.2902237E-1,-3.546766E-2],"split_indices":[1,11,10,10,2,7,2,0,0,0,0,0,0,0,0],"split_type":[0,0,0,0,0,0,0,0,0,0,0,0,0,0,0],"sum_hessian":[1.9965752E2,1.7248305E2,2.7174469E1,5.1239697E1,1.2124335E2,3.0047185E0,2.416975E1,2.8874922E1,2.2364775E1,7.017041E1,5.1072933E1,1.011326E0,1.9933927E0,2.2161285E1,2.0084648E0],"tree_param":{"num_deleted":"0","num_feature":"12","num_nodes":"15","size_leaf_vector":"1"}},{"base_weights":[9.580104E-4,-3.7114108E-1,3.1020504E-1,-7.253815E-1,8.0204554E-2,-8.0850405E-1,4.737043E-1,3.2383487E-2,-1.9255584E-1,-5.8248818E-2,2.1065049E-1,-1.6026853E-2,-2.0377867E-1,1.3538645E-1,-1.1268331E-1],"categories":[],"categories_nodes":[],"categories_segments":[],"categories_sizes":[],"default_left":[0,0,0,0,0,0,0,0,0,0,0,0,0,0,0],"id":10,"left_children":[1,3,5,7,9,11,13,-1,-1,-1,-1,-1,-1,-1,-1],"loss_changes":[2.263313E1,1.4331703E1,2.0030043E1,1.0712664E1,1.4820919E1,2.0738916E0,2.026742E1,0E0,0E0,0E0,0E0,0E0,0E0,0E0,0E0],"parents":[2147483647,0,0,1,1,2,2,3,3,4,4,5,5,6,6],"right_children":[2,4,6,8,10,12,14,-1,-1,-1,-1,-1,-1,-1,-1],"split_conditions":[-3.9715864E-2,5.7363592E-2,-1.1377449E0,-8.682501E-1,4.9176556E-1,-6.324918E-1,9.83281E-1,3.2383487E-2,-1.9255584E-1,-5.8248818E-2,2.1065049E-1,-1.6026853E-2,-2.0377867E-1,1.3538645E-1,-1.1268331E-1],"split_indices":[3,10,10,8,1,8,8,0,0,0,0,0,0,0,0],"split_type":[0,0,0,0,0,0,0,0,0,0,0,0,0,0,0],"sum_hessian":[1.9468864E2,8.8273766E1,1.0641487E2,4.911697E1,3.91568E1,1.3066321E1,9.334855E1,1.043458E1,3.868239E1,2.8845924E1,1.0310875E1,3.2378244E0,9.828497E0,7.8344025E1,1.5004525E1],"tree_param":{"num_deleted":"0","num_feature":"12","num_nodes":"15","size_leaf_vector":"1"}},{"base_weights":[-8.4710144E-4,-8.5865104E-1,1.1921931E-1,-1.0329753E0,1.607801E-1,6.453976E-1,-8.990175E-2,1.15186416E-1,-2.3278312E-1,-1.0261188E-1,1.6962886E-1,-7.319533E-2,1.753084E-1,7.897725E-2,-7.801578E-2],"categories":[],"categories_nodes":[],"categories_segments":[],"categories_sizes":[],"default_left":[0,0,0,0,0,0,0,0,0,0,0,0,0,0,0],"id":11,"left_children":[1,3,5,7,9,11,13,-1,-1,-1,-1,-1,-1,-1,-1],"loss_changes":[1.9675726E1,4.3345375E0,1.849861E1,4.9186497E0,2.422458E0,1.1491627E1,1.7733648E1,0E0,0E0,0E0,0E0,0E0,0E0,0E0,0E0],"parents":[2147483647,0,0,1,1,2,2,3,3,4,4,5,5,6,6],"right_children":[2,4,6,8,10,12,14,-1,-1,-1,-1,-1,-1,-1,-1],"split_conditions":[-1.1975678E0,8.988299E-1,-6.059049E-1,-1.498111E0,4.008725E-1,-9.533417E-1,-3.15595E-1,1.15186416E-1,-2.3278312E-1,-1.0261188E-1,1.6962886E-1,-7.319533E-2,1.753084E-1,7.897725E-2,-7.801578E-2],"split_indices":[1,10,8,2,0,10,2,0,0,0,0,0,0,0,0],"split_type":[0,0,0,0,0,0,0,0,0,0,0,0,0,0,0],"sum_hessian":[1.8904471E2,2.2456285E1,1.6658842E2,1.9165644E1,3.2906406E0,4.678485E1,1.1980357E2,1.186635E0,1.797901E1,1.7897199E0,1.5009207E0,8.59482E0,3.819003E1,4.5693222E1,7.411035E1],"tree_param":{"num_deleted":"0","num_feature":"12","num_nodes":"15","size_leaf_vector":"1"}},{"base_weights":[-1.3486858E-4,2.1766154E-1,-4.631988E-1,3.824059E-1,-5.5181193E-1,5.3871926E-2,-7.2325945E-1,1.7161975E-2,1.6653116E-1,-1.63794E-1,8.50839E-2,9.339354E-2,-1.1406352E-1,-8.526652E-3,-1.7938484E-1],"categories":[],"categories_nodes":[],"categories_segments":[],"categories_sizes":[],"default_left":[0,0,0,0,0,0,0,0,0,0,0,0,0,0,0],"id":12,"left_children":[1,3,5,7,9,11,13,-1,-1,-1,-1,-1,-1,-1,-1],"loss_changes":[1.8797413E1,1.6280241E1,8.056168E0,1.3950394E1,6.291318E0,5.650827E0,4.6588917E0,0E0,0E0,0E0,0E0,0E0,0E0,0E0,0E0],"parents":[2147483647,0,0,1,1,2,2,3,3,4,4,5,5,6,6],"right_children":[2,4,6,8,10,12,14,-1,-1,-1,-1,-1,-1,-1,-1],"split_conditions":[4.4680294E-1,9.492037E-1,-5.0251186E-1,8.26175E-2,1.003026E0,4.4595724E-1,-8.22618E-1,1.7161975E-2,1.6653116E-1,-1.63794E-1,8.50839E-2,9.339354E-2,-1.1406352E-1,-8.526652E-3,-1.7938484E-1],"split_indices":[9,2,8,10,10,11,11,0,0,0,0,0,0,0,0],"split_type":[0,0,0,0,0,0,0,0,0,0,0,0,0,0,0],"sum_hessian":[1.8438336E2,1.2576248E2,5.862088E1,1.0399926E2,2.1763222E1,1.9882318E1,3.8738564E1,6.3415646E1,4.058362E1,1.7218056E1,4.5451665E0,1.2115815E1,7.766503E0,8.128168E0,3.0610395E1],"tree_param":{"num_deleted":"0","num_feature":"12","num_nodes":"15","size_leaf_vector":"1"}},{"base_weights":[-6.279116E-4,2.2706065E-1,-4.3101236E-1,4.3829757E-1,-3.3188987E-1,-1.7565484E-1,-9.682906E-1,-1.117601E-1,1.1203215E-1,-1.09607495E-1,1.3637893E-1,9.258632E-3,-1.9154851E-1,-2.1696544E-1,8.355733E-2],"categories":[],"categories_nodes":[],"categories_segments":[],"categories_sizes":[],"default_left":[0,0,0,0,0,0,0,0,0,0,0,0,0,0,0],"id":13,"left_children":[1,3,5,7,9,11,13,-1,-1,-1,-1,-1,-1,-1,-1],"loss_changes":[1.77359E1,1.4121624E1,8.421379E0,1.080373E1,7.6124086E0,7.624417E0,3.6761246E0,0E0,0E0,0E0,0E0,0E0,0E0,0E0,0E0],"parents":[2147483647,0,0,1,1,2,2,3,3,4,4,5,5,6,6],"right_children":[2,4,6,8,10,12,14,-1,-1,-1,-1,-1,-1,-1,-1],"split_conditions":[4.686321E-1,5.6737995E-1,2.529335E-1,-1.3453531E0,1.0913618E0,8.1302744E-1,1.6244303E0,-1.117601E-1,1.1203215E-1,-1.09607495E-1,1.3637893E-1,9.258632E-3,-1.9154851E-1,-2.1696544E-1,8.355733E-2],"split_indices":[11,8,2,10,3,9,6,0,0,0,0,0,0,0,0],"split_type":[0,0,0,0,0,0,0,0,0,0,0,0,0,0,0],"sum_hessian":[1.7899168E2,1.17370804E2,6.1620876E1,8.533653E1,3.2034275E1,4.266839E1,1.8952488E1,8.903295E0,7.6433235E1,2.6783266E1,5.2510104E0,3.3969124E1,8.699262E0,1.7683094E1,1.2693933E0],"tree_param":{"num_deleted":"0","num_feature":"12","num_nodes":"15","size_leaf_vector":"1"}},{"base_weights":[-3.1086705E-3,-2.0228168E-1,5.103362E-1,8.243683E-1,-3.0290195E-1,6.4447314E-1,-6.956262E-1,-3.714643E-2,2.1918271E-1,-1.3930659E-1,3.9019615E-3,-6.978571E-2,1.5957014E-1,3.1650167E-2,-2.1709378E-1],"categories":[],"categories_nodes":[],"categories_segments":[],"categories_sizes":[],"default_left":[0,0,0,0,0,0,0,0,0,0,0,0,0,0,0],"id":14,"left_children":[1,3,5,7,9,11,13,-1,-1,-1,-1,-1,-1,-1,-1],"loss_changes":[1.796726E1,1.3325379E1,8.392117E0,3.3762407E0,1.4736619E1,7.0908184E0,1.968085E0,0E0,0E0,0E0,0E0,0E0,0E0,0E0,0E0],"parents":[2147483647,0,0,1,1,2,2,3,3,4,4,5,5,6,6],"right_children":[2,4,6,8,10,12,14,-1,-1,-1,-1,-1,-1,-1,-1],"split_conditions":[5.268477E-1,-1.2969441E0,1.2240694E0,-7.901186E-1,-5.427871E-2,-1.1632357E0,-7.674664E-1,-3.714643E-2,2.1918271E-1,-1.3930659E-1,3.9019615E-3,-6.978571E-2,1.5957014E-1,3.1650167E-2,-2.1709378E-1],"split_indices":[1,2,8,0,3,10,2,0,0,0,0,0,0,0,0],"split_type":[0,0,0,0,0,0,0,0,0,0,0,0,0,0,0],"sum_hessian":[1.736848E2,1.25577446E2,4.8107353E1,1.056702E1,1.1501042E2,4.371105E1,4.3963027E0,2.3058147E0,8.261206E0,5.1263123E1,6.37473E1,5.6756735E0,3.8035374E1,1.5642256E0,2.832077E0],"tree_param":{"num_deleted":"0","num_feature":"12","num_nodes":"15","size_leaf_vector":"1"}},{"base_weights":[-2.5445556E-3,-6.655779E-1,1.2603186E-1,8.1030405E-1,-8.5111225E-1,4.385159E-1,-2.1337734E-1,1.8649374E-1,4.8989367E-2,3.8607627E-2,-2.287402E-1,2.1142638E-3,1.4711371E-1,-9.449666E-2,8.8120565E-2],"categories":[],"categories_nodes":[],"categories_segments":[],"categories_sizes":[],"default_left":[0,0,0,0,0,0,0,0,0,0,0,0,0,0,0],"id":15,"left_children":[1,3,5,7,9,11,13,-1,-1,-1,-1,-1,-1,-1,-1],"loss_changes":[1.471052E1,8.3641205E0,1.5424094E1,2.3141861E-2,7.9759445E0,9.600787E0,1.2062996E1,0E0,0E0,0E0,0E0,0E0,0E0,0E0,0E0],"parents":[2147483647,0,0,1,1,2,2,3,3,4,4,5,5,6,6],"right_children":[2,4,6,8,10,12,14,-1,-1,-1,-1,-1,-1,-1,-1],"split_conditions":[-9.381499E-1,-1.2490995E0,1.5591635E-2,1.1835167E-1,-7.2983503E-1,-3.7501803E-1,5.737555E-1,1.8649374E-1,4.8989367E-2,3.8607627E-2,-2.287402E-1,2.1142638E-3,1.4711371E-1,-9.449666E-2,8.8120565E-2],"split_indices":[3,9,8,0,11,10,10,0,0,0,0,0,0,0,0],"split_type":[0,0,0,0,0,0,0,0,0,0,0,0,0,0,0],"sum_hessian":[1.7057253E2,2.7026703E1,1.4354582E2,2.6420908E0,2.4384613E1,7.458532E1,6.89605E1,1.6386585E0,1.0034322E0,5.4118357E0,1.8972778E1,3.0984106E1,4.3601215E1,4.9590393E1,1.9370113E1],"tree_param":{"num_deleted":"0","num_feature":"12","num_nodes":"15","size_leaf_vector":"1"}},{"base_weights":[-9.778495E-4,3.3693898E-1,-2.5083816E-1,4.9917632E-1,-4.890441E-1,-8.514998E-1,-4.477449E-2,1.4555418E-1,6.4961176E-4,6.9409624E-2,-1.455052E-1,-1.1955223E-2,-2.1806252E-1,-1.6710965E-1,2.754171E-2],"categories":[],"categories_nodes":[],"categories_segments":[],"categories_sizes":[],"default_left":[0,0,0,0,0,0,0,0,0,0,0,0,0,0,0],"id":16,"left_children":[1,3,5,7,9,11,13,-1,-1,-1,-1,-1,-1,-1,-1],"loss_changes":[1.41929035E1,9.819988E0,1.192329E1,6.824827E0,2.6923814E0,4.591547E0,1.0650547E1,0E0,0E0,0E0,0E0,0E0,0E0,0E0,0E0],"parents":[2147483647,0,0,1,1,2,2,3,3,4,4,5,5,6,6],"right_children":[2,4,6,8,10,12,14,-1,-1,-1,-1,-1,-1,-1,-1],"split_conditions":[-1.5408675E-1,9.492037E-1,-6.452653E-1,4.051122E-1,-1.4114614E0,-5.7049036E-1,-8.453378E-1,1.4555418E-1,6.4961176E-4,6.9409624E-2,-1.455052E-1,-1.1955223E-2,-2.1806252E-1,-1.6710965E-1,2.754171E-2],"split_indices":[11,2,1,8,11,2,10,0,0,0,0,0,0,0,0],"split_type":[0,0,0,0,0,0,0,0,0,0,0,0,0,0,0],"sum_hessian":[1.6609761E2,7.0458885E1,9.563873E1,5.922227E1,1.123662E1,2.3629147E1,7.200958E1,4.0217026E1,1.9005243E1,2.3927286E0,8.843891E0,5.765474E0,1.7863674E1,1.2830594E1,5.917899E1],"tree_param":{"num_deleted":"0","num_feature":"12","num_nodes":"15","size_leaf_vector":"1"}},{"base_weights":[-3.2531791E-3,-2.052948E-1,4.099844E-1,5.251386E-1,-3.947082E-1,5.5199724E-1,-5.514545E-1,-1.141511E-1,1.3518254E-1,1.11638725E-1,-1.0075482E-1,1.882633E-1,3.8946193E-2,7.165602E-2,-1.9765878E-1],"categories":[],"categories_nodes":[],"categories_segments":[],"categories_sizes":[],"default_left":[0,0,0,0,0,0,0,0,0,0,0,0,0,0,0],"id":17,"left_children":[1,3,5,7,9,11,13,-1,-1,-1,-1,-1,-1,-1,-1],"loss_changes":[1.3651044E1,1.5398811E1,7.635421E0,4.1926312E0,9.402299E0,6.393214E0,3.2990472E0,0E0,0E0,0E0,0E0,0E0,0E0,0E0,0E0],"parents":[2147483647,0,0,1,1,2,2,3,3,4,4,5,5,6,6],"right_children":[2,4,6,8,10,12,14,-1,-1,-1,-1,-1,-1,-1,-1],"split_conditions":[5.3121E-1,-8.2453626E-1,1.1987059E0,-1.4782029E0,-1.374374E0,-1.1385617E-2,-7.7543765E-1,-1.141511E-1,1.3518254E-1,1.11638725E-1,-1.0075482E-1,1.882633E-1,3.8946193E-2,7.165602E-2,-1.9765878E-1],"split_indices":[3,9,8,1,8,11,2,0,0,0,0,0,0,0,0],"split_type":[0,0,0,0,0,0,0,0,0,0,0,0,0,0,0],"sum_hessian":[1.6149469E2,1.0880202E2,5.269267E1,2.2039358E1,8.676266E1,4.6282246E1,6.4104247E0,2.3285933E0,1.9710764E1,8.487757E0,7.82749E1,2.1365316E1,2.4916927E1,2.1379333E0,4.2724915E0],"tree_param":{"num_deleted":"0","num_feature":"12","num_nodes":"15","size_leaf_vector":"1"}},{"base_weights":[-1.3258118E-3,-1.402797E-1,5.529046E-1,3.6516014E-1,-3.5096085E-1,6.840006E-1,-3.9448777E-1,1.2396544E-1,-7.290424E-2,5.2656706E-2,-1.102469E-1,1.6047996E-1,-9.178012E-2,4.410569E-2,-1.8465663E-1],"categories":[],"categories_nodes":[],"categories_segments":[],"categories_sizes":[],"default_left":[0,0,0,0,0,0,0,0,0,0,0,0,0,0,0],"id":18,"left_children":[1,3,5,7,9,11,13,-1,-1,-1,-1,-1,-1,-1,-1],"loss_changes":[1.2320864E1,1.3748592E1,4.2529917E0,7.3096523E0,1.1313507E1,4.2299614E0,1.6776886E0,0E0,0E0,0E0,0E0,0E0,0E0,0E0,0E0],"parents":[2147483647,0,0,1,1,2,2,3,3,4,4,5,5,6,6],"right_children":[2,4,6,8,10,12,14,-1,-1,-1,-1,-1,-1,-1,-1],"split_conditions":[7.6573807E-1,-5.835456E-1,1.186774E0,8.933461E-1,-7.49551E-1,1.4048833E0,1.5591635E-2,1.2396544E-1,-7.290424E-2,5.2656706E-2,-1.102469E-1,1.6047996E-1,-9.178012E-2,4.410569E-2,-1.8465663E-1],"split_indices":[10,2,4,11,9,8,8,0,0,0,0,0,0,0,0],"split_type":[0,0,0,0,0,0,0,0,0,0,0,0,0,0,0],"sum_hessian":[1.5797818E2,1.2690746E2,3.1070715E1,3.712017E1,8.978729E1,2.7538126E1,3.532589E0,2.7628174E1,9.491996E0,2.199953E1,6.778776E1,2.522306E1,2.315064E0,1.9026592E0,1.6299297E0],"tree_param":{"num_deleted":"0","num_feature":"12","num_nodes":"15","size_leaf_vector":"1"}},{"base_weights":[-1.0823803E-3,1.1749064E-1,-6.121187E-1,2.4554715E-1,-5.884245E-1,-7.8461736E-1,1.3322014E-1,-3.3610746E-2,9.337201E-2,9.7558446E-2,-1.5997235E-1,-4.6431582E-2,-2.0635264E-1,1.2399854E-1,-6.129226E-2],"categories":[],"categories_nodes":[],"categories_segments":[],"categories_sizes":[],"default_left":[0,0,0,0,0,0,0,0,0,0,0,0,0,0,0],"id":19,"left_children":[1,3,5,7,9,11,13,-1,-1,-1,-1,-1,-1,-1,-1],"loss_changes":[1.126847E1,1.1919689E1,3.3542175E0,1.0235655E1,5.0085735E0,2.582777E0,1.3896494E0,0E0,0E0,0E0,0E0,0E0,0E0,0E0,0E0],"parents":[2147483647,0,0,1,1,2,2,3,3,4,4,5,5,6,6],"right_children":[2,4,6,8,10,12,14,-1,-1,-1,-1,-1,-1,-1,-1],"split_conditions":[9.458133E-1,1.0569587E0,7.428498E-1,-3.8441256E-1,-1.1387233E0,-5.39841E-1,-2.1613361E-1,-3.3610746E-2,9.337201E-2,9.7558446E-2,-1.5997235E-1,-4.6431582E-2,-2.0635264E-1,1.2399854E-1,-6.129226E-2],"split_indices":[9,11,10,1,5,7,8,0,0,0,0,0,0,0,0],"split_type":[0,0,0,0,0,0,0,0,0,0,0,0,0,0,0],"sum_hessian":[1.535366E2,1.2926094E2,2.4275665E1,1.0996492E2,1.9296022E1,1.9670496E1,4.60517E0,3.841453E1,7.1550385E1,2.953855E0,1.6342167E1,6.679277E0,1.29912195E1,1.9909205E0,2.614249E0],"tree_param":{"num_deleted":"0","num_feature":"12","num_nodes":"15","size_leaf_vector":"1"}}]},"name":"gbtree"},"learner_model_param":{"base_score":"5.079993E-1","boost_from_average":"1","num_class":"0","num_feature":"12","num_target":"1"},"objective":{"name":"binary:logistic","reg_loss_param":{"scale_pos_weight":"1"}}},"version":[2,1,4]}