{"learner":{"attributes":{},"feature_names":[],"feature_types":[],"gradient_booster":{"model":{"gbtree_model_param":{"num_parallel_tree":"1","num_trees":"20"},"iteration_indptr":[0,1,2,3,4,5,6,7,8,9,10,11,12,13,14,15,16,17,18,19,20],"tree_info":[0,0,0,0,0,0,0,0,0,0,0,0,0,0,0,0,0,0,0,0],"trees":[{"base_weights":[-9.090021E-7,5.547706E-1,-8.7543285E-1,1.035127E0,-2.8875175E-1,-1.3850229E0,1.5475097E-1,9.917146E-2,3.230953E-1,-2.0650911E-1,1.5384792E-1,-1.5111385E-1,-3.6000946E-1,2.0059006E-1,-1.1514621E-1],"categories":[],"categories_nodes":[],"categories_segments":[],"categories_sizes":[],"default_left":[0,0,0,0,0,0,0,0,0,0,0,0,0,0,0],"id":0,"left_children":[1,3,5,7,9,11,13,-1,-1,-1,-1,-1,-1,-1,-1],"loss_changes":[1.2237535E2,6.2793446E1,5.15252E1,3.0022942E1,4.5448013E1,1.574939E1,2.117694E1,0E0,0E0,0E0,0E0,0E0,0E0,0E0,0E0],"parents":[2147483647,0,0,1,1,2,2,3,3,4,4,5,5,6,6],"right_children":[2,4,6,8,10,12,14,-1,-1,-1,-1,-1,-1,-1,-1],"split_conditions":[2.9797354E-1,3.6138722E-1,3.9032593E-1,3.5586238E-2,2.1016203E-1,-2.5698853E-1,-9.617636E-2,9.917146E-2,3.230953E-1,-2.0650911E-1,1.5384792E-1,-1.5111385E-1,-3.6000946E-1,2.0059006E-1,-1.1514621E-1],"split_indices":[6,9,8,10,10,9,1,0,0,0,0,0,0,0,0],"split_type":[0,0,0,0,0,0,0,0,0,0,0,0,0,0,0],"sum_hessian":[2.4997498E2,1.5323466E2,9.674032E1,9.749024E1,5.574442E1,6.4493546E1,3.2246773E1,5.1494846E1,4.5995396E1,3.2746723E1,2.2997698E1,2.6747322E1,3.7746223E1,1.4748524E1,1.749825E1],"tree_param":{"num_deleted":"0","num_feature":"12","num_nodes":"15","size_leaf_vector":"1"}},{"base_weights":[-6.171977E-4,8.7367195E-1,-4.3165088E-1,1.2691327E0,1.4449275E-1,-8.8278884E-1,4.48324E-1,-3.4230735E-2,2.8734177E-1,-4.4286784E-2,2.6663122E-1,-2.568582E-1,5.681693E-3,-4.1202426E-2,2.0198534E-1],"categories":[],"categories_nodes":[],"categories_segments":[],"categories_sizes":[],"default_left":[0,0,0,0,0,0,0,0,0,0,0,0,0,0,0],"id":1,"left_children":[1,3,5,7,9,11,13,-1,-1,-1,-1,-1,-1,-1,-1],"loss_changes":[9.3697845E1,2.3491917E1,6.650735E1,1.3062996E1,1.3343478E1,4.0436394E1,2.1192421E1,0E0,0E0,0E0,0E0,0E0,0E0,0E0,0E0],"parents":[2147483647,0,0,1,1,2,2,3,3,4,4,5,5,6,6],"right_children":[2,4,6,8,10,12,14,-1,-1,-1,-1,-1,-1,-1,-1],"split_conditions":[-4.52996E-1,2.6073012E-1,3.672082E-1,-1.3656616E0,6.190978E-1,3.9032593E-1,-1.7537948E-2,-3.4230735E-2,2.8734177E-1,-4.4286784E-2,2.6663122E-1,-2.568582E-1,5.681693E-3,-4.1202426E-2,2.0198534E-1],"split_indices":[6,9,10,8,8,8,8,0,0,0,0,0,0,0,0],"split_type":[0,0,0,0,0,0,0,0,0,0,0,0,0,0,0],"sum_hessian":[2.4663484E2,8.110276E1,1.6553207E2,5.2104225E1,2.8998537E1,1.09428185E2,5.6103897E1,5.428228E0,4.6676E1,2.2794903E1,6.203635E0,7.567426E1,3.3753914E1,2.6205011E1,2.9898886E1],"tree_param":{"num_deleted":"0","num_feature":"12","num_nodes":"15","size_leaf_vector":"1"}},{"base_weights":[1.0539015E-3,4.0879035E-1,-6.5016896E-1,-9.269017E-1,6.27682E-1,7.500877E-3,-1.1234826E0,-2.7764997E-2,-2.8333065E-1,-2.8983587E-2,2.0214105E-1,-9.2819706E-2,1.8799183E-1,7.463848E-2,-2.5331053E-1],"categories":[],"categories_nodes":[],"categories_segments":[],"categories_sizes":[],"default_left":[0,0,0,0,0,0,0,0,0,0,0,0,0,0,0],"id":2,"left_children":[1,3,5,7,9,11,13,-1,-1,-1,-1,-1,-1,-1,-1],"loss_changes":[6.454517E1,4.4287285E1,2.9143406E1,8.082983E0,3.833068E1,1.8097822E1,1.2128372E1,0E0,0E0,0E0,0E0,0E0,0E0,0E0,0E0],"parents":[2147483647,0,0,1,1,2,2,3,3,4,4,5,5,6,6],"right_children":[2,4,6,8,10,12,14,-1,-1,-1,-1,-1,-1,-1,-1],"split_conditions":[2.9797354E-1,-1.1292338E0,-2.4717335E-1,-1.7150757E-1,-5.552836E-1,3.4790006E-1,-1.2236056E0,-2.7764997E-2,-2.8333065E-1,-2.8983587E-2,2.0214105E-1,-9.2819706E-2,1.8799183E-1,7.463848E-2,-2.5331053E-1],"split_indices":[6,10,9,9,8,10,0,0,0,0,0,0,0,0,0],"split_type":[0,0,0,0,0,0,0,0,0,0,0,0,0,0,0],"sum_hessian":[2.4108206E2,1.4848596E2,9.2596115E1,2.0451988E1,1.2803397E2,3.9163094E1,5.3433018E1,8.330517E0,1.212147E1,4.264201E1,8.539196E1,2.6342445E1,1.282065E1,4.521765E0,4.891125E1],"tree_param":{"num_deleted":"0","num_feature":"12","num_nodes":"15","size_leaf_vector":"1"}},{"base_weights":[-7.449906E-4,6.7241037E-1,-3.1931135E-1,8.7565243E-1,-5.5246234E-1,-6.6206104E-1,4.3919322E-1,-8.7205485E-2,2.054617E-1,1.592679E-1,-1.8854354E-1,-2.4346916E-1,-4.275984E-2,2.0696306E-1,-4.053926E-2],"categories":[],"categories_nodes":[],"categories_segments":[],"categories_sizes":[],"default_left":[0,0,0,0,0,0,0,0,0,0,0,0,0,0,0],"id":3,"left_children":[1,3,5,7,9,11,13,-1,-1,-1,-1,-1,-1,-1,-1],"loss_changes":[5.076966E1,1.941616E1,4.2068565E1,1.3500156E1,6.7705026E0,2.7389427E1,1.956149E1,0E0,0E0,0E0,0E0,0E0,0E0,0E0,0E0],"parents":[2147483647,0,0,1,1,2,2,3,3,4,4,5,5,6,6],"right_children":[2,4,6,8,10,12,14,-1,-1,-1,-1,-1,-1,-1,-1],"split_conditions":[-4.766411E-1,9.836314E-1,4.623376E-1,-1.3763787E0,-1.0294203E0,-2.1107921E-1,-6.818954E-2,-8.7205485E-2,2.054617E-1,1.592679E-1,-1.8854354E-1,-2.4346916E-1,-4.275984E-2,2.0696306E-1,-4.053926E-2],"split_indices":[6,1,8,10,0,10,1,0,0,0,0,0,0,0,0],"split_type":[0,0,0,0,0,0,0,0,0,0,0,0,0,0,0],"sum_hessian":[2.3474823E2,7.505033E1,1.596979E2,6.461408E1,1.0436251E1,1.1008178E2,4.9616116E1,6.5020914E0,5.811199E1,2.1084518E0,8.327799E0,4.8404705E1,6.167708E1,2.5418056E1,2.419806E1],"tree_param":{"num_deleted":"0","num_feature":"12","num_nodes":"15","size_leaf_vector":"1"}},{"base_weights":[-9.5701125E-4,5.2663314E-1,-3.9846054E-1,7.623647E-1,-5.20027E-1,-7.795088E-1,2.820514E-1,-1.1413689E-2,2.1022494E-1,7.624383E-2,-2.0124042E-1,6.075879E-2,-2.0150898E-1,1.7307243E-1,-9.3754135E-2],"categories":[],"categories_nodes":[],"categories_segments":[],"categories_sizes":[],"default_left":[0,0,0,0,0,0,0,0,0,0,0,0,0,0,0],"id":4,"left_children":[1,3,5,7,9,11,13,-1,-1,-1,-1,-1,-1,-1,-1],"loss_changes":[4.812328E1,2.4724073E1,3.415423E1,1.9197903E1,8.585691E0,2.1095474E1,2.1300196E1,0E0,0E0,0E0,0E0,0E0,0E0,0E0,0E0],"parents":[2147483647,0,0,1,1,2,2,3,3,4,4,5,5,6,6],"right_children":[2,4,6,8,10,12,14,-1,-1,-1,-1,-1,-1,-1,-1],"split_conditions":[-2.1655466E-1,9.447995E-1,3.672082E-1,-6.424469E-1,-3.5705486E-1,-1.0753046E0,1.3788873E-1,-1.1413689E-2,2.1022494E-1,7.624383E-2,-2.0124042E-1,6.075879E-2,-2.0150898E-1,1.7307243E-1,-9.3754135E-2],"split_indices":[9,6,10,10,5,6,6,0,0,0,0,0,0,0,0],"split_type":[0,0,0,0,0,0,0,0,0,0,0,0,0,0,0],"sum_hessian":[2.27465E2,9.7599846E1,1.2986514E2,7.988056E1,1.7719288E1,8.315664E1,4.6708504E1,2.102341E1,5.885715E1,6.284777E0,1.1434511E1,1.44028E1,6.875384E1,2.6200716E1,2.0507786E1],"tree_param":{"num_deleted":"0","num_feature":"12","num_nodes":"15","size_leaf_vector":"1"}},{"base_weights":[-7.538173E-4,6.463187E-1,-3.1742904E-1,1.0107545E0,-1.1350708E-1,-5.7301617E-1,5.01028E-1,2.521321E-1,1.739092E-2,-1.7660694E-1,6.314117E-2,5.054691E-2,-1.6372561E-1,1.719462E-1,-1.2681878E-1],"categories":[],"categories_nodes":[],"categories_segments":[],"categories_sizes":[],"default_left":[0,0,0,0,0,0,0,0,0,0,0,0,0,0,0],"id":5,"left_children":[1,3,5,7,9,11,13,-1,-1,-1,-1,-1,-1,-1,-1],"loss_changes":[4.540307E1,2.0275463E1,3.140699E1,1.1273533E1,8.370829E0,2.3293423E1,1.517681E1,0E0,0E0,0E0,0E0,0E0,0E0,0E0,0E0],"parents":[2147483647,0,0,1,1,2,2,3,3,4,4,5,5,6,6],"right_children":[2,4,6,8,10,12,14,-1,-1,-1,-1,-1,-1,-1,-1],"split_conditions":[-4.4650674E-1,5.316231E-1,6.190978E-1,7.357083E-1,-3.130807E-1,-7.466529E-1,5.8031714E-1,2.521321E-1,1.739092E-2,-1.7660694E-1,6.314117E-2,5.054691E-2,-1.6372561E-1,1.719462E-1,-1.2681878E-1],"split_indices":[0,6,8,9,8,1,1,0,0,0,0,0,0,0,0],"split_type":[0,0,0,0,0,0,0,0,0,0,0,0,0,0,0],"sum_hessian":[2.1957251E2,7.180669E1,1.4776582E2,4.8306942E1,2.3499744E1,1.1283094E2,3.493488E1,3.77344E1,1.057254E1,8.035577E0,1.5464167E1,2.5860058E1,8.697089E1,2.6730536E1,8.204345E0],"tree_param":{"num_deleted":"0","num_feature":"12","num_nodes":"15","size_leaf_vector":"1"}},{"base_weights":[5.962425E-4,-2.9427904E-1,4.9909696E-1,3.2152435E-1,-5.8453137E-1,7.802336E-1,-3.0773085E-1,1.4367564E-1,-9.7806685E-2,-1.6160364E-1,2.9636288E-2,1.9186848E-1,-1.4671794E-1,6.648119E-2,-1.952126E-1],"categories":[],"categories_nodes":[],"categories_segments":[],"categories_sizes":[],"default_left":[0,0,0,0,0,0,0,0,0,0,0,0,0,0,0],"id":6,"left_children":[1,3,5,7,9,11,13,-1,-1,-1,-1,-1,-1,-1,-1],"loss_changes":[3.1827E1,2.4504389E1,1.8493631E1,1.4577856E1,1.5318869E1,1.6961506E1,9.527706E0,0E0,0E0,0E0,0E0,0E0,0E0,0E0,0E0],"parents":[2147483647,0,0,1,1,2,2,3,3,4,4,5,5,6,6],"right_children":[2,4,6,8,10,12,14,-1,-1,-1,-1,-1,-1,-1,-1],"split_conditions":[2.75315E-1,-4.4650674E-1,7.051129E-1,5.316231E-1,6.190978E-1,1.2887231E0,-1.0776195E-2,1.4367564E-1,-9.7806685E-2,-1.6160364E-1,2.9636288E-2,1.9186848E-1,-1.4671794E-1,6.648119E-2,-1.952126E-1],"split_indices":[10,0,9,6,8,6,6,0,0,0,0,0,0,0,0],"split_type":[0,0,0,0,0,0,0,0,0,0,0,0,0,0,0],"sum_hessian":[2.1451761E2,1.3504492E2,7.947268E1,4.3226734E1,9.181819E1,5.89609E1,2.0511784E1,2.9095253E1,1.4131482E1,7.027932E1,2.1538876E1,5.3050484E1,5.9104166E0,1.0733622E1,9.778162E0],"tree_param":{"num_deleted":"0","num_feature":"12","num_nodes":"15","size_leaf_vector":"1"}},{"base_weights":[-1.5626932E-4,4.4705316E-1,-3.3002332E-1,6.315818E-1,-5.48328E-1,4.0273044E-1,-5.5373234E-1,-1.045608E-2,1.7328367E-1,-2.175542E-1,-2.0454014E-2,2.0427962E-1,-4.6030432E-2,-2.3010285E-1,-4.1110434E-2],"categories":[],"categories_nodes":[],"categories_segments":[],"categories_sizes":[],"default_left":[0,0,0,0,0,0,0,0,0,0,0,0,0,0,0],"id":7,"left_children":[1,3,5,7,9,11,13,-1,-1,-1,-1,-1,-1,-1,-1],"loss_changes":[3.0912035E1,1.6684607E1,1.9991135E1,1.2171078E1,3.3649359E0,1.1505591E1,1.9048012E1,0E0,0E0,0E0,0E0,0E0,0E0,0E0,0E0],"parents":[2147483647,0,0,1,1,2,2,3,3,4,4,5,5,6,6],"right_children":[2,4,6,8,10,12,14,-1,-1,-1,-1,-1,-1,-1,-1],"split_conditions":[-2.4717335E-1,9.836314E-1,-7.84665E-1,-7.4284863E-1,-3.3693555E-1,1.9830394E-1,-3.3693555E-1,-1.045608E-2,1.7328367E-1,-2.175542E-1,-2.0454014E-2,2.0427962E-1,-4.6030432E-2,-2.3010285E-1,-4.1110434E-2],"split_indices":[9,1,6,10,8,0,8,0,0,0,0,0,0,0,0],"split_type":[0,0,0,0,0,0,0,0,0,0,0,0,0,0,0],"sum_hessian":[2.0754507E2,8.795157E1,1.19593506E2,7.450496E1,1.3446606E1,2.77848E1,9.18087E1,1.9243568E1,5.526139E1,5.4350553E0,8.01155E0,1.3739761E1,1.4045038E1,3.2978718E1,5.8829987E1],"tree_param":{"num_deleted":"0","num_feature":"12","num_nodes":"15","size_leaf_vector":"1"}},{"base_weights":[-1.4150519E-3,3.0969143E-1,-4.320204E-1,-1.497406E-1,7.363474E-1,2.1886154E-1,-6.949558E-1,1.960722E-1,-7.548176E-2,1.7808037E-1,-9.132632E-2,-2.8930098E-2,2.1976176E-1,-1.6988866E-1,1.3061295E-1],"categories":[],"categories_nodes":[],"categories_segments":[],"categories_sizes":[],"default_left":[0,0,0,0,0,0,0,0,0,0,0,0,0,0,0],"id":8,"left_children":[1,3,5,7,9,11,13,-1,-1,-1,-1,-1,-1,-1,-1],"loss_changes":[2.7249245E1,2.3258556E1,1.475315E1,1.5213684E1,1.169072E1,8.254523E0,1.3259716E1,0E0,0E0,0E0,0E0,0E0,0E0,0E0,0E0],"parents":[2147483647,0,0,1,1,2,2,3,3,4,4,5,5,6,6],"right_children":[2,4,6,8,10,12,14,-1,-1,-1,-1,-1,-1,-1,-1],"split_conditions":[1.9924124E-1,-8.89346E-2,-5.753252E-1,-1.043961E0,1.0866084E0,4.7265252E-1,1.3343548E0,1.960722E-1,-7.548176E-2,1.7808037E-1,-9.132632E-2,-2.8930098E-2,2.1976176E-1,-1.6988866E-1,1.3061295E-1],"split_indices":[1,10,6,9,6,8,2,0,0,0,0,0,0,0,0],"split_type":[0,0,0,0,0,0,0,0,0,0,0,0,0,0,0],"sum_hessian":[2.0140831E2,1.1709185E2,8.431646E1,5.669285E1,6.0399002E1,2.4308859E1,6.0007603E1,8.951786E0,4.7741062E1,5.3716053E1,6.682951E0,1.7793756E1,6.515104E0,5.4169468E1,5.8381376E0],"tree_param":{"num_deleted":"0","num_feature":"12","num_nodes":"15","size_leaf_vector":"1"}},{"base_weights":[1.284481E-3,4.927625E-1,-2.3575586E-1,6.933946E-1,-1.7184426E-1,3.284106E-1,-4.66177E-1,1.8577562E-1,1.9890217E-2,1.9112687E-1,-7.822534E-2,1.13131836E-1,-1.0743374E-1,-2.0957808E-1,-3.6822435E-2],"categories":[],"categories_nodes":[],"categories_segments":[],"categories_sizes":[],"default_left":[0,0,0,0,0,0,0,0,0,0,0,0,0,0,0],"id":9,"left_children":[1,3,5,7,9,11,13,-1,-1,-1,-1,-1,-1,-1,-1],"loss_changes":[2.3008598E1,8.687659E0,1.7473934E1,6.838976E0,4.255879E0,8.359032E0,1.5397425E1,0E0,0E0,0E0,0E0,0E0,0E0,0E0,0E0],"parents":[2147483647,0,0,1,1,2,2,3,3,4,4,5,5,6,6],"right_children":[2,4,6,8,10,12,14,-1,-1,-1,-1,-1,-1,-1,-1],"split_conditions":[-4.4650674E-1,6.949356E-1,-5.695032E-1,6.853656E-1,-1.1812499E0,8.62115E-1,-5.552836E-1,1.8577562E-1,1.9890217E-2,1.9112687E-1,-7.822534E-2,1.13131836E-1,-1.0743374E-1,-2.0957808E-1,-3.6822435E-2],"split_indices":[0,9,9,6,6,6,8,0,0,0,0,0,0,0,0],"split_type":[0,0,0,0,0,0,0,0,0,0,0,0,0,0,0],"sum_hessian":[1.9550131E2,6.325987E1,1.3224144E2,4.855786E1,1.4702006E1,3.8225155E1,9.401629E1,3.4367935E1,1.4189928E1,1.8470536E0,1.2854953E1,3.0273829E1,7.951325E0,2.9814207E1,6.420208E1],"tree_param":{"num_deleted":"0","num_feature":"12","num_nodes":"15","size_leaf_vector":"1"}},{"base_weights":[1.6260055E-3,-2.289787E-1,4.7372326E-1,3.328702E-1,-4.7601885E-1,6.1260504E-1,-5.6583005E-1,1.4316522E-2,2.4640822E-1,7.9078555E-2,-1.2936951E-1,1.7162351E-1,-8.871106E-3,-2.3456231E-1,5.6487363E-2],"categories":[],"categories_nodes":[],"categories_segments":[],"categories_sizes":[],"default_left":[0,0,0,0,0,0,0,0,0,0,0,0,0,0,0],"id":10,"left_children":[1,3,5,7,9,11,13,-1,-1,-1,-1,-1,-1,-1,-1],"loss_changes":[2.0928549E1,1.8085255E1,9.454582E0,9.317413E0,1.3671608E1,9.091505E0,4.426943E0,0E0,0E0,0E0,0E0,0E0,0E0,0E0,0E0],"parents":[2147483647,0,0,1,1,2,2,3,3,4,4,5,5,6,6],"right_children":[2,4,6,8,10,12,14,-1,-1,-1,-1,-1,-1,-1,-1],"split_conditions":[4.1280904E-1,-5.856227E-1,1.2887231E0,6.052796E-1,-1.061065E0,7.051129E-1,1.21645235E-1,1.4316522E-2,2.4640822E-1,7.9078555E-2,-1.2936951E-1,1.7162351E-1,-8.871106E-3,-2.3456231E-1,5.6487363E-2],"split_indices":[10,6,6,8,9,9,8,0,0,0,0,0,0,0,0],"split_type":[0,0,0,0,0,0,0,0,0,0,0,0,0,0,0],"sum_hessian":[1.9024173E2,1.2815636E2,6.208538E1,3.9033703E1,8.912265E1,5.5130753E1,6.9546304E0,3.1081444E1,7.95226E0,1.4392209E1,7.473044E1,3.9909863E1,1.522089E1,3.8308501E0,3.1237803E0],"tree_param":{"num_deleted":"0","num_feature":"12","num_nodes":"15","size_leaf_vector":"1"}},{"base_weights":[2.9672259E-3,3.124307E-1,-3.6089656E-1,5.858381E-1,-2.4834977E-1,-5.803724E-1,1.8910016E-1,1.5292583E-1,-3.8709767E-2,-1.17432594E-1,1.5861082E-1,-2.4302198E-2,-1.7674725E-1,1.054245E-1,-1.2796374E-1],"categories":[],"categories_nodes":[],"categories_segments":[],"categories_sizes":[],"default_left":[0,0,0,0,0,0,0,0,0,0,0,0,0,0,0],"id":11,"left_children":[1,3,5,7,9,11,13,-1,-1,-1,-1,-1,-1,-1,-1],"loss_changes":[2.0936417E1,1.5549995E1,1.0425561E1,9.6012745E0,1.2332494E1,8.42976E0,7.3783903E0,0E0,0E0,0E0,0E0,0E0,0E0,0E0,0E0],"parents":[2147483647,0,0,1,1,2,2,3,3,4,4,5,5,6,6],"right_children":[2,4,6,8,10,12,14,-1,-1,-1,-1,-1,-1,-1,-1],"split_conditions":[1.2065679E-1,4.7504324E-1,4.7265252E-1,9.5692927E-1,6.6398937E-1,-3.5745555E-1,9.447995E-1,1.5292583E-1,-3.8709767E-2,-1.17432594E-1,1.5861082E-1,-2.4302198E-2,-1.7674725E-1,1.054245E-1,-1.2796374E-1],"split_indices":[1,0,8,6,8,11,6,0,0,0,0,0,0,0,0],"split_type":[0,0,0,0,0,0,0,0,0,0,0,0,0,0,0],"sum_hessian":[1.8393063E2,9.947188E1,8.445875E1,6.683965E1,3.2632225E1,6.0329193E1,2.4129555E1,5.438312E1,1.24565325E1,2.4950832E1,7.6813912E0,2.456829E1,3.5760902E1,1.7398684E1,6.7308726E0],"tree_param":{"num_deleted":"0","num_feature":"12","num_nodes":"15","size_leaf_vector":"1"}},{"base_weights":[2.1948265E-3,-3.911936E-1,2.2077939E-1,3.173715E-1,-6.128561E-1,5.1208574E-1,-2.3299406E-1,1.5175483E-1,-1.2384515E-1,-2.0258514E-2,-1.8503377E-1,-6.56918E-2,1.4815079E-1,5.5892374E-2,-1.0351373E-1],"categories":[],"categories_nodes":[],"categories_segments":[],"categories_sizes":[],"default_left":[0,0,0,0,0,0,0,0,0,0,0,0,0,0,0],"id":12,"left_children":[1,3,5,7,9,11,13,-1,-1,-1,-1,-1,-1,-1,-1],"loss_changes":[1.5578839E1,1.0358552E1,1.5513205E1,7.117299E0,7.8362293E0,1.3935499E1,6.884734E0,0E0,0E0,0E0,0E0,0E0,0E0,0E0,0E0],"parents":[2147483647,0,0,1,1,2,2,3,3,4,4,5,5,6,6],"right_children":[2,4,6,8,10,12,14,-1,-1,-1,-1,-1,-1,-1,-1],"split_conditions":[-3.8834858E-1,-9.573842E-1,3.1016782E-1,4.2332125E-1,-4.536312E-1,-8.950311E-1,-2.839896E-1,1.5175483E-1,-1.2384515E-1,-2.0258514E-2,-1.8503377E-1,-6.56918E-2,1.4815079E-1,5.5892374E-2,-1.0351373E-1],"split_indices":[8,6,1,0,9,10,0,0,0,0,0,0,0,0,0],"split_type":[0,0,0,0,0,0,0,0,0,0,0,0,0,0,0],"sum_hessian":[1.7916882E2,6.3713478E1,1.15455345E2,1.5079299E1,4.863418E1,7.023712E1,4.5218224E1,1.0378123E1,4.701175E0,1.8938131E1,2.9696049E1,1.4927995E1,5.5309124E1,1.615129E1,2.9066935E1],"tree_param":{"num_deleted":"0","num_feature":"12","num_nodes":"15","size_leaf_vector":"1"}},{"base_weights":[6.721449E-4,1.518301E-1,-5.4898006E-1,3.3603677E-1,-4.2208323E-1,-2.1005483E-1,-1.029612E0,-2.290334E-2,1.22066475E-1,9.289933E-2,-1.3016386E-1,5.535544E-2,-1.3430418E-1,1.8123568E-3,-2.385218E-1],"categories":[],"categories_nodes":[],"categories_segments":[],"categories_sizes":[],"default_left":[0,0,0,0,0,0,0,0,0,0,0,0,0,0,0],"id":13,"left_children":[1,3,5,7,9,11,13,-1,-1,-1,-1,-1,-1,-1,-1],"loss_changes":[1.4630791E1,1.474265E1,5.970991E0,1.3059784E1,7.19746E0,5.4722977E0,2.626707E0,0E0,0E0,0E0,0E0,0E0,0E0,0E0,0E0],"parents":[2147483647,0,0,1,1,2,2,3,3,4,4,5,5,6,6],"right_children":[2,4,6,8,10,12,14,-1,-1,-1,-1,-1,-1,-1,-1],"split_conditions":[7.843786E-1,8.333426E-1,2.9002871E-2,-4.099034E-1,-1.0627105E0,9.9593416E-2,-1.0294203E0,-2.290334E-2,1.22066475E-1,9.289933E-2,-1.3016386E-1,5.535544E-2,-1.3430418E-1,1.8123568E-3,-2.385218E-1],"split_indices":[9,6,6,8,0,1,0,0,0,0,0,0,0,0,0],"split_type":[0,0,0,0,0,0,0,0,0,0,0,0,0,0,0],"sum_hessian":[1.740925E2,1.3711009E2,3.6982403E1,1.0410909E2,3.3001E1,2.2531202E1,1.44512005E1,3.9617134E1,6.449196E1,6.5566697E0,2.644433E1,1.1159017E1,1.1372186E1,2.088291E0,1.2362909E1],"tree_param":{"num_deleted":"0","num_feature":"12","num_nodes":"15","size_leaf_vector":"1"}},{"base_weights":[-1.693123E-3,-2.1306072E-1,4.382771E-1,6.7449754E-1,-3.4129643E-1,6.809725E-1,-5.3133514E-2,1.8221918E-1,-1.4645687E-1,8.250845E-2,-9.85401E-2,1.6884984E-1,-1.2376397E-2,7.75888E-2,-1.3088864E-1],"categories":[],"categories_nodes":[],"categories_segments":[],"categories_sizes":[],"default_left":[0,0,0,0,0,0,0,0,0,0,0,0,0,0,0],"id":14,"left_children":[1,3,5,7,9,11,13,-1,-1,-1,-1,-1,-1,-1,-1],"loss_changes":[1.5943317E1,1.3410332E1,6.67155E0,5.6448264E0,1.1827421E1,4.5782566E0,5.3782864E0,0E0,0E0,0E0,0E0,0E0,0E0,0E0,0E0],"parents":[2147483647,0,0,1,1,2,2,3,3,4,4,5,5,6,6],"right_children":[2,4,6,8,10,12,14,-1,-1,-1,-1,-1,-1,-1,-1],"split_conditions":[4.1280904E-1,-1.3220338E0,5.406974E-1,9.836314E-1,-1.043961E0,8.911892E-1,3.248585E-1,1.8221918E-1,-1.4645687E-1,8.250845E-2,-9.85401E-2,1.6884984E-1,-1.2376397E-2,7.75888E-2,-1.3088864E-1],"split_indices":[10,6,1,1,9,0,9,0,0,0,0,0,0,0,0],"split_type":[0,0,0,0,0,0,0,0,0,0,0,0,0,0,0],"sum_hessian":[1.6943777E2,1.1480139E2,5.463639E1,1.395497E1,1.0084642E2,3.631538E1,1.832101E1,1.2247492E1,1.7074788E0,1.6578337E1,8.426808E1,2.9659779E1,6.655603E0,1.0773315E1,7.547694E0],"tree_param":{"num_deleted":"0","num_feature":"12","num_nodes":"15","size_leaf_vector":"1"}},{"base_weights":[2.0948331E-5,-1.7944375E-1,4.3437856E-1,4.460331E-2,-5.910849E-1,7.566482E-1,-1.0665104E-2,9.84171E-2,-4.623886E-2,7.3169293E-3,-1.5822387E-1,1.7671558E-1,-1.023162E-1,6.430032E-2,-1.2820458E-1],"categories":[],"categories_nodes":[],"categories_segments":[],"categories_sizes":[],"default_left":[0,0,0,0,0,0,0,0,0,0,0,0,0,0,0],"id":15,"left_children":[1,3,5,7,9,11,13,-1,-1,-1,-1,-1,-1,-1,-1],"loss_changes":[1.3022021E1,1.0928587E1,7.0131016E0,9.675609E0,5.2687893E0,5.014412E0,4.7077107E0,0E0,0E0,0E0,0E0,0E0,0E0,0E0,0E0],"parents":[2147483647,0,0,1,1,2,2,3,3,4,4,5,5,6,6],"right_children":[2,4,6,8,10,12,14,-1,-1,-1,-1,-1,-1,-1,-1],"split_conditions":[4.9346384E-1,2.926098E-1,5.0885975E-1,-3.4522805E-1,-1.035339E0,1.4462725E0,3.638598E-1,9.84171E-2,-4.623886E-2,7.3169293E-3,-1.5822387E-1,1.7671558E-1,-1.023162E-1,6.430032E-2,-1.2820458E-1],"split_indices":[8,9,6,6,6,1,11,0,0,0,0,0,0,0,0],"split_type":[0,0,0,0,0,0,0,0,0,0,0,0,0,0,0],"sum_hessian":[1.6505217E2,1.1721076E2,4.7841408E1,7.647745E1,4.0733315E1,2.7342041E1,2.0499367E1,2.8862978E1,4.761447E1,1.0041652E1,3.0691664E1,2.5130203E1,2.2118387E0,1.3745929E1,6.753439E0],"tree_param":{"num_deleted":"0","num_feature":"12","num_nodes":"15","size_leaf_vector":"1"}},{"base_weights":[-3.6397885E-4,-6.377725E-1,1.3025516E-1,-9.786068E-4,-8.564589E-1,5.869932E-1,-6.0303E-2,1.3589738E-1,-9.5253885E-2,-1.8974909E-1,5.317412E-2,4.4486504E-2,1.9278865E-1,1.296092E-1,-4.75956E-2],"categories":[],"categories_nodes":[],"categories_segments":[],"categories_sizes":[],"default_left":[0,0,0,0,0,0,0,0,0,0,0,0,0,0,0],"id":16,"left_children":[1,3,5,7,9,11,13,-1,-1,-1,-1,-1,-1,-1,-1],"loss_changes":[1.3493679E1,3.8376026E0,1.1742487E1,2.9262347E0,2.3772345E0,5.24006E0,1.22135105E1,0E0,0E0,0E0,0E0,0E0,0E0,0E0,0E0],"parents":[2147483647,0,0,1,1,2,2,3,3,4,4,5,5,6,6],"right_children":[2,4,6,8,10,12,14,-1,-1,-1,-1,-1,-1,-1,-1],"split_conditions":[-9.971756E-1,-8.7253153E-1,-5.635943E-1,-2.1655466E-1,1.5374923E0,8.142181E-3,-9.0592027E-1,1.3589738E-1,-9.5253885E-2,-1.8974909E-1,5.317412E-2,4.4486504E-2,1.9278865E-1,1.296092E-1,-4.75956E-2],"split_indices":[10,6,0,9,8,8,1,0,0,0,0,0,0,0,0],"split_type":[0,0,0,0,0,0,0,0,0,0,0,0,0,0,0],"sum_hessian":[1.6007336E2,2.6563482E1,1.3350987E2,7.0471954E0,1.9516287E1,3.869165E1,9.481822E1,2.7213967E0,4.3257985E0,1.8176353E1,1.3399343E0,2.0477385E1,1.8214266E1,1.8483088E1,7.633514E1],"tree_param":{"num_deleted":"0","num_feature":"12","num_nodes":"15","size_leaf_vector":"1"}},{"base_weights":[1.1544874E-3,-1.803199E-1,3.7865418E-1,4.6407916E-2,-5.3509915E-1,7.1540564E-1,1.5749373E-2,-8.375704E-2,6.273081E-2,-3.9284922E-2,-1.7412102E-1,1.7727813E-2,1.9231567E-1,-4.932028E-2,1.4725277E-1],"categories":[],"categories_nodes":[],"categories_segments":[],"categories_sizes":[],"default_left":[0,0,0,0,0,0,0,0,0,0,0,0,0,0,0],"id":17,"left_children":[1,3,5,7,9,11,13,-1,-1,-1,-1,-1,-1,-1,-1],"loss_changes":[1.0873662E1,8.647653E0,6.2861357E0,8.376571E0,4.587242E0,4.0352383E0,5.063078E0,0E0,0E0,0E0,0E0,0E0,0E0,0E0,0E0],"parents":[2147483647,0,0,1,1,2,2,3,3,4,4,5,5,6,6],"right_children":[2,4,6,8,10,12,14,-1,-1,-1,-1,-1,-1,-1,-1],"split_conditions":[4.1280904E-1,2.0939836E-1,1.3788873E-1,-3.8834858E-1,-1.4924224E-1,-8.404628E-1,1.5031416E0,-8.375704E-2,6.273081E-2,-3.9284922E-2,-1.7412102E-1,1.7727813E-2,1.9231567E-1,-4.932028E-2,1.4725277E-1],"split_indices":[10,1,6,8,6,8,10,0,0,0,0,0,0,0,0],"split_type":[0,0,0,0,0,0,0,0,0,0,0,0,0,0,0],"sum_hessian":[1.567278E2,1.061979E2,5.0529892E1,6.532196E1,4.087594E1,2.5705538E1,2.4824356E1,2.362722E1,4.169474E1,2.1130917E1,1.9745022E1,7.6326184E0,1.8072918E1,1.8680304E1,6.1440525E0],"tree_param":{"num_deleted":"0","num_feature":"12","num_nodes":"15","size_leaf_vector":"1"}},{"base_weights":[1.5591559E-3,1.6662274E-1,-4.366373E-1,-6.430317E-1,2.565836E-1,-5.960811E-1,6.0038596E-1,1.118464E-1,-1.6338094E-1,-9.384274E-2,7.412212E-2,-2.1085268E-2,-1.7869996E-1,2.017716E-1,-1.0036238E-1],"categories":[],"categories_nodes":[],"categories_segments":[],"categories_sizes":[],"default_left":[0,0,0,0,0,0,0,0,0,0,0,0,0,0,0],"id":18,"left_children":[1,3,5,7,9,11,13,-1,-1,-1,-1,-1,-1,-1,-1],"loss_changes":[1.11978035E1,8.355368E0,7.3621893E0,2.867062E0,8.608662E0,5.337014E0,3.2721028E0,0E0,0E0,0E0,0E0,0E0,0E0,0E0,0E0],"parents":[2147483647,0,0,1,1,2,2,3,3,4,4,5,5,6,6],"right_children":[2,4,6,8,10,12,14,-1,-1,-1,-1,-1,-1,-1,-1],"split_conditions":[6.083903E-1,-1.3656616E0,1.2162621E0,-1.3209473E0,-1.1377449E0,-4.642569E-1,3.9873284E-1,1.118464E-1,-1.6338094E-1,-9.384274E-2,7.412212E-2,-2.1085268E-2,-1.7869996E-1,2.017716E-1,-1.0036238E-1],"split_indices":[0,8,2,9,10,6,9,0,0,0,0,0,0,0,0],"split_type":[0,0,0,0,0,0,0,0,0,0,0,0,0,0,0],"sum_hessian":[1.52809E2,1.1144769E2,4.1361317E1,1.05299E1,1.0091779E2,3.6217957E1,5.143361E0,1.0504084E0,9.479491E0,1.3279167E1,8.7638626E1,1.4179822E1,2.2038134E1,3.8144279E0,1.3289331E0],"tree_param":{"num_deleted":"0","num_feature":"12","num_nodes":"15","size_leaf_vector":"1"}},{"base_weights":[-5.494346E-4,5.906643E-1,-1.1059047E-1,6.8415326E-1,-2.771271E-1,1.8102702E-1,-3.461324E-1,1.8977247E-1,4.9303655E-2,-9.0068564E-2,7.468904E-3,1.474329E-1,-5.8987476E-3,-8.171762E-3,-1.3614033E-1],"categories":[],"categories_nodes":[],"categories_segments":[],"categories_sizes":[],"default_left":[0,0,0,0,0,0,0,0,0,0,0,0,0,0,0],"id":19,"left_children":[1,3,5,7,9,11,13,-1,-1,-1,-1,-1,-1,-1,-1],"loss_changes":[9.904087E0,2.1276817E0,8.878253E0,2.2977762E0,1.8213972E-1,6.8124857E0,7.2585716E0,0E0,0E0,0E0,0E0,0E0,0E0,0E0,0E0],"parents":[2147483647,0,0,1,1,2,2,3,3,4,4,5,5,6,6],"right_children":[2,4,6,8,10,12,14,-1,-1,-1,-1,-1,-1,-1,-1],"split_conditions":[-1.0195456E0,1.4199716E0,-2.1655466E-1,3.0708164E-1,-9.461154E-1,-5.1690835E-1,-3.636234E-2,1.8977247E-1,4.9303655E-2,-9.0068564E-2,7.468904E-3,1.474329E-1,-5.8987476E-3,-8.171762E-3,-1.3614033E-1],"split_indices":[0,6,9,11,1,4,6,0,0,0,0,0,0,0,0],"split_type":[0,0,0,0,0,0,0,0,0,0,0,0,0,0,0],"sum_hessian":[1.5023122E2,2.2888937E1,1.2734228E2,2.0853916E1,2.0350204E0,5.7001656E1,7.034062E1,1.2266318E1,8.587597E0,1.033623E0,1.0013973E0,1.4965455E1,4.2036198E1,3.7367363E1,3.2973263E1],"tree_param":{"num_deleted":"0","num_feature":"12","num_nodes":"15","size_leaf_vector":"1"}}]},"name":"gbtree"},"learner_model_param":{"base_score":"4.950002E-1","boost_from_average":"1","num_class":"0","num_feature":"12","num_target":"1"},"objective":{"name":"binary:logistic","reg_loss_param":{"scale_pos_weight":"1"}}},"version":[2,1,4]}