{"learner":{"attributes":{},"feature_names":[],"feature_types":[],"gradient_booster":{"model":{"gbtree_model_param":{"num_parallel_tree":"1","num_trees":"20"},"iteration_indptr":[0,1,2,3,4,5,6,7,8,9,10,11,12,13,14,15,16,17,18,19,20],"tree_info":[0,0,0,0,0,0,0,0,0,0,0,0,0,0,0,0,0,0,0,0],"trees":[{"base_weights":[4.939841E-7,-5.893107E-1,7.425853E-1,2.8810567E-1,-1.0925097E0,1.1916673E0,-4.3618232E-2,-1.2646522E-1,1.5671605E-1,-4.5245655E-2,-2.9664698E-1,2.813505E-1,-7.9250224E-2,1.8939704E-1,-1.1101061E-1],"categories":[],"categories_nodes":[],"categories_segments":[],"categories_sizes":[],"default_left":[0,0,0,0,0,0,0,0,0,0,0,0,0,0,0],"id":0,"left_children":[1,3,5,7,9,11,13,-1,-1,-1,-1,-1,-1,-1,-1],"loss_changes":[1.1026767E2,6.2341473E1,3.9415367E1,2.4207777E1,2.9955238E1,2.4804207E1,2.154868E1,0E0,0E0,0E0,0E0,0E0,0E0,0E0,0E0],"parents":[2147483647,0,0,1,1,2,2,3,3,4,4,5,5,6,6],"right_children":[2,4,6,8,10,12,14,-1,-1,-1,-1,-1,-1,-1,-1],"split_conditions":[2.5526878E-1,-3.207264E-1,3.3616537E-1,-3.9452547E-1,-4.7477564E-1,1.0490758E0,-6.0271543E-1,-1.2646522E-1,1.5671605E-1,-4.5245655E-2,-2.9664698E-1,2.813505E-1,-7.9250224E-2,1.8939704E-1,-1.1101061E-1],"split_indices":[3,6,6,1,7,7,7,0,0,0,0,0,0,0,0],"split_type":[0,0,0,0,0,0,0,0,0,0,0,0,0,0,0],"sum_hessian":[2.4997499E2,1.3948605E2,1.10488945E2,5.09949E1,8.849115E1,6.9993E1,4.049595E1,1.7748224E1,3.3246674E1,2.79972E1,6.049395E1,6.1743824E1,8.249175E0,1.349865E1,2.69973E1],"tree_param":{"num_deleted":"0","num_feature":"12","num_nodes":"15","size_leaf_vector":"1"}},{"base_weights":[9.785012E-5,-6.027364E-1,5.097747E-1,6.989848E-2,-1.1695212E0,8.3848E-1,-3.0254054E-1,8.540794E-2,-2.153838E-1,-4.4075515E-2,-2.8639764E-1,2.3843144E-1,3.104178E-2,-1.2648623E-1,1.721976E-1],"categories":[],"categories_nodes":[],"categories_segments":[],"categories_sizes":[],"default_left":[0,0,0,0,0,0,0,0,0,0,0,0,0,0,0],"id":1,"left_children":[1,3,5,7,9,11,13,-1,-1,-1,-1,-1,-1,-1,-1],"loss_changes":[7.649104E1,4.356341E1,3.6273552E1,2.2208403E1,1.5118179E1,2.308728E1,1.5743223E1,0E0,0E0,0E0,0E0,0E0,0E0,0E0,0E0],"parents":[2147483647,0,0,1,1,2,2,3,3,4,4,5,5,6,6],"right_children":[2,4,6,8,10,12,14,-1,-1,-1,-1,-1,-1,-1,-1],"split_conditions":[-5.122948E-2,-5.979568E-2,4.79899E-1,7.0547605E-1,-7.7719957E-1,5.005756E-1,1.1802213E0,8.540794E-2,-2.153838E-1,-4.4075515E-2,-2.8639764E-1,2.3843144E-1,3.104178E-2,-1.2648623E-1,1.721976E-1],"split_indices":[3,6,7,7,0,6,3,0,0,0,0,0,0,0,0],"split_type":[0,0,0,0,0,0,0,0,0,0,0,0,0,0,0],"sum_hessian":[2.4695319E2,1.1305349E2,1.3389969E2,5.21001E1,6.0953392E1,9.5302925E1,3.859677E1,4.020661E1,1.1893489E1,1.3602632E1,4.7350758E1,6.230673E1,3.2996197E1,3.0426517E1,8.170253E0],"tree_param":{"num_deleted":"0","num_feature":"12","num_nodes":"15","size_leaf_vector":"1"}},{"base_weights":[-5.98403E-4,-6.792487E-1,3.583378E-1,8.2222784E-1,-8.644293E-1,-7.594707E-1,5.8202744E-1,2.8154713E-1,-7.973603E-2,-2.5000635E-1,-3.9877288E-2,-2.3982897E-1,8.69587E-2,2.4345568E-1,3.8490724E-2],"categories":[],"categories_nodes":[],"categories_segments":[],"categories_sizes":[],"default_left":[0,0,0,0,0,0,0,0,0,0,0,0,0,0,0],"id":2,"left_children":[1,3,5,7,9,11,13,-1,-1,-1,-1,-1,-1,-1,-1],"loss_changes":[5.9353012E1,2.4146835E1,4.0291035E1,7.542989E0,1.9117847E1,1.4702961E1,3.276955E1,0E0,0E0,0E0,0E0,0E0,0E0,0E0,0E0],"parents":[2147483647,0,0,1,1,2,2,3,3,4,4,5,5,6,6],"right_children":[2,4,6,8,10,12,14,-1,-1,-1,-1,-1,-1,-1,-1],"split_conditions":[-3.9452547E-1,-1.2879205E0,-8.946508E-1,1.8812121E-1,2.7660397E-1,7.8214926E-1,-3.7158075E-1,2.8154713E-1,-7.973603E-2,-2.5000635E-1,-3.9877288E-2,-2.3982897E-1,8.69587E-2,2.4345568E-1,3.8490724E-2],"split_indices":[1,6,3,7,4,4,7,0,0,0,0,0,0,0,0],"split_type":[0,0,0,0,0,0,0,0,0,0,0,0,0,0,0],"sum_hessian":[2.4165813E2,8.3288994E1,1.5836913E2,8.766725E0,7.452227E1,2.6008049E1,1.3236108E2,5.82177E0,2.9449549E0,4.66147E1,2.790757E1,1.9006592E1,7.0014563E0,4.9507687E1,8.285339E1],"tree_param":{"num_deleted":"0","num_feature":"12","num_nodes":"15","size_leaf_vector":"1"}},{"base_weights":[-2.0756295E-6,-3.5709625E-1,5.7227296E-1,-6.93585E-1,4.16456E-1,7.714566E-2,9.4185376E-1,9.759791E-3,-1.9098322E-1,1.321473E-1,-1.6531725E-1,9.698244E-2,-1.6932394E-1,2.4673298E-1,3.2657526E-2],"categories":[],"categories_nodes":[],"categories_segments":[],"categories_sizes":[],"default_left":[0,0,0,0,0,0,0,0,0,0,0,0,0,0,0],"id":3,"left_children":[1,3,5,7,9,11,13,-1,-1,-1,-1,-1,-1,-1,-1],"loss_changes":[4.89148E1,3.8653336E1,1.6756926E1,2.0046265E1,1.4302618E1,1.5627594E1,1.1742718E1,0E0,0E0,0E0,0E0,0E0,0E0,0E0,0E0],"parents":[2147483647,0,0,1,1,2,2,3,3,4,4,5,5,6,6],"right_children":[2,4,6,8,10,12,14,-1,-1,-1,-1,-1,-1,-1,-1],"split_conditions":[3.3841774E-1,5.868E-1,-1.7143479E-1,-6.50713E-1,1.1061894E0,3.6052918E-1,6.404192E-1,9.759791E-3,-1.9098322E-1,1.321473E-1,-1.6531725E-1,9.698244E-2,-1.6932394E-1,2.4673298E-1,3.2657526E-2],"split_indices":[4,3,10,7,6,0,6,0,0,0,0,0,0,0,0],"split_type":[0,0,0,0,0,0,0,0,0,0,0,0,0,0,0],"sum_hessian":[2.3736063E2,1.4639041E2,9.0970215E1,1.0208685E2,4.430355E1,3.9397774E1,5.1572445E1,2.679147E1,7.529539E1,3.741857E1,6.8849783E0,2.7662237E1,1.1735537E1,3.7087353E1,1.448509E1],"tree_param":{"num_deleted":"0","num_feature":"12","num_nodes":"15","size_leaf_vector":"1"}},{"base_weights":[1.0914877E-4,3.4231862E-1,-5.258937E-1,-6.4811236E-1,5.498498E-1,-1.1301398E0,-7.289095E-2,-2.2158189E-1,3.302514E-2,5.155843E-2,2.5154406E-1,-2.6620632E-1,-8.352721E-2,-8.335578E-2,1.9771257E-1],"categories":[],"categories_nodes":[],"categories_segments":[],"categories_sizes":[],"default_left":[0,0,0,0,0,0,0,0,0,0,0,0,0,0,0],"id":4,"left_children":[1,3,5,7,9,11,13,-1,-1,-1,-1,-1,-1,-1,-1],"loss_changes":[4.216779E1,2.9528614E1,2.5192081E1,9.548193E0,2.4046223E1,5.0971603E0,2.0065107E1,0E0,0E0,0E0,0E0,0E0,0E0,0E0,0E0],"parents":[2147483647,0,0,1,1,2,2,3,3,4,4,5,5,6,6],"right_children":[2,4,6,8,10,12,14,-1,-1,-1,-1,-1,-1,-1,-1],"split_conditions":[2.889449E-1,-8.946508E-1,-5.427871E-2,4.9111935E-1,5.698114E-1,8.469714E-1,6.9473606E-1,-2.2158189E-1,3.302514E-2,5.155843E-2,2.5154406E-1,-2.6620632E-1,-8.352721E-2,-8.335578E-2,1.9771257E-1],"split_indices":[6,3,3,4,1,4,4,0,0,0,0,0,0,0,0],"split_type":[0,0,0,0,0,0,0,0,0,0,0,0,0,0,0],"sum_hessian":[2.3226129E2,1.409261E2,9.133519E1,2.404582E1,1.1688029E2,3.84942E1,5.2840984E1,1.51294365E1,8.916385E0,8.370778E1,3.317251E1,2.9350632E1,9.14357E0,4.03695E1,1.2471487E1],"tree_param":{"num_deleted":"0","num_feature":"12","num_nodes":"15","size_leaf_vector":"1"}},{"base_weights":[-1.2444142E-3,-5.4180235E-1,2.8528613E-1,2.603323E-1,-6.474263E-1,5.4244244E-1,-3.6595094E-1,-1.6855025E-1,9.511452E-2,5.3693324E-2,2.5876155E-1,-1.1937876E-1,1.9897507E-1],"categories":[],"categories_nodes":[],"categories_segments":[],"categories_sizes":[],"default_left":[0,0,0,0,0,0,0,0,0,0,0,0,0],"id":5,"left_children":[1,3,5,-1,7,9,11,-1,-1,-1,-1,-1,-1],"loss_changes":[3.524005E1,1.6190134E1,2.5101887E1,0E0,1.6899551E1,2.168134E1,1.4011274E1,0E0,0E0,0E0,0E0,0E0,0E0],"parents":[2147483647,0,0,1,1,2,2,4,4,5,5,6,6],"right_children":[2,4,6,-1,8,10,12,-1,-1,-1,-1,-1,-1],"split_conditions":[-3.9452547E-1,-1.8025379E0,6.742075E-1,2.603323E-1,1.244083E0,6.1773765E-1,1.026388E0,-1.6855025E-1,9.511452E-2,5.3693324E-2,2.5876155E-1,-1.1937876E-1,1.9897507E-1],"split_indices":[1,6,6,0,3,10,3,0,0,0,0,0,0],"split_type":[0,0,0,0,0,0,0,0,0,0,0,0,0],"sum_hessian":[2.2552402E2,7.782027E1,1.4770375E2,3.6035564E0,7.421671E1,1.06010185E2,4.1693565E1,6.3433228E1,1.0783485E1,7.8678406E1,2.7331778E1,3.612435E1,5.569211E0],"tree_param":{"num_deleted":"0","num_feature":"12","num_nodes":"13","size_leaf_vector":"1"}},{"base_weights":[2.0076283E-3,5.19215E-1,-2.752199E-1,-4.696512E-1,7.123844E-1,-7.649909E-1,1.0194509E-1,5.1279157E-2,-1.8656816E-1,2.270005E-1,7.742529E-2,-2.1479331E-1,-3.4996945E-2,-6.5099485E-2,1.2205775E-1],"categories":[],"categories_nodes":[],"categories_segments":[],"categories_sizes":[],"default_left":[0,0,0,0,0,0,0,0,0,0,0,0,0,0,0],"id":6,"left_children":[1,3,5,7,9,11,13,-1,-1,-1,-1,-1,-1,-1,-1],"loss_changes":[3.1831144E1,1.5132391E1,2.6777067E1,4.69934E0,8.523724E0,1.1296478E1,1.8132812E1,0E0,0E0,0E0,0E0,0E0,0E0,0E0,0E0],"parents":[2147483647,0,0,1,1,2,2,3,3,4,4,5,5,6,6],"right_children":[2,4,6,8,10,12,14,-1,-1,-1,-1,-1,-1,-1,-1],"split_conditions":[-4.5323625E-1,-9.026697E-1,-1.4716108E-1,-2.386809E-1,-1.0730465E-1,2.9741684E-1,1.4001828E-1,5.1279157E-2,-1.8656816E-1,2.270005E-1,7.742529E-2,-2.1479331E-1,-3.4996945E-2,-6.5099485E-2,1.2205775E-1],"split_indices":[7,3,4,0,6,1,3,0,0,0,0,0,0,0,0],"split_type":[0,0,0,0,0,0,0,0,0,0,0,0,0,0,0],"sum_hessian":[2.2000252E2,7.6467896E1,1.4353462E2,1.2262557E1,6.420534E1,6.199812E1,8.15365E1,4.9499674E0,7.3125896E0,2.6840748E1,3.736459E1,4.015133E1,2.184679E1,4.4488163E1,3.7048332E1],"tree_param":{"num_deleted":"0","num_feature":"12","num_nodes":"15","size_leaf_vector":"1"}},{"base_weights":[2.0146358E-3,5.4443884E-1,-2.2662586E-1,-7.366644E-1,6.832544E-1,-4.0871796E-1,6.205687E-1,6.321984E-2,-2.4603562E-1,1.6970395E-1,-4.699413E-2,-2.4428582E-2,-2.1235731E-1,-8.865806E-2,1.7214252E-1],"categories":[],"categories_nodes":[],"categories_segments":[],"categories_sizes":[],"default_left":[0,0,0,0,0,0,0,0,0,0,0,0,0,0,0],"id":7,"left_children":[1,3,5,7,9,11,13,-1,-1,-1,-1,-1,-1,-1,-1],"loss_changes":[2.6819916E1,1.190694E1,2.3723225E1,3.8959165E0,9.057636E0,2.3418694E1,7.359083E0,0E0,0E0,0E0,0E0,0E0,0E0,0E0,0E0],"parents":[2147483647,0,0,1,1,2,2,3,3,4,4,5,5,6,6],"right_children":[2,4,6,8,10,12,14,-1,-1,-1,-1,-1,-1,-1,-1],"split_conditions":[-5.628379E-1,-1.495646E0,9.39127E-1,-5.650994E-1,1.0490758E0,4.8501512E-1,-1.0841947E0,6.321984E-2,-2.4603562E-1,1.6970395E-1,-4.699413E-2,-2.4428582E-2,-2.1235731E-1,-8.865806E-2,1.7214252E-1],"split_indices":[6,1,3,7,7,0,1,0,0,0,0,0,0,0,0],"split_type":[0,0,0,0,0,0,0,0,0,0,0,0,0,0,0],"sum_hessian":[2.1425964E2,6.3123924E1,1.5113571E2,5.7501416E0,5.737378E1,1.2482415E2,2.6311567E1,1.9499658E0,3.800176E0,4.8686867E1,8.6869135E0,8.757995E1,3.72442E1,4.6897264E0,2.1621841E1],"tree_param":{"num_deleted":"0","num_feature":"12","num_nodes":"15","size_leaf_vector":"1"}},{"base_weights":[1.0621945E-3,-2.5061977E-1,4.5322618E-1,-2.9842813E-2,-8.282232E-1,7.531458E-1,-6.0584325E-2,1.0606165E-1,-6.231463E-2,-1.8718898E-1,1.4554843E-1,9.752427E-2,2.8632665E-1,-1.15285374E-1,8.5646205E-2],"categories":[],"categories_nodes":[],"categories_segments":[],"categories_sizes":[],"default_left":[0,0,0,0,0,0,0,0,0,0,0,0,0,0,0],"id":8,"left_children":[1,3,5,7,9,11,13,-1,-1,-1,-1,-1,-1,-1,-1],"loss_changes":[2.3971558E1,1.7232025E1,1.16527815E1,1.5779135E1,6.947094E0,7.883465E0,7.4803233E0,0E0,0E0,0E0,0E0,0E0,0E0,0E0,0E0],"parents":[2147483647,0,0,1,1,2,2,3,3,4,4,5,5,6,6],"right_children":[2,4,6,8,10,12,14,-1,-1,-1,-1,-1,-1,-1,-1],"split_conditions":[4.388503E-1,5.517203E-1,3.1650692E-1,-3.4522805E-1,1.6859998E0,6.2128913E-1,-4.6572342E-4,1.0606165E-1,-6.231463E-2,-1.8718898E-1,1.4554843E-1,9.752427E-2,2.8632665E-1,-1.15285374E-1,8.5646205E-2],"split_indices":[4,7,0,6,3,10,1,0,0,0,0,0,0,0,0],"split_type":[0,0,0,0,0,0,0,0,0,0,0,0,0,0,0],"sum_hessian":[2.0864545E2,1.3432414E2,7.4321304E1,9.79402E1,3.638394E1,4.6634296E1,2.768701E1,3.247981E1,6.546039E1,3.4400806E1,1.9831358E0,3.4752625E1,1.1881672E1,1.33838825E1,1.4303127E1],"tree_param":{"num_deleted":"0","num_feature":"12","num_nodes":"15","size_leaf_vector":"1"}},{"base_weights":[2.7542433E-3,-3.8895482E-1,2.6892877E-1,-1.1172197E-1,-9.0032995E-1,-3.3661428E-1,5.351375E-1,4.2616554E-2,-1.2320926E-1,-1.9593458E-1,1.2826219E-1,6.3080214E-2,-1.5527405E-1,-7.756326E-2,1.4784282E-1],"categories":[],"categories_nodes":[],"categories_segments":[],"categories_sizes":[],"default_left":[0,0,0,0,0,0,0,0,0,0,0,0,0,0,0],"id":9,"left_children":[1,3,5,7,9,11,13,-1,-1,-1,-1,-1,-1,-1,-1],"loss_changes":[2.1425772E1,1.1686953E1,1.9902842E1,9.150089E0,4.1862545E0,1.113356E1,1.6366947E1,0E0,0E0,0E0,0E0,0E0,0E0,0E0,0E0],"parents":[2147483647,0,0,1,1,2,2,3,3,4,4,5,5,6,6],"right_children":[2,4,6,8,10,12,14,-1,-1,-1,-1,-1,-1,-1,-1],"split_conditions":[-1.87175E-1,2.889449E-1,-6.0016006E-1,3.0502728E-1,1.4987947E0,-2.4935113E-1,-8.1698245E-1,4.2616554E-2,-1.2320926E-1,-1.9593458E-1,1.2826219E-1,6.3080214E-2,-1.5527405E-1,-7.756326E-2,1.4784282E-1],"split_indices":[3,6,10,0,11,6,4,0,0,0,0,0,0,0,0],"split_type":[0,0,0,0,0,0,0,0,0,0,0,0,0,0,0],"sum_hessian":[2.0349417E2,8.2145515E1,1.21348656E2,5.4057617E1,2.8087894E1,3.6975735E1,8.437292E1,3.323224E1,2.082538E1,2.705975E1,1.0281457E0,1.5007404E1,2.196833E1,1.5114766E1,6.9258156E1],"tree_param":{"num_deleted":"0","num_feature":"12","num_nodes":"15","size_leaf_vector":"1"}},{"base_weights":[7.951511E-4,-4.4822067E-1,2.3626629E-1,5.6259036E-1,-5.7871705E-1,3.2383707E-1,-1.0050409E0,2.0327647E-1,-5.909996E-2,2.3927593E-1,-1.3071243E-1,-1.1355861E-2,1.23084225E-1,-2.525805E-1,-8.420543E-3],"categories":[],"categories_nodes":[],"categories_segments":[],"categories_sizes":[],"default_left":[0,0,0,0,0,0,0,0,0,0,0,0,0,0,0],"id":10,"left_children":[1,3,5,7,9,11,13,-1,-1,-1,-1,-1,-1,-1,-1],"loss_changes":[2.114017E1,9.398645E0,1.4582754E1,3.5602546E0,8.9409275E0,1.3715897E1,2.1534739E0,0E0,0E0,0E0,0E0,0E0,0E0,0E0,0E0],"parents":[2147483647,0,0,1,1,2,2,3,3,4,4,5,5,6,6],"right_children":[2,4,6,8,10,12,14,-1,-1,-1,-1,-1,-1,-1,-1],"split_conditions":[-3.9452547E-1,-1.2102666E0,1.5439711E0,1.8812121E-1,-1.9477241E0,-1.4716108E-1,4.3682763E-1,2.0327647E-1,-5.909996E-2,2.3927593E-1,-1.3071243E-1,-1.1355861E-2,1.23084225E-1,-2.525805E-1,-8.420543E-3],"split_indices":[1,6,7,7,7,4,5,0,0,0,0,0,0,0,0],"split_type":[0,0,0,0,0,0,0,0,0,0,0,0,0,0,0],"sum_hessian":[1.9794275E2,6.77837E1,1.3015906E2,7.371752E0,6.0411945E1,1.222722E2,7.8868494E0,4.701135E0,2.6706166E0,1.8378966E0,5.8574047E1,5.338799E1,6.888422E1,5.975251E0,1.9115983E0],"tree_param":{"num_deleted":"0","num_feature":"12","num_nodes":"15","size_leaf_vector":"1"}},{"base_weights":[1.2079325E-3,3.9778435E-1,-2.3900189E-1,-5.1197934E-1,5.85421E-1,-4.7610557E-1,3.3501476E-1,1.808269E-1,-1.4285347E-1,-3.4846902E-2,1.4588727E-1,7.227387E-2,-1.31208E-1,-1.8316136E-1,1.0445733E-1],"categories":[],"categories_nodes":[],"categories_segments":[],"categories_sizes":[],"default_left":[0,0,0,0,0,0,0,0,0,0,0,0,0,0,0],"id":11,"left_children":[1,3,5,7,9,11,13,-1,-1,-1,-1,-1,-1,-1,-1],"loss_changes":[1.868737E1,1.2931579E1,1.6787415E1,4.4230576E0,6.8894825E0,1.3327984E1,8.981384E0,0E0,0E0,0E0,0E0,0E0,0E0,0E0,0E0],"parents":[2147483647,0,0,1,1,2,2,3,3,4,4,5,5,6,6],"right_children":[2,4,6,8,10,12,14,-1,-1,-1,-1,-1,-1,-1,-1],"split_conditions":[-3.7158075E-1,-9.026697E-1,4.448818E-1,-1.3204671E0,-1.1461366E0,-1.0188987E0,-1.2661258E0,1.808269E-1,-1.4285347E-1,-3.4846902E-2,1.4588727E-1,7.227387E-2,-1.31208E-1,-1.8316136E-1,1.0445733E-1],"split_indices":[7,3,1,0,1,6,10,0,0,0,0,0,0,0,0],"split_type":[0,0,0,0,0,0,0,0,0,0,0,0,0,0,0],"sum_hessian":[1.9417105E2,7.299815E1,1.21172905E2,1.2185877E1,6.0812275E1,8.58728E1,3.5300102E1,1.0894758E0,1.10964E1,9.658031E0,5.1154243E1,1.5008745E1,7.086405E1,4.0902653E0,3.1209839E1],"tree_param":{"num_deleted":"0","num_feature":"12","num_nodes":"15","size_leaf_vector":"1"}},{"base_weights":[1.1886711E-3,-1.6651912E-1,5.351497E-1,-3.342353E-1,4.6812734E-1,-1.8265188E-1,8.8251525E-1,8.6189575E-2,-9.938773E-2,-1.1308616E-1,1.370956E-1,-1.7220709E-1,1.1190025E-1,2.2017924E-1,2.0155722E-2],"categories":[],"categories_nodes":[],"categories_segments":[],"categories_sizes":[],"default_left":[0,0,0,0,0,0,0,0,0,0,0,0,0,0,0],"id":12,"left_children":[1,3,5,7,9,11,13,-1,-1,-1,-1,-1,-1,-1,-1],"loss_changes":[1.7145056E1,1.5665203E1,1.1571133E1,1.4634834E1,7.322959E0,8.412169E0,5.1827927E0,0E0,0E0,0E0,0E0,0E0,0E0,0E0,0E0],"parents":[2147483647,0,0,1,1,2,2,3,3,4,4,5,5,6,6],"right_children":[2,4,6,8,10,12,14,-1,-1,-1,-1,-1,-1,-1,-1],"split_conditions":[6.5978354E-1,8.193305E-1,-3.8369966E-1,-1.0188987E0,-1.3632282E0,1.3369957E-1,5.517203E-1,8.6189575E-2,-9.938773E-2,-1.1308616E-1,1.370956E-1,-1.7220709E-1,1.1190025E-1,2.2017924E-1,2.0155722E-2],"split_indices":[10,3,9,6,5,4,7,0,0,0,0,0,0,0,0],"split_type":[0,0,0,0,0,0,0,0,0,0,0,0,0,0,0],"sum_hessian":[1.8946402E2,1.4470337E2,4.476065E1,1.14830734E2,2.9872637E1,1.4751697E1,3.0008953E1,1.9846283E1,9.498445E1,4.912234E0,2.4960403E1,7.6232705E0,7.128426E0,2.3137215E1,6.8717384E0],"tree_param":{"num_deleted":"0","num_feature":"12","num_nodes":"15","size_leaf_vector":"1"}},{"base_weights":[2.6651472E-3,2.2620119E-1,-3.7189275E-1,4.3751296E-1,-3.349674E-1,-6.757119E-1,1.2394134E-1,-1.1501207E-2,1.3664304E-1,8.6485945E-2,-1.394677E-1,-1.7953856E-1,-2.0255104E-2,-9.487185E-2,1.8027036E-1],"categories":[],"categories_nodes":[],"categories_segments":[],"categories_sizes":[],"default_left":[0,0,0,0,0,0,0,0,0,0,0,0,0,0,0],"id":13,"left_children":[1,3,5,7,9,11,13,-1,-1,-1,-1,-1,-1,-1,-1],"loss_changes":[1.5658669E1,1.4034159E1,1.0613903E1,1.0439812E1,9.367873E0,5.4556694E0,1.3173429E1,0E0,0E0,0E0,0E0,0E0,0E0,0E0,0E0],"parents":[2147483647,0,0,1,1,2,2,3,3,4,4,5,5,6,6],"right_children":[2,4,6,8,10,12,14,-1,-1,-1,-1,-1,-1,-1,-1],"split_conditions":[3.0502728E-1,6.742075E-1,4.468066E-1,-3.8267943E-1,-6.0271543E-1,5.616812E-1,7.083642E-3,-1.1501207E-2,1.3664304E-1,8.6485945E-2,-1.394677E-1,-1.7953856E-1,-2.0255104E-2,-9.487185E-2,1.8027036E-1],"split_indices":[0,6,3,11,7,5,1,0,0,0,0,0,0,0,0],"split_type":[0,0,0,0,0,0,0,0,0,0,0,0,0,0,0],"sum_hessian":[1.850154E2,1.1611442E2,6.890097E1,8.451143E1,3.160299E1,4.2497883E1,2.6403086E1,2.828708E1,5.622435E1,1.0074591E1,2.1528399E1,3.0246801E1,1.2251082E1,1.5140597E1,1.1262489E1],"tree_param":{"num_deleted":"0","num_feature":"12","num_nodes":"15","size_leaf_vector":"1"}},{"base_weights":[1.8615256E-3,-2.901223E-1,2.3900223E-1,1.12574965E-1,-5.507796E-1,-1.03088476E-1,5.4447407E-1,-3.4789518E-2,1.3278337E-1,-1.386113E-1,5.8063682E-2,-9.2636436E-2,7.0176326E-2,-7.335485E-2,1.3994466E-1],"categories":[],"categories_nodes":[],"categories_segments":[],"categories_sizes":[],"default_left":[0,0,0,0,0,0,0,0,0,0,0,0,0,0,0],"id":14,"left_children":[1,3,5,7,9,11,13,-1,-1,-1,-1,-1,-1,-1,-1],"loss_changes":[1.2625981E1,8.640525E0,1.0570783E1,5.319684E0,6.158661E0,8.059132E0,7.798998E0,0E0,0E0,0E0,0E0,0E0,0E0,0E0,0E0],"parents":[2147483647,0,0,1,1,2,2,3,3,4,4,5,5,6,6],"right_children":[2,4,6,8,10,12,14,-1,-1,-1,-1,-1,-1,-1,-1],"split_conditions":[-1.0386141E-1,-3.7158075E-1,-5.427871E-2,4.3682763E-1,9.7317934E-1,2.926098E-1,-9.93985E-1,-3.4789518E-2,1.3278337E-1,-1.386113E-1,5.8063682E-2,-9.2636436E-2,7.0176326E-2,-7.335485E-2,1.3994466E-1],"split_indices":[4,7,3,5,1,9,2,0,0,0,0,0,0,0,0],"split_type":[0,0,0,0,0,0,0,0,0,0,0,0,0,0,0],"sum_hessian":[1.8034625E2,8.072666E1,9.961959E1,3.1943819E1,4.8782845E1,4.7305645E1,5.231395E1,2.147049E1,1.047333E1,4.1875378E1,6.907468E0,2.6369108E1,2.0936537E1,7.416965E0,4.4896984E1],"tree_param":{"num_deleted":"0","num_feature":"12","num_nodes":"15","size_leaf_vector":"1"}},{"base_weights":[2.0518107E-3,-3.595174E-1,1.90365E-1,-4.6803883E-1,6.55378E-1,-1.4330311E-1,4.380633E-1,-1.5269259E-1,3.0256265E-3,2.0586812E-1,-1.97843E-3,1.0288463E-1,-7.609209E-2,1.8944274E-1,2.956873E-2],"categories":[],"categories_nodes":[],"categories_segments":[],"categories_sizes":[],"default_left":[0,0,0,0,0,0,0,0,0,0,0,0,0,0,0],"id":15,"left_children":[1,3,5,7,9,11,13,-1,-1,-1,-1,-1,-1,-1,-1],"loss_changes":[1.2153195E1,7.0393E0,9.762319E0,7.9773684E0,1.5829072E0,8.112781E0,9.849319E0,0E0,0E0,0E0,0E0,0E0,0E0,0E0,0E0],"parents":[2147483647,0,0,1,1,2,2,3,3,4,4,5,5,6,6],"right_children":[2,4,6,8,10,12,14,-1,-1,-1,-1,-1,-1,-1,-1],"split_conditions":[-3.9452547E-1,1.3786231E0,-2.5447807E-1,5.431729E-1,9.165425E-2,-6.114756E-1,-3.207264E-1,-1.5269259E-1,3.0256265E-3,2.0586812E-1,-1.97843E-3,1.0288463E-1,-7.609209E-2,1.8944274E-1,2.956873E-2],"split_indices":[1,4,8,3,5,7,6,0,0,0,0,0,0,0,0],"split_type":[0,0,0,0,0,0,0,0,0,0,0,0,0,0,0],"sum_hessian":[1.7648666E2,6.0128426E1,1.1635823E2,5.4806835E1,5.321593E0,4.975542E1,6.660281E1,3.365124E1,2.1155592E1,3.0563185E0,2.2652743E0,1.2876084E1,3.6879337E1,2.335896E1,4.3243855E1],"tree_param":{"num_deleted":"0","num_feature":"12","num_nodes":"15","size_leaf_vector":"1"}},{"base_weights":[3.773785E-3,-1.419203E-1,4.775836E-1,5.9444155E-3,-7.366007E-1,-1.11198574E-1,7.561402E-1,-6.4993575E-2,5.903677E-2,3.2456744E-2,-1.8374813E-1,-1.4012721E-1,1.0469226E-1,2.0053406E-1,2.3019377E-2],"categories":[],"categories_nodes":[],"categories_segments":[],"categories_sizes":[],"default_left":[0,0,0,0,0,0,0,0,0,0,0,0,0,0,0],"id":16,"left_children":[1,3,5,7,9,11,13,-1,-1,-1,-1,-1,-1,-1,-1],"loss_changes":[1.2036421E1,1.1732395E1,6.80917E0,1.041456E1,4.498785E0,5.6193285E0,4.30385E0,0E0,0E0,0E0,0E0,0E0,0E0,0E0,0E0],"parents":[2147483647,0,0,1,1,2,2,3,3,4,4,5,5,6,6],"right_children":[2,4,6,8,10,12,14,-1,-1,-1,-1,-1,-1,-1,-1],"split_conditions":[6.5978354E-1,8.1958383E-1,-3.8369966E-1,-3.361523E-2,-1.1812499E0,1.3369957E-1,7.353561E-1,-6.4993575E-2,5.903677E-2,3.2456744E-2,-1.8374813E-1,-1.4012721E-1,1.0469226E-1,2.0053406E-1,2.3019377E-2],"split_indices":[10,0,9,3,6,4,6,0,0,0,0,0,0,0,0],"split_type":[0,0,0,0,0,0,0,0,0,0,0,0,0,0,0],"sum_hessian":[1.7237996E2,1.3237561E2,4.000435E1,1.0680822E2,2.5567398E1,1.3040848E1,2.6963503E1,4.975786E1,5.705036E1,4.3261757E0,2.1241222E1,6.707413E0,6.3334346E0,1.9066753E1,7.896748E0],"tree_param":{"num_deleted":"0","num_feature":"12","num_nodes":"15","size_leaf_vector":"1"}},{"base_weights":[3.3105812E-3,1.5883467E-1,-4.098802E-1,-9.8026633E-1,2.344857E-1,7.248616E-1,-5.452307E-1,-2.2223976E-2,-2.3973687E-1,9.782489E-2,-1.8270766E-2,1.7570623E-3,2.0670374E-1,-1.3976723E-1,8.7627135E-2],"categories":[],"categories_nodes":[],"categories_segments":[],"categories_sizes":[],"default_left":[0,0,0,0,0,0,0,0,0,0,0,0,0,0,0],"id":17,"left_children":[1,3,5,7,9,11,13,-1,-1,-1,-1,-1,-1,-1,-1],"loss_changes":[1.0986196E1,1.0932192E1,7.576131E0,1.3717308E0,9.774466E0,1.1870439E0,6.7020626E0,0E0,0E0,0E0,0E0,0E0,0E0,0E0,0E0],"parents":[2147483647,0,0,1,1,2,2,3,3,4,4,5,5,6,6],"right_children":[2,4,6,8,10,12,14,-1,-1,-1,-1,-1,-1,-1,-1],"split_conditions":[6.742075E-1,-1.7224133E0,-1.4522945E0,-9.910014E-1,1.4611094E-1,-5.141658E-1,1.0909181E0,-2.2223976E-2,-2.3973687E-1,9.782489E-2,-1.8270766E-2,1.7570623E-3,2.0670374E-1,-1.3976723E-1,8.7627135E-2],"split_indices":[6,10,7,6,0,1,4,0,0,0,0,0,0,0,0],"split_type":[0,0,0,0,0,0,0,0,0,0,0,0,0,0,0],"sum_hessian":[1.6894867E2,1.2319422E2,4.575444E1,6.927467E0,1.16266754E2,4.4117846E0,4.1342655E1,1.6942637E0,5.233203E0,6.498266E1,5.12841E1,1.6386418E0,2.7731428E0,3.6007496E1,5.335162E0],"tree_param":{"num_deleted":"0","num_feature":"12","num_nodes":"15","size_leaf_vector":"1"}},{"base_weights":[2.1811558E-3,2.0739104E-1,-3.0340832E-1,-7.371296E-1,3.0896324E-1,-5.5573225E-1,2.515221E-1,6.3348494E-2,-1.943884E-1,-1.391595E-1,8.543177E-2,-1.6878408E-1,-5.8066016E-3,-1.14793755E-1,9.7649395E-2],"categories":[],"categories_nodes":[],"categories_segments":[],"categories_sizes":[],"default_left":[0,0,0,0,0,0,0,0,0,0,0,0,0,0,0],"id":18,"left_children":[1,3,5,7,9,11,13,-1,-1,-1,-1,-1,-1,-1,-1],"loss_changes":[1.0526188E1,9.861188E0,9.582517E0,2.7936735E0,1.114804E1,7.059476E0,4.5338936E0,0E0,0E0,0E0,0E0,0E0,0E0,0E0,0E0],"parents":[2147483647,0,0,1,1,2,2,3,3,4,4,5,5,6,6],"right_children":[2,4,6,8,10,12,14,-1,-1,-1,-1,-1,-1,-1,-1],"split_conditions":[2.2106476E-1,-1.2468877E0,4.1821393E-1,-1.1618602E0,-1.3209473E0,2.4994403E-1,-6.4349157E-1,6.3348494E-2,-1.943884E-1,-1.391595E-1,8.543177E-2,-1.6878408E-1,-5.8066016E-3,-1.14793755E-1,9.7649395E-2],"split_indices":[7,3,1,6,9,10,4,0,0,0,0,0,0,0,0],"split_type":[0,0,0,0,0,0,0,0,0,0,0,0,0,0,0],"sum_hessian":[1.6585164E2,9.941421E1,6.643743E1,9.045241E0,9.0368965E1,4.5670055E1,2.0767376E1,1.584565E0,7.460676E0,8.997333E0,8.1371635E1,2.9129375E1,1.654068E1,4.310716E0,1.645666E1],"tree_param":{"num_deleted":"0","num_feature":"12","num_nodes":"15","size_leaf_vector":"1"}},{"base_weights":[-1.1440751E-3,-1.5394248E-1,3.9757377E-1,-3.1920183E-1,2.7149957E-1,-4.2295814E-1,5.5787086E-1,-1.01647034E-1,4.2093482E-2,-1.0589967E-1,1.0135608E-1,1.1602795E-1,-1.4697067E-1,1.3297492E-1,-1.421082E-1],"categories":[],"categories_nodes":[],"categories_segments":[],"categories_sizes":[],"default_left":[0,0,0,0,0,0,0,0,0,0,0,0,0,0,0],"id":19,"left_children":[1,3,5,7,9,11,13,-1,-1,-1,-1,-1,-1,-1,-1],"loss_changes":[1.0020615E1,8.446619E0,6.229714E0,8.727568E0,6.6393976E0,2.934301E0,5.705104E0,0E0,0E0,0E0,0E0,0E0,0E0,0E0,0E0],"parents":[2147483647,0,0,1,1,2,2,3,3,4,4,5,5,6,6],"right_children":[2,4,6,8,10,12,14,-1,-1,-1,-1,-1,-1,-1,-1],"split_conditions":[5.41665E-1,5.202314E-1,-9.4707036E-1,5.077934E-1,-7.88326E-1,-1.9275062E0,1.2477177E0,-1.01647034E-1,4.2093482E-2,-1.0589967E-1,1.0135608E-1,1.1602795E-1,-1.4697067E-1,1.3297492E-1,-1.421082E-1],"split_indices":[2,1,5,8,3,5,0,0,0,0,0,0,0,0,0],"split_type":[0,0,0,0,0,0,0,0,0,0,0,0,0,0,0],"sum_hessian":[1.6247418E2,1.1790428E2,4.4569893E1,8.509829E1,3.2805992E1,7.016273E0,3.755362E1,6.2745544E1,2.2352747E1,7.1644855E0,2.5641508E1,1.4601581E0,5.556115E0,3.507085E1,2.4827702E0],"tree_param":{"num_deleted":"0","num_feature":"12","num_nodes":"15","size_leaf_vector":"1"}}]},"name":"gbtree"},"learner_model_param":{"base_score":"5.049999E-1","boost_from_average":"1","num_class":"0","num_feature":"12","num_target":"1"},"objective":{"name":"binary:logistic","reg_loss_param":{"scale_pos_weight":"1"}}},"version":[2,1,4]}