{"learner":{"attributes":{},"feature_names":[],"feature_types":[],"gradient_booster":{"model":{"gbtree_model_param":{"num_parallel_tree":"1","num_trees":"20"},"iteration_indptr":[0,1,2,3,4,5,6,7,8,9,10,11,12,13,14,15,16,17,18,19,20],"tree_info":[0,0,0,0,0,0,0,0,0,0,0,0,0,0,0,0,0,0,0,0],"trees":[{"base_weights":[-4.930798E-5,8.776176E-1,-4.6282327E-1,-5.936094E-2,1.4944583E0,-1.0186658E0,3.8637936E-1,-1.7875199E-1,1.4246002E-1,3.6567652E-1,1.9163889E-1,-8.1414886E-2,-2.9089963E-1,2.5210404E-1,-4.0840056E-2],"categories":[],"categories_nodes":[],"categories_segments":[],"categories_sizes":[],"default_left":[0,0,0,0,0,0,0,0,0,0,0,0,0,0,0],"id":0,"left_children":[1,3,5,7,9,11,13,-1,-1,-1,-1,-1,-1,-1,-1],"loss_changes":[1.0217378E2,5.028421E1,7.8140976E1,2.3454983E1,7.6330643E0,2.6016533E1,3.427076E1,0E0,0E0,0E0,0E0,0E0,0E0,0E0,0E0],"parents":[2147483647,0,0,1,1,2,2,3,3,4,4,5,5,6,6],"right_children":[2,4,6,8,10,12,14,-1,-1,-1,-1,-1,-1,-1,-1],"split_conditions":[-3.452157E-1,-2.4019493E-1,2.393803E-1,-1.8180911E-1,1.2035462E-1,-2.0153861E-1,-2.7183425E-1,-1.7875199E-1,1.4246002E-1,3.6567652E-1,1.9163889E-1,-8.1414886E-2,-2.9089963E-1,2.5210404E-1,-4.0840056E-2],"split_indices":[4,10,7,5,2,2,0,0,0,0,0,0,0,0,0],"split_type":[0,0,0,0,0,0,0,0,0,0,0,0,0,0,0],"sum_hessian":[2.4955951E2,8.584847E1,1.6371103E2,3.4439213E1,5.140926E1,9.882556E1,6.4885475E1,1.6470928E1,1.7968285E1,3.0196701E1,2.1212559E1,4.1926E1,5.6899567E1,2.570463E1,3.9180843E1],"tree_param":{"num_deleted":"0","num_feature":"12","num_nodes":"15","size_leaf_vector":"1"}},{"base_weights":[5.572033E-4,-3.9723617E-1,7.0465595E-1,-7.654347E-1,3.8126448E-1,1.1323111E0,-2.0414656E-1,4.225178E-2,-2.234329E-1,2.1389906E-1,-5.396046E-2,2.9898298E-1,1.05387025E-1,9.6865825E-2,-1.633231E-1],"categories":[],"categories_nodes":[],"categories_segments":[],"categories_sizes":[],"default_left":[0,0,0,0,0,0,0,0,0,0,0,0,0,0,0],"id":1,"left_children":[1,3,5,7,9,11,13,-1,-1,-1,-1,-1,-1,-1,-1],"loss_changes":[6.959361E1,4.580282E1,3.5093662E1,3.738009E1,2.3431406E1,1.2635384E1,1.2856145E1,0E0,0E0,0E0,0E0,0E0,0E0,0E0,0E0],"parents":[2147483647,0,0,1,1,2,2,3,3,4,4,5,5,6,6],"right_children":[2,4,6,8,10,12,14,-1,-1,-1,-1,-1,-1,-1,-1],"split_conditions":[2.969882E-1,4.3909365E-1,5.219682E-1,-5.3039795E-1,4.0825393E-2,2.3782289E-1,9.0148434E-2,4.225178E-2,-2.234329E-1,2.1389906E-1,-5.396046E-2,2.9898298E-1,1.05387025E-1,9.6865825E-2,-1.633231E-1],"split_indices":[10,7,4,4,0,2,0,0,0,0,0,0,0,0,0],"split_type":[0,0,0,0,0,0,0,0,0,0,0,0,0,0,0],"sum_hessian":[2.4647305E2,1.5777246E2,8.870059E1,1.0712402E2,5.0648438E1,6.0149914E1,2.855068E1,2.846922E1,7.865481E1,2.4309074E1,2.6339363E1,3.6698883E1,2.3451033E1,1.3539812E1,1.5010869E1],"tree_param":{"num_deleted":"0","num_feature":"12","num_nodes":"15","size_leaf_vector":"1"}},{"base_weights":[1.2334648E-3,6.2341964E-1,-3.295456E-1,-6.5588206E-2,1.0910236E0,4.469739E-1,-6.5143186E-1,-9.9022456E-2,2.2175074E-1,-7.468391E-2,2.3612761E-1,-1.3491625E-1,1.6501282E-1,-2.2385202E-1,-2.5229743E-2],"categories":[],"categories_nodes":[],"categories_segments":[],"categories_sizes":[],"default_left":[0,0,0,0,0,0,0,0,0,0,0,0,0,0,0],"id":2,"left_children":[1,3,5,7,9,11,13,-1,-1,-1,-1,-1,-1,-1,-1],"loss_changes":[5.0048798E1,2.7266933E1,3.997743E1,1.8238108E1,7.0473404E0,2.0538696E1,2.7542645E1,0E0,0E0,0E0,0E0,0E0,0E0,0E0,0E0],"parents":[2147483647,0,0,1,1,2,2,3,3,4,4,5,5,6,6],"right_children":[2,4,6,8,10,12,14,-1,-1,-1,-1,-1,-1,-1,-1],"split_conditions":[-3.452157E-1,-2.4019493E-1,-5.635943E-1,5.616812E-1,-1.5640699E0,-6.930502E-1,1.7342258E-2,-9.9022456E-2,2.2175074E-1,-7.468391E-2,2.3612761E-1,-1.3491625E-1,1.6501282E-1,-2.2385202E-1,-2.5229743E-2],"split_indices":[4,10,0,5,9,7,7,0,0,0,0,0,0,0,0],"split_type":[0,0,0,0,0,0,0,0,0,0,0,0,0,0,0],"sum_hessian":[2.4118593E2,8.340977E1,1.5777615E2,3.4069126E1,4.9340645E1,4.6122204E1,1.1165395E2,2.5368723E1,8.700402E0,2.6625965E0,4.6678047E1,1.143061E1,3.4691593E1,5.845866E1,5.3195293E1],"tree_param":{"num_deleted":"0","num_feature":"12","num_nodes":"15","size_leaf_vector":"1"}},{"base_weights":[1.0190124E-3,5.1361907E-1,-3.8217714E-1,-2.4419601E-1,7.862919E-1,1.992944E-1,-7.8236675E-1,-1.5781406E-1,1.179504E-1,-1.6753929E-2,2.1649174E-1,-4.1289296E-2,2.130401E-1,-1.9198886E-1,2.1390412E-2],"categories":[],"categories_nodes":[],"categories_segments":[],"categories_sizes":[],"default_left":[0,0,0,0,0,0,0,0,0,0,0,0,0,0,0],"id":3,"left_children":[1,3,5,7,9,11,13,-1,-1,-1,-1,-1,-1,-1,-1],"loss_changes":[4.6407486E1,2.1075426E1,3.1615778E1,1.2963594E1,1.9303265E1,1.9863522E1,1.2781357E1,0E0,0E0,0E0,0E0,0E0,0E0,0E0,0E0],"parents":[2147483647,0,0,1,1,2,2,3,3,4,4,5,5,6,6],"right_children":[2,4,6,8,10,12,14,-1,-1,-1,-1,-1,-1,-1,-1],"split_conditions":[-2.0485121E-1,-6.728773E-1,-2.6503414E-1,2.4994403E-1,-7.029045E-1,4.8707682E-1,9.7040254E-1,-1.5781406E-1,1.179504E-1,-1.6753929E-2,2.1649174E-1,-4.1289296E-2,2.130401E-1,-1.9198886E-1,2.1390412E-2],"split_indices":[2,5,0,10,7,7,10,0,0,0,0,0,0,0,0],"split_type":[0,0,0,0,0,0,0,0,0,0,0,0,0,0,0],"sum_hessian":[2.3425958E2,1.00063995E2,1.3419559E2,2.650512E1,7.3558876E1,5.4911587E1,7.9284004E1,1.6063543E1,1.0441577E1,1.8862602E1,5.4696274E1,3.7909687E1,1.7001902E1,6.602153E1,1.326247E1],"tree_param":{"num_deleted":"0","num_feature":"12","num_nodes":"15","size_leaf_vector":"1"}},{"base_weights":[1.2755061E-3,-4.5086336E-1,3.6193308E-1,5.023531E-1,-6.313451E-1,6.641219E-1,-3.2380182E-1,-1.6954413E-1,1.849693E-1,1.3893953E-1,-1.5658425E-1,8.1852384E-2,2.6910767E-1,-1.4212023E-1,8.184497E-2],"categories":[],"categories_nodes":[],"categories_segments":[],"categories_sizes":[],"default_left":[0,0,0,0,0,0,0,0,0,0,0,0,0,0,0],"id":4,"left_children":[1,3,5,7,9,11,13,-1,-1,-1,-1,-1,-1,-1,-1],"loss_changes":[3.7648216E1,1.7941818E1,2.6828152E1,1.0404367E1,1.7946209E1,1.4987564E1,1.16197605E1,0E0,0E0,0E0,0E0,0E0,0E0,0E0,0E0],"parents":[2147483647,0,0,1,1,2,2,3,3,4,4,5,5,6,6],"right_children":[2,4,6,8,10,12,14,-1,-1,-1,-1,-1,-1,-1,-1],"split_conditions":[-1.9380325E-1,-9.4306165E-1,5.952388E-1,-6.819524E-1,-1.254726E0,5.137834E-1,2.4257031E-1,-1.6954413E-1,1.849693E-1,1.3893953E-1,-1.5658425E-1,8.1852384E-2,2.6910767E-1,-1.4212023E-1,8.184497E-2],"split_indices":[10,4,4,5,2,7,5,0,0,0,0,0,0,0,0],"split_type":[0,0,0,0,0,0,0,0,0,0,0,0,0,0,0],"sum_hessian":[2.288746E2,1.0144625E2,1.27428345E2,1.5866059E1,8.558019E1,8.847209E1,3.8956257E1,3.5418007E0,1.2324259E1,8.411367E0,7.716882E1,6.5554375E1,2.291772E1,2.5520395E1,1.3435861E1],"tree_param":{"num_deleted":"0","num_feature":"12","num_nodes":"15","size_leaf_vector":"1"}},{"base_weights":[2.3955442E-3,3.7527758E-1,-3.859453E-1,-3.2424548E-1,6.9569093E-1,1.1797496E-1,-7.502111E-1,-1.7111477E-1,3.7285354E-2,-3.4851178E-3,1.9473869E-1,-1.3239993E-1,1.0387154E-1,2.4129489E-1,-1.6428551E-1],"categories":[],"categories_nodes":[],"categories_segments":[],"categories_sizes":[],"default_left":[0,0,0,0,0,0,0,0,0,0,0,0,0,0,0],"id":5,"left_children":[1,3,5,7,9,11,13,-1,-1,-1,-1,-1,-1,-1,-1],"loss_changes":[3.2645916E1,2.600338E1,2.0360485E1,1.0147964E1,1.571764E1,1.5120776E1,9.942326E0,0E0,0E0,0E0,0E0,0E0,0E0,0E0,0E0],"parents":[2147483647,0,0,1,1,2,2,3,3,4,4,5,5,6,6],"right_children":[2,4,6,8,10,12,14,-1,-1,-1,-1,-1,-1,-1,-1],"split_conditions":[6.564687E-2,-4.886435E-1,-2.7190366E-1,-4.3175235E-2,-6.4197177E-1,-5.2710915E-1,-1.7411336E0,-1.7111477E-1,3.7285354E-2,-3.4851178E-3,1.9473869E-1,-1.3239993E-1,1.0387154E-1,2.4129489E-1,-1.6428551E-1],"split_indices":[0,5,2,10,7,9,4,0,0,0,0,0,0,0,0],"split_type":[0,0,0,0,0,0,0,0,0,0,0,0,0,0,0],"sum_hessian":[2.2344675E2,1.1400939E2,1.0943735E2,3.581233E1,7.819706E1,4.620044E1,6.323691E1,1.7220201E1,1.8592127E1,2.2196684E1,5.6000378E1,1.5476639E1,3.07238E1,1.6609521E0,6.1575962E1],"tree_param":{"num_deleted":"0","num_feature":"12","num_nodes":"15","size_leaf_vector":"1"}},{"base_weights":[2.0449439E-3,2.0992567E-1,-6.011759E-1,4.540065E-1,-4.8634622E-1,-8.074649E-1,3.3374327E-1,1.4785561E-2,1.7755483E-1,2.4948504E-2,-1.8882357E-1,-1.9538922E-2,-2.3771322E-1,-1.699372E-1,1.752299E-1],"categories":[],"categories_nodes":[],"categories_segments":[],"categories_sizes":[],"default_left":[0,0,0,0,0,0,0,0,0,0,0,0,0,0,0],"id":6,"left_children":[1,3,5,7,9,11,13,-1,-1,-1,-1,-1,-1,-1,-1],"loss_changes":[2.7576057E1,2.8013826E1,1.1139683E1,1.9983389E1,1.21274395E1,1.2452763E1,7.7384458E0,0E0,0E0,0E0,0E0,0E0,0E0,0E0,0E0],"parents":[2147483647,0,0,1,1,2,2,3,3,4,4,5,5,6,6],"right_children":[2,4,6,8,10,12,14,-1,-1,-1,-1,-1,-1,-1,-1],"split_conditions":[6.1395526E-1,7.3165226E-1,9.297923E-1,1.7342258E-2,-1.8245885E-1,-3.6423895E-1,-1.3918714E-1,1.4785561E-2,1.7755483E-1,2.4948504E-2,-1.8882357E-1,-1.9538922E-2,-2.3771322E-1,-1.699372E-1,1.752299E-1],"split_indices":[2,4,10,7,0,6,3,0,0,0,0,0,0,0,0],"split_type":[0,0,0,0,0,0,0,0,0,0,0,0,0,0,0],"sum_hessian":[2.1790187E2,1.6253975E2,5.536212E1,1.2060807E2,4.1931683E1,4.5466347E1,9.895778E0,6.490608E1,5.5701984E1,1.8270077E1,2.3661604E1,1.6322798E1,2.9143549E1,2.9320595E0,6.9637184E0],"tree_param":{"num_deleted":"0","num_feature":"12","num_nodes":"15","size_leaf_vector":"1"}},{"base_weights":[-1.8116503E-4,-3.4858358E-1,3.385188E-1,3.4911427E-1,-5.232458E-1,-1.3296002E-2,7.820983E-1,-2.5101021E-2,2.3021701E-1,2.8921533E-2,-1.4415765E-1,1.5318127E-1,-7.438212E-2,2.203903E-1,1.0774984E-2],"categories":[],"categories_nodes":[],"categories_segments":[],"categories_sizes":[],"default_left":[0,0,0,0,0,0,0,0,0,0,0,0,0,0,0],"id":7,"left_children":[1,3,5,7,9,11,13,-1,-1,-1,-1,-1,-1,-1,-1],"loss_changes":[2.5359962E1,1.3092232E1,1.7016262E1,8.446093E0,1.1334877E1,1.7541275E1,1.1171431E1,0E0,0E0,0E0,0E0,0E0,0E0,0E0,0E0],"parents":[2147483647,0,0,1,1,2,2,3,3,4,4,5,5,6,6],"right_children":[2,4,6,8,10,12,14,-1,-1,-1,-1,-1,-1,-1,-1],"split_conditions":[-4.3175235E-2,-8.2774776E-1,6.2032983E-2,4.1519952E-1,-8.211991E-1,-4.6991736E-1,5.316231E-1,-2.5101021E-2,2.3021701E-1,2.8921533E-2,-1.4415765E-1,1.5318127E-1,-7.438212E-2,2.203903E-1,1.0774984E-2],"split_indices":[10,2,5,9,6,0,6,0,0,0,0,0,0,0,0],"split_type":[0,0,0,0,0,0,0,0,0,0,0,0,0,0,0],"sum_hessian":[2.129079E2,1.0493635E2,1.0797155E2,2.0810173E1,8.4126175E1,6.0755085E1,4.7216465E1,1.3603126E1,7.207048E0,1.9264503E1,6.486167E1,1.8790693E1,4.196439E1,3.2450306E1,1.4766161E1],"tree_param":{"num_deleted":"0","num_feature":"12","num_nodes":"15","size_leaf_vector":"1"}},{"base_weights":[1.9492406E-3,5.1676357E-1,-2.1978047E-1,6.8688625E-1,-8.374503E-1,-4.7949508E-1,3.3097458E-1,-5.066482E-2,1.695372E-1,1.1057814E-1,-2.5362194E-1,-2.0473032E-1,-3.6109105E-2,1.067724E-1,-1.3992208E-1],"categories":[],"categories_nodes":[],"categories_segments":[],"categories_sizes":[],"default_left":[0,0,0,0,0,0,0,0,0,0,0,0,0,0,0],"id":8,"left_children":[1,3,5,7,9,11,13,-1,-1,-1,-1,-1,-1,-1,-1],"loss_changes":[2.4045666E1,1.5184521E1,2.1220098E1,8.814991E0,5.2085E0,1.6158672E1,1.0362968E1,0E0,0E0,0E0,0E0,0E0,0E0,0E0,0E0],"parents":[2147483647,0,0,1,1,2,2,3,3,4,4,5,5,6,6],"right_children":[2,4,6,8,10,12,14,-1,-1,-1,-1,-1,-1,-1,-1],"split_conditions":[-4.8114878E-1,1.2907289E0,4.3909365E-1,-1.2398565E0,-7.688741E-1,-4.262233E-1,1.2780578E0,-5.066482E-2,1.695372E-1,1.1057814E-1,-2.5362194E-1,-2.0473032E-1,-3.6109105E-2,1.067724E-1,-1.3992208E-1],"split_indices":[4,0,7,10,1,5,4,0,0,0,0,0,0,0,0],"split_type":[0,0,0,0,0,0,0,0,0,0,0,0,0,0,0],"sum_hessian":[2.0865543E2,6.2413204E1,1.4624222E2,5.58854E1,6.527805E0,9.9466896E1,4.6775322E1,8.077886E0,4.7807514E1,1.4766768E0,5.051128E0,3.4409527E1,6.505737E1,3.9484196E1,7.291126E0],"tree_param":{"num_deleted":"0","num_feature":"12","num_nodes":"15","size_leaf_vector":"1"}},{"base_weights":[-1.6012996E-4,-3.7344542E-1,2.6977262E-1,2.9010993E-1,-6.487676E-1,1.0211428E-1,1.0415953E0,1.4805116E-1,-8.282331E-2,-3.8505376E-3,-1.7112091E-1,5.1031232E-2,-1.6013025E-1,-1.1176922E-1,2.3742111E-1],"categories":[],"categories_nodes":[],"categories_segments":[],"categories_sizes":[],"default_left":[0,0,0,0,0,0,0,0,0,0,0,0,0,0,0],"id":9,"left_children":[1,3,5,7,9,11,13,-1,-1,-1,-1,-1,-1,-1,-1],"loss_changes":[2.0601254E1,1.5863377E1,1.5247719E1,8.50172E0,7.9195576E0,1.3825245E1,5.5692863E0,0E0,0E0,0E0,0E0,0E0,0E0,0E0,0E0],"parents":[2147483647,0,0,1,1,2,2,3,3,4,4,5,5,6,6],"right_children":[2,4,6,8,10,12,14,-1,-1,-1,-1,-1,-1,-1,-1],"split_conditions":[-2.7929497E-1,-4.9237642E-1,9.469019E-1,1.2035462E-1,-5.2540964E-1,1.0423698E0,-1.5089748E0,1.4805116E-1,-8.282331E-2,-3.8505376E-3,-1.7112091E-1,5.1031232E-2,-1.6013025E-1,-1.1176922E-1,2.3742111E-1],"split_indices":[8,0,5,2,4,2,7,0,0,0,0,0,0,0,0],"split_type":[0,0,0,0,0,0,0,0,0,0,0,0,0,0,0],"sum_hessian":[2.0245493E2,8.480126E1,1.1765366E2,2.4851889E1,5.994937E1,9.75876E1,2.0066057E1,1.5129719E1,9.72217E0,1.5096318E1,4.4853054E1,8.405542E1,1.3532185E1,1.4355955E0,1.863046E1],"tree_param":{"num_deleted":"0","num_feature":"12","num_nodes":"15","size_leaf_vector":"1"}},{"base_weights":[-9.40516E-4,-8.201279E-1,1.17424056E-1,1.7493181E-1,-9.56935E-1,-4.696934E-1,3.1992283E-1,-2.2122362E-1,-1.4003088E-2,-2.449113E-1,1.815155E-2,1.3196968E-1,-1.0103873E-2],"categories":[],"categories_nodes":[],"categories_segments":[],"categories_sizes":[],"default_left":[0,0,0,0,0,0,0,0,0,0,0,0,0],"id":10,"left_children":[1,3,5,-1,7,9,11,-1,-1,-1,-1,-1,-1],"loss_changes":[1.9417824E1,6.6989574E0,2.0954329E1,0E0,3.0810852E0,1.9267654E1,1.6492012E1,0E0,0E0,0E0,0E0,0E0,0E0],"parents":[2147483647,0,0,1,1,2,2,4,4,5,5,6,6],"right_children":[2,4,6,-1,8,10,12,-1,-1,-1,-1,-1,-1],"split_conditions":[-1.1797076E0,-1.6280617E0,-6.930502E-1,1.7493181E-1,1.1036351E0,-1.2786444E-1,2.9002871E-2,-2.2122362E-1,-1.4003088E-2,-2.449113E-1,1.815155E-2,1.3196968E-1,-1.0103873E-2],"split_indices":[5,2,7,0,10,9,6,0,0,0,0,0,0],"split_type":[0,0,0,0,0,0,0,0,0,0,0,0,0],"sum_hessian":[1.9826744E2,2.4282469E1,1.7398497E2,1.410881E0,2.2871588E1,4.4280434E1,1.2970453E2,1.9366865E1,3.5047228E0,1.8362846E1,2.5917585E1,6.723085E1,6.2473686E1],"tree_param":{"num_deleted":"0","num_feature":"12","num_nodes":"13","size_leaf_vector":"1"}},{"base_weights":[-3.0262591E-3,-2.3905551E-1,3.9710093E-1,8.914984E-2,-5.7247627E-1,8.932768E-1,6.054472E-2,8.679097E-2,-6.8688504E-2,-1.8847996E-1,-2.9584581E-2,3.7160195E-2,2.2231615E-1,4.95586E-2,-1.7280065E-1],"categories":[],"categories_nodes":[],"categories_segments":[],"categories_sizes":[],"default_left":[0,0,0,0,0,0,0,0,0,0,0,0,0,0,0],"id":11,"left_children":[1,3,5,7,9,11,13,-1,-1,-1,-1,-1,-1,-1,-1],"loss_changes":[1.8568003E1,1.3582523E1,1.21277685E1,9.572892E0,9.51527E0,4.335739E0,7.9246483E0,0E0,0E0,0E0,0E0,0E0,0E0,0E0,0E0],"parents":[2147483647,0,0,1,1,2,2,3,3,4,4,5,5,6,6],"right_children":[2,4,6,8,10,12,14,-1,-1,-1,-1,-1,-1,-1,-1],"split_conditions":[2.642133E-1,6.564687E-2,-2.7190366E-1,1.5985174E-1,1.8812121E-1,-6.205931E-1,9.357069E-1,8.679097E-2,-6.8688504E-2,-1.8847996E-1,-2.9584581E-2,3.7160195E-2,2.2231615E-1,4.95586E-2,-1.7280065E-1],"split_indices":[10,0,2,4,7,9,4,0,0,0,0,0,0,0,0],"split_type":[0,0,0,0,0,0,0,0,0,0,0,0,0,0,0],"sum_hessian":[1.9460287E2,1.22653755E2,7.194913E1,6.2179493E1,6.047426E1,2.8410343E1,4.3538788E1,3.4598797E1,2.7580698E1,3.1664486E1,2.8809772E1,7.135814E0,2.1274529E1,3.6814705E1,6.7240806E0],"tree_param":{"num_deleted":"0","num_feature":"12","num_nodes":"15","size_leaf_vector":"1"}},{"base_weights":[-3.0585383E-3,2.9598287E-1,-2.8717744E-1,-3.3484015E-1,5.02893E-1,-5.1688176E-1,2.0635983E-1,-1.4604247E-1,1.1616625E-1,-1.7808123E-2,1.521221E-1,-8.497505E-3,-1.5477256E-1,-4.788558E-2,1.09954715E-1],"categories":[],"categories_nodes":[],"categories_segments":[],"categories_sizes":[],"default_left":[0,0,0,0,0,0,0,0,0,0,0,0,0,0,0],"id":12,"left_children":[1,3,5,7,9,11,13,-1,-1,-1,-1,-1,-1,-1,-1],"loss_changes":[1.6289251E1,1.2360939E1,1.1251613E1,8.994162E0,1.0859299E1,8.18026E0,5.020959E0,0E0,0E0,0E0,0E0,0E0,0E0,0E0,0E0],"parents":[2147483647,0,0,1,1,2,2,3,3,4,4,5,5,6,6],"right_children":[2,4,6,8,10,12,14,-1,-1,-1,-1,-1,-1,-1,-1],"split_conditions":[-6.362944E-2,-7.729654E-1,4.623376E-1,5.517203E-1,-5.4633E-1,-3.5729262E-1,-2.1829098E-1,-1.4604247E-1,1.1616625E-1,-1.7808123E-2,1.521221E-1,-8.497505E-3,-1.5477256E-1,-4.788558E-2,1.09954715E-1],"split_indices":[2,10,8,7,9,4,5,0,0,0,0,0,0,0,0],"split_type":[0,0,0,0,0,0,0,0,0,0,0,0,0,0,0],"sum_hessian":[1.8972058E2,9.241257E1,9.730801E1,2.2672096E1,6.974047E1,6.637033E1,3.0937675E1,1.5976319E1,6.6957784E0,2.1352308E1,4.838816E1,2.3729794E1,4.2640537E1,1.3594006E1,1.734367E1],"tree_param":{"num_deleted":"0","num_feature":"12","num_nodes":"15","size_leaf_vector":"1"}},{"base_weights":[-2.921483E-3,1.7304201E-1,-4.4359326E-1,-2.8074148E-1,4.0860897E-1,4.1415018E-1,-6.0863733E-1,7.8205466E-2,-1.1322228E-1,9.641503E-2,-2.3492685E-1,-1.425747E-1,1.705112E-1,-1.811003E-1,-3.5917297E-2],"categories":[],"categories_nodes":[],"categories_segments":[],"categories_sizes":[],"default_left":[0,0,0,0,0,0,0,0,0,0,0,0,0,0,0],"id":13,"left_children":[1,3,5,7,9,11,13,-1,-1,-1,-1,-1,-1,-1,-1],"loss_changes":[1.4533317E1,1.443381E1,7.823243E0,9.110151E0,1.0870061E1,5.1659126E0,5.6017E0,0E0,0E0,0E0,0E0,0E0,0E0,0E0,0E0],"parents":[2147483647,0,0,1,1,2,2,3,3,4,4,5,5,6,6],"right_children":[2,4,6,8,10,12,14,-1,-1,-1,-1,-1,-1,-1,-1],"split_conditions":[5.952388E-1,-4.750487E-1,-1.143564E0,-3.6010003E-1,1.7533841E0,-7.236156E-1,2.9997027E-1,7.8205466E-2,-1.1322228E-1,9.641503E-2,-2.3492685E-1,-1.425747E-1,1.705112E-1,-1.811003E-1,-3.5917297E-2],"split_indices":[4,8,0,2,0,9,7,0,0,0,0,0,0,0,0],"split_type":[0,0,0,0,0,0,0,0,0,0,0,0,0,0,0],"sum_hessian":[1.8543483E2,1.3295302E2,5.24818E1,4.5367584E1,8.758544E1,8.225271E0,4.425653E1,1.3415907E1,3.1951675E1,8.4366165E1,3.2192717E0,2.128195E0,6.097076E0,2.5501406E1,1.8755125E1],"tree_param":{"num_deleted":"0","num_feature":"12","num_nodes":"15","size_leaf_vector":"1"}},{"base_weights":[-5.2561644E-3,-1.2519118E-1,6.033511E-1,1.918117E-1,-3.804391E-1,-1.6951412E-1,8.764953E-1,-1.331464E-1,7.133728E-2,-1.1567817E-1,5.0589126E-2,-1.1384489E-1,1.6150436E-1,-1.02764845E-1,2.0512052E-1],"categories":[],"categories_nodes":[],"categories_segments":[],"categories_sizes":[],"default_left":[0,0,0,0,0,0,0,0,0,0,0,0,0,0,0],"id":14,"left_children":[1,3,5,7,9,11,13,-1,-1,-1,-1,-1,-1,-1,-1],"loss_changes":[1.3404175E1,1.2482692E1,6.5307007E0,1.0003596E1,1.0840548E1,3.869962E0,5.191326E0,0E0,0E0,0E0,0E0,0E0,0E0,0E0,0E0],"parents":[2147483647,0,0,1,1,2,2,3,3,4,4,5,5,6,6],"right_children":[2,4,6,8,10,12,14,-1,-1,-1,-1,-1,-1,-1,-1],"split_conditions":[9.469019E-1,-1.5817599E-1,-6.402432E-1,-9.8982894E-1,7.2251314E-1,5.070043E-1,-1.5089748E0,-1.331464E-1,7.133728E-2,-1.1567817E-1,5.0589126E-2,-1.1384489E-1,1.6150436E-1,-1.02764845E-1,2.0512052E-1],"split_indices":[5,0,3,7,7,10,7,0,0,0,0,0,0,0,0],"split_type":[0,0,0,0,0,0,0,0,0,0,0,0,0,0,0],"sum_hessian":[1.8160081E2,1.5236864E2,2.9232182E1,6.807367E1,8.429496E1,7.732464E0,2.1499718E1,1.0487654E1,5.7586014E1,6.428941E1,2.0005545E1,5.783714E0,1.9487501E0,1.8455235E0,1.9654194E1],"tree_param":{"num_deleted":"0","num_feature":"12","num_nodes":"15","size_leaf_vector":"1"}},{"base_weights":[-4.1744467E-3,-5.1417315E-1,1.399282E-1,2.520349E-2,-8.4032184E-1,-3.516554E-1,3.401415E-1,-1.31015E-1,7.042048E-2,1.359544E-1,-1.9775389E-1,1.3920626E-3,-1.485375E-1,1.1931763E-1,-3.0703247E-2],"categories":[],"categories_nodes":[],"categories_segments":[],"categories_sizes":[],"default_left":[0,0,0,0,0,0,0,0,0,0,0,0,0,0,0],"id":15,"left_children":[1,3,5,7,9,11,13,-1,-1,-1,-1,-1,-1,-1,-1],"loss_changes":[1.3211766E1,6.9880104E0,1.391725E1,3.7652264E0,6.2477894E0,5.7635684E0,1.2767127E1,0E0,0E0,0E0,0E0,0E0,0E0,0E0,0E0],"parents":[2147483647,0,0,1,1,2,2,3,3,4,4,5,5,6,6],"right_children":[2,4,6,8,10,12,14,-1,-1,-1,-1,-1,-1,-1,-1],"split_conditions":[-8.426811E-1,-3.6512783E-1,-5.7553595E-1,-4.9129194E-1,-1.544211E0,2.296743E-1,5.316231E-1,-1.31015E-1,7.042048E-2,1.359544E-1,-1.9775389E-1,1.3920626E-3,-1.485375E-1,1.1931763E-1,-3.0703247E-2],"split_indices":[10,4,5,8,2,4,6,0,0,0,0,0,0,0,0],"split_type":[0,0,0,0,0,0,0,0,0,0,0,0,0,0,0],"sum_hessian":[1.777921E2,3.860295E1,1.3918915E2,1.4894131E1,2.370882E1,4.0063896E1,9.912526E1,4.508341E0,1.038579E1,1.7909019E0,2.191792E1,2.141051E1,1.8653387E1,6.509897E1,3.402629E1],"tree_param":{"num_deleted":"0","num_feature":"12","num_nodes":"15","size_leaf_vector":"1"}},{"base_weights":[-5.4318625E-3,-9.734644E-2,7.93563E-1,-8.469431E-1,1.9869223E-2,1.43043E-1,1.202437E0,1.0158612E-1,-2.0370148E-1,-2.3410417E-2,1.5477379E-1,1.5974142E-1,-6.953852E-2,2.9487202E-2,2.7085242E-1],"categories":[],"categories_nodes":[],"categories_segments":[],"categories_sizes":[],"default_left":[0,0,0,0,0,0,0,0,0,0,0,0,0,0,0],"id":16,"left_children":[1,3,5,7,9,11,13,-1,-1,-1,-1,-1,-1,-1,-1],"loss_changes":[1.2925994E1,1.3881656E1,4.658081E0,5.4827223E0,1.4279344E1,2.8980036E0,1.5647974E0,0E0,0E0,0E0,0E0,0E0,0E0,0E0,0E0],"parents":[2147483647,0,0,1,1,2,2,3,3,4,4,5,5,6,6],"right_children":[2,4,6,8,10,12,14,-1,-1,-1,-1,-1,-1,-1,-1],"split_conditions":[1.2182214E0,-1.0731523E0,-3.2676938E-1,-1.1250921E0,1.0062511E0,-2.9722872E-1,-8.620659E-1,1.0158612E-1,-2.0370148E-1,-2.3410417E-2,1.5477379E-1,1.5974142E-1,-6.953852E-2,2.9487202E-2,2.7085242E-1],"split_indices":[9,7,5,4,8,2,10,0,0,0,0,0,0,0,0],"split_type":[0,0,0,0,0,0,0,0,0,0,0,0,0,0,0],"sum_hessian":[1.7395738E2,1.5679788E2,1.7159512E1,2.0361317E1,1.3643655E2,7.143703E0,1.0015809E1,2.0681534E0,1.8293163E1,1.1618322E2,2.025334E1,2.7893393E0,4.3543634E0,1.5080147E0,8.507794E0],"tree_param":{"num_deleted":"0","num_feature":"12","num_nodes":"15","size_leaf_vector":"1"}},{"base_weights":[-2.1170694E-3,-5.53097E-1,1.24330804E-1,-6.5720224E-1,1.6071981E-1,2.4362466E-1,-5.494185E-1,-2.268185E-2,-1.8558942E-1,7.4539624E-2,-8.578704E-2,-1.6679035E-1,3.638292E-2],"categories":[],"categories_nodes":[],"categories_segments":[],"categories_sizes":[],"default_left":[0,0,0,0,0,0,0,0,0,0,0,0,0],"id":17,"left_children":[1,3,5,7,-1,9,11,-1,-1,-1,-1,-1,-1],"loss_changes":[1.2079908E1,5.099118E0,1.1469531E1,4.4010315E0,0E0,1.0621614E1,4.6303267E0,0E0,0E0,0E0,0E0,0E0,0E0],"parents":[2147483647,0,0,1,1,2,2,3,3,5,5,6,6],"right_children":[2,4,6,8,-1,10,12,-1,-1,-1,-1,-1,-1],"split_conditions":[-9.4116724E-1,1.549991E0,1.0423698E0,-5.1426375E-1,1.6071981E-1,9.931254E-1,5.028915E-1,-2.268185E-2,-1.8558942E-1,7.4539624E-2,-8.578704E-2,-1.6679035E-1,3.638292E-2],"split_indices":[9,10,2,6,0,4,5,0,0,0,0,0,0],"split_type":[0,0,0,0,0,0,0,0,0,0,0,0,0],"sum_hessian":[1.7139987E2,3.136349E1,1.4003638E2,2.9607187E1,1.7563024E0,1.1951372E2,2.0522657E1,1.0312778E1,1.9294409E1,1.0064451E2,1.8869211E1,1.4673466E1,5.849191E0],"tree_param":{"num_deleted":"0","num_feature":"12","num_nodes":"13","size_leaf_vector":"1"}},{"base_weights":[-3.5249165E-3,-2.0416334E-1,3.415825E-1,4.2580146E-1,-3.3209032E-1,6.1254126E-1,-3.4450132E-2,1.5303437E-1,-5.6692343E-2,-1.131159E-1,1.837543E-2,-1.3652252E-1,1.4309902E-1,1.2508357E-1,-6.367259E-2],"categories":[],"categories_nodes":[],"categories_segments":[],"categories_sizes":[],"default_left":[0,0,0,0,0,0,0,0,0,0,0,0,0,0,0],"id":18,"left_children":[1,3,5,7,9,11,13,-1,-1,-1,-1,-1,-1,-1,-1],"loss_changes":[1.1831024E1,8.848074E0,6.4218802E0,4.711816E0,8.997175E0,5.364004E0,5.3053875E0,0E0,0E0,0E0,0E0,0E0,0E0,0E0,0E0],"parents":[2147483647,0,0,1,1,2,2,3,3,4,4,5,5,6,6],"right_children":[2,4,6,8,10,12,14,-1,-1,-1,-1,-1,-1,-1,-1],"split_conditions":[2.642133E-1,-1.0294203E0,2.3782289E-1,5.907343E-1,4.3909365E-1,-1.8270227E0,-4.143085E-1,1.5303437E-1,-5.6692343E-2,-1.131159E-1,1.837543E-2,-1.3652252E-1,1.4309902E-1,1.2508357E-1,-6.367259E-2],"split_indices":[10,0,2,6,7,11,4,0,0,0,0,0,0,0,0],"split_type":[0,0,0,0,0,0,0,0,0,0,0,0,0,0,0],"sum_hessian":[1.6885815E2,1.0703726E2,6.1820885E1,1.7674131E1,8.936314E1,3.5564865E1,2.625602E1,1.1900918E1,5.773214E0,5.7411316E1,3.1951817E1,2.2043238E0,3.3360542E1,7.5366173E0,1.8719402E1],"tree_param":{"num_deleted":"0","num_feature":"12","num_nodes":"15","size_leaf_vector":"1"}},{"base_weights":[-2.2546677E-3,-2.4349186E-1,2.7188233E-1,-3.5840583E-1,7.7300143E-1,1.0371518E-1,8.615635E-1,3.9040174E-2,-1.13549605E-1,2.276979E-1,-8.659831E-2,-7.336127E-2,8.4386334E-2,1.2164141E-2,2.369558E-1],"categories":[],"categories_nodes":[],"categories_segments":[],"categories_sizes":[],"default_left":[0,0,0,0,0,0,0,0,0,0,0,0,0,0,0],"id":19,"left_children":[1,3,5,7,9,11,13,-1,-1,-1,-1,-1,-1,-1,-1],"loss_changes":[1.1030718E1,1.0640159E1,7.6533623E0,9.4275465E0,4.604358E0,9.42144E0,4.3766623E0,0E0,0E0,0E0,0E0,0E0,0E0,0E0,0E0],"parents":[2147483647,0,0,1,1,2,2,3,3,4,4,5,5,6,6],"right_children":[2,4,6,8,10,12,14,-1,-1,-1,-1,-1,-1,-1,-1],"split_conditions":[2.0096545E-1,1.2928094E0,7.056192E-1,-5.1426375E-1,1.2199159E0,-2.956147E-1,-9.086935E-1,3.9040174E-2,-1.13549605E-1,2.276979E-1,-8.659831E-2,-7.336127E-2,8.4386334E-2,1.2164141E-2,2.369558E-1],"split_indices":[3,7,5,6,4,10,7,0,0,0,0,0,0,0,0],"split_type":[0,0,0,0,0,0,0,0,0,0,0,0,0,0,0],"sum_hessian":[1.6479736E2,8.771821E1,7.7079155E1,7.939056E1,8.327646E0,6.089018E1,1.6188972E1,2.180216E1,5.7588398E1,6.4337955E0,1.8938513E0,2.4504549E1,3.638563E1,4.997128E0,1.1191844E1],"tree_param":{"num_deleted":"0","num_feature":"12","num_nodes":"15","size_leaf_vector":"1"}}]},"name":"gbtree"},"learner_model_param":{"base_score":"4.7901234E-1","boost_from_average":"1","num_class":"0","num_feature":"12","num_target":"1"},"objective":{"name":"binary:logistic","reg_loss_param":{"scale_pos_weight":"1"}}},"version":[2,1,4]}