{"learner":{"attributes":{},"feature_names":[],"feature_types":[],"gradient_booster":{"model":{"gbtree_model_param":{"num_parallel_tree":"1","num_trees":"20"},"iteration_indptr":[0,1,2,3,4,5,6,7,8,9,10,11,12,13,14,15,16,17,18,19,20],"tree_info":[0,0,0,0,0,0,0,0,0,0,0,0,0,0,0,0,0,0,0,0],"trees":[{"base_weights":[5.1293444E-8,7.110174E-1,-4.9555746E-1,-5.3445095E-1,1.0835543E0,-1.1659967E0,1.8435364E-3,2.851437E-1,-1.6440062E-1,-1.1567602E-2,2.808139E-1,-2.8863665E-1,6.439094E-2,-1.3090171E-1,1.1943654E-1],"categories":[],"categories_nodes":[],"categories_segments":[],"categories_sizes":[],"default_left":[0,0,0,0,0,0,0,0,0,0,0,0,0,0,0],"id":0,"left_children":[1,3,5,7,9,11,13,-1,-1,-1,-1,-1,-1,-1,-1],"loss_changes":[8.879184E1,4.8601154E1,4.95233E1,1.49813385E1,2.9347786E1,2.6551376E1,3.4093098E1,0E0,0E0,0E0,0E0,0E0,0E0,0E0,0E0],"parents":[2147483647,0,0,1,1,2,2,3,3,4,4,5,5,6,6],"right_children":[2,4,6,8,10,12,14,-1,-1,-1,-1,-1,-1,-1,-1],"split_conditions":[-2.1612678E-1,-8.945722E-1,-2.5637618E-1,-1.061065E0,-7.312932E-1,1.1600094E0,-1.2654229E-1,2.851437E-1,-1.6440062E-1,-1.1567602E-2,2.808139E-1,-2.8863665E-1,6.439094E-2,-1.3090171E-1,1.1943654E-1],"split_indices":[6,8,5,9,5,3,8,0,0,0,0,0,0,0,0],"split_type":[0,0,0,0,0,0,0,0,0,0,0,0,0,0,0],"sum_hessian":[2.4999901E2,1.0249959E2,1.474994E2,2.3499907E1,7.899969E1,6.2249752E1,8.524966E1,2.49999E0,2.0999916E1,1.749993E1,6.1499756E1,5.249979E1,9.749961E0,4.049984E1,4.474982E1],"tree_param":{"num_deleted":"0","num_feature":"12","num_nodes":"15","size_leaf_vector":"1"}},{"base_weights":[6.8422937E-4,-4.4632676E-1,5.909849E-1,-1.0552412E0,-7.987461E-3,1.3276869E-1,1.1875805E0,-2.6779065E-1,-3.6819957E-2,5.0608892E-2,-2.5983408E-1,-1.8395898E-1,1.1257529E-1,2.8572106E-1,5.5054795E-2],"categories":[],"categories_nodes":[],"categories_segments":[],"categories_sizes":[],"default_left":[0,0,0,0,0,0,0,0,0,0,0,0,0,0,0],"id":1,"left_children":[1,3,5,7,9,11,13,-1,-1,-1,-1,-1,-1,-1,-1],"loss_changes":[6.575388E1,3.7841347E1,2.9197685E1,1.4421318E1,2.8457958E1,2.8523304E1,9.8364105E0,0E0,0E0,0E0,0E0,0E0,0E0,0E0,0E0],"parents":[2147483647,0,0,1,1,2,2,3,3,4,4,5,5,6,6],"right_children":[2,4,6,8,10,12,14,-1,-1,-1,-1,-1,-1,-1,-1],"split_conditions":[2.7654815E-1,-2.5266078E-1,8.6754635E-2,4.7265252E-1,9.716049E-1,-5.513342E-1,9.100929E-1,-2.6779065E-1,-3.6819957E-2,5.0608892E-2,-2.5983408E-1,-1.8395898E-1,1.1257529E-1,2.8572106E-1,5.5054795E-2],"split_indices":[3,5,5,8,6,8,6,0,0,0,0,0,0,0,0],"split_type":[0,0,0,0,0,0,0,0,0,0,0,0,0,0,0],"sum_hessian":[2.4718999E2,1.4080666E2,1.0638333E2,5.8347073E1,8.245958E1,6.0861275E1,4.5522057E1,4.3607906E1,1.4739164E1,6.926138E1,1.31982E1,1.7324959E1,4.3536316E1,3.556113E1,9.960926E0],"tree_param":{"num_deleted":"0","num_feature":"12","num_nodes":"15","size_leaf_vector":"1"}},{"base_weights":[-6.939887E-4,5.640203E-1,-3.913806E-1,-3.6728847E-1,8.4518415E-1,-1.0204644E0,-5.230494E-2,1.0657734E-1,-1.8082577E-1,-9.252614E-2,2.0717418E-1,-2.5016734E-1,1.097122E-1,8.435317E-2,-1.1477444E-1],"categories":[],"categories_nodes":[],"categories_segments":[],"categories_sizes":[],"default_left":[0,0,0,0,0,0,0,0,0,0,0,0,0,0,0],"id":2,"left_children":[1,3,5,7,9,11,13,-1,-1,-1,-1,-1,-1,-1,-1],"loss_changes":[5.411524E1,2.6574406E1,3.0871456E1,1.205868E1,1.9767807E1,1.901986E1,2.3795225E1,0E0,0E0,0E0,0E0,0E0,0E0,0E0,0E0],"parents":[2147483647,0,0,1,1,2,2,3,3,4,4,5,5,6,6],"right_children":[2,4,6,8,10,12,14,-1,-1,-1,-1,-1,-1,-1,-1],"split_conditions":[-2.1612678E-1,-8.945722E-1,-4.505346E-1,-3.310667E-1,-1.1983274E0,1.1472166E0,4.60207E-2,1.0657734E-1,-1.8082577E-1,-9.252614E-2,2.0717418E-1,-2.5016734E-1,1.097122E-1,8.435317E-2,-1.1477444E-1],"split_indices":[6,8,8,10,3,5,1,0,0,0,0,0,0,0,0],"split_type":[0,0,0,0,0,0,0,0,0,0,0,0,0,0,0],"sum_hessian":[2.4327953E2,9.930148E1,1.4397804E2,2.2956282E1,7.63452E1,4.972122E1,9.425683E1,8.578761E0,1.437752E1,9.533574E0,6.681162E1,4.3532364E1,6.1888523E0,4.9476894E1,4.4779938E1],"tree_param":{"num_deleted":"0","num_feature":"12","num_nodes":"15","size_leaf_vector":"1"}},{"base_weights":[-1.2065149E-3,-4.566829E-1,3.9131412E-1,-5.860213E-1,1.1693972E0,-1.9507201E-2,9.132882E-1,-4.090741E-2,-2.2200687E-1,2.7995402E-1,8.577826E-3,8.634291E-2,-1.3343173E-1,2.1195579E-1,-9.473643E-2],"categories":[],"categories_nodes":[],"categories_segments":[],"categories_sizes":[],"default_left":[0,0,0,0,0,0,0,0,0,0,0,0,0,0,0],"id":3,"left_children":[1,3,5,7,9,11,13,-1,-1,-1,-1,-1,-1,-1,-1],"loss_changes":[4.2930767E1,2.4061447E1,2.7675716E1,2.0487938E1,2.1518803E0,2.1665829E1,1.2047726E1,0E0,0E0,0E0,0E0,0E0,0E0,0E0,0E0],"parents":[2147483647,0,0,1,1,2,2,3,3,4,4,5,5,6,6],"right_children":[2,4,6,8,10,12,14,-1,-1,-1,-1,-1,-1,-1,-1],"split_conditions":[-3.9715864E-2,1.403961E0,8.6754635E-2,2.832776E-1,8.375432E-1,2.3666084E-1,1.4199716E0,-4.090741E-2,-2.2200687E-1,2.7995402E-1,8.577826E-3,8.634291E-2,-1.3343173E-1,2.1195579E-1,-9.473643E-2],"split_indices":[3,5,5,4,4,6,6,0,0,0,0,0,0,0,0],"split_type":[0,0,0,0,0,0,0,0,0,0,0,0,0,0,0],"sum_hessian":[2.3812703E2,1.1014851E2,1.27978516E2,1.0262531E2,7.5232053E0,7.215294E1,5.5825573E1,6.0194057E1,4.2431255E1,6.0445166E0,1.4786885E0,4.2721848E1,2.9431093E1,5.070595E1,5.119622E0],"tree_param":{"num_deleted":"0","num_feature":"12","num_nodes":"15","size_leaf_vector":"1"}},{"base_weights":[-5.0027702E-5,-4.8297802E-1,3.3755258E-1,-6.882162E-1,6.2654424E-1,6.4355975E-1,-2.7474147E-1,1.666901E-1,-1.6328637E-1,1.9969688E-1,-1.3106005E-1,2.0467293E-1,2.7991093E-3,2.2612682E-1,-1.1053528E-1],"categories":[],"categories_nodes":[],"categories_segments":[],"categories_sizes":[],"default_left":[0,0,0,0,0,0,0,0,0,0,0,0,0,0,0],"id":4,"left_children":[1,3,5,7,9,11,13,-1,-1,-1,-1,-1,-1,-1,-1],"loss_changes":[3.839677E1,2.2496588E1,2.6147657E1,1.6727337E1,8.115568E0,2.2156078E1,1.894027E1,0E0,0E0,0E0,0E0,0E0,0E0,0E0,0E0],"parents":[2147483647,0,0,1,1,2,2,3,3,4,4,5,5,6,6],"right_children":[2,4,6,8,10,12,14,-1,-1,-1,-1,-1,-1,-1,-1],"split_conditions":[-3.0366054E-1,1.0069767E0,5.801971E-1,-1.6651797E0,1.0401789E0,3.728443E-1,-1.0408652E0,1.666901E-1,-1.6328637E-1,1.9969688E-1,-1.3106005E-1,2.0467293E-1,2.7991093E-3,2.2612682E-1,-1.1053528E-1],"split_indices":[8,5,6,6,6,9,1,0,0,0,0,0,0,0,0],"split_type":[0,0,0,0,0,0,0,0,0,0,0,0,0,0,0],"sum_hessian":[2.3350851E2,9.589857E1,1.3760995E2,8.124894E1,1.464962E1,9.1719894E1,4.5890064E1,5.886571E0,7.536237E1,1.1526226E1,3.1233947E0,5.6817432E1,3.490246E1,7.070443E0,3.8819622E1],"tree_param":{"num_deleted":"0","num_feature":"12","num_nodes":"15","size_leaf_vector":"1"}},{"base_weights":[2.0011277E-3,-2.687543E-1,5.173109E-1,-6.5473974E-1,1.3887501E-1,-2.5323692E-1,7.775347E-1,-6.658246E-2,-2.4257527E-1,1.0346953E-1,-1.073398E-1,-1.3392423E-1,1.5828441E-1,1.8199532E-1,-1.3913198E-1],"categories":[],"categories_nodes":[],"categories_segments":[],"categories_sizes":[],"default_left":[0,0,0,0,0,0,0,0,0,0,0,0,0,0,0],"id":5,"left_children":[1,3,5,7,9,11,13,-1,-1,-1,-1,-1,-1,-1,-1],"loss_changes":[3.2049644E1,2.3784895E1,1.6061745E1,1.3521442E1,1.9215683E1,9.546518E0,1.2221115E1,0E0,0E0,0E0,0E0,0E0,0E0,0E0,0E0],"parents":[2147483647,0,0,1,1,2,2,3,3,4,4,5,5,6,6],"right_children":[2,4,6,8,10,12,14,-1,-1,-1,-1,-1,-1,-1,-1],"split_conditions":[4.6151763E-1,5.7542506E-3,-7.167733E-1,4.4557357E-1,3.9873284E-1,4.8870856E-1,1.4455588E0,-6.658246E-2,-2.4257527E-1,1.0346953E-1,-1.073398E-1,-1.3392423E-1,1.5828441E-1,1.8199532E-1,-1.3913198E-1],"split_indices":[3,5,0,4,9,5,6,0,0,0,0,0,0,0,0],"split_type":[0,0,0,0,0,0,0,0,0,0,0,0,0,0,0],"sum_hessian":[2.2771234E2,1.4959186E2,7.812049E1,7.652443E1,7.306743E1,1.9728718E1,5.8391773E1,4.9549904E1,2.6974525E1,4.698149E1,2.6085938E1,1.4362902E1,5.3658156E0,5.392607E1,4.465702E0],"tree_param":{"num_deleted":"0","num_feature":"12","num_nodes":"15","size_leaf_vector":"1"}},{"base_weights":[4.5752144E-4,-1.9396004E-1,7.1678066E-1,-6.461959E-1,1.2446591E-1,-3.3203137E-1,1.0255708E0,7.269207E-3,-2.0032708E-1,1.1980476E-1,-5.4919656E-2,1.0453933E-1,-1.8903981E-1,2.8561226E-1,8.605208E-2],"categories":[],"categories_nodes":[],"categories_segments":[],"categories_sizes":[],"default_left":[0,0,0,0,0,0,0,0,0,0,0,0,0,0,0],"id":6,"left_children":[1,3,5,7,9,11,13,-1,-1,-1,-1,-1,-1,-1,-1],"loss_changes":[3.1297873E1,2.553481E1,1.5877653E1,1.7794165E1,1.9966936E1,6.6088057E0,8.324593E0,0E0,0E0,0E0,0E0,0E0,0E0,0E0,0E0],"parents":[2147483647,0,0,1,1,2,2,3,3,4,4,5,5,6,6],"right_children":[2,4,6,8,10,12,14,-1,-1,-1,-1,-1,-1,-1,-1],"split_conditions":[7.559924E-1,-2.641544E-1,-7.462141E-1,-4.766411E-1,-1.10301994E-1,-6.4909264E-2,2.9797354E-1,7.269207E-3,-2.0032708E-1,1.1980476E-1,-5.4919656E-2,1.0453933E-1,-1.8903981E-1,2.8561226E-1,8.605208E-2],"split_indices":[8,5,3,6,1,9,6,0,0,0,0,0,0,0,0],"split_type":[0,0,0,0,0,0,0,0,0,0,0,0,0,0,0],"sum_hessian":[2.2273653E2,1.7576208E2,4.6974438E1,7.219697E1,1.03565125E2,1.0667336E1,3.63071E1,2.5030071E1,4.7166893E1,4.7078907E1,5.6486217E1,4.517581E0,6.149756E0,2.0827044E1,1.5480057E1],"tree_param":{"num_deleted":"0","num_feature":"12","num_nodes":"15","size_leaf_vector":"1"}},{"base_weights":[1.2317727E-3,1.8961856E-1,-6.3382894E-1,9.2783E-1,-1.0716478E-2,-8.353911E-1,5.010604E-1,-1.4690845E-1,2.0506234E-1,7.44848E-2,-8.484232E-2,-2.343018E-1,-1.4365342E-2,1.9231783E-1,-6.3256346E-2],"categories":[],"categories_nodes":[],"categories_segments":[],"categories_sizes":[],"default_left":[0,0,0,0,0,0,0,0,0,0,0,0,0,0,0],"id":7,"left_children":[1,3,5,7,9,11,13,-1,-1,-1,-1,-1,-1,-1,-1],"loss_changes":[2.6212122E1,2.4998465E1,1.1884724E1,6.599596E0,2.1369652E1,1.0936352E1,3.3850021E0,0E0,0E0,0E0,0E0,0E0,0E0,0E0,0E0],"parents":[2147483647,0,0,1,1,2,2,3,3,4,4,5,5,6,6],"right_children":[2,4,6,8,10,12,14,-1,-1,-1,-1,-1,-1,-1,-1],"split_conditions":[7.677104E-1,-8.211991E-1,1.0667977E0,-1.5873764E0,-8.9859525E-3,4.385296E-1,1.9026814E-1,-1.4690845E-1,2.0506234E-1,7.44848E-2,-8.484232E-2,-2.343018E-1,-1.4365342E-2,1.9231783E-1,-6.3256346E-2],"split_indices":[4,6,8,3,10,0,10,0,0,0,0,0,0,0,0],"split_type":[0,0,0,0,0,0,0,0,0,0,0,0,0,0,0],"sum_hessian":[2.1709244E2,1.6796738E2,4.9125053E1,3.507792E1,1.3288947E2,4.1940166E1,7.184887E0,1.5810387E0,3.349688E1,6.902806E1,6.3861397E1,2.8750187E1,1.318998E1,4.482663E0,2.702224E0],"tree_param":{"num_deleted":"0","num_feature":"12","num_nodes":"15","size_leaf_vector":"1"}},{"base_weights":[8.4316044E-4,-5.449588E-1,1.980517E-1,6.5974414E-1,-6.875731E-1,6.5888286E-1,-9.31314E-2,2.451077E-1,1.2169774E-2,-1.8562363E-1,1.2282002E-2,-6.4841576E-2,1.7176802E-1,5.4053206E-2,-1.1671641E-1],"categories":[],"categories_nodes":[],"categories_segments":[],"categories_sizes":[],"default_left":[0,0,0,0,0,0,0,0,0,0,0,0,0,0,0],"id":8,"left_children":[1,3,5,7,9,11,13,-1,-1,-1,-1,-1,-1,-1,-1],"loss_changes":[2.316352E1,1.0267048E1,2.1273445E1,2.1470618E0,9.346668E0,1.2335016E1,1.7578941E1,0E0,0E0,0E0,0E0,0E0,0E0,0E0,0E0],"parents":[2147483647,0,0,1,1,2,2,3,3,4,4,5,5,6,6],"right_children":[2,4,6,8,10,12,14,-1,-1,-1,-1,-1,-1,-1,-1],"split_conditions":[-6.8321836E-1,-1.2487218E0,-3.7158075E-1,-2.7227977E-1,7.595287E-1,-1.0113838E0,3.1102255E-1,2.451077E-1,1.2169774E-2,-1.8562363E-1,1.2282002E-2,-6.4841576E-2,1.7176802E-1,5.4053206E-2,-1.1671641E-1],"split_indices":[8,10,7,9,5,5,6,0,0,0,0,0,0,0,0],"split_type":[0,0,0,0,0,0,0,0,0,0,0,0,0,0,0],"sum_hessian":[2.1319801E2,5.6118618E1,1.5707939E2,5.5563645E0,5.0562252E1,6.0332855E1,9.6746544E1,2.319105E0,3.2372596E0,3.809001E1,1.2472241E1,1.0092357E1,5.02405E1,5.582912E1,4.091742E1],"tree_param":{"num_deleted":"0","num_feature":"12","num_nodes":"15","size_leaf_vector":"1"}},{"base_weights":[8.5825915E-4,3.2338712E-1,-3.4707206E-1,5.8281857E-1,-1.302442E-1,-5.7921284E-1,4.4721666E-1,-2.4536233E-2,1.6711552E-1,1.466826E-1,-8.5597605E-2,-1.6032988E-1,5.5214763E-2,-8.935749E-2,1.5153912E-1],"categories":[],"categories_nodes":[],"categories_segments":[],"categories_sizes":[],"default_left":[0,0,0,0,0,0,0,0,0,0,0,0,0,0,0],"id":9,"left_children":[1,3,5,7,9,11,13,-1,-1,-1,-1,-1,-1,-1,-1],"loss_changes":[2.3581581E1,1.2909617E1,1.8898918E1,1.2506098E1,1.0726546E1,1.5186865E1,6.841267E0,0E0,0E0,0E0,0E0,0E0,0E0,0E0,0E0],"parents":[2147483647,0,0,1,1,2,2,3,3,4,4,5,5,6,6],"right_children":[2,4,6,8,10,12,14,-1,-1,-1,-1,-1,-1,-1,-1],"split_conditions":[7.994683E-2,2.2765435E-1,7.550182E-1,-6.819524E-1,-8.512733E-1,7.117494E-1,-6.728773E-1,-2.4536233E-2,1.6711552E-1,1.466826E-1,-8.5597605E-2,-1.6032988E-1,5.5214763E-2,-8.935749E-2,1.5153912E-1],"split_indices":[9,10,2,5,1,8,5,0,0,0,0,0,0,0,0],"split_type":[0,0,0,0,0,0,0,0,0,0,0,0,0,0,0],"sum_hessian":[2.0814143E2,1.0805022E2,1.0009122E2,6.8557465E1,3.9492752E1,7.766379E1,2.2427431E1,1.8219086E1,5.033838E1,9.749478E0,2.9743275E1,6.1684147E1,1.5979638E1,5.667938E0,1.6759493E1],"tree_param":{"num_deleted":"0","num_feature":"12","num_nodes":"15","size_leaf_vector":"1"}},{"base_weights":[1.6790545E-3,-2.8109708E-1,3.5750642E-1,-1.1564507E-1,-1.0256847E0,-4.1502625E-1,5.560505E-1,-5.1016796E-2,1.8501163E-1,1.1619269E-1,-2.3025756E-1,4.9950503E-2,-1.9230515E-1,1.7853396E-1,2.8338632E-2],"categories":[],"categories_nodes":[],"categories_segments":[],"categories_sizes":[],"default_left":[0,0,0,0,0,0,0,0,0,0,0,0,0,0,0],"id":10,"left_children":[1,3,5,7,9,11,13,-1,-1,-1,-1,-1,-1,-1,-1],"loss_changes":[2.0744535E1,1.4033784E1,1.4232996E1,1.4039339E1,4.857992E0,7.2291684E0,1.0062922E1,0E0,0E0,0E0,0E0,0E0,0E0,0E0,0E0],"parents":[2147483647,0,0,1,1,2,2,3,3,4,4,5,5,6,6],"right_children":[2,4,6,8,10,12,14,-1,-1,-1,-1,-1,-1,-1,-1],"split_conditions":[2.2558343E-1,9.716049E-1,-8.3179283E-1,1.2336868E0,-1.5387137E0,8.0855995E-2,2.2036664E-1,-5.1016796E-2,1.8501163E-1,1.1619269E-1,-2.3025756E-1,4.9950503E-2,-1.9230515E-1,1.7853396E-1,2.8338632E-2],"split_indices":[3,6,2,5,4,4,6,0,0,0,0,0,0,0,0],"split_type":[0,0,0,0,0,0,0,0,0,0,0,0,0,0,0],"sum_hessian":[2.041694E2,1.1387941E2,9.028999E1,9.412055E1,1.9758858E1,1.8237549E1,7.2052444E1,8.3665504E1,1.0455051E1,1.1698148E0,1.8589045E1,8.473328E0,9.76422E0,3.9118584E1,3.2933857E1],"tree_param":{"num_deleted":"0","num_feature":"12","num_nodes":"15","size_leaf_vector":"1"}},{"base_weights":[1.9895504E-3,5.576273E-1,-1.6393638E-1,1.2999572E-1,1.0734768E0,1.8901917E-1,-4.8639894E-1,7.25136E-2,-2.01508E-1,-8.3630614E-2,2.4485372E-1,-1.4346284E-2,1.2898082E-1,-1.2442452E-1,1.5174802E-1],"categories":[],"categories_nodes":[],"categories_segments":[],"categories_sizes":[],"default_left":[0,0,0,0,0,0,0,0,0,0,0,0,0,0,0],"id":11,"left_children":[1,3,5,7,9,11,13,-1,-1,-1,-1,-1,-1,-1,-1],"loss_changes":[1.8549025E1,1.0066081E1,1.7726208E1,7.3583717E0,5.197462E0,8.92503E0,1.4202244E1,0E0,0E0,0E0,0E0,0E0,0E0,0E0,0E0],"parents":[2147483647,0,0,1,1,2,2,3,3,4,4,5,5,6,6],"right_children":[2,4,6,8,10,12,14,-1,-1,-1,-1,-1,-1,-1,-1],"split_conditions":[-7.49551E-1,8.019343E-2,-4.4079524E-2,9.7040254E-1,-1.4366608E0,4.7565448E-1,1.2116572E0,7.25136E-2,-2.01508E-1,-8.3630614E-2,2.4485372E-1,-1.4346284E-2,1.2898082E-1,-1.2442452E-1,1.5174802E-1],"split_indices":[9,8,4,10,3,3,5,0,0,0,0,0,0,0,0],"split_type":[0,0,0,0,0,0,0,0,0,0,0,0,0,0,0],"sum_hessian":[1.9920245E2,4.52644E1,1.5393805E2,2.5432903E1,1.9831497E1,7.369169E1,8.024636E1,2.1681358E1,3.751545E0,1.6579566E0,1.8173542E1,4.7414734E1,2.6276955E1,7.28102E1,7.43616E0],"tree_param":{"num_deleted":"0","num_feature":"12","num_nodes":"15","size_leaf_vector":"1"}},{"base_weights":[3.2121658E-3,-2.5494415E-1,3.3565167E-1,-4.0169746E-1,7.2094977E-1,6.510972E-1,-1.098998E-1,-1.17589965E-1,5.4026213E-2,1.9381742E-1,-6.989753E-2,-1.7944102E-1,1.4996181E-1,6.183858E-2,-1.2540029E-1],"categories":[],"categories_nodes":[],"categories_segments":[],"categories_sizes":[],"default_left":[0,0,0,0,0,0,0,0,0,0,0,0,0,0,0],"id":12,"left_children":[1,3,5,7,9,11,13,-1,-1,-1,-1,-1,-1,-1,-1],"loss_changes":[1.6915117E1,1.6179468E1,1.2179578E1,1.2307562E1,4.286092E0,8.403683E0,8.118167E0,0E0,0E0,0E0,0E0,0E0,0E0,0E0,0E0],"parents":[2147483647,0,0,1,1,2,2,3,3,4,4,5,5,6,6],"right_children":[2,4,6,8,10,12,14,-1,-1,-1,-1,-1,-1,-1,-1],"split_conditions":[1.2035462E-1,1.0667977E0,2.6133636E-1,8.441174E-1,9.5692927E-1,-1.843318E0,-6.217988E-4,-1.17589965E-1,5.4026213E-2,1.9381742E-1,-6.989753E-2,-1.7944102E-1,1.4996181E-1,6.183858E-2,-1.2540029E-1],"split_indices":[2,8,6,5,6,5,10,0,0,0,0,0,0,0,0],"split_type":[0,0,0,0,0,0,0,0,0,0,0,0,0,0,0],"sum_hessian":[1.9509973E2,1.09950584E2,8.5149155E1,9.608922E1,1.3861359E1,4.9583355E1,3.5565796E1,7.533015E1,2.0759075E1,1.1329708E1,2.5316505E0,2.486909E0,4.7096447E1,1.9866646E1,1.5699151E1],"tree_param":{"num_deleted":"0","num_feature":"12","num_nodes":"15","size_leaf_vector":"1"}},{"base_weights":[2.6934217E-3,-2.8162855E-1,3.0083492E-1,-6.530851E-1,6.3661076E-2,7.0291156E-1,-6.316724E-2,8.859313E-2,-1.6094011E-1,5.9737038E-2,-1.4714563E-1,2.3617283E-1,7.0426725E-2,6.4175114E-2,-1.1351929E-1],"categories":[],"categories_nodes":[],"categories_segments":[],"categories_sizes":[],"default_left":[0,0,0,0,0,0,0,0,0,0,0,0,0,0,0],"id":13,"left_children":[1,3,5,7,9,11,13,-1,-1,-1,-1,-1,-1,-1,-1],"loss_changes":[1.6350918E1,1.2705729E1,1.38242235E1,8.275759E0,1.0004803E1,7.098299E0,9.932832E0,0E0,0E0,0E0,0E0,0E0,0E0,0E0,0E0],"parents":[2147483647,0,0,1,1,2,2,3,3,4,4,5,5,6,6],"right_children":[2,4,6,8,10,12,14,-1,-1,-1,-1,-1,-1,-1,-1],"split_conditions":[7.481984E-2,-1.2654229E-1,-1.2950316E-1,-1.2459477E0,7.357083E-1,-2.071422E-1,1.2422102E-1,8.859313E-2,-1.6094011E-1,5.9737038E-2,-1.4714563E-1,2.3617283E-1,7.0426725E-2,6.4175114E-2,-1.1351929E-1],"split_indices":[0,8,7,1,9,4,1,0,0,0,0,0,0,0,0],"split_type":[0,0,0,0,0,0,0,0,0,0,0,0,0,0,0],"sum_hessian":[1.9089034E2,9.773805E1,9.315228E1,4.6655483E1,5.108257E1,4.3818893E1,4.933339E1,5.436023E0,4.121946E1,3.996039E1,1.112218E1,1.7545647E1,2.6273245E1,2.8215584E1,2.1117807E1],"tree_param":{"num_deleted":"0","num_feature":"12","num_nodes":"15","size_leaf_vector":"1"}},{"base_weights":[2.5240008E-3,-4.0399867E-1,1.8271296E-1,-6.919836E-2,-8.252162E-1,-2.8931496E-1,3.697492E-1,5.368309E-2,-1.24315135E-1,-1.9358651E-1,1.0621659E-1,1.1596131E-1,-9.868477E-2,1.0910813E-1,-3.8941946E-2],"categories":[],"categories_nodes":[],"categories_segments":[],"categories_sizes":[],"default_left":[0,0,0,0,0,0,0,0,0,0,0,0,0,0,0],"id":14,"left_children":[1,3,5,7,9,11,13,-1,-1,-1,-1,-1,-1,-1,-1],"loss_changes":[1.3882764E1,8.151573E0,1.1699675E1,6.418394E0,5.485914E0,6.996073E0,9.481489E0,0E0,0E0,0E0,0E0,0E0,0E0,0E0,0E0],"parents":[2147483647,0,0,1,1,2,2,3,3,4,4,5,5,6,6],"right_children":[2,4,6,8,10,12,14,-1,-1,-1,-1,-1,-1,-1,-1],"split_conditions":[-5.4024535E-1,2.345724E-1,-6.324918E-1,5.316231E-1,1.5065539E0,-9.69872E-1,8.734155E-1,5.368309E-2,-1.24315135E-1,-1.9358651E-1,1.0621659E-1,1.1596131E-1,-9.868477E-2,1.0910813E-1,-3.8941946E-2],"split_indices":[3,9,8,6,2,10,6,0,0,0,0,0,0,0,0],"split_type":[0,0,0,0,0,0,0,0,0,0,0,0,0,0,0],"sum_hessian":[1.8751576E2,5.7207764E1,1.30308E2,3.2522152E1,2.468561E1,3.6825E1,9.3483E1,2.0504093E1,1.201806E1,2.2594456E1,2.0911548E0,6.653383E0,3.017162E1,7.1308624E1,2.217438E1],"tree_param":{"num_deleted":"0","num_feature":"12","num_nodes":"15","size_leaf_vector":"1"}},{"base_weights":[1.2451218E-3,1.6421342E-1,-4.4550928E-1,-2.0366763E-1,4.2548814E-1,7.53049E-2,-8.482879E-1,-8.92565E-2,6.5107234E-2,1.3088909E-1,-1.8402763E-2,-1.2929338E-1,9.2526615E-2,-1.9469628E-1,2.8604398E-2],"categories":[],"categories_nodes":[],"categories_segments":[],"categories_sizes":[],"default_left":[0,0,0,0,0,0,0,0,0,0,0,0,0,0,0],"id":15,"left_children":[1,3,5,7,9,11,13,-1,-1,-1,-1,-1,-1,-1,-1],"loss_changes":[1.346084E1,1.3107037E1,1.0430251E1,7.4547906E0,9.483577E0,6.5806417E0,3.6077118E0,0E0,0E0,0E0,0E0,0E0,0E0,0E0,0E0],"parents":[2147483647,0,0,1,1,2,2,3,3,4,4,5,5,6,6],"right_children":[2,4,6,8,10,12,14,-1,-1,-1,-1,-1,-1,-1,-1],"split_conditions":[5.78054E-1,-2.641544E-1,-1.1665027E-1,4.6615E-1,4.2043063E-1,-4.6731812E-1,1.0062511E0,-8.92565E-2,6.5107234E-2,1.3088909E-1,-1.8402763E-2,-1.2929338E-1,9.2526615E-2,-1.9469628E-1,2.8604398E-2],"split_indices":[7,5,1,8,10,2,8,0,0,0,0,0,0,0,0],"split_type":[0,0,0,0,0,0,0,0,0,0,0,0,0,0,0],"sum_hessian":[1.8287953E2,1.344624E2,4.8417133E1,5.5930874E1,7.8531525E1,2.1469265E1,2.6947868E1,3.8456898E1,1.7473976E1,5.426053E1,2.4270994E1,7.264009E0,1.42052555E1,2.3942173E1,3.0056953E0],"tree_param":{"num_deleted":"0","num_feature":"12","num_nodes":"15","size_leaf_vector":"1"}},{"base_weights":[1.7133533E-4,5.2660185E-1,-1.386566E-1,8.159019E-1,-1.8436459E-1,1.3548087E-1,-4.2365083E-1,1.903813E-1,-4.456688E-2,-1.5835974E-1,1.2649763E-1,4.940197E-2,-1.9522503E-1,-1.12528585E-1,1.2731664E-1],"categories":[],"categories_nodes":[],"categories_segments":[],"categories_sizes":[],"default_left":[0,0,0,0,0,0,0,0,0,0,0,0,0,0,0],"id":16,"left_children":[1,3,5,7,9,11,13,-1,-1,-1,-1,-1,-1,-1,-1],"loss_changes":[1.3227489E1,7.9190207E0,1.1247072E1,4.0307617E0,6.3258004E0,9.385572E0,1.07419405E1,0E0,0E0,0E0,0E0,0E0,0E0,0E0,0E0],"parents":[2147483647,0,0,1,1,2,2,3,3,4,4,5,5,6,6],"right_children":[2,4,6,8,10,12,14,-1,-1,-1,-1,-1,-1,-1,-1],"split_conditions":[-8.211991E-1,6.5782017E-1,1.7604446E-2,1.2599185E0,-1.3923138E-1,1.3060057E0,1.248372E0,1.903813E-1,-4.456688E-2,-1.5835974E-1,1.2649763E-1,4.940197E-2,-1.9522503E-1,-1.12528585E-1,1.2731664E-1],"split_indices":[6,4,1,9,8,9,5,0,0,0,0,0,0,0,0],"split_type":[0,0,0,0,0,0,0,0,0,0,0,0,0,0,0],"sum_hessian":[1.7899294E2,3.6769836E1,1.422231E2,2.603025E1,1.0739587E1,7.275974E1,6.946336E1,2.3090534E1,2.939717E0,6.1769266E0,4.56266E0,6.683217E1,5.9275746E0,6.182738E1,7.6359806E0],"tree_param":{"num_deleted":"0","num_feature":"12","num_nodes":"15","size_leaf_vector":"1"}},{"base_weights":[3.4958764E-4,-3.7076935E-1,1.832567E-1,6.984986E-1,-4.8823708E-1,-4.6080943E-2,5.520307E-1,1.8608034E-1,-3.5011288E-2,-3.693114E-2,-1.7008756E-1,-1.1356653E-1,4.5688454E-2,1.427976E-1,-5.5868298E-2],"categories":[],"categories_nodes":[],"categories_segments":[],"categories_sizes":[],"default_left":[0,0,0,0,0,0,0,0,0,0,0,0,0,0,0],"id":17,"left_children":[1,3,5,7,9,11,13,-1,-1,-1,-1,-1,-1,-1,-1],"loss_changes":[1.20170555E1,7.682151E0,1.0054683E1,1.4181921E0,5.6981554E0,1.0734491E1,6.332221E0,0E0,0E0,0E0,0E0,0E0,0E0,0E0,0E0],"parents":[2147483647,0,0,1,1,2,2,3,3,4,4,5,5,6,6],"right_children":[2,4,6,8,10,12,14,-1,-1,-1,-1,-1,-1,-1,-1],"split_conditions":[-4.4650674E-1,-1.2905045E0,3.9522582E-1,1.1587588E0,1.7477845E-1,-3.9722592E-1,9.4096315E-1,1.8608034E-1,-3.5011288E-2,-3.693114E-2,-1.7008756E-1,-1.1356653E-1,4.5688454E-2,1.427976E-1,-5.5868298E-2],"split_indices":[0,9,3,6,10,5,7,0,0,0,0,0,0,0,0],"split_type":[0,0,0,0,0,0,0,0,0,0,0,0,0,0,0],"sum_hessian":[1.7503207E2,5.7446304E1,1.1758577E2,5.196656E0,5.224965E1,7.303865E1,4.454712E1,4.0550776E0,1.1415787E0,2.924638E1,2.300327E1,2.4812405E1,4.8226246E1,3.740211E1,7.1450086E0],"tree_param":{"num_deleted":"0","num_feature":"12","num_nodes":"15","size_leaf_vector":"1"}},{"base_weights":[9.79815E-5,2.9540464E-1,-2.1479528E-1,6.4978427E-1,3.960637E-2,1.7674099E-1,-4.5573187E-1,5.996893E-3,1.8346131E-1,1.4977999E-1,-4.5472804E-2,-1.8859299E-1,7.184929E-2,-1.1531639E-1,9.179711E-2],"categories":[],"categories_nodes":[],"categories_segments":[],"categories_sizes":[],"default_left":[0,0,0,0,0,0,0,0,0,0,0,0,0,0,0],"id":18,"left_children":[1,3,5,7,9,11,13,-1,-1,-1,-1,-1,-1,-1,-1],"loss_changes":[1.1021168E1,6.6052704E0,9.563427E0,5.0464363E0,8.41671E0,8.311396E0,7.1746016E0,0E0,0E0,0E0,0E0,0E0,0E0,0E0,0E0],"parents":[2147483647,0,0,1,1,2,2,3,3,4,4,5,5,6,6],"right_children":[2,4,6,8,10,12,14,-1,-1,-1,-1,-1,-1,-1,-1],"split_conditions":[-2.071422E-1,-2.3714717E-1,-3.9141133E-1,-5.4682076E-1,-4.766411E-1,-1.3277351E0,1.1015084E0,5.996893E-3,1.8346131E-1,1.4977999E-1,-4.5472804E-2,-1.8859299E-1,7.184929E-2,-1.1531639E-1,9.179711E-2],"split_indices":[4,7,9,8,6,3,8,0,0,0,0,0,0,0,0],"split_type":[0,0,0,0,0,0,0,0,0,0,0,0,0,0,0],"sum_hessian":[1.716728E2,7.214979E1,9.952302E1,2.9600885E1,4.2548904E1,3.8014168E1,6.1508846E1,9.259776E0,2.034111E1,1.1141831E1,3.1407072E1,4.7437253E0,3.3270443E1,5.4657322E1,6.851524E0],"tree_param":{"num_deleted":"0","num_feature":"12","num_nodes":"15","size_leaf_vector":"1"}},{"base_weights":[1.3520096E-3,-1.3779788E-1,4.6656883E-1,6.6720825E-1,-2.3245393E-1,-1.8987001E-1,5.684006E-1,-2.7701885E-2,1.9743349E-1,-8.857168E-2,4.6397794E-2,1.374622E-1,-8.4762745E-2],"categories":[],"categories_nodes":[],"categories_segments":[],"categories_sizes":[],"default_left":[0,0,0,0,0,0,0,0,0,0,0,0,0],"id":19,"left_children":[1,3,5,7,9,-1,11,-1,-1,-1,-1,-1,-1],"loss_changes":[1.1003514E1,1.0125676E1,6.1823483E0,3.7524495E0,1.1616631E1,0E0,4.6726522E0,0E0,0E0,0E0,0E0,0E0,0E0],"parents":[2147483647,0,0,1,1,2,2,3,3,4,4,6,6],"right_children":[2,4,6,8,10,-1,12,-1,-1,-1,-1,-1,-1],"split_conditions":[7.072572E-1,-1.2487218E0,-1.7688179E0,-7.3599017E-1,4.385296E-1,-1.8987001E-1,1.4455588E0,-2.7701885E-2,1.9743349E-1,-8.857168E-2,4.6397794E-2,1.374622E-1,-8.4762745E-2],"split_indices":[2,10,5,2,0,0,6,0,0,0,0,0,0],"split_type":[0,0,0,0,0,0,0,0,0,0,0,0,0],"sum_hessian":[1.67985E2,1.2984976E2,3.813525E1,1.3025458E1,1.16824295E2,2.0002375E0,3.6135014E1,3.8635108E0,9.161947E0,8.04327E1,3.6391594E1,3.2542324E1,3.592689E0],"tree_param":{"num_deleted":"0","num_feature":"12","num_nodes":"13","size_leaf_vector":"1"}}]},"name":"gbtree"},"learner_model_param":{"base_score":"5.01E-1","boost_from_average":"1","num_class":"0","num_feature":"12","num_target":"1"},"objective":{"name":"binary:logistic","reg_loss_param":{"scale_pos_weight":"1"}}},"version":[2,1,4]}